{
    "72": {
        "hyperparams": {
            "stocks": [
                "JNJ",
                "MSFT",
                "UNH"
            ],
            "start": "2015-01-01",
            "end": "2025-01-01",
            "risk_aversion": 0.1,
            "n_qubits": 11,
            "budget": 2786,
            "log_encoding": true,
            "layers": 10,
            "prices_now": {
                "JNJ": 143.4715576171875,
                "MSFT": 420.6565246582031,
                "UNH": 503.7073059082031
            },
            "assets_to_qubits": {
                "JNJ": [
                    0,
                    1,
                    2,
                    3,
                    4
                ],
                "MSFT": [
                    5,
                    6,
                    7
                ],
                "UNH": [
                    8,
                    9,
                    10
                ]
            },
            "optimizer": "CMAES",
            "lambda_budget": 1
        },
        "continuous_variables_solution": {
            "weights": {
                "JNJ": 1.762715783912277e-16,
                "MSFT": 0.9999999999999998,
                "UNH": 8.326672684688674e-17
            },
            "allocation": {
                "JNJ": 1,
                "MSFT": 6,
                "UNH": 0
            },
            "value": -51.735644555038895,
            "left_overs": 118.5892833597295
        },
        "continuous_variables_solution_unconstrained": {
            "weights": {
                "JNJ": 0.0,
                "MSFT": 1.0,
                "UNH": 0.05911117682689369
            },
            "allocation": {
                "JNJ": 1,
                "MSFT": 6,
                "UNH": 0
            },
            "value": -51.735644555038895,
            "left_overs": 118.58929030527088
        },
        "exact_solution": {
            "smallest_eigenvalues": [
                -0.13295892492650477
            ],
            "smallest_bitstrings": [
                "11000010110"
            ],
            "first_excited_energy": -0.13295818295472678,
            "optimized_portfolio": [
                {
                    "JNJ": 3,
                    "MSFT": 2,
                    "UNH": 3
                }
            ],
            "second_optimized_portfolio": [
                {
                    "JNJ": 6,
                    "MSFT": 1,
                    "UNH": 3
                }
            ],
            "spectrum": [
                -2.2492367363506143e-16,
                -0.12277189747602028,
                -0.07877087237425638,
                -0.13200302609575382,
                -0.04373166527630139,
                -0.13173370317744457,
                -0.10511761815637134,
                -0.12357985505692524,
                -0.11210458584597564,
                -0.11872829977728258,
                -0.1328013973184062,
                -0.06988521238877042,
                -0.12679922641247826,
                -0.09865301112177234,
                -0.13011109147322863,
                -0.03242488845121727,
                -0.06817700704850171,
                -0.13287483827722266,
                -0.11791085854030003,
                -0.11306888123758337,
                -0.0973901639556127,
                -0.12731810717403635,
                -0.12973908568855147,
                -0.09012714731732274,
                -0.1317827053715966,
                -0.08033222856344484,
                -0.12344244649178458,
                -0.002451954940595421,
                -0.13195881602809018,
                -0.04573835600991531,
                -0.10623358769562993,
                0.04952699174809311,
                -0.03711968095150717,
                -0.13085455028564658,
                -0.10137204457690051,
                -0.12556714096213345,
                -0.0735920926897667,
                -0.13255708982835568,
                -0.12045953248715557,
                -0.10988469152469744,
                -0.12497483079124873,
                -0.10256145993257755,
                -0.1311531115789154,
                -0.03919978711232762,
                -0.13241020844879603,
                -0.07522688297114348,
                -0.1212035321028165,
                0.005519843759189018,
                -0.09317197641661093,
                -0.12883275677738465,
                -0.12838731099058687,
                -0.09450824084924428,
                -0.11512587649971888,
                -0.1160167498413746,
                -0.1329562737869434,
                -0.06430721566219393,
                -0.1325282023706973,
                -0.05204059565457156,
                -0.10966939344119683,
                0.040358295541234615,
                -0.1254450412342919,
                -0.010187419523027198,
                -0.08520124893610373,
                0.0995965676300514,
                -0.1288340792051948,
                -0.09314758086150862,
                -0.12837593185186486,
                -0.023148880723048815,
                -0.13295127314442373,
                -0.062494534785941525,
                -0.11510804015233282,
                0.02488940453888466,
                -0.10860674338779285,
                0.04322891408542527,
                -0.050074103399069425,
                0.17130248620106348,
                -0.08368671076514941,
                0.10291936848768313,
                -0.007768902161329672,
                0.2483782943903189,
                -0.13084524924319546,
                -0.03708424507756962,
                -0.10134988924950829,
                0.061951844595845296,
                -0.12044384594163955,
                0.008087482733044153,
                -0.07356336201509732,
                0.1245088656990673,
                -0.06211847390468933,
                0.1477920067537027,
                0.0254515246297139,
                0.3049031654147978,
                -0.02267977428267356,
                0.2220012382021842,
                0.08227544393721467,
                0.3964978175328133,
                -0.1328708690621564,
                -0.06814713484371135,
                -0.11789412310823513,
                0.0163702491485652,
                -0.12972876804115707,
                -0.03023475315782181,
                -0.09736691809994573,
                0.07166789627542373,
                -0.08839383541777682,
                0.09247921101383501,
                -0.015342526674791725,
                0.2350715626895497,
                -0.05621447435510671,
                0.1594290472825085,
                0.03422202773965058,
                0.3194067853879705,
                -0.12275721078475556,
                4.110019946446402e-05,
                -0.07874321991263282,
                0.11359591878083489,
                -0.10509649718256747,
                0.05247218534895168,
                -0.04369736083498747,
                0.18341232667160645,
                -0.029780644543024763,
                0.2091673184095254,
                0.07230806621944852,
                0.38079731288079965,
                0.016917404457403456,
                0.2906359590509554,
                0.13639136283611114,
                0.4796514100285876,
                -0.08698570108398343,
                -0.13052902553428253,
                -0.1261423412182937,
                -0.10014565667164298,
                -0.11091026079911719,
                -0.11968360509101823,
                -0.1326819331851727,
                -0.0719151630832881,
                -0.13292485292841033,
                -0.060319650513382964,
                -0.1140072885300089,
                0.028138190106070913,
                -0.12781232312565788,
                -0.020437014846254802,
                -0.09150973603208709,
                0.0854059854895002,
                -0.12208002777118983,
                -0.10754913842276745,
                -0.1321995872620414,
                -0.04812856808091272,
                -0.13148605274030994,
                -0.08218512676864873,
                -0.12422062020352392,
                -0.005379443190172052,
                -0.11952011717808426,
                0.011159519963361762,
                -0.07156537444867028,
                0.1286547108547638,
                -0.09988900697961545,
                0.06556081804363684,
                -0.03454920449935392,
                0.20044122151916643,
                -0.10756404924241664,
                -0.12207027780234507,
                -0.13220215376097388,
                -0.07716831610014815,
                -0.12422934373790258,
                -0.10396556550404903,
                -0.13148246916703182,
                -0.041678511409514216,
                -0.12925368471246773,
                -0.027611281541203275,
                -0.09581753865352777,
                0.07536522351518324,
                -0.11688186826471127,
                0.019530680182607316,
                -0.06606068178128138,
                0.13989237059068968,
                -0.130533631251338,
                -0.08696559917759428,
                -0.1261346349030351,
                -0.013026402996485761,
                -0.13268038168762852,
                -0.054342279967114104,
                -0.11089637877644044,
                0.03698205189193744,
                -0.10372413956434598,
                0.055992767560217024,
                -0.04125078375502747,
                0.1880066670842127,
                -0.07683372780970851,
                0.11765341299648664,
                0.0030247086738520463,
                0.26705255393407806,
                -0.125535147273917,
                -0.010616520452865687,
                -0.08546112922769575,
                0.09899887271241883,
                -0.1098444512437247,
                0.039844814721396865,
                -0.05238516003179752,
                0.16684568275076178,
                -0.03913938621029546,
                0.1919293209480843,
                0.059009557045797495,
                0.35962013078270794,
                0.005588745661652887,
                0.27142832978776277,
                0.12112307308920735,
                0.4565047571165184,
                -0.09446224241274695,
                0.07853132672525845,
                -0.025350807493371288,
                0.217184369717136,
                -0.06425285052904892,
                0.14351147027670902,
                0.022243909864836795,
                0.2995500562536191,
                0.04043353742447041,
                0.32957760069857567,
                0.16762009167680852,
                0.5263063055880617,
                0.09968045901739611,
                0.42359553733550315,
                0.24425246252629484,
                0.6377099406163689,
                -0.11302993233998186,
                0.030926142576114254,
                -0.05843721659038113,
                0.15506034672742386,
                -0.09007989355000601,
                0.08864687517496464,
                -0.0181018792788156,
                0.23016658745231255,
                -0.0023841909123209796,
                0.2577221656425074,
                0.11028354430970573,
                0.4399319062782998,
                0.049603329253651324,
                0.3444806302173081,
                0.17965648039117055,
                0.5440760279973381,
                -0.06983206498406308,
                0.13219904730170634,
                0.013798111970977956,
                0.28537095838819004,
                -0.03236330897295696,
                0.20443861603351687,
                0.06865222200655152,
                0.37499610656106486,
                0.08931381665017622,
                0.4074956467653784,
                0.23101921839669848,
                0.6187433507605782,
                0.15582015350273282,
                0.5087730724911835,
                0.31491103944392074,
                0.737406517721942,
                -0.049134648464408445,
                -0.13229234965390657,
                -0.10809844112730611,
                -0.12171630075928692,
                -0.08296277698829452,
                -0.13135057572026443,
                -0.12454163473452654,
                -0.10338951058752813,
                -0.12815659377188787,
                -0.09516597587431481,
                -0.1290462717764914,
                -0.026515601156139938,
                -0.13294767421141845,
                -0.065187056179761,
                -0.11645237636715235,
                0.020848407333031182,
                -0.10077034724562273,
                -0.1258539264710853,
                -0.1306970981750495,
                -0.08624074303665874,
                -0.12007995872665068,
                -0.11039359304445413,
                -0.1326217574673834,
                -0.05339536028773449,
                -0.13129334284401067,
                -0.04022843027247347,
                -0.10314590553647393,
                0.057459203669356876,
                -0.12156587264542225,
                0.004269108062919865,
                -0.07603342944069251,
                0.11934187665983872,
                -0.07798367739661413,
                -0.1321043255994734,
                -0.12242895239194759,
                -0.10700971582819553,
                -0.10455254879902723,
                -0.12390327491633006,
                -0.13161288104019872,
                -0.08142363316336537,
                -0.13275615914934613,
                -0.07072840750815268,
                -0.119127285496042,
                0.012440587629613763,
                -0.1302879670692691,
                -0.03349018288966761,
                -0.09927410334145165,
                0.06706392317443347,
                -0.11749465436476587,
                -0.11354114582308099,
                -0.13290287343044754,
                -0.05940937453952079,
                -0.12954500242474876,
                -0.09082152295922938,
                -0.1275682582701668,
                -0.019304683415732164,
                -0.12376813586726339,
                -0.0036660323796682123,
                -0.08110212150967397,
                0.10854026015019379,
                -0.10678138125151314,
                0.048090829165358104,
                -0.04673034357701348,
                0.1776822816760995,
                -0.13282890793440205,
                -0.05752669955715038,
                -0.11256299363263025,
                0.0322801438784988,
                -0.12704223891178357,
                -0.016969608364208386,
                -0.08939115391233309,
                0.09022258339210946,
                -0.07951765693719602,
                0.11193413505553683,
                -0.0011770517717661303,
                0.25981610475547035,
                -0.044693665742250546,
                0.18152875821504466,
                0.051032207111903524,
                0.3467962048509884,
                -0.11829818292669146,
                0.015078731461032488,
                -0.06899496289765097,
                0.1339230855479684,
                -0.09799287187167124,
                0.07015456319534834,
                -0.03130443584350309,
                0.20638432671654994,
                -0.01648722805325035,
                0.2330396355309574,
                0.09089085285365467,
                0.40995933700156395,
                0.03285548698712629,
                0.3171531065974583,
                0.15761889366049942,
                0.5114583588939668,
                -0.1285947650184075,
                -0.0242552236857415,
                -0.09381020707939418,
                0.080070362655085,
                -0.11554877939315482,
                0.023561231767283964,
                -0.06337902890425633,
                0.14527219618705928,
                -0.05103368756125057,
                0.16945561457941627,
                0.04182564344953342,
                0.3318564349452279,
                -0.008950340256651545,
                0.24630965428232093,
                0.10129428668321006,
                0.42609598773057167,
                -0.10193915092340075,
                0.06047517941801514,
                -0.03811724895205339,
                0.19383832749148816,
                -0.0743745049117321,
                0.12281040015457594,
                0.006832638105022636,
                0.2735589906146683,
                0.02412173766460626,
                0.3026862167869543,
                0.14601859391789518,
                0.49412483120076356,
                0.08072383276663282,
                0.39405913473699716,
                0.22000604622081688,
                0.6028833393172097,
                -0.11355252566093628,
                -0.11748116092997064,
                -0.13290187445473578,
                -0.06729026365094903,
                -0.12757345151363353,
                -0.09673199410518046,
                -0.12953778231847973,
                -0.029155949364985192,
                -0.1264086206272409,
                -0.014188449016794759,
                -0.08768363889596195,
                0.09407710207024891,
                -0.11139239746954603,
                0.03559802055378555,
                -0.05528232878768896,
                0.16124881968792348,
                -0.1321053611821571,
                -0.07795965469983519,
                -0.12241757236353548,
                0.0012685290567840085,
                -0.13160772555619882,
                -0.04269185591683808,
                -0.10453488746188579,
                0.053921522399841576,
                -0.09646223044025815,
                0.07383255206700988,
                -0.028699989300120524,
                0.21113556253326782,
                -0.06692738809976265,
                0.138137736852532,
                0.01821998405398664,
                0.2928260552410658,
                -0.12586013666849788,
                -0.10075161508445449,
                -0.1306909228688687,
                -0.03604208397348961,
                -0.13262178468862873,
                -0.07274313678435905,
                -0.12006753805519524,
                0.009351564538704674,
                -0.1144666371696829,
                0.026790820268591312,
                -0.0612230347457476,
                0.14957508883939524,
                -0.09219110872684452,
                0.08383664154334879,
                -0.02156239811933287,
                0.2240061873003198,
                -0.13228819201065412,
                -0.04910526978586145,
                -0.10808181434798105,
                0.04464158682961876,
                -0.12453126622533624,
                -0.0065781408126187576,
                -0.08293982124804711,
                0.10455393630792066,
                -0.07239538790575685,
                0.1269367617106611,
                0.009885511373624544,
                0.27875853988356186,
                -0.03560122235534266,
                0.19850132251328295,
                0.06406483236472225,
                0.3677084409416068,
                -0.10695052185681428,
                0.04758536380766057,
                -0.04706799727544102,
                0.177009779129721,
                -0.08135560177597442,
                0.10795117482453641,
                -0.004087684151758556,
                0.2547612089631991,
                0.01253045465034804,
                0.28321698960989705,
                0.13048817490575504,
                0.47071714812429977,
                0.06716294230134735,
                0.3726206340500128,
                0.20250618062006326,
                0.5775065680257793,
                -0.05933509708917936,
                0.15327600331667962,
                0.029584973570208218,
                0.3117382256996136,
                -0.019221418304242604,
                0.228160699576045,
                0.087084104714147,
                0.4040086159038887,
                0.108646263631169,
                0.437408475348642,
                0.2556417481965658,
                0.6539467102610717,
                0.1777976159081795,
                0.5413311365057512,
                0.34217869062933937,
                0.7752552347841475,
                -0.0861740680373253,
                0.09739939892079913,
                -0.011772782656947756,
                0.2413427023392195,
                -0.053319774524808836,
                0.16502464504151093,
                0.03846693275797258,
                0.32635360404216873,
                0.057557068009079615,
                0.3572814096725655,
                0.1900336553804874,
                0.559300588152915,
                0.11944898065321713,
                0.4539445535542739,
                0.2693111213356426,
                0.6733495506497692,
                -0.02643359473193208,
                0.21521519407473827,
                0.07700528708596696,
                0.38819636768983445,
                0.02093948186591649,
                0.29735935620732246,
                0.14176384809645276,
                0.4877262637270372,
                0.1657980611390097,
                0.5235982090595097,
                0.32731247437587885,
                0.7546555382696538,
                0.24220886838837546,
                0.6347804060255764,
                0.42110891022278996,
                0.8832236449495432,
                -0.02597775024702038,
                -0.12894256388702727,
                -0.09484508774308227,
                -0.1282701174316241,
                -0.06475764909182173,
                -0.1329525860679037,
                -0.11624006155859667,
                -0.11489514529945442,
                -0.12154102803366017,
                -0.10835759938726218,
                -0.13233428226440572,
                -0.049610886530702114,
                -0.13128389273875624,
                -0.08333050376658713,
                -0.12469218801536626,
                -0.007198731047835918,
                -0.0858841076873898,
                -0.1307748317364725,
                -0.12571441613285939,
                -0.10106527743885176,
                -0.11014549495485305,
                -0.12026630689723537,
                -0.1325908646026848,
                -0.07317172870606926,
                -0.13294847317582226,
                -0.061690806337456494,
                -0.11470463683174849,
                0.026093126990728018,
                -0.12817279873554077,
                -0.02214511057603809,
                -0.09254397689268473,
                0.08302392497113148,
                -0.05896210705677121,
                -0.1328898823898904,
                -0.11331093247330559,
                -0.11769888765322055,
                -0.09048275113615842,
                -0.1296406336810012,
                -0.12744664543774892,
                -0.09706463063955442,
                -0.13027593822180977,
                -0.08805540256598435,
                -0.12655065240990582,
                -0.014790087912445606,
                -0.13275953577696714,
                -0.05576901089472486,
                -0.11164927853712275,
                0.03488138400088378,
                -0.1067437493783551,
                -0.12259740636726267,
                -0.13205553456172708,
                -0.07836927982951009,
                -0.1237458770876375,
                -0.10482959945734603,
                -0.13167271419364077,
                -0.043216431840243624,
                -0.12955862479322766,
                -0.02926379980021768,
                -0.09679622602796922,
                0.07303877047977511,
                -0.11752367281225849,
                0.0175412087906817,
                -0.06737627288033973,
                0.13722890486361167,
                -0.13224244107965077,
                -0.07674816802112427,
                -0.1218804482269325,
                0.003154557086542932,
                -0.13140772198133738,
                -0.04114312218252876,
                -0.10366060313653817,
                0.05614489450251722,
                -0.095473215127516,
                0.07617042027403002,
                -0.027036635040015668,
                0.2141481399876845,
                -0.06560122391947501,
                0.14081293400188238,
                0.02022057214379701,
                0.29617606690090165,
                -0.12598269574293575,
                -0.012413821282946925,
                -0.0865834459637763,
                0.09652635166046933,
                -0.11062935813671528,
                0.03770993456517302,
                -0.053844940567702976,
                0.16403545669588748,
                -0.040713904409910115,
                0.18900467386521624,
                0.05676009056379608,
                0.3560200504795641,
                0.003676781091846766,
                0.268165998940991,
                0.11853604661539084,
                0.4525668591269184,
                -0.1321437802293433,
                -0.04761222501310182,
                -0.10726316738639423,
                0.04680921234537652,
                -0.12404975591394189,
                -0.004747829803646222,
                -0.08178399697854398,
                0.10705892713865209,
                -0.0711247952926334,
                0.12955628740470454,
                0.011830480965989047,
                0.2820528211026514,
                -0.03399346237409527,
                0.20145819977312124,
                0.06634705634881351,
                0.3713401810510206,
                -0.11375917777072388,
                0.02884705581803611,
                -0.05984127270987909,
                0.15230598908001253,
                -0.09114651810020619,
                0.08623018427237211,
                -0.01984342195506766,
                0.22707449792216206,
                -0.004240527287692491,
                0.25451559764621123,
                0.10775221034455466,
                0.4360498475085649,
                0.047409522369752655,
                0.3409363501958873,
                0.1767875602344257,
                0.5398561212184833,
                -0.10167969743672298,
                -0.12541572460098505,
                -0.1309327133769369,
                -0.08512862171086785,
                -0.12065245041468307,
                -0.10961844551327943,
                -0.13252047566243177,
                -0.05194623449616939,
                -0.13107736067462938,
                -0.03866472999597517,
                -0.102256113600692,
                0.05969693116181625,
                -0.12101299664582225,
                0.0061698058191850666,
                -0.07480669692514988,
                0.12191666868253581,
                -0.12850329687776252,
                -0.09416505078172888,
                -0.128719205947409,
                -0.024840706170577386,
                -0.1329575028720742,
                -0.06384916123817899,
                -0.11578839346619364,
                0.02286033509517493,
                -0.10940182236057962,
                0.04108532661495119,
                -0.05154335867407844,
                0.16848439034095258,
                -0.0848188596711997,
                0.10043855011547033,
                -0.009575302778607613,
                0.24522287191853404,
                -0.1181226857932721,
                -0.11282158884318141,
                -0.13285715375758084,
                -0.05801587374600001,
                -0.12983616780946805,
                -0.08976500865465065,
                -0.12718563198829963,
                -0.01757416443138989,
                -0.12327079677032081,
                -0.001820925057005237,
                -0.07993094964847139,
                0.11105942593244676,
                -0.10594713734078266,
                0.050272949074241666,
                -0.04522221809103862,
                0.18053852915648722,
                -0.1328215243850815,
                -0.06944610131252354,
                -0.11851886224180971,
                0.014396891518999321,
                -0.13001644859764155,
                -0.03187089346001336,
                -0.09832875169175788,
                0.06935727528687233,
                -0.08947042579834577,
                0.09005403946594713,
                -0.017093327630955873,
                0.23197184023288075,
                -0.05762815129026519,
                0.1566666240886696,
                0.0321340627584487,
                0.3159697135139743,
                -0.11765435091694933,
                0.017072792026523998,
                -0.06767613407665822,
                0.13659263309213576,
                -0.0970115695541516,
                0.07248633407709748,
                -0.029648021785725006,
                0.20939171980691146,
                -0.014716077209355138,
                0.23616142152083164,
                0.09333719555814482,
                0.4137568380025408,
                0.034964203602028524,
                0.32061271485836107,
                0.1604029253107755,
                0.5155938256416797,
                -0.07831023206200108,
                0.11449198489589775,
                0.0007054639965026071,
                0.26304955214786974,
                -0.0431487245490878,
                0.18442437262762423,
                0.05325235825003306,
                0.35036755616842985,
                0.07312823682120535,
                0.3820812474734744,
                0.21021919498445146,
                0.5887146474242554,
                0.13732734367739707,
                0.48105151193943896,
                0.29180381937066613,
                0.7050706905927536,
                -0.10101353912510319,
                0.06275111625534556,
                -0.036516594162306126,
                0.19678980573346366,
                -0.0731114002309186,
                0.1254240740057883,
                0.008770902767736729,
                0.2768483431619053,
                0.026174801375242553,
                0.30609002589825085,
                0.14874690255502399,
                0.4982044166348316,
                0.08311448826586416,
                0.3978007962597926,
                0.22307207188276246,
                0.6073009226999292,
                -0.04954441633334607,
                0.17229541414146843,
                0.04399005519356003,
                0.3353718899281397,
                -0.007123528414615985,
                0.2494872468356415,
                0.10379636015470367,
                0.42994937711901515,
                0.12614424786477865,
                0.4641351077817376,
                0.2777540929821666,
                0.6852875533055468,
                0.19760278927262093,
                0.570364884132278,
                0.3665981886099756,
                0.8089031529546381,
                -0.06947065413921755,
                -0.1328211977650377,
                -0.11853088376464349,
                -0.11234151081778491,
                -0.09834700432810373,
                -0.12692761099823824,
                -0.13002228479720834,
                -0.08906288153552043,
                -0.13195122873639753,
                -0.07915335841550603,
                -0.12293730328106435,
                -0.000599277192812008,
                -0.1317905123815346,
                -0.04422259341369049,
                -0.10539158983032063,
                0.05171660988832394,
                -0.11283567830459666,
                -0.11811205856378178,
                -0.13285884899892925,
                -0.06859520586438994,
                -0.12719350372773341,
                -0.09769989757374656,
                -0.1298317044900386,
                -0.030797965771035652,
                -0.1268172531462431,
                -0.015945022639903956,
                -0.0887661831267055,
                0.09164636107321972,
                -0.11213797240314845,
                0.033504381760218915,
                -0.05670187173572931,
                0.1584809369168121,
                -0.09418434800526007,
                -0.1284978194499473,
                -0.12872605211771337,
                -0.0934995567732725,
                -0.11580143758792892,
                -0.11534494894522433,
                -0.13295818295472678,
                -0.06296162625767575,
                -0.132415435796768,
                -0.05058040048331938,
                -0.10888294481089726,
                0.042492322038950814,
                -0.12499544042394221,
                -0.008390320555540048,
                -0.08407793636470857,
                0.10206754792960665,
                -0.12542464050440982,
                -0.10166390777473269,
                -0.13092926847597897,
                -0.03762844935983299,
                -0.1325231975149525,
                -0.07399244885224943,
                -0.12064284277108547,
                0.007428109355451751,
                -0.11515667091005767,
                0.024752787788497353,
                -0.06258700695422703,
                0.146862853983248,
                -0.09321809774464071,
                0.08146152690709083,
                -0.023263383969372765,
                0.22095679162294074,
                -0.13059323386035965,
                -0.035482913061824314,
                -0.10042331391053255,
                0.0642281503099184,
                -0.11985457390200428,
                0.010026273201450518,
                -0.07229943419662348,
                0.12712274598942921,
                -0.06073980909642954,
                0.15052033464902392,
                0.02750491437541897,
                0.3083066649728343,
                -0.020963772388404325,
                0.22506712147091795,
                0.08466627483739839,
                0.4002389968336605,
                -0.10779145797971644,
                0.04539368246778844,
                -0.04858417898704964,
                0.17414232382109945,
                -0.08253413020709319,
                0.10542164206165822,
                -0.005941582653746189,
                0.25155575744847947,
                0.010561821791350512,
                0.27989717487566024,
                0.12784408637468747,
                0.4667213163548667,
                0.06485661415389417,
                0.3689628484209889,
                0.19952426407260632,
                0.5731726123326983,
                -0.12222357406743224,
                0.0019241349989608859,
                -0.07753498457598039,
                0.116153974187619,
                -0.10422558499221099,
                0.05469270154022868,
                -0.042151752141160514,
                0.18630798165524093,
                -0.028120249050396205,
                0.21217747220987654,
                0.0746432321984105,
                0.3844826921385248,
                0.018915159295124603,
                0.29398369460668805,
                0.13906399429007682,
                0.4836744974725353,
                -0.08729687397521121,
                0.0949257437656501,
                -0.013570884122244112,
                0.23819321503084634,
                -0.05478019722490263,
                0.16221310988647913,
                0.036331087986863214,
                0.3228660898893785,
                0.05530642039276029,
                0.35367946240931625,
                0.18710749526769516,
                0.5550225587842962,
                0.11686060985160127,
                0.4500046033765125,
                0.2660471032481775,
                0.668733363276334,
                -0.1226040425456056,
                -0.10672517481154836,
                -0.1320496729913359,
                -0.04663041453285824,
                -0.1316731167602816,
                -0.08102408703236025,
                -0.12373369756829378,
                -0.003544135606038794,
                -0.11891847576391214,
                0.013109365945164129,
                -0.07028969914415018,
                0.13127888460171105,
                -0.09895036444982779,
                0.06784780700322096,
                -0.03293646222336742,
                0.20340262440067497,
                -0.13288607056769913,
                -0.05893278356173763,
                -0.1132945281444123,
                0.03019931246585707,
                -0.1274365665513411,
                -0.018713040064608746,
                -0.09045993969991975,
                0.08780429771318167,
                -0.08070117748913039,
                0.10940137674619989,
                -0.003035094149471146,
                0.2566084161077102,
                -0.046214424212645724,
                0.17865856280615316,
                0.048836832300423114,
                0.34325096428743096,
                -0.13077625520424713,
                -0.08586019336364384,
                -0.12570330618165348,
                -0.011246775370759389,
                -0.13258604358686926,
                -0.05289978260598471,
                -0.11012802832986728,
                0.03909885103729466,
                -0.10284104543539468,
                0.058224131409420635,
                -0.03969362522085959,
                0.19091239745920013,
                -0.07561361782306836,
                0.12022193868843074,
                0.004918950983002309,
                0.27029553437002857,
                -0.12893348055855253,
                -0.025942934529430497,
                -0.09482332940270814,
                0.07770786125288635,
                -0.1162246768765416,
                0.021536152167915056,
                -0.0647294215017992,
                0.1425722173972656,
                -0.052498858505761775,
                0.16664111817385047,
                0.03968590888886851,
                0.328366958165087,
                -0.010752769499454456,
                0.24315769627448547,
                0.09881719724749621,
                0.4222689324704736,
                -0.093423311486352,
                0.08092155999637776,
                -0.02363636196754731,
                0.2202506841803462,
                -0.0628761951773646,
                0.14623970619421645,
                0.02429621385126716,
                0.3029545276994633,
                0.042600571787288,
                0.33309640413242614,
                0.17046286575643876,
                0.5305014483144678,
                0.10218532830275232,
                0.42745247040453105,
                0.24743321380955147,
                0.6422433755599702,
                -0.037536481981465,
                0.1948837539990952,
                0.061288084989899475,
                0.3632507706331921,
                0.0075294278429726335,
                0.27472082725813163,
                0.12373951714400112,
                0.46047361984549284,
                0.1469879871784927,
                0.4955596701468854,
                0.30388812888662,
                0.7220028881706534,
                0.22109164915854218,
                0.6044348009819144,
                0.39537745800044977,
                0.848263971387358,
                -0.06851116701665977,
                0.13487135913113718,
                0.015794578235019365,
                0.28871941335269136,
                -0.030704660247020416,
                0.20744896096546495,
                0.0709865751258859,
                0.3786827510257712,
                0.09176297486049294,
                0.4112966993354278,
                0.234144176906735,
                0.623220811451863,
                0.15860717641168098,
                0.5129122885953898,
                0.31837400699511975,
                0.742222306590842,
                -0.0004992412141755522,
                0.26095876256583395,
                0.11284417486318095,
                0.44384477538693,
                0.05182608495895452,
                0.34805532373754766,
                0.18255505717144888,
                0.5483271542234543,
                0.20827562924982918,
                0.5858853398743308,
                0.37969474360413114,
                0.8268477031778697,
                0.28963876775162534,
                0.7020200315713855,
                0.4784435894333282,
                0.960368395356295,
                -0.013341480098065846,
                -0.1262098382017243,
                -0.08716058576201272,
                -0.13048918218881594,
                -0.0545972623870023,
                -0.13269575345932913,
                -0.1110314463332472,
                -0.119590112463806,
                -0.11717541410364439,
                -0.11389556154911575,
                -0.1329204488127064,
                -0.06010066546019199,
                -0.1293941675321722,
                -0.09134437129182059,
                -0.12775425010236044,
                -0.020164428174814366,
                -0.07738316304227544,
                -0.13217744435550854,
                -0.12216524430404035,
                -0.10741969215614763,
                -0.10412043564011927,
                -0.12414481798292241,
                -0.13151758316766987,
                -0.08200205297228678,
                -0.13271819871675505,
                -0.07136413282519884,
                -0.11942615352662884,
                0.011467966052362832,
                -0.13041841789976066,
                -0.034294350830693834,
                -0.09974139577795388,
                0.0659228356799052,
                -0.04839349922986648,
                -0.1322248246734838,
                -0.10769409476178975,
                -0.12198562583049015,
                -0.0823900275081608,
                -0.1314514715479341,
                -0.12430569611264441,
                -0.10382727460651422,
                -0.12797799271125027,
                -0.09566104482136141,
                -0.12920449233877657,
                -0.027347555400250845,
                -0.1329374812514164,
                -0.06585056252689775,
                -0.11677901714218401,
                0.019847993426254217,
                -0.10031046921784562,
                -0.12606769213136051,
                -0.130574030671822,
                -0.08679137464985476,
                -0.11978848376568334,
                -0.1107757869481087,
                -0.13266710308163426,
                -0.05411444034544273,
                -0.13139602446076348,
                -0.04100481510224112,
                -0.10358542331737208,
                0.056345910755531595,
                -0.12183696911806134,
                0.0033242749549260223,
                -0.07664137625103076,
                0.11806011114376894,
                -0.1308909826534787,
                -0.08530061599669098,
                -0.12548092152857915,
                -0.010349914527890584,
                -0.13253222442699014,
                -0.05217157548073249,
                -0.10973705803070412,
                0.04016439082590566,
                -0.1023927177692957,
                0.059346907366396126,
                -0.038908117837994,
                0.1923725409980938,
                -0.07499671077134984,
                0.12151338542598529,
                0.0058730809113508855,
                0.27192440199982915,
                -0.12876670260955303,
                -0.025101783469749967,
                -0.09431940726559705,
                0.0788863361200595,
                -0.11588933679088977,
                0.0225459526363225,
                -0.06405689612961472,
                0.14391939292205047,
                -0.05176893685381692,
                0.1680455701825665,
                0.04075304922908436,
                0.33010882497299543,
                -0.009854249491498587,
                0.24473084215705704,
                0.10005298116502948,
                0.4241795485240082,
                -0.13286005086080627,
                -0.05823242575212437,
                -0.11293138072266706,
                0.031236973486818347,
                -0.12724199268674496,
                -0.01784404288666046,
                -0.08992819805277126,
                0.08901064832064205,
                -0.0801120583605691,
                0.11066498433787249,
                -0.0021087762487471467,
                0.2582094144595822,
                -0.045456716428447105,
                0.18009085250986517,
                0.049931783047369324,
                0.3450206990923913,
                -0.11861092849308859,
                0.014091323056054074,
                -0.06964499035124377,
                0.1325981869769497,
                -0.09847424663304638,
                0.06899842399358576,
                -0.03212314075536091,
                0.20489063893499548,
                -0.017363338500459697,
                0.23148868244804838,
                0.08967737474357557,
                0.40807079148539827,
                0.03181070548782315,
                0.31543337261487836,
                0.1562366921121543,
                0.5094009699414941,
                -0.09468533732864112,
                -0.12832502393090345,
                -0.12889017021935922,
                -0.09298979508411997,
                -0.11613399596590744,
                -0.11500367754420741,
                -0.1329538501803003,
                -0.06228335860541667,
                -0.13235375396473642,
                -0.049844850470248656,
                -0.10848435421070844,
                0.04356489226009312,
                -0.12476530990401839,
                -0.00748626867223618,
                -0.08351087302307349,
                0.10330865422500116,
                -0.12564430454536668,
                -0.10120974874680658,
                -0.1308120442434143,
                -0.03683729886424121,
                -0.1325744225999736,
                -0.07336980180893252,
                -0.1203571575904746,
                0.008387780009010283,
                -0.11481362266459562,
                0.02576975621285345,
                -0.06190702600312287,
                0.14821687479893086,
                -0.09270658935790528,
                0.08264701277794706,
                -0.022414916761998038,
                0.2224793661505856,
                -0.11319600756371832,
                -0.11779858472796224,
                -0.13288229894077908,
                -0.06794475364003934,
                -0.12738539825136475,
                -0.09721794200442335,
                -0.12968669873500738,
                -0.02997900070132632,
                -0.12661489067191894,
                -0.015068766846325243,
                -0.08822690034583741,
                0.09285965273614188,
                -0.11176715572941935,
                0.03454914699698612,
                -0.05599410967118104,
                0.15986277325766285,
                -0.13203022241154788,
                -0.07855850732640778,
                -0.12267939886573156,
                0.0003325793037987957,
                -0.13170106244994995,
                -0.04345924759695827,
                -0.10496521878541924,
                0.05281699428586621,
                -0.09694993873877916,
                0.07267073271026618,
                -0.02952471857908146,
                0.20963657385093581,
                -0.06758359888573973,
                0.1368073433733737,
                0.017226719007706306,
                0.29115844900599186,
                -0.12194760739829243,
                0.0028752501903145803,
                -0.07692150305782923,
                0.117442852026831,
                -0.10378087511718523,
                0.05581268129927533,
                -0.04136946927383599,
                0.18776579235589852,
                -0.027280612918926892,
                0.21369246047432988,
                0.07582048086139072,
                0.38633555722487734,
                0.019923586443008397,
                0.29566760349513355,
                0.14041009623564538,
                0.4856963555995173,
                -0.08673910659849313,
                0.09615875802711785,
                -0.012675554776689486,
                0.239764047305768,
                -0.05405366359774691,
                0.16361501588307747,
                0.03739524378758588,
                0.3246058842546258,
                0.056427993276031596,
                0.3554764995595048,
                0.18856673468800145,
                0.5571575350076796,
                0.11815100023868827,
                0.45197059176097965,
                0.26767522449991554,
                0.6710373652120757,
                -0.10737459946581657,
                0.04648573782445764,
                -0.04782978249458204,
                0.17557216907806844,
                -0.08194851718020979,
                0.10668257535456105,
                -0.005018372474286096,
                0.25315454996615633,
                0.011542417802222208,
                0.28155317822577086,
                0.12916232148947582,
                0.4687152272221674,
                0.06600601420970283,
                0.3707877874850576,
                0.2010113665292263,
                0.5753355323613146,
                -0.06004111584509966,
                0.15189432654850776,
                0.02854119444656648,
                0.31001850385964,
                -0.020096300718826534,
                0.22661001933478503,
                0.08587139456224534,
                0.4021198130707655,
                0.10737613179567307,
                0.4354624455676973,
                0.25403374014963476,
                0.6516625030730708,
                0.17635856352288432,
                0.5392160381148118,
                0.3404016905401276,
                0.7728018773432058,
                -0.059655266404605264,
                -0.13290939548257774,
                -0.11366728033988902,
                -0.11738153252890211,
                -0.09100750702054383,
                -0.12949171747997845,
                -0.12763457946336887,
                -0.09657882569354692,
                -0.13040653199903457,
                -0.08751229681748747,
                -0.12634441219347745,
                -0.013910074942999558,
                -0.1327217158652636,
                -0.0550574573812674,
                -0.11127461013136619,
                0.03592986938615471,
                -0.10715563030409037,
                -0.12233561784541343,
                -0.1321305944714351,
                -0.07777060531010793,
                -0.12398935029789644,
                -0.10439937326687351,
                -0.13157935394891573,
                -0.04244929706279661,
                -0.12940792274565188,
                -0.028439361263084887,
                -0.09630867356626568,
                0.07420014090410285,
                -0.11720454938087745,
                0.018534106910537102,
                -0.06672028247298822,
                0.13855876158296893,
                -0.08643662891810841,
                -0.13065369597653778,
                -0.12593012154529548,
                -0.10060726500199366,
                -0.11052961081128769,
                -0.11997673787131231,
                -0.13263815323260048,
                -0.07254526144452253,
                -0.13293842012205015,
                -0.06100703613675741,
                -0.11435774200444239,
                0.027113816315142914,
                -0.12799432836057956,
                -0.021292886916675417,
                -0.09202864921306864,
                0.08421309343579574,
                -0.12181226647280892,
                -0.10795515420047008,
                -0.1322686936290713,
                -0.04887154516501524,
                -0.1313867206908813,
                -0.08275961607818158,
                -0.12445817542332807,
                -0.006290923560392067,
                -0.11981503043814819,
                0.010190740034212935,
                -0.07219719604776044,
                0.12734891245405822,
                -0.1003523687947173,
                0.06442353703080103,
                -0.03534949838019022,
                0.198966888157601,
                -0.1320638548857091,
                -0.04685761346680239,
                -0.10684594880036825,
                0.04790132672029605,
                -0.12380119577944272,
                -0.0038244812109840404,
                -0.08119809501152055,
                0.10831983730053213,
                -0.07048153645855468,
                0.13087440598418,
                0.012811115690939838,
                0.28370854165076786,
                -0.03318152845563295,
                0.20294510393824733,
                0.0674964188711661,
                0.3731647500482723,
                -0.11339761377337769,
                0.029883389346563812,
                -0.059142375867326055,
                0.15367987328574678,
                -0.09061630002594825,
                0.08743527825619521,
                -0.018975820384027054,
                0.22861720338523145,
                -0.0033155174839822037,
                0.2561155642952321,
                0.10901464252765115,
                0.43798747086051193,
                0.048503229986742794,
                0.3427051292823424,
                0.17821874500526297,
                0.5419626219327897,
                -0.12576195809845542,
                -0.0115183566322558,
                -0.08602539570585328,
                0.09775934263371752,
                -0.1102399762735252,
                0.03877414775151476,
                -0.0531181964702155,
                0.16543725597610542,
                -0.03992977710449502,
                0.1904637086052729,
                0.057881616573984065,
                0.3578167141250477,
                0.0046295946309153424,
                0.2697938324774133,
                0.11982631260297151,
                0.45453238546297114,
                -0.09497081073154848,
                0.07734763844757431,
                -0.026196876706364506,
                0.21566293405379694,
                -0.06493015515803803,
                0.14215892498072208,
                0.02122904652521455,
                0.2978596956050712,
                0.03936125892385993,
                0.3278299923739245,
                0.1662102114723128,
                0.5242208325765214,
                0.0984393948324728,
                0.4216790143726533,
                0.24267373469815923,
                0.6354554808768383,
                -0.11843095797431326,
                -0.11245585666145216,
                -0.13282845450986852,
                -0.0573130369745254,
                -0.12997596132988676,
                -0.0892307337694189,
                -0.12698842459614096,
                -0.016702745322124162,
                -0.12301623461437568,
                -0.0008922451316363477,
                -0.07933936348333145,
                0.1123252795195439,
                -0.10552407126471551,
                0.051370205208383424,
                -0.04446209439906773,
                0.1819730027095297,
                -0.13284839562498746,
                -0.0687989149291821,
                -0.11820873748416713,
                0.01538121530665288,
                -0.12987482940788758,
                -0.031055148481246415,
                -0.09785010495918826,
                0.0705101993656821,
                -0.08893439784195536,
                0.09126425222363603,
                -0.01622024421087601,
                0.23351926635256265,
                -0.056923604201865985,
                0.15804543238990398,
                0.03317570097868912,
                0.3176857809958167,
                -0.12867087264820826,
                -0.09365859641987803,
                -0.12854979843505876,
                -0.023997131242053774,
                -0.13295659431255707,
                -0.06317415644204244,
                -0.11545047110933558,
                0.023872501122994137,
                -0.10900653135185338,
                0.0421547680483263,
                -0.050811028359266125,
                0.16989102485583163,
                -0.08425505735158628,
                0.10167657720982552,
                -0.008674426515477635,
                0.2467981368822889,
                -0.1309635192703174,
                -0.03787680175603901,
                -0.10180526262336335,
                0.060822014504416,
                -0.12073065828179659,
                0.007126301246042068,
                -0.07418731641212019,
                0.12321036193850876,
                -0.06279982110839707,
                0.14643622316956756,
                0.024433003337618105,
                0.30321002118450646,
                -0.02352969813952299,
                0.22047678722363995,
                0.0810883031589596,
                0.39463595292463116,
                -0.10053986212623237,
                0.06390048502904606,
                -0.035705140241270625,
                0.19827723744079456,
                -0.07246885137787369,
                0.12674245510177906,
                0.00975129623938821,
                0.2785048650384331,
                0.02721254140509789,
                0.3078036913817457,
                0.15012253222356364,
                0.5002562742600168,
                0.08432115547743181,
                0.3996835376388893,
                0.2246167005523414,
                0.6095219381905053,
                -0.04878874777464573,
                0.1737268878715541,
                0.04508355531126021,
                0.3371414894744613,
                -0.006198961198684928,
                0.2510877638139595,
                0.10505882868751928,
                0.4318880998219182,
                0.12746413922699182,
                0.46613105176554304,
                0.27941193550559806,
                0.6876217591993475,
                0.19909163806245234,
                0.572529938380473,
                0.3684250624417955,
                0.8114065531440638,
                -0.07769556927526367,
                0.11578239529503025,
                0.0016579305934659922,
                0.26467805649158016,
                -0.042365176721826395,
                0.18588381059684012,
                0.05437377861468404,
                0.3521651669598499,
                0.0743070425377219,
                0.3839360413668941,
                0.21173592067056257,
                0.5909076679131631,
                0.13867509148340113,
                0.4830753986976759,
                0.2934895599963133,
                0.7074328869469917,
                -0.013819382900860381,
                0.23773398028112724,
                0.09457175003512582,
                0.41566755531144295,
                0.03602981061481686,
                0.3223543329753944,
                0.16180646328065545,
                0.5176736832463901,
                0.1866838515383752,
                0.5543887454421519,
                0.3531505981936327,
                0.7903985723825263,
                0.2655708159798006,
                0.6680471802514876,
                0.44942323005349716,
                0.921442961745425,
                -0.037908807789730936,
                -0.1309700698124628,
                -0.10182437462916562,
                -0.12534582607354494,
                -0.07421282221804325,
                -0.13250419576811798,
                -0.12074345962853655,
                -0.1094949472976534,
                -0.12520142325247585,
                -0.10211440684584143,
                -0.13104289225879126,
                -0.0384158681232533,
                -0.132468397133101,
                -0.07461140158460791,
                -0.12092489928194818,
                0.006472210922349667,
                -0.09367983746350428,
                -0.12866699483744176,
                -0.1285583694752504,
                -0.09400563047185469,
                -0.11546533786389014,
                -0.11568256781871734,
                -0.13295892492650477,
                -0.06363616738924581,
                -0.1324735235020445,
                -0.051312241791129795,
                -0.10927789012922277,
                0.04142353621475521,
                -0.12522195277309273,
                -0.009290627421276426,
                -0.08464132424631818,
                0.10083026847761063,
                -0.0688255013434845,
                -0.13284971828379627,
                -0.11822255359154502,
                -0.11270692024808722,
                -0.09787025996943913,
                -0.12712457056090368,
                -0.12988237582698153,
                -0.08959675292599767,
                -0.13186866250777762,
                -0.07974452628896203,
                -0.12319158594598574,
                -0.001527376740260359,
                -0.13187636669471509,
                -0.04498222068155658,
                -0.10581430992573126,
                0.05062002390731271,
                -0.11247181294619492,
                -0.11842189347081424,
                -0.13283181767719138,
                -0.06924194934276595,
                -0.12699805199805358,
                -0.09817818083922547,
                -0.12997310162426848,
                -0.031613182585568486,
                -0.1270159976897326,
                -0.01681754200780965,
                -0.08930179486346371,
                0.09043688348582385,
                -0.11250514612294181,
                0.03246339024051488,
                -0.057405931598922405,
                0.15710295807702207,
                -0.13288842615206142,
                -0.06749020654082487,
                -0.1175744825841078,
                0.017364565545403197,
                -0.12957773696023223,
                -0.029409143981762472,
                -0.09687864559143373,
                0.07283094750945443,
                -0.08784820540439019,
                0.09369948492872472,
                -0.01445962391590257,
                0.2366293163214026,
                -0.05550021963587698,
                0.1608180468513551,
                0.03527360314082385,
                0.32113332276068607,
                -0.12249319944848701,
                0.0009796727400310096,
                -0.07814197511802153,
                0.11487192350543374,
                -0.10466388026867512,
                0.05357946029237079,
                -0.042927464587754205,
                0.18485708982452098,
                -0.0289533456516976,
                0.21066935078525934,
                0.07347268058628743,
                0.3826368759492771,
                0.017913348904217644,
                0.2923067420531764,
                0.13772467275632078,
                0.4816597838718998,
                -0.1307220284045142,
                -0.036286501801055915,
                -0.10088945330499592,
                0.06308699758099447,
                -0.12015202844390975,
                0.009053917432392339,
                -0.07293428456725957,
                0.1258127651017927,
                -0.06143201572430254,
                0.14915315276633212,
                0.026475276490251654,
                0.3066018162019243,
                -0.021824681186799814,
                0.22353112213985776,
                0.08346787968040176,
                0.3983652653626104,
                -0.10820192899120053,
                0.04430833017420574,
                -0.049332036330910725,
                0.1727193578099856,
                -0.08311328144200181,
                0.1041674983896905,
                -0.006858173260896009,
                0.24996393686865215,
                0.009587820448152089,
                0.27824809741922507,
                0.12653260540642797,
                0.46473451539667576,
                0.0637138869716505,
                0.3671449257247773,
                0.19804400010255252,
                0.5710168988215159,
                -0.10796876591383754,
                -0.12180110998780162,
                -0.13226995416546777,
                -0.07656211796399423,
                -0.12446560813546907,
                -0.10352789092592601,
                -0.13138179259042443,
                -0.04090377165206996,
                -0.1290956558372855,
                -0.02677926980742291,
                -0.09532254844798624,
                0.07653432712554648,
                -0.11655536561468015,
                0.02053122842673207,
                -0.0653971889707594,
                0.14123004969199396,
                -0.13065698841077772,
                -0.08641502610760174,
                -0.12592105498525674,
                -0.012138770548821242,
                -0.1326352766834284,
                -0.053623186120872135,
                -0.11051430992633322,
                0.03803824203500519,
                -0.10328469818202382,
                0.05710625131600182,
                -0.040474353346356504,
                0.18945727865834072,
                -0.07622579931990357,
                0.11893545071813548,
                0.003969657081580358,
                0.26867176051610936,
                -0.1223440680050825,
                -0.1071392721596745,
                -0.13212670125421705,
                -0.047381657398534616,
                -0.13158163597063466,
                -0.08160674695081924,
                -0.12397925145416336,
                -0.004463983064625208,
                -0.11922138535526415,
                0.012132263541500068,
                -0.07092966787785233,
                0.12996456385000943,
                -0.09942179493080737,
                0.06670210664470153,
                -0.033744987841695134,
                0.20191965954865548,
                -0.13290752038273657,
                -0.05962836228440607,
                -0.11365300721090196,
                0.02916655353181909,
                -0.1276265228259179,
                -0.019577198189159085,
                -0.09098695915950399,
                0.08660291529324231,
                -0.08128558222742954,
                0.10814270840520916,
                -0.003956591363867429,
                0.255012487839164,
                -0.046967365992085244,
                0.17723127623590906,
                0.04774675998844595,
                0.34148636958272616,
                -0.11265533666097872,
                0.031976148287005804,
                -0.05772498008410666,
                0.15644826017074315,
                -0.08953649287013124,
                0.08986581680168965,
                -0.01722077485180482,
                0.2317235098817944,
                -0.0014457361862570688,
                0.25933624904525054,
                0.11155974506255038,
                0.44188401910452024,
                0.05071064054962024,
                0.34626370935068906,
                0.18110160475667086,
                0.5461972137474101,
                -0.06917557677115424,
                0.1335310514260496,
                0.014792291889488399,
                0.28704092936906045,
                -0.031537990835372065,
                0.2059395851203834,
                0.06981529683104525,
                0.37683511763623034,
                0.09053431181852191,
                0.40939189026134515,
                0.23257751735585414,
                0.620977689689824,
                0.15720953360763712,
                0.5108383442073258,
                0.31663829244382746,
                0.7398099641260202,
                -0.09394670971732938,
                0.07972232153162456,
                -0.02449760896187372,
                0.2187133013876238,
                -0.06356850058603584,
                0.1448714153070752,
                0.023265989594516114,
                0.301248012249158,
                0.04151300313366703,
                0.3313327540492107,
                0.16903733186444414,
                0.528399520936717,
                0.10092879526464665,
                0.42551970244636617,
                0.2458386413254558,
                0.6399722459491899,
                -0.03834192398508253,
                0.19340235460664118,
                0.060144737706845516,
                0.3614311621509122,
                0.006555050918978186,
                0.2730703435777213,
                0.12242716279439662,
                0.45848484477861784,
                0.14561820904762718,
                0.4935136796599666,
                0.302180322115595,
                0.7196185487416432,
                0.21955287545765945,
                0.6022196573116285,
                0.39350057939034866,
                0.8457103923554582,
                -0.07858080259248312,
                -0.13202774536319067,
                -0.12268924129464037,
                -0.10659622345667184,
                -0.10498125931962904,
                -0.1236582446213637,
                -0.13170474011353311,
                -0.08084166542860217,
                -0.1327906731818007,
                -0.07008914780386039,
                -0.1188249332059083,
                0.013416805990099888,
                -0.1301540524424714,
                -0.03268245089693668,
                -0.098803303115089,
                0.06820864325079948,
                -0.11781048130817161,
                -0.11318323662488644,
                -0.132881850787396,
                -0.058714531667033845,
                -0.12969240856160774,
                -0.09029515344818623,
                -0.12737879760503412,
                -0.018441352864397787,
                -0.12352132238040052,
                -0.0027454006752132675,
                -0.08051842152124286,
                0.10979787893559297,
                -0.10636612953126921,
                0.04917994685526607,
                -0.045978184016781526,
                0.1791084179358361,
                -0.10122682515070355,
                -0.12563668445000184,
                -0.1308167335706697,
                -0.08568657854116515,
                -0.1203680191060028,
                -0.1100078960527834,
                -0.1325729591524618,
                -0.05267271448637566,
                -0.13118719493971936,
                -0.039448487251725076,
                -0.10270288165046057,
                0.058576119128318144,
                -0.12129129150999284,
                0.005217530005435977,
                -0.07542195201584233,
                0.12062730149873072,
                -0.12833176608899632,
                -0.09466739411296204,
                -0.1288845865694332,
                -0.0256800736599001,
                -0.13295442201080587,
                -0.06452000833294287,
                -0.11612224839611664,
                0.021852429311456794,
                -0.10979304518600498,
                0.040020125042505905,
                -0.052271541100919694,
                0.1670820999282508,
                -0.0853785554887139,
                0.09920481346913208,
                -0.010471986700823534,
                0.24365200777819007,
                -0.12841701010807482,
                -0.023402561529602395,
                -0.09329505318167629,
                0.0812606524911466,
                -0.11520233801360504,
                0.024582692201292677,
                -0.06269513517061166,
                0.14663134781816528,
                -0.05029243837412678,
                0.170871959589097,
                0.042904381789532084,
                0.3336105142918633,
                -0.008040360548287218,
                0.24789484986766647,
                0.10254181303404489,
                0.42801898529293003,
                -0.10147967993222073,
                0.06160964850052725,
                -0.03732033561216844,
                0.1953104758610138,
                -0.07374632628603596,
                0.1241136928031424,
                0.007798314507576956,
                0.2752000281288658,
                0.025144827112648652,
                0.30438450667447736,
                0.1473792227658312,
                0.4961609139180304,
                0.08191567734406473,
                0.3959263039312173,
                0.22153548974918058,
                0.6050883710426763,
                -0.11797957774345448,
                0.01607228845212606,
                -0.06833893747672563,
                0.13525429559217395,
                -0.097505569851746,
                0.07131693089322587,
                -0.03047965918845746,
                0.20788441201543534,
                -0.015605066490656381,
                0.23459694436385836,
                0.09211052826227692,
                0.41185440898745607,
                0.03390639115985723,
                0.31887928015636235,
                0.15900737019957556,
                0.5135223642766438,
                -0.07891730460929855,
                0.11320953347966696,
                -0.00023923412343479486,
                0.26142920956122795,
                -0.04392459455165269,
                0.18297299349485596,
                0.0521388000818096,
                0.3485782131217655,
                0.07195725984281187,
                0.3802346667269687,
                0.20871048410671428,
                0.5865300506890945,
                0.13598751611110615,
                0.4790359420979956,
                0.2901261911891271,
                0.702717027896287,
                -0.12607175746179217,
                -0.10028909140490472,
                -0.13056550695495006,
                -0.035242371319425855,
                -0.1326648953762145,
                -0.07211202940306652,
                -0.11977357777516742,
                0.010319905305376506,
                -0.11411532043641533,
                0.027816409915375814,
                -0.060534621207815914,
                0.15093794404968636,
                -0.09167125286986434,
                0.08503085215565064,
                -0.0207054070744024,
                0.22553771200987888,
                -0.13221836323406344,
                -0.04836123575893998,
                -0.10767492053687698,
                0.045722846404125675,
                -0.12429291369474803,
                -0.005665505312779528,
                -0.08236436736110142,
                0.10580384382765345,
                -0.07176254487914155,
                0.1282439521996775,
                0.010855486417903293,
                0.2804030393948553,
                -0.03479982311387582,
                0.19997715518184145,
                0.06520340406858162,
                0.36952163322763465,
                -0.13217626199199034,
                -0.07735638150879362,
                -0.122151422732862,
                0.00220900907851928,
                -0.13151010965135757,
                -0.041919990353644326,
                -0.10410018582541468,
                0.05503064023531577,
                -0.09597015534926756,
                0.07499893648524682,
                -0.027870800228322425,
                0.21263923381404037,
                -0.06626676555466818,
                0.1394727526281203,
                0.01921775999389627,
                0.2944984074436622,
                -0.12619805266752826,
                -0.013303642835870374,
                -0.08713599044701649,
                0.0952991533763626,
                -0.11101329828615587,
                0.036651437738749515,
                -0.05456611176250137,
                0.16263952950110672,
                -0.041492475163605325,
                0.18755147372009073,
                0.05564425399278862,
                0.3542293788530495,
                0.0027295890146921643,
                0.2665440771779839,
                0.11725154111132906,
                0.4506074081224628,
                -0.08560082234963448,
                0.09864863835952806,
                -0.010861613835565432,
                0.24293017002941492,
                -0.05257758507132511,
                0.1664429782673043,
                0.03954711781816733,
                0.3281102481429119,
                0.058694595110871245,
                0.35909517923822487,
                0.1915092258495001,
                0.56145272269511,
                0.12075551060684511,
                0.4559274842388107,
                0.27095577125239567,
                0.6756709330572117,
                -0.02557825125889172,
                0.21674665221238232,
                0.07819861208803888,
                0.3900661207200551,
                0.02196379778705918,
                0.29905994093722466,
                0.1431262200810886,
                0.48976522803444267,
                0.16721785766283176,
                0.5256943827321625,
                0.3290703795479605,
                0.7570901504456516,
                0.24379769988919225,
                0.6370457770651509,
                0.4230359290292136,
                0.8858275433002741,
                -0.058620813242371644,
                0.15466634051059613,
                0.030637209318021445,
                0.31346682403519566,
                -0.018338176565665287,
                0.22972014674444508,
                0.08830537185747046,
                0.40590640786815857,
                0.10992491472294882,
                0.43936343538605815,
                0.2572584748657294,
                0.6562400716080736,
                0.17924528569919657,
                0.5434552755708888,
                0.3439645136243662,
                0.7777178629359611,
                0.01352687921047152,
                0.28488959187354335,
                0.13182261148364877,
                0.47272807989214716,
                0.06832835429626222,
                0.3744623799540492,
                0.2040096801979318,
                0.5796867291496643,
                0.23057344488213577,
                0.6180880450271444,
                0.4069449622473036,
                0.8640029843579469,
                0.31441277482819563,
                0.7366990131719505,
                0.5081700405177967,
                1.0000000000000022
            ],
            "result_with_budget": [
                {
                    "portfolio": {
                        "JNJ": 3,
                        "MSFT": 2,
                        "UNH": 3
                    },
                    "budget": 2782.849639892578,
                    "difference": 3.150360107421875,
                    "objective_value": -54.081875320726084
                }
            ],
            "result_with_budget_excited": [
                {
                    "portfolio": {
                        "JNJ": 6,
                        "MSFT": 1,
                        "UNH": 3
                    },
                    "budget": 2792.6077880859375,
                    "difference": -6.6077880859375,
                    "objective_value": -155.39046361143846
                }
            ]
        },
        "qaoa_solution": {
            "two_most_probable_states": [
                "11001000000",
                "00001100000"
            ],
            "final_expectation_value": -0.12432024722813133,
            "params": [
                5.591520106306677,
                3.732025930023501,
                3.723069839160565,
                -10.331635753786825,
                3.1713396082862118,
                -9.452313807086075,
                0.9836870667868685,
                10.207514851482552,
                9.23129100410428,
                -0.937784084317512,
                2.850736450414549,
                1.510719395936386,
                1.6686830933104126,
                0.3627198200234025,
                2.802315033987169,
                2.7685692840106553,
                0.6069512191494066,
                3.0262236873948996,
                -0.3999106680891264,
                3.536406548217426
            ],
            "total_steps": 800,
            "states_probs": [
                0.0038573788393587148,
                0.003869005112651313
            ],
            "optimized_portfolios": [
                {
                    "JNJ": 19,
                    "MSFT": 0,
                    "UNH": 0
                },
                {
                    "JNJ": 16,
                    "MSFT": 1,
                    "UNH": 0
                }
            ],
            "training_history": {
                "xbest": [
                    5.591520106306677,
                    3.732025930023501,
                    3.723069839160565,
                    -10.331635753786825,
                    3.1713396082862118,
                    -9.452313807086075,
                    0.9836870667868685,
                    10.207514851482552,
                    9.23129100410428,
                    -0.937784084317512,
                    2.850736450414549,
                    1.510719395936386,
                    1.6686830933104126,
                    0.3627198200234025,
                    2.802315033987169,
                    2.7685692840106553,
                    0.6069512191494066,
                    3.0262236873948996,
                    -0.3999106680891264,
                    3.536406548217426
                ],
                "fbest": -0.12432024722813133,
                "evals_best": 9581,
                "evaluations": 9600,
                "iterations": 800,
                "xfavorite": [
                    5.575065013889919,
                    3.722939311356045,
                    3.7302288008421645,
                    -10.337197481571115,
                    3.161674337862398,
                    -9.467041001755211,
                    0.9955065335441772,
                    10.171742110856826,
                    9.20006090086815,
                    -0.93192807221847,
                    2.857689609193946,
                    1.503751674028188,
                    1.669799720672402,
                    0.3593179740406383,
                    2.8012662560827875,
                    2.783924529613404,
                    0.5938283010222968,
                    3.0259814230590245,
                    -0.40184190920889495,
                    3.536460695208678
                ],
                "stds": [
                    0.08192052443581309,
                    0.04187680788072573,
                    0.03850518096804093,
                    0.11471910726125313,
                    0.09753535837382492,
                    0.1253012713549551,
                    0.0465693793675515,
                    0.11147650859282315,
                    0.12885956603247667,
                    0.029650190896161235,
                    0.008042360397440837,
                    0.007095604470430144,
                    0.004249429082266602,
                    0.009419472447339115,
                    0.009769399636370515,
                    0.013877725329208184,
                    0.016130748539868584,
                    0.007297570643978061,
                    0.020768526594397166,
                    0.022384168536178823
                ],
                "stop": {
                    "maxiter": 800
                }
            },
            "objective_values": [
                -5102.44959330145,
                -2753.3387850526983
            ],
            "result_with_budget": [
                {
                    "portfolio": {
                        "JNJ": 19,
                        "MSFT": 0,
                        "UNH": 0
                    },
                    "budget": 2725.9595947265625,
                    "difference": 60.0404052734375
                },
                {
                    "portfolio": {
                        "JNJ": 16,
                        "MSFT": 1,
                        "UNH": 0
                    },
                    "budget": 2716.201446533203,
                    "difference": 69.79855346679688
                }
            ]
        }
    }
}