{
    "33": {
        "hyperparams": {
            "stocks": [
                "MMM",
                "TRV"
            ],
            "start": "2015-01-01",
            "end": "2025-01-01",
            "risk_aversion": 0.1,
            "n_qubits": 9,
            "budget": 2454,
            "log_encoding": true,
            "layers": 9,
            "prices_now": {
                "MMM": 128.4563446044922,
                "TRV": 239.9084930419922
            },
            "assets_to_qubits": {
                "MMM": [
                    0,
                    1,
                    2,
                    3,
                    4
                ],
                "TRV": [
                    5,
                    6,
                    7,
                    8
                ]
            },
            "optimizer": "CMAES",
            "lambda_budget": 1
        },
        "continuous_variables_solution": {
            "weights": {
                "MMM": 0.43489829073589936,
                "TRV": 0.5651017092641006
            },
            "allocation": {
                "MMM": 7,
                "TRV": 6
            },
            "value": -674.5424978744568,
            "left_overs": 115.35462360482825
        },
        "continuous_variables_solution_unconstrained": {
            "weights": {
                "MMM": 0.4285858846812786,
                "TRV": 0.5634540880106741
            },
            "allocation": {
                "MMM": 7,
                "TRV": 6
            },
            "value": -674.5424978744568,
            "left_overs": 115.35462207189494
        },
        "exact_solution": {
            "smallest_eigenvalues": [
                -0.25644054289185186
            ],
            "smallest_bitstrings": [
                "011001110"
            ],
            "first_excited_energy": -0.25643312347381825,
            "optimized_portfolio": [
                {
                    "MMM": 6,
                    "TRV": 7
                }
            ],
            "second_optimized_portfolio": [
                {
                    "MMM": 8,
                    "TRV": 6
                }
            ],
            "spectrum": [
                2.154257438913984e-16,
                -0.24426593400124558,
                -0.1613492133279966,
                -0.24874584849187817,
                -0.0904785013797154,
                -0.2563108643442461,
                -0.2126118432043372,
                -0.22156993633569724,
                -0.04769021249934036,
                -0.25273958948597436,
                -0.18943156323577645,
                -0.23760932025412748,
                -0.12836484547046564,
                -0.2549796552219098,
                -0.23088999097127402,
                -0.20062755229069082,
                -0.24964845269028899,
                -0.15794348205492162,
                -0.24301428554627555,
                0.0055702469636539804,
                -0.25613565831732277,
                -0.08599247903964448,
                -0.21028379478013948,
                0.11674589301991999,
                -0.25534310049933817,
                -0.12441937752481182,
                -0.22910022005799202,
                0.05870637374802156,
                -0.2520260741040207,
                -0.042662652375705816,
                -0.18656491658075072,
                0.17968898009480885,
                -0.16980744438796466,
                -0.24609093195568899,
                -0.24716624645590993,
                -0.16657619953342612,
                -0.21829088138770644,
                -0.2161389270487954,
                -0.25643312347381825,
                -0.09740167582288613,
                -0.19650015229244053,
                -0.23356620914971843,
                -0.2542507783991586,
                -0.1344404857223061,
                -0.23517959506832134,
                -0.19380896686398758,
                -0.2537132039827023,
                -0.05545960995448728,
                -0.2394587804327096,
                0.02024489934378609,
                -0.14882696654059643,
                0.26776409422632585,
                -0.20394752790218412,
                0.13419802311805312,
                -0.07409643327268757,
                0.4209444332118011,
                -0.2241542827497112,
                0.07476991892753336,
                -0.11391299425772124,
                0.3419023912798781,
                -0.17883844841512536,
                0.19852936157384007,
                -0.02937717501874691,
                0.5048904107723365,
                -0.09614723309879068,
                -0.256422430406443,
                -0.21550142806673564,
                -0.2189054326770404,
                -0.16562828192560383,
                -0.2474690847448001,
                -0.24576631714255429,
                -0.17073046235559325,
                -0.1333387296197658,
                -0.2543969890564985,
                -0.23308493330712152,
                -0.19726943195908622,
                -0.19301586112825578,
                -0.23563860639980658,
                -0.2535455095932386,
                -0.1392883717032742,
                -0.25581318858487334,
                -0.0801104096942256,
                -0.20718091523284216,
                0.12540511112386113,
                -0.24130150971824096,
                0.012841197132213421,
                -0.15345080379254317,
                0.25758259108478904,
                -0.25100843244098003,
                -0.036086072421987976,
                -0.18276709313614903,
                0.18904207026232522,
                -0.22669236065904444,
                0.06667154090948281,
                -0.11923194635266697,
                0.3310268566241028,
                -0.2209767353252264,
                -0.21326701021063027,
                -0.2563395050051949,
                -0.09175345567465272,
                -0.24846226874971297,
                -0.1623158303438633,
                -0.24460796623379008,
                -0.0015787508771779094,
                -0.23717051573806294,
                -0.19024275509027366,
                -0.25292486878455656,
                -0.04911772192039759,
                -0.2548519500373466,
                -0.12948610946507622,
                -0.2313887119383188,
                0.05086362505307503,
                -0.20057031097953584,
                0.14313789220943418,
                -0.06793725726724706,
                0.43266290836939714,
                -0.144058663140875,
                0.2780935785422094,
                0.02779463145573288,
                0.6068472639733213,
                -0.17476566793426276,
                0.20816410991108,
                -0.022522674983410398,
                0.5173031151360368,
                -0.10844922140697973,
                0.35292645547870793,
                0.08301477833432237,
                0.7012955533488825,
                -0.050884358221312924,
                -0.25315501238805,
                -0.19123609262752542,
                -0.23663655701851624,
                -0.13086414495422247,
                -0.2547008443541791,
                -0.23199987773115274,
                -0.19896116940305478,
                -0.0933252176714245,
                -0.25637913839329834,
                -0.21406903214051318,
                -0.22025031847747115,
                -0.163501115040353,
                -0.248120023057846,
                -0.2450285632783439,
                -0.1727689614906751,
                -0.2555448889196422,
                -0.12184136761695223,
                -0.2279118314038765,
                0.06267303857751318,
                -0.25153273016649524,
                -0.03939016855855137,
                -0.18468162216521405,
                0.18434948172575005,
                -0.2559898728106772,
                -0.08306719877213835,
                -0.20874793266879643,
                0.12105952248361788,
                -0.24217340508817972,
                0.009189861106217239,
                -0.1557128029024655,
                0.25254309547806536,
                -0.1982038061640868,
                -0.23249090837695402,
                -0.2545646885332931,
                -0.13197691738469233,
                -0.23618833612434995,
                -0.1920393887340775,
                -0.25333241640259646,
                -0.05230238987254108,
                -0.21964707182194845,
                -0.2147164549108983,
                -0.2563996648927546,
                -0.09459123609806404,
                -0.24782755860715525,
                -0.16445958719886347,
                -0.2453628615069348,
                -0.005110214968749896,
                -0.22283234330174942,
                0.0788731122466514,
                -0.11120013846881192,
                0.34739493280702993,
                -0.17682100410231233,
                0.2033273783192118,
                -0.02596905245642613,
                0.5110771271228659,
                -0.20227782755532261,
                0.13864866227373646,
                -0.07103592280211633,
                0.4267841091025626,
                -0.14646180160902017,
                0.27290941390026724,
                0.02400058499370297,
                0.6002741814768757,
                -0.13578839556570774,
                -0.25406789275269165,
                -0.23414495746039823,
                -0.19555214704521384,
                -0.1947706666678822,
                -0.234615273653125,
                -0.2539108826940615,
                -0.1368774702118244,
                -0.16773051099801298,
                -0.2467928378922159,
                -0.24647899627074657,
                -0.16866632399711018,
                -0.21690882982857126,
                -0.2175350851051821,
                -0.25644054289185186,
                -0.10018542966737433,
                -0.25045174528026104,
                -0.03274893564401372,
                -0.18081989750894847,
                0.1937681703639299,
                -0.22544037400758618,
                0.07070330723463004,
                -0.11658968357865145,
                0.3364469434175198,
                -0.2403971647048984,
                0.016525682447992986,
                -0.1511560536561988,
                0.26265573112500173,
                -0.2055813095720177,
                0.12978408451569695,
                -0.07712068256825307,
                0.41514199413303243,
                -0.23812531413515928,
                -0.1884182534834879,
                -0.25248974501688964,
                -0.045904797311573355,
                -0.2551117449683201,
                -0.12696725134567124,
                -0.23025880555342218,
                0.054770274814189016,
                -0.24906955802493366,
                -0.16014411743498833,
                -0.24382543094021128,
                0.0019810821820529486,
                -0.25625182678379343,
                -0.08888752485051778,
                -0.21178977958325054,
                0.11246295204159944,
                -0.1726703883908503,
                0.21304160054435958,
                -0.019035994742179232,
                0.5235704153441586,
                -0.10565819338340145,
                0.3584990016585242,
                0.08719696321676397,
                0.7082572547531483,
                -0.14161550053168626,
                0.2833186314314159,
                0.03162908567174525,
                0.6134618120906555,
                -0.0647983878949074,
                0.4385828724602664,
                0.1476677580357119,
                0.8079569456579629,
                -0.026144856937253488,
                -0.249413169009504,
                -0.17699533629901218,
                -0.24339391806260977,
                -0.11137400286602421,
                -0.25620855903547834,
                -0.22300854916092974,
                -0.2109682805476734,
                -0.07121039362949143,
                -0.2552620639714797,
                -0.20245298347664556,
                -0.22963254063993713,
                -0.1466356615468454,
                -0.2522525489179999,
                -0.23866196916011231,
                -0.1874009914105745,
                -0.25330009420041166,
                -0.14059593245664911,
                -0.23616652048367928,
                0.03341808253881134,
                -0.2545376360690649,
                -0.06339485685047114,
                -0.19818619241246527,
                0.14984409821092634,
                -0.2563699190475911,
                -0.10444680826580051,
                -0.2196275491188731,
                0.08917937363769644,
                -0.24780319129526238,
                -0.017439942057599803,
                -0.17184235530314132,
                0.2154124335033082,
                -0.18470850371967298,
                -0.23999384971673116,
                -0.25156836799215454,
                -0.14997952406127701,
                -0.22794249735175928,
                -0.20479210459288105,
                -0.2555856840873193,
                -0.07555501910044231,
                -0.2087764953581663,
                -0.2248442699375185,
                -0.2560281287505722,
                -0.11521883661894124,
                -0.24220647116566316,
                -0.17983723296453955,
                -0.25024095437586247,
                -0.030987909695754334,
                -0.2318498745492231,
                0.0488545757694552,
                -0.13071792035910698,
                0.3068750143206027,
                -0.19108860539557762,
                0.16805823698258188,
                -0.05073714092977127,
                0.46530624376149565,
                -0.21392038097146118,
                0.10600484393844505,
                -0.09317884127101024,
                0.3836387326089816,
                -0.1633544784172219,
                0.23501490648970783,
                -0.0033927088392936636,
                0.5518777404577352,
                -0.11667054942552764,
                -0.2559479312203567,
                -0.22552594163112524,
                -0.20793158727409858,
                -0.18090221540229226,
                -0.24174496185097444,
                -0.2505413582976129,
                -0.15450678020737835,
                -0.15123735818958603,
                -0.25129768940204017,
                -0.24048471819364833,
                -0.18367068342770126,
                -0.20566509024625015,
                -0.22728963556626902,
                -0.2556957900338752,
                -0.1204397235204943,
                -0.2538362919294431,
                -0.057133598450513946,
                -0.19470427826055503,
                0.1588826540718153,
                -0.23407478943131269,
                0.041068296831553226,
                -0.13572414164625538,
                0.29631074750912506,
                -0.24640663463685905,
                -0.010484135334911536,
                -0.16766545810261538,
                0.22514489770532556,
                -0.21684069462584313,
                0.09752384191933298,
                -0.09888022611276892,
                0.37238038844541144,
                -0.2302541326078956,
                -0.20154580739077632,
                -0.2551177632222767,
                -0.06953234636826446,
                -0.25249012902861656,
                -0.14534473767933248,
                -0.2381365418962134,
                0.02589251730303045,
                -0.24382315168643234,
                -0.17589662223305536,
                -0.24907829675058749,
                -0.024271551920768335,
                -0.25625501838226983,
                -0.10989002529393814,
                -0.22229241131522973,
                0.08096003083054859,
                -0.1873252361359913,
                0.17738472602307667,
                -0.04419157590754671,
                0.47741156405302,
                -0.12556334556408524,
                0.3175912318964468,
                0.056790813082790444,
                0.6568471202099014,
                -0.15889548589062982,
                0.24503633161109492,
                0.0038482384847389117,
                0.5646773453535175,
                -0.08732873803461678,
                0.39504958618436536,
                0.1146362661000953,
                0.7539210890191493,
                -0.07421849135952856,
                -0.25549144336460833,
                -0.20407146568107445,
                -0.22847374044750937,
                -0.14894891308175454,
                -0.2517876974581672,
                -0.2395858102126376,
                -0.18554857591984678,
                -0.114034671097537,
                -0.25609079094420095,
                -0.22427969155996416,
                -0.2094626278196884,
                -0.17896119035347977,
                -0.2425820537643135,
                -0.24998975358864692,
                -0.15673143451404445,
                -0.25638265218795764,
                -0.10167959459618127,
                -0.21825002950703015,
                0.09333531215922185,
                -0.24712075387968438,
                -0.013978219154328944,
                -0.1697698931686411,
                0.2202622427137611,
                -0.2542027760936193,
                -0.060280355069222115,
                -0.1964611808729722,
                0.15434701840020193,
                -0.2351365277178882,
                0.03722695316025463,
                -0.1381760674740263,
                0.2910811662034025,
                -0.21029325314487043,
                -0.22358200108039494,
                -0.25615510536317726,
                -0.11256826850789635,
                -0.2430282970592361,
                -0.17788067054651485,
                -0.24967321563359193,
                -0.02764367507350048,
                -0.22911178207249752,
                -0.2031826561789425,
                -0.2553652830746042,
                -0.07255757212894605,
                -0.2520427557116022,
                -0.1476759196061367,
                -0.23907881955491037,
                0.02217358832716122,
                -0.21240591594657768,
                0.1103007877987117,
                -0.09027334598618696,
                0.3893241328487582,
                -0.1611444512087709,
                0.2400057282211863,
                0.0002081091007781516,
                0.5582573685289686,
                -0.1892263507226317,
                0.17270165399169743,
                -0.047483962932562455,
                0.47133880495872704,
                -0.1281601441419502,
                0.3122131659337142,
                0.052802984468626836,
                0.6500800200977679,
                -0.15350071598483775,
                -0.2507822511893291,
                -0.24135841588024878,
                -0.18176704403645366,
                -0.20723357811797335,
                -0.2260799542672275,
                -0.2558748285876876,
                -0.11784246234509353,
                -0.18281813147559997,
                -0.24088236967795285,
                -0.2510677068291566,
                -0.15225628467842697,
                -0.22674702123586596,
                -0.20637488809756804,
                -0.2557797053880029,
                -0.07852541908512277,
                -0.24565932093545903,
                -0.006956185293231748,
                -0.16552754113634294,
                0.23006190012151115,
                -0.2153980336752883,
                0.10174646639284309,
                -0.0960471956781449,
                0.37799142100118766,
                -0.23297979390827586,
                0.044943617943172205,
                -0.1332386469202657,
                0.3015748116776119,
                -0.19291397469084115,
                0.1634525077849282,
                -0.053953080772579425,
                0.4593119169131318,
                -0.24459013828883716,
                -0.1738841985909584,
                -0.24845530463104046,
                -0.02087065446696042,
                -0.25632697288073747,
                -0.10718321937516621,
                -0.22097460937751798,
                0.08505467776382361,
                -0.25290959210043296,
                -0.14298508976331395,
                -0.23716612456048178,
                0.029640335460638666,
                -0.254842230518877,
                -0.06647845513214916,
                -0.19988066787952877,
                0.14537254582870648,
                -0.1566054539585579,
                0.2501088378384634,
                0.007529804154223028,
                0.5711397884478068,
                -0.08434289074336253,
                0.40081721196352915,
                0.11901340185292734,
                0.7610779958779622,
                -0.12292539703692383,
                0.32301133247217595,
                0.06082018553792954,
                0.6636568425873971,
                -0.04085785409743776,
                0.48352663947645064,
                0.18210957517139906,
                0.863403452575175
            ],
            "result_with_budget": [
                {
                    "portfolio": {
                        "MMM": 6,
                        "TRV": 7
                    },
                    "budget": 2450.0975189208984,
                    "difference": 3.9024810791015625,
                    "objective_value": -693.7253923913806
                }
            ],
            "result_with_budget_excited": [
                {
                    "portfolio": {
                        "MMM": 8,
                        "TRV": 6
                    },
                    "budget": 2467.1017150878906,
                    "difference": -13.101715087890625,
                    "objective_value": -936.2963810798676
                }
            ]
        },
        "qaoa_solution": {
            "two_most_probable_states": [
                "010010000",
                "000011000"
            ],
            "final_expectation_value": -0.23836284483583897,
            "params": [
                5.802235933938413,
                1.2349547855318674,
                -2.6611489839126325,
                8.139359767334348,
                2.223169555151603,
                1.9721302358591912,
                10.182697812312695,
                0.38117289235360596,
                -2.2283099852993207,
                0.932295526036311,
                -0.6702155502335287,
                2.3225346601132366,
                1.4076615802370194,
                0.08734117769611642,
                1.5126883156106745,
                1.5708499948991597,
                0.04935479331416048,
                1.451951135760632
            ],
            "total_steps": 800,
            "states_probs": [
                0.010066917505964187,
                0.010088711607132496
            ],
            "optimized_portfolios": [
                {
                    "MMM": 18,
                    "TRV": 0
                },
                {
                    "MMM": 16,
                    "TRV": 1
                }
            ],
            "training_history": {
                "xbest": [
                    5.802235933938413,
                    1.2349547855318674,
                    -2.6611489839126325,
                    8.139359767334348,
                    2.223169555151603,
                    1.9721302358591912,
                    10.182697812312695,
                    0.38117289235360596,
                    -2.2283099852993207,
                    0.932295526036311,
                    -0.6702155502335287,
                    2.3225346601132366,
                    1.4076615802370194,
                    0.08734117769611642,
                    1.5126883156106745,
                    1.5708499948991597,
                    0.04935479331416048,
                    1.451951135760632
                ],
                "fbest": -0.23836284483583897,
                "evals_best": 9566,
                "evaluations": 9600,
                "iterations": 800,
                "xfavorite": [
                    5.842458671836961,
                    1.2448419767977488,
                    -2.7551000940530797,
                    8.11666695998921,
                    2.2680448725560343,
                    2.010731033917043,
                    10.263073519450804,
                    0.3333391063119073,
                    -2.2787151140798616,
                    0.9270457515153938,
                    -0.6797246898041884,
                    2.3301641526752324,
                    1.410644550156741,
                    0.08863554313519358,
                    1.5133933694405506,
                    1.527434260436464,
                    0.09085288786360274,
                    1.4516654290434092
                ],
                "stds": [
                    0.06777134771763589,
                    0.04083990834514259,
                    0.05347033532650424,
                    0.09155353820110004,
                    0.06874531850989637,
                    0.06975620054422686,
                    0.11888227538716574,
                    0.028601806309771143,
                    0.04349091775310038,
                    0.007113107896424793,
                    0.00980665614118983,
                    0.008427005870164976,
                    0.0037359029632457446,
                    0.0073307320659948905,
                    0.005861443033450028,
                    0.01883769297906553,
                    0.019113190408706626,
                    0.00722447309212754
                ],
                "stop": {
                    "maxiter": 800
                }
            },
            "objective_values": [
                -10969.312712302075,
                -7021.946327909598
            ],
            "result_with_budget": [
                {
                    "portfolio": {
                        "MMM": 18,
                        "TRV": 0
                    },
                    "budget": 2312.2142028808594,
                    "difference": 141.78579711914062
                },
                {
                    "portfolio": {
                        "MMM": 16,
                        "TRV": 1
                    },
                    "budget": 2295.210006713867,
                    "difference": 158.7899932861328
                }
            ]
        }
    }
}