{
    "82": {
        "hyperparams": {
            "stocks": [
                "JNJ",
                "TRV"
            ],
            "start": "2015-01-01",
            "end": "2025-01-01",
            "risk_aversion": 0.1,
            "n_qubits": 7,
            "budget": 1299,
            "log_encoding": true,
            "layers": 7,
            "prices_now": {
                "JNJ": 143.4715576171875,
                "TRV": 239.9084930419922
            },
            "assets_to_qubits": {
                "JNJ": [
                    0,
                    1,
                    2,
                    3
                ],
                "TRV": [
                    4,
                    5,
                    6
                ]
            },
            "optimizer": "CMAES",
            "lambda_budget": 1
        },
        "continuous_variables_solution": {
            "weights": {
                "JNJ": 0.530757684118451,
                "TRV": 0.46924231588154897
            },
            "allocation": {
                "JNJ": 4,
                "TRV": 3
            },
            "value": -47.37259192920858,
            "left_overs": 5.388290282522348
        },
        "continuous_variables_solution_unconstrained": {
            "weights": {
                "JNJ": 0.5339933994352867,
                "TRV": 0.4692946881141865
            },
            "allocation": {
                "JNJ": 4,
                "TRV": 3
            },
            "value": -47.37259192920858,
            "left_overs": 5.388290053086848
        },
        "exact_solution": {
            "smallest_eigenvalues": [
                -0.28789426867762175
            ],
            "smallest_bitstrings": [
                "0010110"
            ],
            "first_excited_energy": -0.2878852274227748,
            "optimized_portfolio": [
                {
                    "JNJ": 4,
                    "TRV": 3
                }
            ],
            "second_optimized_portfolio": [
                {
                    "JNJ": 9,
                    "TRV": 0
                }
            ],
            "spectrum": [
                -2.4744035998449954e-17,
                -0.2682495735299531,
                -0.17340536465457596,
                -0.2845314541228988,
                -0.09652277924316947,
                -0.2862109038681155,
                -0.23064767141115625,
                -0.263210974831664,
                -0.28399523253081616,
                -0.17639113605318257,
                -0.26947453104886765,
                -0.004743182099328048,
                -0.2865551276137154,
                -0.1003878712612373,
                -0.23275327139555899,
                0.11054326751283461,
                -0.19819096945893244,
                -0.2785143872082338,
                -0.2776335535413283,
                -0.2008319514858156,
                -0.24773241109113575,
                -0.24949369868148843,
                -0.28789426867762175,
                -0.13252885284975155,
                -0.25740649242350194,
                0.038127307209933944,
                -0.14892158514375198,
                0.3037423965525903,
                -0.21298442439811283,
                0.1611139132880176,
                -0.06521775991088045,
                0.46601313639276687,
                -0.11314358930463846,
                -0.28743020284488935,
                -0.23956760084456405,
                -0.25673004956708123,
                -0.18617571288332654,
                -0.2819005804493444,
                -0.2733191467108748,
                -0.21191833908105012,
                -0.2847505412503686,
                -0.0831819187161039,
                -0.2232478778512824,
                0.1354493748349001,
                -0.2638195198252871,
                0.016312908115002932,
                -0.16303542223322776,
                0.2742278391782899,
                -0.2551417369469843,
                -0.24150161929376532,
                -0.2876027673238094,
                -0.1168366006477188,
                -0.28119244439811775,
                -0.18898972528574676,
                -0.2743725559377566,
                -0.025041930953804484,
                -0.201961659645996,
                0.18753807193947475,
                -0.04649417461689495,
                0.5001374651734481,
                -0.13404838897539162,
                0.33401670042493137,
                0.0607012198334457,
                0.6859007672285516,
                -0.06008380556551253,
                -0.2813519220876251,
                -0.20999849971155063,
                -0.27414281357285386,
                -0.14486125863965535,
                -0.2875677886115841,
                -0.2554954331309281,
                -0.24107673668158908,
                -0.2878852274227748,
                -0.133298942808998,
                -0.24987357698362528,
                0.06184062716319105,
                -0.27869967889118824,
                -0.04554992252641259,
                -0.20140673943216636,
                0.18887305316730857,
                -0.23017846499512612,
                -0.2635201639827588,
                -0.28613029124981415,
                -0.16234647760247628,
                -0.267974547688154,
                -0.2227538917561723,
                -0.2846455567210117,
                -0.08229761792300053,
                -0.2331967731679866,
                0.10931989159671372,
                -0.10122062199121948,
                0.398427066128498,
                -0.17702912494763948,
                0.24405247686139803,
                -0.005771038721981153,
                0.5724440496143343,
                -0.15917932475183597,
                -0.2864843763599126,
                -0.2621126350999294,
                -0.2322931161756045,
                -0.2204661122645683,
                -0.2692092366954906,
                -0.2841187759532359,
                -0.17573573285599786,
                -0.2745910196870154,
                -0.02603989647162761,
                -0.18959727283711045,
                0.21608323470681723,
                -0.24191449284535688,
                0.08520079120995444,
                -0.11763915573994262,
                0.3666078025808689,
                -0.27308069491844555,
                -0.2124586497689011,
                -0.28205088487910634,
                -0.06430221076104553,
                -0.2873860075808935,
                -0.14820109265378706,
                -0.25707516619957566,
                0.039238321162406886,
                -0.1637009336004279,
                0.27278207947161026,
                0.015257981724469565,
                0.6088738314089791,
                -0.08404199498019388,
                0.4310068184560837,
                0.13419924374472067,
                0.8063835302010302
            ],
            "result_with_budget": [
                {
                    "portfolio": {
                        "JNJ": 4,
                        "TRV": 3
                    },
                    "budget": 1293.6117095947266,
                    "difference": 5.3882904052734375,
                    "objective_value": -47.37259192920858
                }
            ],
            "result_with_budget_excited": [
                {
                    "portfolio": {
                        "JNJ": 9,
                        "TRV": 0
                    },
                    "budget": 1291.2440185546875,
                    "difference": 7.7559814453125,
                    "objective_value": -257.30234743580684
                }
            ]
        },
        "qaoa_solution": {
            "two_most_probable_states": [
                "0001000",
                "0010010"
            ],
            "final_expectation_value": -0.2682767869203646,
            "params": [
                2.615405572887648,
                -4.152825968030861,
                1.6804544716693839,
                1.2491574349652579,
                11.077391388313332,
                7.883860527090833,
                5.154611572660004,
                1.9034683307161469,
                2.959258020046213,
                -0.6556980551496543,
                1.365577918491023,
                1.4654299149585037,
                3.2061080648050364,
                1.5666545773964693
            ],
            "total_steps": 800,
            "states_probs": [
                0.030964655035501797,
                0.031143611926393297
            ],
            "optimized_portfolios": [
                {
                    "JNJ": 8,
                    "TRV": 0
                },
                {
                    "JNJ": 4,
                    "TRV": 2
                }
            ],
            "training_history": {
                "xbest": [
                    2.615405572887648,
                    -4.152825968030861,
                    1.6804544716693839,
                    1.2491574349652579,
                    11.077391388313332,
                    7.883860527090833,
                    5.154611572660004,
                    1.9034683307161469,
                    2.959258020046213,
                    -0.6556980551496543,
                    1.365577918491023,
                    1.4654299149585037,
                    3.2061080648050364,
                    1.5666545773964693
                ],
                "fbest": -0.2682767869203646,
                "evals_best": 8740,
                "evaluations": 8800,
                "iterations": 800,
                "xfavorite": [
                    2.615382782979255,
                    -4.152919826066101,
                    1.6805550982836213,
                    1.249172623490216,
                    11.07735022517942,
                    7.883887148643046,
                    5.154649847237398,
                    1.9034735012318293,
                    2.9592735351483497,
                    -0.6557175108077553,
                    1.3655805434806696,
                    1.4654304872685853,
                    3.2061088834624445,
                    1.5666543397131973
                ],
                "stds": [
                    2.074204925698078e-05,
                    4.472446791624643e-05,
                    3.6806865033038045e-05,
                    1.902444864104814e-05,
                    4.903677560933868e-05,
                    4.2966261156012114e-05,
                    0.0004353239780710084,
                    2.279042198370508e-06,
                    6.891533538281102e-06,
                    8.722776461015745e-06,
                    4.499833810132228e-06,
                    5.884267609245167e-07,
                    1.216339257367059e-06,
                    1.1149610670338375e-06
                ],
                "stop": {
                    "maxiter": 800
                }
            },
            "objective_values": [
                -160.61073247449045,
                -23.928217885644333
            ],
            "result_with_budget": [
                {
                    "portfolio": {
                        "JNJ": 8,
                        "TRV": 0
                    },
                    "budget": 1147.7724609375,
                    "difference": 151.2275390625
                },
                {
                    "portfolio": {
                        "JNJ": 4,
                        "TRV": 2
                    },
                    "budget": 1053.7032165527344,
                    "difference": 245.29678344726562
                }
            ]
        }
    }
}