{
    "85": {
        "hyperparams": {
            "stocks": [
                "CAT",
                "V"
            ],
            "start": "2015-01-01",
            "end": "2025-01-01",
            "risk_aversion": 0.1,
            "n_qubits": 7,
            "budget": 2584,
            "log_encoding": true,
            "layers": 7,
            "prices_now": {
                "CAT": 359.7030334472656,
                "V": 315.5091247558594
            },
            "assets_to_qubits": {
                "CAT": [
                    0,
                    1,
                    2
                ],
                "V": [
                    3,
                    4,
                    5,
                    6
                ]
            },
            "optimizer": "CMAES",
            "lambda_budget": 1
        },
        "continuous_variables_solution": {
            "weights": {
                "CAT": 0.7132058670089871,
                "V": 0.2867941329910129
            },
            "allocation": {
                "CAT": 5,
                "V": 2
            },
            "value": -20.915362227351576,
            "left_overs": 154.46658236791154
        },
        "continuous_variables_solution_unconstrained": {
            "weights": {
                "CAT": 0.746942895462334,
                "V": 0.3267556105022656
            },
            "allocation": {
                "CAT": 5,
                "V": 2
            },
            "value": -20.915362227351576,
            "left_overs": 154.46658016718675
        },
        "exact_solution": {
            "smallest_eigenvalues": [
                -0.32260875827812896
            ],
            "smallest_bitstrings": [
                "1001110"
            ],
            "first_excited_energy": -0.32258173121943545,
            "optimized_portfolio": [
                {
                    "CAT": 1,
                    "V": 7
                }
            ],
            "second_optimized_portfolio": [
                {
                    "CAT": 2,
                    "V": 6
                }
            ],
            "spectrum": [
                -1.0697813372968265e-16,
                -0.32244697495120356,
                -0.23818144530258273,
                -0.2527948113926748,
                -0.13833014882500833,
                -0.3068607637339533,
                -0.2995537819922848,
                -0.16024870447703463,
                -0.07397492722928406,
                -0.31946381413081415,
                -0.273677493324323,
                -0.21133180608567353,
                -0.1930656585292252,
                -0.2846377792514365,
                -0.31581028592290195,
                -0.09954544293195472,
                -0.2592544426442357,
                -0.2307517981346687,
                -0.3219613031072508,
                0.014376184753063893,
                -0.30984733433926737,
                -0.12742779627421455,
                -0.2955961996419534,
                0.19466060026329493,
                -0.2893607475143708,
                -0.1838997691314144,
                -0.3135886477237801,
                0.09970830675217449,
                -0.32071419162775294,
                -0.06133582982065961,
                -0.2679839282449822,
                0.29923313415445335,
                -0.15463391461825934,
                -0.3016061557725228,
                -0.30507809234256833,
                -0.14421615989175213,
                -0.2490954440177311,
                -0.24215108462354756,
                -0.32258173121943545,
                -0.0078009471939061645,
                -0.20667453441736888,
                -0.27668857773531363,
                -0.3186397989737093,
                -0.08081861967591539,
                -0.2818966345447854,
                -0.19799362931142755,
                -0.31690386107956736,
                0.07483692380569083,
                -0.31386152883095375,
                -0.10988381848510137,
                -0.2888310081968726,
                0.2229823202470962,
                -0.32058575746624995,
                0.03730919194297697,
                -0.21859711078369137,
                0.4471360426762828,
                -0.32203350773511785,
                -0.04109730122838101,
                -0.25852396663658106,
                0.33024907444211404,
                -0.3095182639165638,
                0.12533571338799415,
                -0.1690504074048009,
                0.5736432964342422,
                -0.08356862845911325,
                -0.3182782537261102,
                -0.27788144529838776,
                -0.20475719245750162,
                -0.1999644694139417,
                -0.28075762094819234,
                -0.31731943820556396,
                -0.09027654433725649,
                -0.14657640268952296,
                -0.3043278882948265,
                -0.3024103249816926,
                -0.15232692533425007,
                -0.24373282106611632,
                -0.24756740586871578,
                -0.32260875827812896,
                -0.018605984523411365,
                -0.2928096706993222,
                -0.17656951756226705,
                -0.3116478494778135,
                0.11242752125846137,
                -0.321468234476172,
                -0.05131102159229337,
                -0.26334835593156347,
                0.31464657677257435,
                -0.3119488141872334,
                -0.11875024931434452,
                -0.2923080042473453,
                0.20872695283280907,
                -0.3213679187666595,
                0.025748216654601985,
                -0.2247688726053714,
                0.43018646325409116,
                -0.21319585464088847,
                -0.27243067371569574,
                -0.31977138082947654,
                -0.07117170455158298,
                -0.28572306791527713,
                -0.19104114650072465,
                -0.31534065454370197,
                0.08717809698140876,
                -0.2542693181339981,
                -0.23654587463525445,
                -0.32236590925245057,
                0.003193120475448715,
                -0.3075570938018607,
                -0.1359164408780035,
                -0.2986955873947469,
                0.18078329252601866,
                -0.3224100050177222,
                -0.030694685343567663,
                -0.2535107654739228,
                0.3460405990476705,
                -0.30719989040354256,
                0.1384328607757494,
                -0.16134244952328244,
                0.5921290161876704,
                -0.3196148156943417,
                0.04905909112835479,
                -0.2122365206587067,
                0.46427468935106553,
                -0.28516521372923453,
                0.23742667726594396,
                -0.10082851752594055,
                0.729603652350432
            ],
            "result_with_budget": [
                {
                    "portfolio": {
                        "CAT": 1,
                        "V": 7
                    },
                    "budget": 2568.2669067382812,
                    "difference": 15.73309326171875,
                    "objective_value": -114.33488856935328
                }
            ],
            "result_with_budget_excited": [
                {
                    "portfolio": {
                        "CAT": 2,
                        "V": 6
                    },
                    "budget": 2612.4608154296875,
                    "difference": -28.4608154296875,
                    "objective_value": -78.24600401049503
                }
            ]
        },
        "qaoa_solution": {
            "two_most_probable_states": [
                "0001001",
                "0000001"
            ],
            "final_expectation_value": -0.3041268943272694,
            "params": [
                2.1468647501840032,
                0.811187119326766,
                4.462705301062508,
                6.668897066997375,
                9.350778309904758,
                0.33231230801825945,
                1.5319501914998106,
                1.0270733830006913,
                1.6686740913903675,
                -0.21062174910134554,
                3.0235200776501316,
                1.4936114853266347,
                3.14535793426967,
                1.5552442958158095
            ],
            "total_steps": 800,
            "states_probs": [
                0.038223078322501144,
                0.05451069055264216
            ],
            "optimized_portfolios": [
                {
                    "CAT": 0,
                    "V": 9
                },
                {
                    "CAT": 0,
                    "V": 8
                }
            ],
            "training_history": {
                "xbest": [
                    2.1468647501840032,
                    0.811187119326766,
                    4.462705301062508,
                    6.668897066997375,
                    9.350778309904758,
                    0.33231230801825945,
                    1.5319501914998106,
                    1.0270733830006913,
                    1.6686740913903675,
                    -0.21062174910134554,
                    3.0235200776501316,
                    1.4936114853266347,
                    3.14535793426967,
                    1.5552442958158095
                ],
                "fbest": -0.3041268943272694,
                "evals_best": 8776,
                "evaluations": 8800,
                "iterations": 800,
                "xfavorite": [
                    2.1468325007848557,
                    0.8111777346974344,
                    4.46278553909771,
                    6.6690583184974415,
                    9.35033192052163,
                    0.32983994304821784,
                    1.5345338125319556,
                    1.0270622224839612,
                    1.668682719195607,
                    -0.21063431694299886,
                    3.0235260559554873,
                    1.4935783351600973,
                    3.145391691173297,
                    1.5552426982537204
                ],
                "stds": [
                    7.047198528741995e-05,
                    7.742972707831882e-05,
                    0.0001705901653629309,
                    0.0002542381974666031,
                    0.00046212275665088624,
                    0.0047701636848288586,
                    0.005096317773490399,
                    3.364941170853683e-05,
                    3.8558839038335025e-05,
                    8.364739975153243e-06,
                    6.025402150210652e-06,
                    3.102827238088588e-05,
                    3.7056399607028944e-05,
                    1.9999918736100326e-05
                ],
                "stop": {
                    "maxiter": 800
                }
            },
            "objective_values": [
                -266.7267468990403,
                -165.91633514256455
            ],
            "result_with_budget": [
                {
                    "portfolio": {
                        "CAT": 0,
                        "V": 9
                    },
                    "budget": 2839.5821228027344,
                    "difference": -255.58212280273438
                },
                {
                    "portfolio": {
                        "CAT": 0,
                        "V": 8
                    },
                    "budget": 2524.072998046875,
                    "difference": 59.927001953125
                }
            ]
        }
    }
}