{
    "81": {
        "hyperparams": {
            "stocks": [
                "CAT",
                "IBM",
                "UNH"
            ],
            "start": "2015-01-01",
            "end": "2025-01-01",
            "risk_aversion": 0.1,
            "n_qubits": 7,
            "budget": 1366,
            "log_encoding": true,
            "layers": 7,
            "prices_now": {
                "CAT": 359.70306396484375,
                "IBM": 218.37515258789062,
                "UNH": 503.7073059082031
            },
            "assets_to_qubits": {
                "CAT": [
                    0,
                    1
                ],
                "IBM": [
                    2,
                    3,
                    4
                ],
                "UNH": [
                    5,
                    6
                ]
            },
            "optimizer": "CMAES",
            "lambda_budget": 1
        },
        "continuous_variables_solution": {
            "weights": {
                "CAT": 0.6081094877178944,
                "IBM": 0.0,
                "UNH": 0.39189051228210575
            },
            "allocation": {
                "CAT": 2,
                "UNH": 1,
                "IBM": 0
            },
            "value": 0.12409143346047154,
            "left_overs": 142.88656347204142
        },
        "continuous_variables_solution_unconstrained": {
            "weights": {
                "CAT": 0.5609894393929445,
                "IBM": 0.04791729118856801,
                "UNH": 0.47794236456041334
            },
            "allocation": {
                "CAT": 2,
                "UNH": 1,
                "IBM": 0
            },
            "value": 0.12409143346047154,
            "left_overs": 142.88656017985204
        },
        "exact_solution": {
            "smallest_eigenvalues": [
                -0.26565325071487367
            ],
            "smallest_bitstrings": [
                "1000001"
            ],
            "first_excited_energy": -0.26564292850272936,
            "optimized_portfolio": [
                {
                    "CAT": 1,
                    "IBM": 0,
                    "UNH": 2
                }
            ],
            "second_optimized_portfolio": [
                {
                    "CAT": 2,
                    "IBM": 3,
                    "UNH": 0
                }
            ],
            "spectrum": [
                -1.1377330252061695e-16,
                -0.24734716876734453,
                -0.15979547608517186,
                -0.26265505197050293,
                -0.23112091666428597,
                -0.22790575047275796,
                -0.2656352621824108,
                -0.11793233023440014,
                -0.14271745935029306,
                -0.2647835184102853,
                -0.2398723938159713,
                -0.21745079444476317,
                -0.26520998618151626,
                -0.13671341926143904,
                -0.23708366545759674,
                0.03590081632034117,
                -0.0781479646216347,
                -0.2628545892325199,
                -0.20662317394016527,
                -0.24684217811645587,
                -0.25495478280950473,
                -0.1890989419341348,
                -0.25814880674132057,
                -0.04780513078079088,
                -0.19370845709066825,
                -0.2531339217137251,
                -0.2595431048714792,
                -0.17448086262270657,
                -0.26188644335234573,
                -0.07074909153508785,
                -0.20243975115745966,
                0.13318560573438323,
                -0.2061314695902865,
                -0.2471182582711554,
                -0.26274676012495785,
                -0.15924593225935846,
                -0.2583230083084206,
                -0.048747381861566894,
                -0.18965713588000382,
                0.16440631074132434,
                -0.2593842825829376,
                -0.17508993193389202,
                -0.25335902053102644,
                -0.024576972409557,
                -0.2029472078892639,
                0.13190989075615306,
                -0.07164063732798776,
                0.40770444597005,
                -0.2395471183671457,
                -0.21789335069573987,
                -0.2648421379593638,
                -0.09870071850052434,
                -0.23742446009874346,
                0.034791874151493415,
                -0.13743825144634325,
                0.2792659799954293,
                -0.26564292850272936,
                -0.11870796075907045,
                -0.22829737035920766,
                0.0631253509858885,
                -0.15489116161237987,
                0.24260676551162158,
                0.007735800288468408,
                0.5497218099701994,
                -0.12148627120897024,
                -0.26565325071487367,
                -0.22969165457673246,
                -0.22937103070062592,
                -0.26314251395899135,
                -0.15674711842221406,
                -0.246066750561994,
                0.0048164366080305394,
                -0.2194714128640658,
                -0.23835726785164413,
                -0.2650362491289441,
                -0.13943442749694143,
                -0.2524991621747794,
                -0.020822330174754437,
                -0.17278271659048486,
                0.20338206383254978,
                -0.17726808013858336,
                -0.25879450939027404,
                -0.25415319465187564,
                -0.19119198912478275,
                -0.2646101792486922,
                -0.09557409246845669,
                -0.2162140869466262,
                0.09730986463972609,
                -0.24809623897029742,
                -0.2043414881922559,
                -0.26234078384701387,
                -0.07409830416457003,
                -0.2268093759894642,
                0.06750826269828894,
                -0.11577254899997763,
                0.32303313217170204,
                -0.2539355838395365,
                -0.19174218088435,
                -0.25896078180172205,
                -0.05227974647114669,
                -0.21666238285796008,
                0.0960934753112255,
                -0.09640640165811114,
                0.36083730789123775,
                -0.26245605442739556,
                -0.07498149733008748,
                -0.20484069431899077,
                0.12712158376804533,
                -0.11655410369525457,
                0.3214832624084271,
                0.06634259158332403,
                0.6488679812336985,
                -0.2649850666153591,
                -0.1401511012095272,
                -0.23868999154695397,
                0.03063164531942426,
                -0.17339760711749408,
                0.2019989754153082,
                -0.021821282374592906,
                0.49806323239962585,
                -0.24634851022090049,
                0.003766675300322824,
                -0.15741284931728233,
                0.2371901171668746,
                -0.04613177920382683,
                0.454546437169604,
                0.16808531734885807,
                0.8132516590182831
            ],
            "result_with_budget": [
                {
                    "portfolio": {
                        "CAT": 1,
                        "IBM": 0,
                        "UNH": 2
                    },
                    "budget": 1367.11767578125,
                    "difference": -1.11767578125,
                    "objective_value": -0.5585293757491387
                }
            ],
            "result_with_budget_excited": [
                {
                    "portfolio": {
                        "CAT": 2,
                        "IBM": 3,
                        "UNH": 0
                    },
                    "budget": 1374.5315856933594,
                    "difference": -8.531585693359375,
                    "objective_value": -7.1498137610671995
                }
            ]
        },
        "qaoa_solution": {
            "two_most_probable_states": [
                "0000001",
                "0010001"
            ],
            "final_expectation_value": -0.2526023730916147,
            "params": [
                2.5462554422683374,
                -1.1096263329522693,
                9.736869587029744,
                0.8205845974107696,
                13.223768151370063,
                8.628105444520829,
                0.4593232730602317,
                2.12278304926654,
                0.4704076027059534,
                1.5179083189845457,
                1.4671352684316183,
                1.4976351840030298,
                2.9367309481877197,
                1.8008626559501806
            ],
            "total_steps": 800,
            "states_probs": [
                0.033260971245225555,
                0.036408059012205785
            ],
            "optimized_portfolios": [
                {
                    "CAT": 0,
                    "IBM": 0,
                    "UNH": 2
                },
                {
                    "CAT": 0,
                    "IBM": 1,
                    "UNH": 2
                }
            ],
            "training_history": {
                "xbest": [
                    2.5462554422683374,
                    -1.1096263329522693,
                    9.736869587029744,
                    0.8205845974107696,
                    13.223768151370063,
                    8.628105444520829,
                    0.4593232730602317,
                    2.12278304926654,
                    0.4704076027059534,
                    1.5179083189845457,
                    1.4671352684316183,
                    1.4976351840030298,
                    2.9367309481877197,
                    1.8008626559501806
                ],
                "fbest": -0.2526023730916147,
                "evals_best": 8782,
                "evaluations": 8800,
                "iterations": 800,
                "xfavorite": [
                    2.543783363019643,
                    -1.0996784092848837,
                    9.689375238314359,
                    0.8237480866929882,
                    13.190040641651812,
                    8.60298359375611,
                    0.4491601401661641,
                    2.11714129795429,
                    0.4754089971163115,
                    1.5154025226480115,
                    1.468807046930774,
                    1.497800800466569,
                    2.9365083819729487,
                    1.8015816921967698
                ],
                "stds": [
                    0.010932198460142225,
                    0.010597124538570918,
                    0.046667176703016934,
                    0.02450350989892873,
                    0.08254537999133651,
                    0.09163133044908342,
                    0.05116856082000334,
                    0.003722072353545689,
                    0.0035445966350587292,
                    0.0026781781393580735,
                    0.002480703138020326,
                    0.0004821108842855775,
                    0.009219227725243414,
                    0.008774908507738032
                ],
                "stop": {
                    "maxiter": 800
                }
            },
            "objective_values": [
                -0.38283866280655726,
                -1.4129671071817023
            ],
            "result_with_budget": [
                {
                    "portfolio": {
                        "CAT": 0,
                        "IBM": 0,
                        "UNH": 2
                    },
                    "budget": 1007.4146118164062,
                    "difference": 358.58538818359375
                },
                {
                    "portfolio": {
                        "CAT": 0,
                        "IBM": 1,
                        "UNH": 2
                    },
                    "budget": 1225.7897644042969,
                    "difference": 140.21023559570312
                }
            ]
        }
    }
}