{
    "76": {
        "hyperparams": {
            "stocks": [
                "TRV",
                "WBA"
            ],
            "start": "2015-01-01",
            "end": "2025-01-01",
            "risk_aversion": 0.1,
            "n_qubits": 11,
            "budget": 1617,
            "log_encoding": true,
            "layers": 10,
            "prices_now": {
                "TRV": 239.9084930419922,
                "WBA": 9.329999923706055
            },
            "assets_to_qubits": {
                "TRV": [
                    0,
                    1,
                    2
                ],
                "WBA": [
                    3,
                    4,
                    5,
                    6,
                    7,
                    8,
                    9,
                    10
                ]
            },
            "optimizer": "CMAES",
            "lambda_budget": 1
        },
        "continuous_variables_solution": {
            "weights": {
                "TRV": 0.8018066149683483,
                "WBA": 0.1981933850316518
            },
            "allocation": {
                "TRV": 5,
                "WBA": 37
            },
            "value": -87530.29392201905,
            "left_overs": 72.24753707861055
        },
        "continuous_variables_solution_unconstrained": {
            "weights": {
                "TRV": 0.8008589941915402,
                "WBA": 0.1391206282046353
            },
            "allocation": {
                "TRV": 6,
                "WBA": 19
            },
            "value": -5877.0539383580235,
            "left_overs": 0.27904390381581834
        },
        "exact_solution": {
            "smallest_eigenvalues": [
                -0.10857891287928652
            ],
            "smallest_bitstrings": [
                "01101001000"
            ],
            "first_excited_energy": -0.10857784127748267,
            "optimized_portfolio": [
                {
                    "TRV": 6,
                    "WBA": 18
                }
            ],
            "second_optimized_portfolio": [
                {
                    "TRV": 6,
                    "WBA": 19
                }
            ],
            "spectrum": [
                4.575333167888829e-17,
                -0.045828760794584075,
                -0.06191331141953822,
                0.17215974030537667,
                -0.036180847768761654,
                0.026964775588775268,
                -0.06943374549132687,
                0.41811875373038687,
                -0.019112405922212482,
                -0.016910669235507984,
                -0.06863642185851491,
                0.28056991529148656,
                -0.05071765833157306,
                0.08886011275061036,
                -0.0625301791777646,
                0.589156230626559,
                -0.00979379188658419,
                -0.03306054809770009,
                -0.06591721866005874,
                0.22298179568808807,
                -0.0438087587776641,
                0.05545597631895238,
                -0.06706809014063034,
                0.49916696631700974,
                -0.027925057985534855,
                0.002973518896375986,
                -0.06987920740203972,
                0.3454376717114732,
                -0.05679629756338048,
                0.12761029273389093,
                -0.05554783424410413,
                0.688680584000696,
                -0.004955154955610061,
                -0.039846108311314396,
                -0.06406465673278515,
                0.19675632246785746,
                -0.04007851243942563,
                0.04062254244327976,
                -0.06850622440861853,
                0.4575615701036533,
                -0.02358468699652907,
                -0.007458189810834246,
                -0.06945513472648067,
                0.31206095482362994,
                -0.053868499330466516,
                0.1075390922691311,
                -0.05936235789323058,
                0.6376886080581678,
                -0.014513948670232426,
                -0.02542988565817185,
                -0.06744891889222934,
                0.2508984706480776,
                -0.047359566567567304,
                0.07151732980458204,
                -0.06508720628501297,
                0.5430073111456846,
                -0.03212652771992988,
                0.01443168042830187,
                -0.06988153252945252,
                0.38076740568363565,
                -0.059484003767795085,
                0.14913099578028896,
                -0.05104944278142594,
                0.7422095562759821,
                -0.0024920687099996633,
                -0.042935209975052555,
                -0.06302500121687109,
                0.18425826531024048,
                -0.03814990524393577,
                0.033649917313397434,
                -0.06903185218476905,
                0.4375743133736779,
                -0.0213646473837367,
                -0.012303930823885314,
                -0.06909346321859818,
                0.29608388500935157,
                -0.05231994270964306,
                0.09802910588201999,
                -0.06102483260229492,
                0.6131197577805798,
                -0.012168852041275482,
                -0.029353540923931526,
                -0.06672460549413582,
                0.23672478942120398,
                -0.04560739286643538,
                0.06332984821193982,
                -0.0661475495482055,
                0.5208031979941979,
                -0.03004364156942325,
                0.008571292476079911,
                -0.0699348317307814,
                0.36285415371719265,
                -0.05817127685984094,
                0.13818582722038944,
                -0.053386493941802234,
                0.7151230591210955,
                -0.007389131339774752,
                -0.03655629935970335,
                -0.06502963604691932,
                0.20966158274519806,
                -0.04196528469652254,
                0.04788906468374057,
                -0.06785296298086152,
                0.4780894521489394,
                -0.02577176873270703,
                -0.0023676611218625097,
                -0.06971816583097486,
                0.32850942433212027,
                -0.05536131490450845,
                0.11739711424808875,
                -0.05753822723773146,
                0.6628723383187717,
                -0.016828640060985684,
                -0.021284111541341494,
                -0.06808720261856487,
                0.265510824651092,
                -0.04906358090693838,
                0.0800251491176104,
                -0.06388284685362608,
                0.5657885483155097,
                -0.03417264609375899,
                0.020560782142947272,
                -0.06971572493145232,
                0.3991860415240127,
                -0.0607321506822946,
                0.16045315506514765,
                -0.048531838634722005,
                0.7699499466402173,
                -0.0012496522702189576,
                -0.04440611003210146,
                -0.06247799855284586,
                0.17815953765466397,
                -0.03717034931962644,
                0.030271808812524788,
                -0.06924802501735773,
                0.42778062636099934,
                -0.020242507701809877,
                -0.014636816857205906,
                -0.06887666243011882,
                0.2882695282937431,
                -0.05152539372915446,
                0.09340242223587515,
                -0.06179686698791312,
                0.6010629230473525,
                -0.010985042867103773,
                -0.031233786669358707,
                -0.06633111456134579,
                0.22979995262858938,
                -0.04471378025410841,
                0.05935412848479872,
                -0.06662503490416113,
                0.5099146715608317,
                -0.028988748129682353,
                0.005739957032045824,
                -0.06992041402299327,
                0.3540843517693315,
                -0.05749142635435116,
                0.13285231243920118,
                -0.05448882838668315,
                0.7018219326855274,
                -0.0061757929121755975,
                -0.038226617593708684,
                -0.06455664910458377,
                0.20315756971164037,
                -0.04102721754592892,
                0.044218662498618985,
                -0.06819579466955311,
                0.4677573718781073,
                -0.02468239792042398,
                -0.004943888562480719,
                -0.06959918780808681,
                0.32022574282175,
                -0.0546220036484176,
                0.11242415559413373,
                -0.0584707856165743,
                0.6502030128173906,
                -0.01567512569690029,
                -0.023385108448069417,
                -0.06777900229858926,
                0.25814931140293196,
                -0.04821770291284204,
                0.07573077367526572,
                -0.06450329500341953,
                0.554325208499816,
                -0.03315425284487158,
                0.01746225778396603,
                -0.0698129194036853,
                0.3899130091805202,
                -0.060116298269022324,
                0.15474448872188976,
                -0.049813515533867106,
                0.7559973947890157,
                -0.003727240761477702,
                -0.041415423434746634,
                -0.06355399653833615,
                0.1904568747762111,
                -0.039119349826118685,
                0.03709989543779038,
                -0.0687847469625767,
                0.4475009234302332,
                -0.022478737831275217,
                -0.009911295368002232,
                -0.06928642277182193,
                0.3040140155212686,
                -0.05310106097861475,
                0.10274103661429557,
                -0.06021351741107259,
                0.6253279220669041,
                -0.013345171561808237,
                -0.027419134383301152,
                -0.06709732929572458,
                0.24375729685946398,
                -0.046489391609647074,
                0.06738396913620022,
                -0.06563511475235244,
                0.5318336935683433,
                -0.031089611878613543,
                0.011468280285448822,
                -0.06992201978384646,
                0.3717481469274395,
                -0.05883556549599876,
                0.14361174929213386,
                -0.05224023301019726,
                0.7285851898374909,
                -0.008595142035829678,
                -0.0348344967758947,
                -0.06548327504180075,
                0.2162693327173489,
                -0.04289252853092179,
                0.0516345629897553,
                -0.06747722966684568,
                0.4885589392226731,
                -0.026852692651947296,
                0.0002712279232777793,
                -0.06981164769829988,
                0.33691304908241204,
                -0.05608616915960135,
                0.12245886080096045,
                -0.05656410450215105,
                0.6756977914476883,
                -0.01797442427048399,
                -0.019126198815157355,
                -0.06837313804473878,
                0.2729840208308031,
                -0.04989697590014518,
                0.0844013094121533,
                -0.06322532287050858,
                0.5773984981887145,
                -0.03518156139573453,
                0.023728028206929378,
                -0.06958948872648259,
                0.40858759173120995,
                -0.061331257779047424,
                0.1662579266694539,
                -0.04720379454001283,
                0.7840684580043904,
                -0.09065451442891763,
                -0.042042746522665125,
                -0.10505995620594677,
                0.22172108968908585,
                -0.10304590813854918,
                0.05381950499505375,
                -0.08900577734040188,
                0.48995186376430383,
                -0.09786786127273951,
                -0.0015495832624366028,
                -0.09997323708485752,
                0.34132605017684603,
                -0.10571008333955863,
                0.12711796180086385,
                -0.0703915693536566,
                0.6719394099346545,
                -0.09449826223418065,
                -0.02347738791179215,
                -0.10315388636366507,
                0.2781546956466787,
                -0.10473471304410319,
                0.0880241494909527,
                -0.0807774649700229,
                0.5764915426923938,
                -0.10073366436340554,
                0.024092173589624493,
                -0.09532743169681838,
                0.4117475889353288,
                -0.10586190709796912,
                0.17153291283476754,
                -0.057577049072838754,
                0.7768883658925863,
                -0.09263458976709568,
                -0.033159189625307756,
                -0.10425511846086036,
                0.24912691553626062,
                -0.10397339371068691,
                0.07033689365959277,
                -0.0851451647608396,
                0.5321444501756395,
                -0.0993663760489162,
                0.010784296214458982,
                -0.09784617573506878,
                0.3755977335105315,
                -0.10589660631986171,
                0.14863251100690986,
                -0.06430561317349097,
                0.723188409760535,
                -0.09624371182500274,
                -0.01295528900406903,
                -0.10173432372275126,
                0.3088665985848259,
                -0.1053179880404078,
                0.10693338296040251,
                -0.07587068368312253,
                0.6230653679722793,
                -0.10196287716442733,
                0.038421130287718666,
                -0.09239003973188671,
                0.44984281406233595,
                -0.10558907852888162,
                0.19587630680231596,
                -0.050168853720260795,
                0.833116534035125,
                -0.09165903781835343,
                -0.03769816951416147,
                -0.10469326472722473,
                0.2352250947532656,
                -0.10352972843509221,
                0.06193517372414156,
                -0.08713690642100884,
                0.5107833087611168,
                -0.09863314301458594,
                0.004498500215985352,
                -0.09895703053041544,
                0.35823127107120967,
                -0.1058299900202055,
                0.13770552693424468,
                -0.06742665240720293,
                0.6972623196790602,
                -0.09538592775123102,
                -0.018324052992617836,
                -0.10248531648493192,
                0.29329619711522237,
                -0.1050493975773271,
                0.0973227130046788,
                -0.07839350826816831,
                0.5994955504590548,
                -0.1013660073806192,
                0.03112602532248102,
                -0.09391280114435953,
                0.4305477813235785,
                -0.10575636479017043,
                0.18352061546942974,
                -0.053960268373038744,
                0.8046815458692411,
                -0.09358106064277791,
                -0.028420668177127795,
                -0.10374289325118205,
                0.26343420524035344,
                -0.10437553707131457,
                0.07903106074203563,
                -0.08302667094257003,
                0.5540441984718028,
                -0.10006682211253794,
                0.017313572042786784,
                -0.09663741991232008,
                0.3934337193279168,
                -0.10590793671368222,
                0.15990593859031496,
                -0.0610239416043708,
                0.7497272192738385,
                -0.09707119050771656,
                -0.007365642951756115,
                -0.10089796960603911,
                0.32487386757318404,
                -0.1055388032239135,
                0.11686286961416582,
                -0.07320479548214877,
                0.647210220011413,
                -0.10252322113622349,
                0.045983570110553276,
                -0.09075558035748867,
                0.4696412833001192,
                -0.10535773847384407,
                0.2086073257202942,
                -0.04619798075094171,
                0.8622031838004109,
                -0.09116039377118569,
                -0.039894440280507495,
                -0.10488538137479814,
                0.22842384051198017,
                -0.10329275530304959,
                0.05784197963560504,
                -0.08808646120420617,
                0.500301928045006,
                -0.09825446516013898,
                0.0014451017991440412,
                -0.0994767646080799,
                0.34972151997599144,
                -0.10577657632668934,
                0.1323697529663734,
                -0.06892834735781438,
                0.6845260603886589,
                -0.09494580674586578,
                -0.020927311343213913,
                -0.10282972369977325,
                0.28567232878118787,
                -0.10489771506337985,
                0.0926348342640823,
                -0.07960258594068488,
                0.5879233938366275,
                -0.10105420730951149,
                0.02757681983409462,
                -0.09463341290370787,
                0.4210863642754371,
                -0.105816712642726,
                0.1774812211757635,
                -0.05579018951382489,
                0.7907053426259092,
                -0.09311147026057856,
                -0.030815195833056114,
                -0.10400843280315128,
                0.2562293953785417,
                -0.1041797441307342,
                0.0746470184916646,
                -0.08410200752953641,
                0.5430264384900322,
                -0.09972074666300158,
                0.014018135623542035,
                -0.09725424182076216,
                0.3844565153129105,
                -0.1059093100447908,
                0.15422547725456778,
                -0.06268514137835285,
                0.7363806253252991,
                -0.09666126890646448,
                -0.010188420117518878,
                -0.10132700355764093,
                0.3168151235998191,
                -0.10543447568718341,
                0.1118578517395402,
                -0.07455588783740909,
                0.6350653350579116,
                -0.10224768373247607,
                0.042168550170874064,
                -0.09158699830328416,
                0.4596785787900808,
                -0.10548156266008395,
                0.20219443856325284,
                -0.04820615411737798,
                0.84757778231022,
                -0.09215044023314224,
                -0.03545329925552261,
                -0.10448328561053546,
                0.24212580169646117,
                -0.10375666403969273,
                0.06609987938647409,
                -0.08615663518041204,
                0.5213971123538602,
                -0.0990038099199483,
                0.007611325535044929,
                -0.09841363562031948,
                0.36685633132487405,
                -0.10587008234626881,
                0.14312615440914303,
                -0.06588592811257202,
                0.7101493728259329,
                -0.09581857962357104,
                -0.01566693860247266,
                -0.10212030477702375,
                0.3010272892217286,
                -0.10518955780153304,
                0.1020886171279801,
                -0.07714971485264858,
                0.6112091582903296,
                -0.10166894037116982,
                0.03474054289116809,
                -0.09316515789780248,
                0.4401329072315536,
                -0.10568058217703645,
                0.18965200570985793,
                -0.052086689971802845,
                0.8188181999320854,
                -0.09404333493170178,
                -0.025974952044705277,
                -0.10345815950754755,
                0.27074231404993054,
                -0.1045605893927296,
                0.08348983218123078,
                -0.0819186575448284,
                0.5651988562068847,
                -0.10040449783668022,
                0.020671338663864443,
                -0.09599529113348414,
                0.40253039306263594,
                -0.10589222460798527,
                0.16567478536352967,
                -0.05932143781758048,
                0.7632293962709447,
                -0.09747341135734039,
                -0.0044862636045363185,
                -0.10044684228111467,
                0.3330438387225818,
                -0.10563074822147302,
                0.1219492876442304,
                -0.07181686987280335,
                0.6595011882081472,
                -0.10278934552539772,
                0.049866962587854474,
                -0.08989532772881557,
                0.4797320143889648,
                -0.10521730496218383,
                0.21511589791224445,
                -0.04414371829756054,
                0.8769939824599133,
                -0.05488991395180021,
                -0.053502470613405795,
                -0.09305028687613438,
                0.18736856658572176,
                -0.07917627440835463,
                0.03082311605443646,
                -0.0887846879792835,
                0.44446011927047,
                -0.0680528455820796,
                -0.01879793223368504,
                -0.09386905467367483,
                0.30137452840139023,
                -0.08777708098319457,
                0.09841866556266002,
                -0.07602663141339404,
                0.6209707664367975,
                -0.06170869526850056,
                -0.03783621332163889,
                -0.0940994754916978,
                0.24099561044809462,
                -0.08383477305919336,
                0.06217038108252938,
                -0.08348810325802365,
                0.5282531489972134,
                -0.07389214924126723,
                0.0039644472847590985,
                -0.09216787927927857,
                0.3690183245714287,
                -0.09089251778333084,
                0.1400005088748902,
                -0.06612866255684945,
                0.7232064404608016,
                -0.05835753079586915,
                -0.046069626065934594,
                -0.09372367158022317,
                0.21336938122487378,
                -0.08158891583834706,
                0.045910369059699155,
                -0.08639081667957361,
                0.4852773666856772,
                -0.07103827751020958,
                -0.007905045231450995,
                -0.09321504365848039,
                0.33425546816292007,
                -0.08944586158709288,
                0.11851507286497627,
                -0.07139997051817804,
                0.6708609687827406,
                -0.06494151630576503,
                -0.028760108943709617,
                -0.09415569136018921,
                0.27030949387863334,
                -0.08590189691374318,
                0.07965533365295586,
                -0.08004448237104451,
                0.5734597639215459,
                -0.07660754066471308,
                0.016857697798364334,
                -0.09070052523909043,
                0.4057303662967747,
                -0.09210007136814864,
                0.1629321841690415,
                -0.0601756131392094,
                0.7780845082340591,
                -0.056638209840551956,
                -0.0498835357612559,
                -0.09342285048589062,
                0.2001696379469588,
                -0.08040274543895572,
                0.038223359913715366,
                -0.08764940262246741,
                0.4646033956115291,
                -0.06956162317565316,
                -0.01347066650338465,
                -0.09358955267980043,
                0.31758391388136664,
                -0.08863822481014959,
                0.10829676717462482,
                -0.07379161256144588,
                0.6456137427541631,
                -0.06334006601983273,
                -0.03340617941346226,
                -0.09416895649624778,
                0.25543765629921267,
                -0.08489147259136066,
                0.07075642934188266,
                -0.08183595944347043,
                0.5505730346637195,
                -0.07526763661013362,
                0.01028010664989033,
                -0.09148846484715221,
                0.3871264438658485,
                -0.09152729265168559,
                0.15128194183861346,
                -0.06323972304123923,
                0.7503240178010546,
                -0.06004775830304018,
                -0.042055593966120325,
                -0.09395011712111538,
                0.22697545850409234,
                -0.08273340983016543,
                0.053890548315361386,
                -0.08500503985093306,
                0.5064909518391957,
                -0.07248206144021102,
                -0.0020952922257367447,
                -0.0927422659408717,
                0.3513974819615058,
                -0.09019798690683441,
                0.12908061608751362,
                -0.06884718635309542,
                0.6967219924996337,
                -0.06651261329617314,
                -0.02389254003564635,
                -0.09405673273009223,
                0.28561909958639464,
                -0.08686435593456467,
                0.08887381315413474,
                -0.07810946742566398,
                0.596922570432392,
                -0.07791079994405463,
                0.02370331123774178,
                -0.08980048447083698,
                0.42483869689507636,
                -0.092608535210117,
                0.174958583635389,
                -0.056931499604852165,
                0.8064977740523311,
                -0.05576767942517247,
                -0.05171705638963124,
                -0.09324537500005102,
                0.19371974408755838,
                -0.07979446458602026,
                0.03448778955518721,
                -0.08823221779989258,
                0.4544659749890191,
                -0.06881120615913384,
                -0.016163735868716216,
                -0.09374097877035222,
                0.30942196514140996,
                -0.08821421907196071,
                0.10331562738022043,
                -0.0749284205226655,
                0.6332173170606621,
                -0.06252809671994528,
                -0.03564786263993826,
                -0.09414437812144595,
                0.24816340486313218,
                -0.0843688046652505,
                0.06642471508240384,
                -0.08267918828902497,
                0.539342810415918,
                -0.07458427756816348,
                0.007089913081642859,
                -0.09184151728067787,
                0.3780109435715172,
                -0.09121751288581832,
                0.14559558035200285,
                -0.06470579008896388,
                0.7366854783181302,
                -0.059206291707128905,
                -0.04408795010865828,
                -0.09384635892921188,
                0.22012114616454456,
                -0.08216646144071228,
                0.04986340905289813,
                -0.08571407333918767,
                0.4958161469738859,
                -0.07176432804186217,
                -0.005031049276812149,
                -0.09299114531050105,
                0.3427671463833819,
                -0.0898289915240497,
                0.12375399712437289,
                -0.07014400670350587,
                0.6837141561120934,
                -0.06573088908427904,
                -0.026354356231249126,
                -0.09411711101097144,
                0.27790907412198207,
                -0.08638923078707196,
                0.08422420348914623,
                -0.07909518299040298,
                0.585118577346999,
                -0.07726382031208466,
                0.02024661800548109,
                -0.09026474406849005,
                0.41522093969108775,
                -0.09236249063809396,
                0.16889790195516355,
                -0.05857636197342739,
                0.7922089247572683,
                -0.057501497750367475,
                -0.04800127264988242,
                -0.09358239157066899,
                0.2067191985577346,
                -0.08100095236188361,
                0.04203062036612505,
                -0.08703576352631757,
                0.47487348868951673,
                -0.0703040106052127,
                -0.010718009480439343,
                -0.093414376060182,
                0.325861403593922,
                -0.08904885501363043,
                0.11336295676083143,
                -0.07261565003019103,
                0.6581612296476734,
                -0.06414455643116464,
                -0.031110488274386963,
                -0.09417284956369186,
                0.2628193544395747,
                -0.08540257294281918,
                0.075166356386497,
                -0.08095789851124209,
                0.5619449685815533,
                -0.07594210105132686,
                0.01353578193617872,
                -0.09110828234743733,
                0.39636589371651065,
                -0.09182157460737429,
                0.15706050443910521,
                -0.06172986462470412,
                0.7641232843293728,
                -0.06088190349131851,
                -0.0399719019152104,
                -0.09403460474823623,
                0.23393328828204177,
                -0.08328957675671568,
                0.057992599727906366,
                -0.08426321764940602,
                0.5173029084778348,
                -0.0731913720341183,
                0.0009029602237394094,
                -0.09246798556304067,
                0.36014752351466994,
                -0.09055258490660247,
                0.13449582121406953,
                -0.06750893232268855,
                0.7098856837204499,
                -0.06728662255973675,
                -0.021373965344363602,
                -0.09397417582042777,
                0.29344057959982106,
                -0.08732704881680455,
                0.09360501481816509,
                -0.07708679782199762,
                0.608872909663379,
                -0.07854833460005921,
                0.027228551086537028,
                -0.08930728717015356,
                0.4345847258155425,
                -0.09283790296594699,
                0.18111515995881663,
                -0.05524040959979902,
                0.8209523011837605,
                -0.10729351599161571,
                -0.011449242058537793,
                -0.0979420034571955,
                0.2752176865913373,
                -0.10778944826358709,
                0.09595430413047322,
                -0.07009668236687984,
                0.5545943794437809,
                -0.10855715992644528,
                0.03483473177007266,
                -0.0869486455122719,
                0.40042486522173293,
                -0.10451635707689633,
                0.17495837081307844,
                -0.045624654162739565,
                0.7420625609800335,
                -0.10816220352988233,
                0.010016278409669835,
                -0.09308013151017437,
                0.33445943207371276,
                -0.10650827422262972,
                0.13301764707807442,
                -0.058935840254820376,
                0.6438825434484481,
                -0.10844930647019664,
                0.06335705571681301,
                -0.07935753726086202,
                0.4736258532210563,
                -0.10170415336952063,
                0.2222078777753862,
                -0.029892651142253385,
                0.8497267639699557,
                -0.1077860445225506,
                -0.001114450618607233,
                -0.09565867951591388,
                0.3040293042848903,
                -0.1072316434536839,
                0.11390247986980954,
                -0.06476893553761166,
                0.598163214712431,
                -0.10856868763789941,
                0.04861019052573397,
                -0.08334820546945214,
                0.436088137377345,
                -0.10322042329800085,
                0.19789177794979254,
                -0.038078945116353916,
                0.7946713327584554,
                -0.10842024406720131,
                0.021984926345582596,
                -0.09018449430712759,
                0.36657016746353266,
                -0.10560753353079459,
                0.15335184516777703,
                -0.05256547329243692,
                0.6918245212507814,
                -0.10819223843031624,
                0.07912233770920905,
                -0.07494974670704169,
                0.5131051393052032,
                -0.09995071120521626,
                0.2479637387489775,
                -0.021028819967758617,
                0.9073060392600898,
                -0.1075542662501662,
                -0.006378763816443607,
                -0.09683592703559209,
                0.2894250136585309,
                -0.10753055258308584,
                0.10478572141802377,
                -0.06749403141908997,
                0.5761144460078349,
                -0.10857891287928652,
                0.04160392437956141,
                -0.0851955722371504,
                0.4180263421362649,
                -0.10389492906254005,
                0.18625575546223724,
                -0.041929612350251964,
                0.7680658893686736,
                -0.10830614702822756,
                0.015893189569932884,
                -0.09167336474090092,
                0.35030079361260735,
                -0.10608086236106982,
                0.1430290656876809,
                -0.0558198600469903,
                0.667571142379608,
                -0.10833845604562549,
                0.07110940735319446,
                -0.07720751227510508,
                0.49311855546177125,
                -0.10085818018401962,
                0.23490222222820337,
                -0.025547786333880957,
                0.8781960479530619,
                -0.10798875005874767,
                0.004348827331602372,
                -0.09440764562483468,
                0.31903820279035533,
                -0.10689136286370753,
                0.12331096654411396,
                -0.061917522187465684,
                0.6207495871391542,
                -0.10852575482143635,
                0.05585928863604754,
                -0.08140330130502467,
                0.45461852389573665,
                -0.10249085314077866,
                0.2098734539648545,
                -0.034068151295240434,
                0.8218884213617932,
                -0.10850407958137,
                0.02829693284866332,
                -0.08861059062011555,
                0.38327551226184053,
                -0.1050866154047168,
                0.16399268689205934,
                -0.04916849314076842,
                0.7166518959589723,
                -0.10800960992800791,
                0.0874019195277274,
                -0.0725806823371062,
                0.5335941920175309,
                -0.09897944547519683,
                0.2613997573422294,
                -0.016330936562667937,
                0.9370665824188655,
                -0.10742750939177187,
                -0.008937914764155492,
                -0.09739770124855668,
                0.28227220438054745,
                -0.10766492029820589,
                0.10033474125037549,
                -0.06881042354574622,
                0.5652888782376023,
                -0.10857199116032785,
                0.03819005071496133,
                -0.08608369588676007,
                0.40916857787811634,
                -0.1042121566928211,
                0.18056516881894116,
                -0.04379630818079575,
                0.754989553368,
                -0.10823788321437296,
                0.012928217975394377,
                -0.09238683105379018,
                0.34232710564937885,
                -0.10630020646198259,
                0.13798485204043578,
                -0.05739489236058275,
                0.655656818345602,
                -0.10839823999522348,
                0.06720103567199226,
                -0.07829577302153541,
                0.48331100277572453,
                -0.10128871301054956,
                0.22850960854909616,
                -0.02774168353469618,
                0.8638819297595217,
                -0.10789104074903541,
                0.0015919940806749854,
                -0.0950425523908686,
                0.31148269671325257,
                -0.10706676253648366,
                0.11856985491851747,
                -0.06335926364904472,
                0.6093886410421891,
                -0.10855135833234182,
                0.05220402261417062,
                -0.08238815137532535,
                0.44529423659796796,
                -0.10286264850311791,
                0.20383896771632945,
                -0.036093848421548315,
                0.8082028227006675,
                -0.1084659735259625,
                0.025113052554704803,
                -0.08940835778905899,
                0.37486784301006837,
                -0.10535313071966053,
                0.1586320863440526,
                -0.05088507213887794,
                0.7041658800621997,
                -0.10810554384053984,
                0.0832284145697391,
                -0.07377935233051719,
                0.5232863172791326,
                -0.09947319981346453,
                0.25463447409177475,
                -0.018702546932146787,
                0.9221043735055332,
                -0.10767378133981359,
                -0.0037711553575907834,
                -0.09625636127590327,
                0.29667706259851145,
                -0.10738618273353527,
                0.10930803564893647,
                -0.06614702928680596,
                0.587072188085406,
                -0.10857784127748267,
                0.045077065200537975,
                -0.08428387644219107,
                0.4269991847482556,
                -0.103564433222508,
                0.19203100033733814,
                -0.04002401139215012,
                0.7812927528918368,
                -0.1083669504550336,
                0.01891186634052348,
                -0.0909393737396811,
                0.35838148342604936,
                -0.10585004024577259,
                0.14815111832475356,
                -0.05421022732451168,
                0.6796266601708219,
                -0.10826983152613752,
                0.07508292248651004,
                -0.07609231761089275,
                0.5030495773207033,
                -0.10041227463695823,
                0.2413866276965049,
                -0.02331036497142265,
                0.8926703417497881,
                -0.10807914757998895,
                0.0071567026366996505,
                -0.09375362003069977,
                0.326696790334138,
                -0.10670526240595062,
                0.1281266254068297,
                -0.060443214808056436,
                0.6322471779789647,
                -0.10849177365463127,
                0.059576720672742944,
                -0.08039323749258444,
                0.4640620456674436,
                -0.10210477660272535,
                0.21599612593445236,
                -0.03200127881375856,
                0.8357293322963295,
                -0.10853449807229883,
                0.031537260019409305,
                -0.08779081432375861,
                0.391794182326215,
                -0.10480776626713219,
                0.16943449676145608,
                -0.04741520066386333,
                0.7292837332061661,
                -0.10790429395274266,
                0.09164362395397753,
                -0.07135327967141696,
                0.5440298492066148,
                -0.09846914829272815,
                0.2682605170288541,
                -0.013913374646223638,
                0.9521939088440101,
                -0.029835609582853653,
                -0.05205727955130282,
                -0.0798726989292997,
                0.17737120864106193,
                -0.06006927267134972,
                0.026501706107125093,
                -0.08150043393827396,
                0.4288956573831011,
                -0.045973291694164545,
                -0.02024623636263672,
                -0.08364378060545676,
                0.28857887603838595,
                -0.07163815918665724,
                0.09124681305000544,
                -0.07166982966786345,
                0.6026692537993678,
                -0.03814189881381489,
                -0.037840176409129914,
                -0.08239931409807742,
                0.22959556180003488,
                -0.06621251243624753,
                0.05642077482839923,
                -0.07766941344873989,
                0.5113160497705055,
                -0.053299288337592565,
                0.0010768994575206504,
                -0.08341466907361104,
                0.35483443971697426,
                -0.0762352482905105,
                0.1314126443870459,
                -0.06322978847205926,
                0.7035490225763064,
                -0.0340469957877991,
                -0.04534959595245533,
                -0.08128509654878187,
                0.20266980981964725,
                -0.06322444217963814,
                0.040874134967631676,
                -0.0798397865107335,
                0.469025575902252,
                -0.04970215657692087,
                -0.010073626142132799,
                -0.08372617221908392,
                0.32076476038656365,
                -0.0740479945224405,
                0.11063441731461958,
                -0.06777264541808424,
                0.6518804222366312,
                -0.042118392067590646,
                -0.029486861955137667,
                -0.08319330879743626,
                0.2582107397348544,
                -0.06902149875464793,
                0.07319384274883646,
                -0.07495721387932369,
                0.5558394122337098,
                -0.05675773133625964,
                0.01325252844912264,
                -0.08268219934267838,
                0.39085521822885705,
                -0.07818290675772756,
                0.1536387403733029,
                -0.058004128910209465,
                0.7577524171108514,
                -0.03195579178239407,
                -0.04880106892133523,
                -0.08061484168586329,
                0.18982095846538505,
                -0.061667044900829124,
                0.03354435861677539,
                -0.08073186873603318,
                0.44869501894012187,
                -0.04785380516009151,
                -0.015279270535761872,
                -0.0837325703797939,
                0.3044405012403656,
                -0.07286988530397491,
                0.10077031610117912,
                -0.06979967512181409,
                0.6269724450616931,
                -0.04014511618609795,
                -0.033771690093137324,
                -0.08283776608951655,
                0.24368803121431779,
                -0.06764018924241517,
                0.06465069260316293,
                -0.07638309739380353,
                0.5332940499880914,
                -0.055046329771454905,
                0.007033577666744818,
                -0.08310279613225804,
                0.3725966859509956,
                -0.07724013940683012,
                0.14234108177253577,
                -0.060704678749869484,
                0.7303289863141582,
                -0.03610909864318511,
                -0.04169770864216918,
                -0.08188082603886752,
                0.21592542922964572,
                -0.06474008429024121,
                0.048497444423839575,
                -0.07882029252153434,
                0.48989625205694654,
                -0.05151759435794234,
                -0.004623522548429786,
                -0.0836213200133126,
                0.33755994863360805,
                -0.07517047799369077,
                0.12084615458530025,
                -0.06558421718500632,
                0.6774027377424592,
                -0.04406128918699624,
                -0.024980225677224147,
                -0.08346299042723467,
                0.273171668202854,
                -0.07035474643999622,
                0.0820569488449799,
                -0.07338755384904636,
                0.578961374610232,
                -0.05843242712988338,
                0.01973984675338726,
                -0.08214929827944428,
                0.409618646022595,
                -0.079061227179427,
                0.1653129723997319,
                -0.05512330126599854,
                0.7858291817000778,
                -0.030899318341634598,
                -0.05045326309801375,
                -0.08025259452132417,
                0.183546671950357,
                -0.06087312246081372,
                0.029987539391322184,
                -0.0811313506132197,
                0.438729493403202,
                -0.0469175247785824,
                -0.01779223004994753,
                -0.0836998729221166,
                0.2964523747741503,
                -0.07226060187413662,
                0.09596642660425805,
                -0.07075408214830606,
                0.6147458451481097,
                -0.03914722592633576,
                -0.035832637403501746,
                -0.08262872233656081,
                0.23658851235198383,
                -0.06693204391225045,
                0.060496996823653226,
                -0.07704344135718526,
                0.5222347039377376,
                -0.05417720048875986,
                0.004022832355297854,
                -0.08327210237685993,
                0.3636540621010207,
                -0.07674531719109857,
                0.1368311668715441,
                -0.0619888643396921,
                0.7168591846642463,
                -0.03508169561347381,
                -0.04354902915963031,
                -0.08159244487736465,
                0.20924629129033026,
                -0.06398757196404783,
                0.04464869440907103,
                -0.07934621247741021,
                0.47939283827432766,
                -0.05061403971556343,
                -0.007379496104359512,
                -0.08368626007319332,
                0.3291029668557043,
                -0.07461631809897669,
                0.11569638850488258,
                -0.06669889189792944,
                0.6645641876025543,
                -0.04309366837149703,
                -0.027261614548025767,
                -0.08333906980374979,
                0.2656359246033593,
                -0.06969423930347833,
                0.07758497800989068,
                -0.07419062206416205,
                0.567327737954694,
                -0.05759973714283832,
                0.01646225765723677,
                -0.0824300136913438,
                0.4001732790247522,
                -0.07863027110194944,
                0.15942832212567384,
                -0.0565865552386019,
                0.7717085129410559,
                -0.03300502190241441,
                -0.04710006038772334,
                -0.08095911810478558,
                0.196195019135103,
                -0.062450874830971725,
                0.037172957574735405,
                -0.08030150883087615,
                0.4587933421005248,
                -0.04878204625712099,
                -0.012706642607682164,
                -0.0837414720815038,
                0.3125442849648399,
                -0.07346576573689524,
                0.10565935391087185,
                -0.0688060505336964,
                0.6393502402256355,
                -0.041135522300957426,
                -0.03165665855506561,
                -0.08302608374938712,
                0.2508951086254203,
                -0.06833674397689103,
                0.06888269524760522,
                -0.07568786279333059,
                0.5444952353176598,
                -0.05590655031468049,
                0.010109889893685518,
                -0.08290631015339381,
                0.38166338008413536,
                -0.07771943190900084,
                0.14794330074955273,
                -0.05937663435847389,
                0.7439596535009863,
                -0.037129177229502125,
                -0.039794978121814276,
                -0.082149898070446,
                0.22270819423126414,
                -0.06548179435307962,
                0.05242119844790137,
                -0.07826152752255365,
                0.5005369450014886,
                -0.05241271427777304,
                -0.0018049706172328197,
                -0.08353093149774371,
                0.34613675489279705,
                -0.07571021082259184,
                0.12608460757068915,
                -0.06442804357991032,
                0.6903972789865729,
                -0.04502118757723092,
                -0.022641999775048563,
                -0.08356468941562022,
                0.28081898041643794,
                -0.07100279606963668,
                0.08661060797949506,
                -0.0725474708239987,
                0.59074148924113,
                -0.05925565578168379,
                0.023086069884111295,
                -0.08183959327585516,
                0.41919240768433486,
                -0.07947547231674242,
                0.17129362249972055,
                -0.053613750003568605,
                0.8001156690075737,
                -0.1013647391771541,
                -0.029137744753865533,
                -0.10389195860097947,
                0.24607634909175727,
                -0.10780846495779926,
                0.07249457441832101,
                -0.08194252985856014,
                0.5198792444287426,
                -0.10560324980854759,
                0.014250550102819028,
                -0.0958520645328744,
                0.36848201574026684,
                -0.10750408681844308,
                0.14864549786337686,
                -0.060399620839435675,
                0.7046066407600582,
                -0.10372096043173913,
                -0.009122438019979145,
                -0.10050805590056516,
                0.3039138273946712,
                -0.10801231627862627,
                0.1081284030287089,
                -0.07224805311728641,
                0.6077929361723406,
                -0.10698224436143051,
                0.04133244154371166,
                -0.08973369206024105,
                0.4402930655492443,
                -0.10617394888534344,
                0.19447754559726624,
                -0.04612647584158332,
                0.8109129743583512,
                -0.10260104189356727,
                -0.01952863597849515,
                -0.10234791084536057,
                0.27418497316313917,
                -0.1079933222736275,
                0.08972727507413096,
                -0.07734839939456432,
                0.562759841416899,
                -0.1063582799106468,
                0.02730514574939674,
                -0.0929883550005625,
                0.40344938770950634,
                -0.10694940643028487,
                0.1708693864122022,
                -0.053583845543006506,
                0.7565354046339468,
                -0.10472271031588017,
                0.002122865970351654,
                -0.09835049310436375,
                0.33532504482145953,
                -0.10785360440378557,
                0.12775003322394404,
                -0.06660953227127764,
                0.6550507198234004,
                -0.10746832963849869,
                0.05637948338104247,
                -0.08606114600307103,
                0.47908021134119966,
                -0.10516084256799903,
                0.2195270794070674,
                -0.03799052393310702,
                0.867816570108211,
                -0.10199737613968732,
                -0.024430249572814977,
                -0.10315559094221108,
                0.2599319665603408,
                -0.10792093548078711,
                0.08096807690596479,
                -0.07970679329279,
                0.5410549435356461,
                -0.10599677133264503,
                0.020659151664312366,
                -0.09446744494770054,
                0.38573531200939803,
                -0.10725333840476907,
                0.15958792819575726,
                -0.057069669865999956,
                0.7302696991148372,
                -0.10423676709708364,
                -0.0036073494436157138,
                -0.09947040588706288,
                0.3194052082821801,
                -0.10795596284853225,
                0.1177833515505929,
                -0.06949811104937233,
                0.6311391808286144,
                -0.10724299685361223,
                0.048725504726761876,
                -0.08795138663984774,
                0.4594394582093029,
                -0.10569820541098114,
                0.2068185225630099,
                -0.042145683512638824,
                0.8390441436073826,
                -0.10317563124760036,
                -0.014427769733102202,
                -0.10146629859592937,
                0.2888430176612621,
                -0.1080242628834736,
                0.09877856042227583,
                -0.07486347118773141,
                0.5850028440952594,
                -0.10668704172053302,
                0.03419429522670221,
                -0.09141154634613559,
                0.42163252023252606,
                -0.106590299811318,
                0.18249689264299293,
                -0.0499376422634779,
                0.7834132919709698,
                -0.10517837058152148,
                0.008073656775139895,
                -0.0971453835225558,
                0.3516813000890292,
                -0.10770356417612682,
                0.13803515386363088,
                -0.06357812549143795,
                0.6795367734948732,
                -0.10765719457865637,
                0.06430045469059677,
                -0.08405940748917222,
                0.4992239166522777,
                -0.10455955495731141,
                0.23261055057513327,
                -0.03365617718059708,
                0.8972401028298385,
                -0.10168467555453922,
                -0.026807944144622703,
                -0.10353252816368588,
                0.25295495916235533,
                -0.10786962860174536,
                0.07669601010130715,
                -0.08083975450070922,
                0.530401497692337,
                -0.10580396939446836,
                0.017425533927919755,
                -0.09517136358343659,
                0.37705158071346945,
                -0.107385239183464,
                0.15407477023271568,
                -0.05875385099046286,
                0.7173634318882696,
                -0.10398257354555353,
                -0.006391447121408267,
                -0.09999933343258077,
                0.31160645550475097,
                -0.10798978846188091,
                0.11291732668966047,
                -0.07089015278586568,
                0.6193959699098142,
                -0.1071169856318301,
                0.044996735455849216,
                -0.08885581165528275,
                0.4498050007325175,
                -0.1059436385512829,
                0.20060254192871876,
                -0.04415757740777144,
                0.8248990143174679,
                -0.10289198076450086,
                -0.017003433396532004,
                -0.10191651304136032,
                0.28146288455822965,
                -0.10801406157421416,
                0.09421600431250364,
                -0.07612199746021965,
                0.5738135199605296,
                -0.10652680309496733,
                0.030718962815246,
                -0.09221237160282957,
                0.41248180146166846,
                -0.1067768774635779,
                0.17663944169817544,
                -0.051781075942731555,
                0.7698972265898834,
                -0.1049543551064946,
                0.005070345844830638,
                -0.09775877435970448,
                0.34344811935243935,
                -0.10778465238032263,
                0.13285236649007956,
                -0.06511194740678504,
                0.6672213529839288,
                -0.10756738916724469,
                0.06030621206042133,
                -0.0850744397165445,
                0.4890886549231454,
                -0.10486833651554754,
                0.2260214892282567,
                -0.035846053268110044,
                0.8824463295613756,
                -0.10230283515046656,
                -0.02200402662548459,
                -0.1027608268390103,
                0.26700832001408636,
                -0.10796222265508691,
                0.08531156640295827,
                -0.07854316897955153,
                0.5518406878447472,
                -0.10618157126209228,
                0.02395211630380822,
                -0.09373990994926783,
                0.3945342369352757,
                -0.10710814296366618,
                0.16518584190202126,
                -0.05534652163194205,
                0.7433266269046932,
                -0.10448349601477148,
                -0.0007694712842166924,
                -0.09892091387704044,
                0.32731107374475854,
                -0.10791063720931489,
                0.1227273084715974,
                -0.06807141136312843,
                0.643023714104249,
                -0.10736015437636494,
                0.052519501637687524,
                -0.08701997904811141,
                0.4691975045762543,
                -0.10543736865631835,
                0.2131263969390859,
                -0.040090199032653706,
                0.8533495859824511,
                -0.1034519679160208,
                -0.011800990930534465,
                -0.10099692776680974,
                0.29632634084532206,
                -0.10802374361685411,
                0.1034157546188255,
                -0.0735723236771345,
                0.5963289393518719,
                -0.10683889178164642,
                0.03773187562028968,
                -0.0905854609093693,
                0.43090259097401173,
                -0.10638941231010109,
                0.1884426290408869,
                -0.0480529690264272,
                0.7970848048868517,
                -0.10539469202468917,
                0.011133492108377207,
                -0.0965099415612336,
                0.3600255946937425,
                -0.10761011791721913,
                0.14329924584940282,
                -0.06200753033584468,
                0.6919981461764506,
                -0.10773760257760902,
                0.06836298319752018,
                -0.0830155917104162,
                0.5094870827699634,
                -0.10423419744045857,
                0.23929519253135492,
                -0.03142028090232316,
                0.9121991333126689,
                -0.07516289245711665,
                -0.05016430570315876,
                -0.10144605079631386,
                0.2021518462310955,
                -0.09350183042305056,
                0.03992903561544614,
                -0.09128648124362405,
                0.4648121733912365,
                -0.0853510459827335,
                -0.012565727617417774,
                -0.09931221864593928,
                0.31895690542574306,
                -0.09913440021095851,
                0.11037570142681251,
                -0.0756005570901234,
                0.6440608034910913,
                -0.08049416012416799,
                -0.0330486300807421,
                -0.1010176779004412,
                0.25718197420075883,
                -0.09667551761302486,
                0.07270482574283056,
                -0.08452413272099953,
                0.5499782984726242,
                -0.0897036186165842,
                0.011636192086077392,
                -0.09613881212506224,
                0.3879893597968287,
                -0.10076808205486407,
                0.15337391781241386,
                -0.06424442869749132,
                0.7476528730831757,
                -0.0778867390917216,
                -0.042006170135642715,
                -0.10138035712500476,
                0.22885506901365288,
                -0.09517191062045123,
                0.0557312751425946,
                -0.08815928830603183,
                0.506316976691046,
                -0.0875930279547955,
                -0.0009524176091782936,
                -0.09792172338906459,
                0.3525331114363167,
                -0.1000620767758219,
                0.1311810902968142,
                -0.07024430563090377,
                0.6946302828871143,
                -0.08298330001990627,
                -0.023249597631027644,
                -0.10033604140163355,
                0.2871947658862827,
                -0.09800073777300118,
                0.0909018334168026,
                -0.08034898467431724,
                0.5958684009230577,
                -0.09167593338694001,
                0.025247218422388324,
                -0.09393648408633283,
                0.4253928836477586,
                -0.10123547337370553,
                0.17701135902087037,
                -0.057563867429066995,
                0.8032058653129721,
                -0.07653930211556266,
                -0.04618258209789282,
                -0.10144900303403748,
                0.21530433596588908,
                -0.09435698418240208,
                0.047686951508141645,
                -0.08978442735415336,
                0.48529947750583013,
                -0.08648807970800919,
                -0.006878089376330878,
                -0.09866438458220124,
                0.3355141560967849,
                -0.0996249375987523,
                0.1206084903597839,
                -0.07300061747776976,
                0.6690436859294213,
                -0.08175368029681829,
                -0.028256980011234237,
                -0.10071815165466283,
                0.2719736973635676,
                -0.09736121976060665,
                0.08164708920877568,
                -0.08250610873053611,
                0.5726401866157588,
                -0.09070753988629691,
                0.018310909252690306,
                -0.09509181186229666,
                0.4064434611029286,
                -0.10103271248824183,
                0.16500843915279803,
                -0.06099159889574014,
                0.7751081891299674,
                -0.07920508931205388,
                -0.03762992669625982,
                -0.10123748447237146,
                0.24281170301784064,
                -0.09594523840200721,
                0.06406840690060579,
                -0.08640717824076398,
                0.5278735858519918,
                -0.08866514801872631,
                0.005217059435015061,
                -0.09708097783885937,
                0.3700220577186205,
                -0.10044381777614941,
                0.14210053025053113,
                -0.06732710706020298,
                0.7208301379001045,
                -0.08418259090447974,
                -0.01802102550456053,
                -0.09986840422909549,
                0.3028531517277667,
                -0.09859238599960442,
                0.10047577306412571,
                -0.07804856037843388,
                0.6196721706150453,
                -0.092607742098735,
                0.032451205661559825,
                -0.0926692572540874,
                0.4448462280210127,
                -0.10137405042982403,
                0.1893900207446718,
                -0.05395640549273617,
                0.8319557594835352,
                -0.0758547148115161,
                -0.04819746156962598,
                -0.10145631546570416,
                0.20867878621760014,
                -0.09393435307892618,
                0.04377258954845027,
                -0.09055060014705056,
                0.47499010517678786,
                -0.08592353018064657,
                -0.009751305022683036,
                -0.09899995449800218,
                0.327178332500358,
                -0.09938622175280637,
                0.11545005576159369,
                -0.07431985472716443,
                0.6564773737968452,
                -0.08112763406186563,
                -0.03067943356458938,
                -0.10087805691592897,
                0.2645246627901171,
                -0.09702403942003786,
                0.07713731398213232,
                -0.08353224879260444,
                0.5612390255304662,
                -0.09020995722832474,
                0.01494122897866095,
                -0.09562863278087297,
                0.3971550297624059,
                -0.10090798939193898,
                0.15914558455516095,
                -0.06263957777392141,
                0.7613008491357671,
                -0.0785495602454488,
                -0.03984335186508858,
                -0.10131836649842743,
                0.23578216672399063,
                -0.09556386312122668,
                0.05986283691280636,
                -0.08729935058618372,
                0.5170273322734973,
                -0.08813324099812712,
                0.0021014814493658827,
                -0.09751381780481128,
                0.36121831474799304,
                -0.10026000011544078,
                0.13659701288881074,
                -0.06880610241110176,
                0.707652953596215,
                -0.08358676641080341,
                -0.020663304445285732,
                -0.10011310068180565,
                0.2949687928252618,
                -0.09830265403217599,
                0.09564848107248992,
                -0.07921695063668961,
                0.6076977614501979,
                -0.09214647997466617,
                0.02881536883465412,
                -0.09331708434317437,
                0.4350560249994895,
                -0.10131293259250859,
                0.18315326012331587,
                -0.05578290763939124,
                0.817498665964614,
                -0.07721664747683235,
                -0.04411903176470813,
                -0.10142379229347664,
                0.22202944531462543,
                -0.09476955968334712,
                0.05167291417547766,
                -0.08898748449938805,
                0.4957413973747328,
                -0.08704460909354465,
                -0.00394536657625684,
                -0.09830510911184527,
                0.34396540463253844,
                -0.09985030511981197,
                0.12585187648119409,
                -0.07164228839754155,
                0.681760925464044,
                -0.08237225264717524,
                -0.025780594607998975,
                -0.10053760161937866,
                0.2795300670491988,
                -0.09768685529517325,
                0.0862349833931449,
                -0.08144519487982356,
                0.5841829280142967,
                -0.0911962418297965,
                0.021745986299696225,
                -0.09452791029321526,
                0.4158557215253378,
                -0.10114196942536025,
                0.1709633921545626,
                -0.05929989582912289,
                0.789076117930426,
                -0.07985329975439921,
                -0.035365239461191716,
                -0.10113737019428592,
                0.24994464737857705,
                -0.09631585276794731,
                0.06834879743166418,
                -0.0854822732595145,
                0.5388568640676127,
                -0.08918864390060192,
                0.008395050094586848,
                -0.09662278405980386,
                0.37894538841042935,
                -0.10061326748424926,
                0.14769253328649742,
                -0.06580674298909589,
                0.7341630410187188,
                -0.08477070767437099,
                -0.015322066351461,
                -0.0996015719015256,
                0.310848851366599,
                -0.09886971069101515,
                0.105384561006808,
                -0.0768432765998663,
                0.6317927943481133,
                -0.09305957535372876,
                0.03615550193934947,
                -0.09199254409824044,
                0.45476458006398224,
                -0.1014185253225266,
                0.19572257107888855,
                -0.05208374511056402,
                0.8465783903791018,
                -0.10844078414192834,
                0.011022829921702662,
                -0.08721002623021538,
                0.30914517436021705,
                -0.10298879541853616,
                0.12419876439689749,
                -0.05346816841397854,
                0.5940973428888142,
                -0.1067295299425577,
                0.06020303105121033,
                -0.07326291452516925,
                0.43715467174713785,
                -0.0967468305240407,
                0.20605665186885777,
                -0.02606660191868534,
                0.7843072456274747,
                -0.10782193032148531,
                0.033938830212290286,
                -0.08087004817136269,
                0.3697915823329473,
                -0.10022252376198641,
                0.16269195238118797,
                -0.04084075945449177,
                0.6847604390768569,
                -0.1051347885290775,
                0.09016608589756557,
                -0.06419890132404939,
                0.5117460255534064,
                -0.09245245648287255,
                0.25472398106476735,
                -0.008875507093215046,
                0.8933298102370424,
                -0.10818953668529613,
                0.02208343505111595,
                -0.08418735968976539,
                0.3386599813122806,
                -0.10168829437510433,
                0.142862578550391,
                -0.04740670650022394,
                0.6383546443800046,
                -0.10599753730842378,
                0.07469950009373186,
                -0.06892566140548197,
                0.47351405587831574,
                -0.09470959309375643,
                0.22969975707694582,
                -0.017790844250274915,
                0.8375962694053323,
                -0.10733625163346679,
                0.04663096119513454,
                -0.07723626207153801,
                0.4026020393985661,
                -0.09857971206893255,
                0.18373888977241612,
                -0.033738439580092726,
                0.7333868470489389,
                -0.10413454114087885,
                0.10664976329923039,
                -0.05905577563079217,
                0.5519176717953683,
                -0.08995862013452947,
                0.28118635676206005,
                0.0007163262957936131,
                0.9515850172387796,
                -0.1083296473002283,
                0.016456356232525175,
                -0.08573420834380092,
                0.3237043083394121,
                -0.10235851698542368,
                0.13338817764489366,
                -0.0504985542293387,
                0.6159618903762658,
                -0.10637950585144813,
                0.06733288779280627,
                -0.0711413467816972,
                0.45510443469688955,
                -0.09575469828345312,
                0.21770908007176035,
                -0.02200641233588834,
                0.8106509655926499,
                -0.10759400621834982,
                0.040177633002351026,
                -0.07909412790612823,
                0.3859830258748326,
                -0.09942403288162531,
                0.17305992627726893,
                -0.03735868821370199,
                0.7087915097873629,
                -0.10465232267684545,
                0.09827780310960334,
                -0.06168111195631219,
                0.5315851468028104,
                -0.09123622492247042,
                0.2677717862798378,
                -0.004166508835943692,
                0.9221373345351132,
                -0.10802035598828255,
                0.027909191732933575,
                -0.0825668694359551,
                0.354019833157587,
                -0.10097677401707682,
                0.15262834973050107,
                -0.04418875713282819,
                0.661284502040445,
                -0.10558289937380967,
                0.08230862194027232,
                -0.06661261893354399,
                0.4923918038010075,
                -0.09360953275362321,
                0.2420356941323509,
                -0.013415400937212245,
                0.8651526828367642,
                -0.10704825594257474,
                0.05330425446151263,
                -0.07529352552002509,
                0.41965657709832427,
                -0.09768789343799371,
                0.1947355397991529,
                -0.02997583114444466,
                0.7585556623174154,
                -0.10358040466608943,
                0.1152880347681446,
                -0.05631933856909649,
                0.5727521833560844,
                -0.08861734560230906,
                0.294975018074785,
                0.005777809342042864,
                0.9816826984346989,
                -0.10838883449291585,
                0.013715716278872662,
                -0.08648083602543759,
                0.31637564839854115,
                -0.10267856769546095,
                0.1287582434077909,
                -0.051998401828341506,
                0.6049641438197937,
                -0.10655846871424902,
                0.06373872153174841,
                -0.07221369596057625,
                0.4460725846554169,
                -0.09625726520428898,
                0.21184102000353325,
                -0.024055651464335776,
                0.7974044999203405,
                -0.10771167448560605,
                0.037031752841923275,
                -0.07999215148267848,
                0.3778343519238081,
                -0.09982890588996417,
                0.1678374811181418,
                -0.03911673767710957,
                0.6967060137597294,
                -0.10489790817947177,
                0.09418979033075535,
                -0.0629532309682405,
                0.5216044440672896,
                -0.09185187189330386,
                0.2612024927921315,
                -0.006542439953371157,
                0.9076541645213079,
                -0.10810858918583895,
                0.024971155254918803,
                -0.08338648600932806,
                0.34628890431396975,
                -0.10133778408219678,
                0.14770864087306348,
                -0.04581373934666051,
                0.6497518761123731,
                -0.10579435039328162,
                0.07847338463017092,
                -0.06778151534240097,
                0.4828938941456667,
                -0.0941665592745638,
                0.2358241268258883,
                -0.015623391111950585,
                0.8512974889885154,
                -0.10719606265977467,
                0.04993976914520825,
                -0.07627568852660617,
                0.4110743675198193,
                -0.09813984729309998,
                0.18919708234156665,
                -0.0318751948075862,
                0.745898991146839,
                -0.10386208529376657,
                0.11093522778543392,
                -0.05770166987260232,
                0.562271639758657,
                -0.08929608818823691,
                0.28803346514741446,
                0.0032244330701150393,
                0.9665519899503052,
                -0.1082632178920274,
                0.01924538308532525,
                -0.08496982419805334,
                0.33113210180090624,
                -0.10202848145887937,
                0.13808935756857738,
                -0.04896814947201156,
                0.6270916873340134,
                -0.10619255810346313,
                0.070986241715902,
                -0.07004546942242681,
                0.4642512480684854,
                -0.09523888935313468,
                0.2236617011127635,
                -0.019918329809531208,
                0.824047825999042,
                -0.1074688815584512,
                0.04337714328566479,
                -0.07817561916503361,
                0.3942385910935243,
                -0.09900770361799831,
                0.1783601176083687,
                -0.035566095629884095,
                0.7210180712249687,
                -0.10439790948108015,
                0.10243087540505387,
                -0.060382107432732715,
                0.5416891992463243,
                -0.09060523587254675,
                0.27443276985653753,
                -0.0017471197276941546,
                0.9367805429225231,
                -0.1079248127760747,
                0.030898197432538563,
                -0.08172817133768089,
                0.36185373510592345,
                -0.10060508270548539,
                0.1576225152277885,
                -0.04253126406905523,
                0.6729536465847119,
                -0.10536308135460278,
                0.08620594355026727,
                -0.0654185549680922,
                0.5020088306859782,
                -0.09303825347782281,
                0.24833534768027185,
                -0.01116629935753462,
                0.8791630539494291,
                -0.10689276787588804,
                0.05672510938085222,
                -0.07428939513040271,
                0.4283496746862985,
                -0.09722362973992853,
                0.20035511153968702,
                -0.02803981351156969,
                0.7713580242705917,
                -0.10328935707301608,
                0.11970895506302033,
                -0.054908325220029544,
                0.5833603877187189,
                -0.08792209303420738,
                0.3020119435175386,
                0.008377068769528867,
                0.9969783849807372
            ],
            "result_with_budget": [
                {
                    "portfolio": {
                        "TRV": 6,
                        "WBA": 18
                    },
                    "budget": 1607.390956878662,
                    "difference": 9.60904312133789,
                    "objective_value": -4740.069914812183
                }
            ],
            "result_with_budget_excited": [
                {
                    "portfolio": {
                        "TRV": 6,
                        "WBA": 19
                    },
                    "budget": 1616.7209568023682,
                    "difference": 0.27904319763183594,
                    "objective_value": -5877.0539383580235
                }
            ]
        },
        "qaoa_solution": {
            "two_most_probable_states": [
                "11101111000",
                "11111111000"
            ],
            "final_expectation_value": -0.09629814054385975,
            "params": [
                1.1990889683960197,
                2.115478759418421,
                2.1451138663052296,
                2.7681390257627445,
                2.819809308264281,
                -3.2974806509717265,
                4.546503937871324,
                5.302510064657227,
                3.402432920048785,
                5.380160958248039,
                1.8599608601923132,
                1.9161733078759997,
                1.9527765333045781,
                0.6177453748238987,
                1.9847744522049553,
                1.6892433008993142,
                1.6829846741526833,
                3.2761467273126734,
                1.1511111321598297,
                1.360906900933354
            ],
            "total_steps": 800,
            "states_probs": [
                0.013330630940934693,
                0.014613340743028306
            ],
            "optimized_portfolios": [
                {
                    "TRV": 7,
                    "WBA": 30
                },
                {
                    "TRV": 7,
                    "WBA": 31
                }
            ],
            "training_history": {
                "xbest": [
                    1.1990889683960197,
                    2.115478759418421,
                    2.1451138663052296,
                    2.7681390257627445,
                    2.819809308264281,
                    -3.2974806509717265,
                    4.546503937871324,
                    5.302510064657227,
                    3.402432920048785,
                    5.380160958248039,
                    1.8599608601923132,
                    1.9161733078759997,
                    1.9527765333045781,
                    0.6177453748238987,
                    1.9847744522049553,
                    1.6892433008993142,
                    1.6829846741526833,
                    3.2761467273126734,
                    1.1511111321598297,
                    1.360906900933354
                ],
                "fbest": -0.09629814054385975,
                "evals_best": 9570,
                "evaluations": 9600,
                "iterations": 800,
                "xfavorite": [
                    1.1945722391772429,
                    2.117647718165521,
                    2.1587102086129226,
                    2.77615045015464,
                    2.8189388053692097,
                    -3.2754919194775005,
                    4.503346752038045,
                    5.333570924307643,
                    3.3824427284770513,
                    5.371263750846426,
                    1.8646046472654674,
                    1.9216685312886184,
                    1.9503983517957293,
                    0.6213287562593173,
                    1.9795620550666917,
                    1.6944405380191123,
                    1.6862300315224341,
                    3.270071357602043,
                    1.1548961763294976,
                    1.3616055488272218
                ],
                "stds": [
                    0.03299164496875391,
                    0.019644592202117252,
                    0.02609497940013482,
                    0.021853586055428083,
                    0.015658971045243875,
                    0.026316665458857923,
                    0.0368900923028363,
                    0.03409032080811866,
                    0.024050989444498138,
                    0.022852953590453293,
                    0.011568190796818834,
                    0.006589156799146143,
                    0.0057623419333416555,
                    0.0031484946374310064,
                    0.004654231425615903,
                    0.003900296357658181,
                    0.004291016807677966,
                    0.006217228320939296,
                    0.004551590502822956,
                    0.0019816500294295085
                ],
                "stop": {
                    "maxiter": 800
                }
            },
            "objective_values": [
                -36762.782851404714,
                -41979.70744566143
            ],
            "result_with_budget": [
                {
                    "portfolio": {
                        "TRV": 7,
                        "WBA": 30
                    },
                    "budget": 1959.259449005127,
                    "difference": -342.25944900512695
                },
                {
                    "portfolio": {
                        "TRV": 7,
                        "WBA": 31
                    },
                    "budget": 1968.589448928833,
                    "difference": -351.589448928833
                }
            ]
        }
    }
}