{
    "8": {
        "hyperparams": {
            "stocks": [
                "CVX",
                "HD"
            ],
            "start": "2015-01-01",
            "end": "2025-01-01",
            "risk_aversion": 0.1,
            "n_qubits": 10,
            "budget": 5704,
            "log_encoding": true,
            "layers": 10,
            "prices_now": {
                "CVX": 143.2510986328125,
                "HD": 386.5369873046875
            },
            "assets_to_qubits": {
                "CVX": [
                    0,
                    1,
                    2,
                    3,
                    4,
                    5
                ],
                "HD": [
                    6,
                    7,
                    8,
                    9
                ]
            },
            "optimizer": "CMAES",
            "lambda_budget": 0.001
        },
        "continuous_variables_solution": {
            "weights": {
                "CVX": 0.05784656458117796,
                "HD": 0.9421534354188221
            },
            "allocation": {
                "CVX": 2,
                "HD": 14
            },
            "value": -4314.057499670673,
            "left_overs": 5.979979780406211
        },
        "continuous_variables_solution_unconstrained": {
            "weights": {
                "CVX": 0.002454189976103239,
                "HD": 0.9366327852541805
            },
            "allocation": {
                "CVX": 2,
                "HD": 14
            },
            "value": -4314.057499670673,
            "left_overs": 5.979965362114854
        },
        "exact_solution": {
            "smallest_eigenvalues": [
                -0.0973782226066001
            ],
            "smallest_bitstrings": [
                "0000000111"
            ],
            "first_excited_energy": -0.09736562342586154,
            "optimized_portfolio": [
                {
                    "CVX": 0,
                    "HD": 14
                }
            ],
            "second_optimized_portfolio": [
                {
                    "CVX": 1,
                    "HD": 14
                }
            ],
            "spectrum": [
                -9.331338463427e-18,
                -0.07783488272721636,
                -0.04621302155578195,
                -0.0946401823831665,
                -0.024921741281346173,
                -0.08810911334143075,
                -0.0638586809445739,
                -0.0973782226066001,
                -0.012914069713247841,
                -0.08343711546715121,
                -0.05549284029243603,
                -0.09648678673916679,
                -0.03602193317336969,
                -0.09184545639824342,
                -0.07130729277082724,
                -0.09730690082321178,
                -0.06339818990473399,
                -0.028346098633789424,
                -0.05518963888682601,
                0.018117930243306532,
                -0.061567117364470715,
                -0.007633662011164747,
                -0.04415558231084223,
                0.049053557657672046,
                -0.06304440755584685,
                -0.01861105874508668,
                -0.05026190756031804,
                0.032928345645867774,
                -0.05895336126440174,
                0.004603388055066143,
                -0.03685553586175178,
                0.06651303197625201,
                -0.061350023004075195,
                -0.09155601701617289,
                -0.08435806386628936,
                -0.08233843219369218,
                -0.07479788678407928,
                -0.08904243051883787,
                -0.08996788823085988,
                -0.07134664865380023,
                -0.06855633804419282,
                -0.09081727834843012,
                -0.08766102570365164,
                -0.07738493835140475,
                -0.08006764942516989,
                -0.08622011530794577,
                -0.09126946243890643,
                -0.06421003567098499,
                0.0640391483404346,
                0.19617919997478753,
                0.11857624168124004,
                0.2982135717389039,
                0.08850438564800098,
                0.24405168936455268,
                0.15441239474222165,
                0.3588572327670017,
                0.07558045560825627,
                0.2193409557117873,
                0.13576358725025198,
                0.32771281687778053,
                0.10282983479351121,
                0.2703346356878113,
                0.17454372970143464,
                0.3916722233717394,
                -0.03552243266231043,
                -0.09085897819593029,
                -0.07069064406611399,
                -0.0956120093561742,
                -0.05496098194359433,
                -0.09519379377933053,
                -0.08267250608057988,
                -0.09204000461008163,
                -0.04570322507759896,
                -0.09351169865780819,
                -0.07715282108531601,
                -0.09432972473240038,
                -0.06329165259555118,
                -0.09589687447486674,
                -0.0872434791767176,
                -0.08873229069314367,
                -0.022072854203025235,
                0.05665694045754998,
                0.006967202967470686,
                0.12817188222059164,
                -0.010065988436746814,
                0.08960736753175669,
                0.02916064524114096,
                0.17251911712265885,
                -0.016689680636790535,
                0.0724405936411057,
                0.017410183479522896,
                0.14961178116842702,
                -0.0021858504028709896,
                0.10817752775041195,
                0.04223668466279105,
                0.1969163249146402,
                -0.07308061620498421,
                -0.07374875955357896,
                -0.08192558372897063,
                -0.04775466885432752,
                -0.07958652977897734,
                -0.06303401272207357,
                -0.08001135896456243,
                -0.027789601492849196,
                -0.07684936819096236,
                -0.06895472930289502,
                -0.08150587131834852,
                -0.03836575995302988,
                -0.0812821120366449,
                -0.05597228245784482,
                -0.07742988852478526,
                -0.016009696910072296,
                0.21099544270593354,
                0.4080533897122662,
                0.296582644641798,
                0.5469632509996146,
                0.2506454010735746,
                0.4739757844850802,
                0.34898860478322885,
                0.6272319279955834,
                0.23004551176133867,
                0.4401446228630587,
                0.32196535674094146,
                0.5861735905770552,
                0.27281697611030303,
                0.5095730784668785,
                0.3776764234467646,
                0.6701666363541892,
                -0.018811759895735237,
                -0.08561555801626555,
                -0.059586325023790014,
                -0.09657904545980074,
                -0.041027606164482804,
                -0.09300596879609346,
                -0.07446088005964556,
                -0.09627304422628581,
                -0.03037547311954507,
                -0.08978441012350735,
                -0.06748615173465676,
                -0.09691512750564643,
                -0.05076559293271309,
                -0.09527332951530197,
                -0.08050577469047823,
                -0.09464372189255371,
                -0.04744407679861163,
                0.008341239770008405,
                -0.029347492556185583,
                0.06670263185112522,
                -0.04078269423453026,
                0.03486489833564673,
                -0.01301642306734203,
                0.10401119637977023,
                -0.0447028238014708,
                0.02094826799892356,
                -0.021801908270722682,
                0.08466292404571245,
                -0.035669245464676445,
                0.0501099118341772,
                -0.002974425102487386,
                0.12476839911774125,
                -0.06936640187418716,
                -0.0854653257481593,
                -0.0855987403173063,
                -0.06826569562448827,
                -0.07948993433949672,
                -0.07904798956563819,
                -0.08761827725249252,
                -0.05300919400249612,
                -0.07492568894721591,
                -0.08279578819572067,
                -0.08712466526405441,
                -0.06120388783286747,
                -0.08305063368555521,
                -0.07420908707155104,
                -0.08706890270670362,
                -0.043666602136570414,
                0.12879433453338027,
                0.291843936253069,
                0.19810687671818236,
                0.41146607393809237,
                0.16048340298091576,
                0.3483226622507028,
                0.2418343105825264,
                0.48147843351967595,
                0.14390732633413436,
                0.31926264098931173,
                0.2191966625180035,
                0.44560052991520144,
                0.1785429453744776,
                0.379048719358879,
                0.2660423710229461,
                0.5191266732835994,
                -0.049854924029061755,
                -0.09306616339378965,
                -0.07913794161121124,
                -0.09112915139898776,
                -0.06638930294757751,
                -0.0941181370182821,
                -0.0880500505353953,
                -0.08401370968424939,
                -0.05859249561652619,
                -0.09409226549741241,
                -0.0840770755726516,
                -0.0880929200459093,
                -0.07323981079056108,
                -0.09313390430385801,
                -0.09104916205734406,
                -0.0788794774510234,
                0.014449505922686446,
                0.11855691707125368,
                0.055599418525682766,
                0.20459253779500228,
                0.032372499469980096,
                0.1586051306200227,
                0.08427606485658576,
                0.25669964773007425,
                0.022756785679074992,
                0.13784956752409813,
                0.06924707423217809,
                0.2298695091575273,
                0.043314059062334924,
                0.1808453565468481,
                0.10070597137628222,
                0.28510687291090436,
                -0.07148710484080403,
                -0.05517887167501211,
                -0.07222209014474079,
                -0.01946696232491189,
                -0.07402664054641914,
                -0.03971758183028535,
                -0.06597515801008906,
                0.005705989833877846,
                -0.07329407891955012,
                -0.04803891921231324,
                -0.0696604042097733,
                -0.00750442945337387,
                -0.07367331622211756,
                -0.030199047608748465,
                -0.061152708835951246,
                0.0201822766674663,
                0.3131049677837547,
                0.5474919408797939,
                0.41657698317862507,
                0.7075004262517627,
                0.36150834625207556,
                0.6237509079955393,
                0.47850418647130544,
                0.7989685109234571,
                0.33648524251574935,
                0.584699017560663,
                0.4466708433458232,
                0.7522550578918572,
                0.3881976290273074,
                0.6646753006398838,
                0.5121025318000881,
                0.8476706430124648,
                -0.009658311381519884,
                -0.08201830495281164,
                -0.05316615796044894,
                -0.09594184508635883,
                -0.033232563440897485,
                -0.0908686306075605,
                -0.06943799679380193,
                -0.09718214287574439,
                -0.02189953990867044,
                -0.08691245777172016,
                -0.061761454411180236,
                -0.09704493535095128,
                -0.04365555816382082,
                -0.09388066122506578,
                -0.07619179208349047,
                -0.09634513621502823,
                -0.05649700921973825,
                -0.011340844049131108,
                -0.04346943762746034,
                0.04092177704529217,
                -0.05231171135233579,
                0.012203727186833366,
                -0.02985407761651512,
                0.07496412332193209,
                -0.054979564305565616,
                -0.00020615608586200317,
                -0.03726598924866544,
                0.057267648079977286,
                -0.048479750010390475,
                0.025906844539499648,
                -0.02121783317090776,
                0.09403141075214387,
                -0.06584024936874038,
                -0.08914430426007214,
                -0.08552996365885679,
                -0.0760303147712399,
                -0.07765914147594755,
                -0.08472458357809132,
                -0.08938411162998408,
                -0.06295818618494374,
                -0.07223925533404504,
                -0.08746264439541168,
                -0.08796374862799261,
                -0.07004827886806525,
                -0.08209214571242815,
                -0.08091802130520638,
                -0.08978112137236824,
                -0.05474576700852712,
                0.09438279318788637,
                0.2416041383148539,
                0.1561271435123616,
                0.3522268322543008,
                0.12237128068044781,
                0.29367853395016635,
                0.1958139982533366,
                0.41744735716405673,
                0.10766600211322325,
                0.26684415460582617,
                0.17521863191947804,
                0.38399033219829476,
                0.13851826750685828,
                0.32213125338606,
                0.2179350503416781,
                0.452624053400214,
                -0.04301038334700446,
                -0.09238040034403583,
                -0.07527778677721134,
                -0.09385529221078114,
                -0.061016173581344764,
                -0.09510566775581965,
                -0.08575037171767519,
                -0.08854971512490155,
                -0.052478836332057514,
                -0.09423535594716113,
                -0.08099084991955827,
                -0.09171471521107918,
                -0.06861760214666617,
                -0.09498220440092525,
                -0.08954939001291895,
                -0.08434899137271852,
                -0.005321057018400261,
                0.0857795357365567,
                0.0296211961302372,
                0.1643769918950492,
                0.00956907510350606,
                0.12219151183976751,
                0.05497516956094566,
                0.21251054676864314,
                0.0014871629590151399,
                0.10327440753416191,
                0.04162637088726568,
                0.18768901036128535,
                0.018941348898550536,
                0.14255185655773836,
                0.06968643084519875,
                0.2388647782319307,
                -0.0730172877414191,
                -0.06540431018155643,
                -0.07790452449305013,
                -0.034673663841344016,
                -0.07758707421588346,
                -0.052375900351497466,
                -0.07387728121487883,
                -0.012170535925965646,
                -0.07582828960756754,
                -0.05946673099534991,
                -0.07644010082239075,
                -0.024030491793760343,
                -0.07828291035052742,
                -0.04411674861327416,
                -0.07020316524423152,
                0.0009234426092083226,
                0.25940063326440793,
                0.4746941403651012,
                0.3537220387912274,
                0.6239200172094177,
                0.30332476844728956,
                0.5456697414008851,
                0.41077981393648505,
                0.7096670447980553,
                0.28056493062410187,
                0.5092861474102275,
                0.3814063137220433,
                0.6658422182791318,
                0.32770275448508907,
                0.5838718685090775,
                0.44186731639611476,
                0.7554236121486336,
                -0.027442782201430305,
                -0.08858134287614312,
                -0.06544209155447976,
                -0.0964926166119471,
                -0.048282372185831514,
                -0.09446889494053982,
                -0.0788889656257245,
                -0.09458482584162434,
                -0.03832083904212858,
                -0.09200420651855053,
                -0.07263203410901252,
                -0.09603472934917998,
                -0.057324073251248935,
                -0.09596776133993429,
                -0.08420740851288286,
                -0.09213309007666085,
                -0.03603971257888849,
                0.030927568586314392,
                -0.012610255760426407,
                0.0957017782736008,
                -0.02677345202353346,
                0.060584201123015,
                0.006577863174307181,
                0.1364429943690367,
                -0.03201103901856949,
                0.045083096234482554,
                -0.0036526497513868447,
                0.11535892411839532,
                -0.020311766677212025,
                0.07745040658936587,
                0.018098637143666874,
                0.15897568157342165,
                -0.07181985881857475,
                -0.08038272407837452,
                -0.08444190428968704,
                -0.05889434950126692,
                -0.08017470974783128,
                -0.0718693571543634,
                -0.08454096162137978,
                -0.04134251292923235,
                -0.07650355021933714,
                -0.07667688538477074,
                -0.08501781909735834,
                -0.05069807303111431,
                -0.08282409075512787,
                -0.06594655431733734,
                -0.08299991600237965,
                -0.030811914915362334,
                0.16756451080000648,
                0.3472170679127436,
                0.2448200475719008,
                0.47626363876369665,
                0.2031384248975501,
                0.40830948231452596,
                0.29278487192804575,
                0.5512897377323344,
                0.18459863365660753,
                0.3769183559480847,
                0.2680057522815556,
                0.5128792189644445,
                0.22320500770704246,
                0.4414159086171617,
                0.3191806989060218,
                0.5915228258828983,
                -0.05599296218695427,
                -0.09282543912344404,
                -0.08219414819647614,
                -0.08732889084893686,
                -0.07101034359570954,
                -0.09213343941991518,
                -0.08948764823704713,
                -0.0783203582912125,
                -0.06397764344694937,
                -0.09298813212428649,
                -0.08633107071043064,
                -0.08335617620250559,
                -0.07708478511812528,
                -0.09025074507433418,
                -0.09165543405077278,
                -0.07220865196861827,
                0.03748404386301268,
                0.1552620294046386,
                0.08516094724669498,
                0.24910533271355947,
                0.05859642783050809,
                0.19912810274057416,
                0.11732934214600427,
                0.30538016672511353,
                0.047367863728694164,
                0.17644248551643862,
                0.10053483756967564,
                0.2764435573127885,
                0.07118789021884228,
                0.22334137354831973,
                0.1355647842365115,
                0.3359398226322517,
                -0.06833591662098612,
                -0.04289055745157335,
                -0.0647102619517797,
                -0.0019388098725485426,
                -0.06874414396337704,
                -0.024870236651009653,
                -0.05613003669287551,
                0.026042664144218502,
                -0.06908911828222943,
                -0.03448594040888482,
                -0.060995295785705055,
                0.011411648463139468,
                -0.06728877788168024,
                -0.014026891974312769,
                -0.05010009968009906,
                0.04197296058476655,
                0.3724447138673757,
                0.6268107945599674,
                0.48549761325750307,
                0.7980823492803827,
                0.4255393360163906,
                0.7085902214977232,
                0.5525187917662582,
                0.8955211314505801,
                0.3981461820022105,
                0.6667507035805162,
                0.5181125480283223,
                0.845793447531493,
                0.45464826822794285,
                0.7523577790505052,
                0.5887426059997806,
                0.9472960009870006,
                -0.004891610461248476,
                -0.07999747841609339,
                -0.04975469109722482,
                -0.09537081821616135,
                -0.029140538332377137,
                -0.08956382441969093,
                -0.06671593974323865,
                -0.09736562342586154,
                -0.0174696271609451,
                -0.0852476071091872,
                -0.05869340043750225,
                -0.09684838560721713,
                -0.03990289130289166,
                -0.09294033925406571,
                -0.073818687131338,
                -0.09691457136811234,
                -0.06020453314624983,
                -0.02016430613150412,
                -0.04961685410999735,
                0.02916236324871661,
                -0.05721114699329361,
                0.001946262078564698,
                -0.03730851320158394,
                0.06163184604081886,
                -0.059276221019272275,
                -0.009738312044245124,
                -0.04405934992898563,
                0.044730852461525465,
                -0.05399598186038244,
                0.014907083865742663,
                -0.029348845509418433,
                0.07988518082585684,
                -0.06370930118334646,
                -0.09050049114087161,
                -0.08507469317824248,
                -0.07935749174064435,
                -0.0763505442527738,
                -0.08704483934538465,
                -0.08981611280608762,
                -0.0673381058058958,
                -0.07051579622808263,
                -0.08929569475086943,
                -0.0879476852906039,
                -0.07389591391120003,
                -0.08120615431712797,
                -0.08373619556323932,
                -0.09067041557395891,
                -0.05967016885311038,
                0.07872021023244696,
                0.21830927170685738,
                0.13681668194613714,
                0.3245872811029899,
                0.10492533965657952,
                0.2682578445751154,
                0.17455488453700915,
                0.3874929360934613,
                0.09112169986194638,
                0.2424978209195886,
                0.154944546300034,
                0.3552055326760836,
                0.12015039709191613,
                0.2956129485698938,
                0.1956691333430757,
                0.421475266462024,
                -0.03934333559329291,
                -0.09171891451431938,
                -0.07307072350397359,
                -0.09484872985818807,
                -0.05806990351439916,
                -0.09525649084355477,
                -0.08430391347890753,
                -0.09041904210802004,
                -0.04917005935422492,
                -0.09397642194175686,
                -0.07916122881259696,
                -0.0931417526084735,
                -0.0660384462673431,
                -0.09555036099235507,
                -0.08849218648599047,
                -0.08666966891902635,
                -0.014059420373498291,
                0.07077800427812772,
                0.01789441859217303,
                0.14579061370830135,
                -0.0006291874428099051,
                0.10543780318508335,
                0.04164829209678387,
                0.1920080375802041,
                -0.007972758587489316,
                0.08740666344871745,
                0.029108677073809958,
                0.168155184928259,
                0.007987591402290491,
                0.12489206024986263,
                0.055531731213288325,
                0.21737197763721675,
                -0.07322311896859979,
                -0.06980073521888606,
                -0.08011266945019405,
                -0.04146808837963812,
                -0.07877230108117764,
                -0.057943625644802314,
                -0.07715483585142797,
                -0.020250027832082775,
                -0.07651856391795178,
                -0.06444206685790402,
                -0.07917695359992949,
                -0.03145996842974812,
                -0.07997397038416557,
                -0.050290713084583154,
                -0.07403378692013543,
                -0.007821398881201543,
                0.23455621709437266,
                0.44062643939152585,
                0.3244593367817092,
                0.5846368510766548,
                0.27631806393117536,
                0.509047100689017,
                0.37916443615242085,
                0.6676147984279764,
                0.25465089835357874,
                0.47395398920696735,
                0.3509795441812584,
                0.6251882669506268,
                0.2995799504365518,
                0.5459323488679511,
                0.40903841851502903,
                0.7119451897494191,
                -0.02319411665437513,
                -0.08718065978264254,
                -0.06258716742607566,
                -0.09663042724015884,
                -0.04472449946298012,
                -0.0938254425551345,
                -0.07675211499583103,
                -0.09553090092279437,
                -0.03441623600675859,
                -0.09097932031177128,
                -0.07013407054599209,
                -0.09657311145308946,
                -0.05411596978347696,
                -0.09571175085228374,
                -0.08243619432558674,
                -0.09349435077838156,
                -0.04204874828838016,
                0.01925671544744629,
                -0.021319576989304062,
                0.08078439376358165,
                -0.03410145926080233,
                0.04732719179812612,
                -0.0035780836438303516,
                0.11978804654095784,
                -0.038671953254834475,
                0.03262825680662905,
                -0.01307693425432431,
                0.09958259203682636,
                -0.0283224525314426,
                0.06337267261766438,
                0.007193957827461682,
                0.14142207868214587,
                -0.07073445076877988,
                -0.0831084447665312,
                -0.08518162410715374,
                -0.06379069713409835,
                -0.07998324107314825,
                -0.07565582848869977,
                -0.0862520881818532,
                -0.04740083164669429,
                -0.07586064128833228,
                -0.07992702626034143,
                -0.08623802943410747,
                -0.056168708787130504,
                -0.08309337461602626,
                -0.07028163752351838,
                -0.08521275563274638,
                -0.03747168257425881,
                0.14761597752920716,
                0.31886848611411583,
                0.2208522999260781,
                0.4431488499639277,
                0.18122400234455163,
                0.3776274531882802,
                0.26667339424495257,
                0.5156399077793188,
                0.16367789965017313,
                0.34741527895802077,
                0.24297762580601734,
                0.4785098803438827,
                0.20027503765482327,
                0.40953009926825606,
                0.2919625264958076,
                0.554566191944046,
                -0.053016643827025596,
                -0.09306773355839001,
                -0.08077179307906421,
                -0.089370274216637,
                -0.06879865563521909,
                -0.0932569888317789,
                -0.08888229754017457,
                -0.0813191237274875,
                -0.06138073805214842,
                -0.09366666724619045,
                -0.08531357328524225,
                -0.08587112151953732,
                -0.07526449020285533,
                -0.09182845352088775,
                -0.09146989026003574,
                -0.0757018668357761,
                0.025543007819369475,
                0.1364010031832714,
                0.0699156326562861,
                0.22629340870648446,
                0.04504069708209623,
                0.17833501046260683,
                0.10031658544254958,
                0.28045967618260587,
                0.034628655903956515,
                0.15662608640497108,
                0.08441571977748896,
                0.2525887524596517,
                0.05679691426244921,
                0.20154989668572562,
                0.11763818177057261,
                0.3099304704153367,
                -0.0701242154468315,
                -0.049304386560204326,
                -0.06870579607050961,
                -0.011005746738653302,
                -0.07161116254044736,
                -0.03257978347552115,
                -0.06130685127751911,
                0.015553695776988365,
                -0.07141073808074672,
                -0.04154010490560572,
                -0.06557468895099647,
                0.0016419615997772775,
                -0.07071364418491222,
                -0.022407239208043092,
                -0.05588826919861344,
                0.030747808065330572,
                0.3420489530339165,
                0.5863130412468178,
                0.45025675941988297,
                0.7518921369497791,
                0.39277101992286173,
                0.6653021681854969,
                0.5147024485667032,
                0.8463139319484789,
                0.3665764557783559,
                0.624871597074376,
                0.4815970040328289,
                0.7981092807051439,
                0.42065636664373446,
                0.7076328141773659,
                0.5495989834082486,
                0.8965363194874111,
                -0.014298974433325673,
                -0.08389276704735511,
                -0.05644456033670218,
                -0.09634693422247928,
                -0.03719582153878689,
                -0.09201806987439126,
                -0.07202112354687966,
                -0.096820585444337,
                -0.0262022462586193,
                -0.08842663879441834,
                -0.06469370703440191,
                -0.09706967382877367,
                -0.047277505317720785,
                -0.09466052691027979,
                -0.07842244570758469,
                -0.09559096648173186,
                -0.05225172520755452,
                -0.0018483525064984338,
                -0.03672176304030673,
                0.053425264994469014,
                -0.04684405078332105,
                0.02316695993444521,
                -0.02176578241609533,
                0.08908034960307913,
                -0.05013011112676608,
                0.01001320238055078,
                -0.029855765750133403,
                0.07056825923297493,
                -0.04237947268583344,
                0.03763133006745708,
                -0.012435572336363561,
                0.10898211522749665,
                -0.06773035693769015,
                -0.08747147878868008,
                -0.08570963120430244,
                -0.07233919021912126,
                -0.07871030109040203,
                -0.08206481889123189,
                -0.08865677385808723,
                -0.05818831198395449,
                -0.07371377136919777,
                -0.08530171632664607,
                -0.08769453824167245,
                -0.06582388878532629,
                -0.08271181287755613,
                -0.07774831483780502,
                -0.08858603561935674,
                -0.0494178189599298,
                0.11106217241947573,
                0.2661025419740269,
                0.17654463507390064,
                0.3811727008493497,
                0.14087835067296126,
                0.32035336640558737,
                0.21822761132582225,
                0.4487618383759319,
                0.12524907094512552,
                0.29241913231606437,
                0.19662328617288624,
                0.4141081244712432,
                0.15797002136200775,
                0.3499295924225088,
                0.2413797895021762,
                0.4851603599537712,
                -0.046516756448417296,
                -0.09283314924752503,
                -0.07730328092953481,
                -0.09261967649513476,
                -0.06379210592877137,
                -0.09473017133793842,
                -0.08700246109995932,
                -0.08641913700127551,
                -0.05562230316575314,
                -0.09427778086615081,
                -0.08263269807959314,
                -0.09003615925108366,
                -0.07102100064754446,
                -0.09418081815207449,
                -0.09040523669026393,
                -0.08175693802445386,
                0.004171819927452641,
                0.1016945858605474,
                0.042178853128110476,
                0.18396580128981074,
                0.02055925000801683,
                0.13990241126415234,
                0.06917346192070593,
                0.2340622959375836,
                0.01172010143822257,
                0.12007731029546542,
                0.05499501583665304,
                0.20824847534679738,
                0.030706306262040788,
                0.16119126781270002,
                0.08473340121591758,
                0.2614308113187049,
                -0.07244492075333653,
                -0.06053781570895696,
                -0.07528121360616974,
                -0.027347993025548342,
                -0.07601178067235723,
                -0.04630830136889429,
                -0.07015789306291363,
                -0.0035268568199690793,
                -0.07475991011938829,
                -0.05400661961228342,
                -0.07327494436404819,
                -0.016053494460853975,
                -0.07618943005467663,
                -0.03742742020033705,
                -0.06591678813475675,
                0.010249529886001977,
                0.2855696575763001,
                0.5103009259557798,
                0.3844134505118761,
                0.6648589162019553,
                0.33170734772281124,
                0.5838890066841044,
                0.44387830471758016,
                0.7534357006505069,
                0.307829008303485,
                0.5461859641659437,
                0.41328879857513673,
                0.7081820447369387,
                0.3572276547271232,
                0.6234373708239958,
                0.47620711704249563,
                0.8006493704668352,
                -0.031553782635642055,
                -0.08981016643298155,
                -0.06814539002648048,
                -0.096156439230116,
                -0.05169638369114691,
                -0.09492801834789168,
                -0.08086485782617284,
                -0.09342477789709458,
                -0.04208487495408081,
                -0.09285119450974405,
                -0.07497390167088042,
                -0.09529037347855268,
                -0.06038462932382304,
                -0.0960326200035205,
                -0.08581240975889715,
                -0.09054946533139466,
                -0.029390231178722356,
                0.043384004640554204,
                -0.0031910568968749687,
                0.11148672431638829,
                -0.018771067290677762,
                0.07466699850488634,
                0.01748075610038022,
                0.15400884553984376,
                -0.024692909230945696,
                0.05834342510674136,
                0.0064998505810834484,
                0.13202429259594087,
                -0.011609149299623006,
                0.09237461931417104,
                0.029769384929753995,
                0.17746244683772108,
                -0.07260726982723575,
                -0.0772693405248257,
                -0.08336249118730679,
                -0.05355609608586653,
                -0.08004811742657775,
                -0.06766888566313403,
                -0.08246694115284095,
                -0.03481281446935117,
                -0.07683862617357876,
                -0.07302610903982915,
                -0.08344651120589142,
                -0.04477099055437605,
                -0.08222612579557625,
                -0.06118371418319768,
                -0.080411994027056,
                -0.02366544240880598,
                0.18867805513227018,
                0.3769312693979732,
                0.2700499739234084,
                0.5108537615676846,
                0.22626565816703573,
                0.44041120411909535,
                0.32020946464019456,
                0.5884721113496366,
                0.20670808251024572,
                0.4078138930788378,
                0.2943213295826926,
                0.5487523003774889,
                0.2473722764285748,
                0.4747490352655664,
                0.3477380426322921,
                0.6300411964413887,
                -0.058774214060050574,
                -0.09232614807762721,
                -0.08339360843338536,
                -0.08499013580329864,
                -0.07301383503962,
                -0.09073349003073432,
                -0.08985383735532057,
                -0.07500168114220417,
                -0.06637311338181598,
                -0.09204309475006069,
                -0.0871177359478402,
                -0.08053278523191022,
                -0.07868973037662583,
                -0.0883863468419251,
                -0.09159309478854671,
                -0.06838366724601405,
                0.05030504369256924,
                0.17517589233683648,
                0.10136952541712667,
                0.2730659398989698,
                0.07307298809480045,
                0.2210211707960381,
                0.13534936482779772,
                0.3314996161809722,
                0.06100727216255691,
                0.19733509483029807,
                0.11763902409927174,
                0.3014719871699964,
                0.0865207166814152,
                0.24625698384705785,
                0.15452124200526293,
                0.3631738597553404,
                -0.06610116101939285,
                -0.035912870042716705,
                -0.06021270696341233,
                0.007760096061068493,
                -0.06540367073070136,
                -0.01656356030971647,
                -0.050421066690387574,
                0.037200009463866236,
                -0.0663077388098074,
                -0.02685147804543215,
                -0.055899010518444765,
                0.021831312294694778,
                -0.06337636985759856,
                -0.005032191490207257,
                -0.0437641193443215,
                0.05388528212438828,
                0.4043360622181628,
                0.6690324797158022,
                0.5223450901067801,
                0.8461200756213975,
                0.4598579732073241,
                0.75366321356941,
                0.5919996282258955,
                0.9466399885482166,
                0.4312386664916602,
                0.7103840493459554,
                0.5562634541179131,
                0.8953570041190423,
                0.49021844582490925,
                0.7988987742668072,
                0.6295802451009217,
                1.0000000000000016
            ],
            "result_with_budget": [
                {
                    "portfolio": {
                        "CVX": 0,
                        "HD": 14
                    },
                    "budget": 5411.517822265625,
                    "difference": 292.482177734375,
                    "objective_value": -2902.3415316888263
                }
            ],
            "result_with_budget_excited": [
                {
                    "portfolio": {
                        "CVX": 1,
                        "HD": 14
                    },
                    "budget": 5554.7689208984375,
                    "difference": 149.2310791015625,
                    "objective_value": -3533.8678916040108
                }
            ]
        },
        "qaoa_solution": {
            "two_most_probable_states": [
                "0001001001",
                "0001000001"
            ],
            "final_expectation_value": -0.08146761942102106,
            "params": [
                2.519494123698467,
                2.8741711747697414,
                6.316013186882177,
                3.1716645564106485,
                2.583224706538091,
                3.077293713515695,
                6.755968929682854,
                3.314791746521482,
                3.565462477974423,
                0.19124531244513693,
                0.8846323258980351,
                1.9851991241576474,
                1.98626685341075,
                1.3961062288054946,
                2.2816785245481674,
                1.0722263474352016,
                2.4583929578770207,
                2.30798007750226,
                2.9205389233578543,
                0.28287359031804543
            ],
            "total_steps": 800,
            "states_probs": [
                0.0071936006833054475,
                0.008493834485499962
            ],
            "optimized_portfolios": [
                {
                    "CVX": 8,
                    "HD": 9
                },
                {
                    "CVX": 8,
                    "HD": 8
                }
            ],
            "training_history": {
                "xbest": [
                    2.519494123698467,
                    2.8741711747697414,
                    6.316013186882177,
                    3.1716645564106485,
                    2.583224706538091,
                    3.077293713515695,
                    6.755968929682854,
                    3.314791746521482,
                    3.565462477974423,
                    0.19124531244513693,
                    0.8846323258980351,
                    1.9851991241576474,
                    1.98626685341075,
                    1.3961062288054946,
                    2.2816785245481674,
                    1.0722263474352016,
                    2.4583929578770207,
                    2.30798007750226,
                    2.9205389233578543,
                    0.28287359031804543
                ],
                "fbest": -0.08146761942102106,
                "evals_best": 9567,
                "evaluations": 9600,
                "iterations": 800,
                "xfavorite": [
                    2.515729030382055,
                    2.8887220033142844,
                    6.362994765024367,
                    3.1820321197430173,
                    2.6060284516884162,
                    3.0745713289145287,
                    6.761739073397637,
                    3.314078830316274,
                    3.522630205273425,
                    0.18842145377755967,
                    0.8819350540721511,
                    1.9819678486514054,
                    1.9884332297947085,
                    1.3964471940212588,
                    2.281337734734308,
                    1.0706123381130639,
                    2.457354816797876,
                    2.306014659989968,
                    2.9168618358957756,
                    0.2885131981663727
                ],
                "stds": [
                    0.014018328889191092,
                    0.015082543146141417,
                    0.04912214492183114,
                    0.011867469741774262,
                    0.018943157971113636,
                    0.010275366574449479,
                    0.02960706691836236,
                    0.009890782697096909,
                    0.03933950525130676,
                    0.012153598223289848,
                    0.002752005111376485,
                    0.0038018314727916707,
                    0.0033232717988399755,
                    0.004401285682740624,
                    0.0036291891012438736,
                    0.001940202810026555,
                    0.0015830880832835776,
                    0.0027267104928256954,
                    0.014913346156895034,
                    0.014391544080648383
                ],
                "stop": {
                    "maxiter": 800
                }
            },
            "objective_values": [
                -4890.23200508358,
                -3871.030831513776
            ],
            "result_with_budget": [
                {
                    "portfolio": {
                        "CVX": 8,
                        "HD": 9
                    },
                    "budget": 4624.8416748046875,
                    "difference": 1079.1583251953125
                },
                {
                    "portfolio": {
                        "CVX": 8,
                        "HD": 8
                    },
                    "budget": 4238.3046875,
                    "difference": 1465.6953125
                }
            ]
        }
    }
}