{
    "19": {
        "hyperparams": {
            "stocks": [
                "BA",
                "CVX",
                "DIS",
                "INTC",
                "V"
            ],
            "start": "2015-01-01",
            "end": "2025-01-01",
            "risk_aversion": 0.1,
            "n_qubits": 13,
            "budget": 547,
            "log_encoding": true,
            "layers": 10,
            "prices_now": {
                "BA": 177.0,
                "CVX": 143.2510986328125,
                "DIS": 111.3499984741211,
                "INTC": 20.049999237060547,
                "V": 315.5091247558594
            },
            "assets_to_qubits": {
                "BA": [
                    0,
                    1
                ],
                "CVX": [
                    2,
                    3
                ],
                "DIS": [
                    4,
                    5,
                    6
                ],
                "INTC": [
                    7,
                    8,
                    9,
                    10,
                    11
                ],
                "V": [
                    12
                ]
            },
            "optimizer": "CMAES",
            "lambda_budget": 1
        },
        "continuous_variables_solution": {
            "weights": {
                "BA": 2.7755575615628914e-17,
                "CVX": 4.163336342344337e-17,
                "DIS": 0.0,
                "INTC": 0.0,
                "V": 1.0
            },
            "allocation": {
                "INTC": 4,
                "V": 1,
                "BA": 0,
                "CVX": 0,
                "DIS": 0
            },
            "value": -20.700462420180553,
            "left_overs": 151.2908782353935
        },
        "continuous_variables_solution_unconstrained": {
            "weights": {
                "BA": 0.00758507786006943,
                "CVX": 0.0,
                "DIS": 0.0,
                "INTC": 0.0,
                "V": 1.0
            },
            "allocation": {
                "BA": 1,
                "INTC": 2,
                "V": 1,
                "CVX": 0,
                "DIS": 0
            },
            "value": -3.9711440627392616,
            "left_overs": 14.390876712838462
        },
        "exact_solution": {
            "smallest_eigenvalues": [
                -0.07043382113394306
            ],
            "smallest_bitstrings": [
                "0001010010000"
            ],
            "first_excited_energy": -0.07043367525064023,
            "optimized_portfolio": [
                {
                    "BA": 0,
                    "CVX": 2,
                    "DIS": 2,
                    "INTC": 2,
                    "V": 0
                }
            ],
            "second_optimized_portfolio": [
                {
                    "BA": 2,
                    "CVX": 0,
                    "DIS": 1,
                    "INTC": 4,
                    "V": 0
                }
            ],
            "spectrum": [
                2.862379232749845e-16,
                -0.05782062090357299,
                -0.058281553282562716,
                -0.06844419959374669,
                -0.035244231233065824,
                -0.06923751910719146,
                -0.06888637480057472,
                -0.055212057314259134,
                -0.01913950410758309,
                -0.06504668370680278,
                -0.06515775036959803,
                -0.06340289341766867,
                -0.04829948078359602,
                -0.07037804979925405,
                -0.06941673044760774,
                -0.0438206184430003,
                -0.009948531908397694,
                -0.06181246491784694,
                -0.06211028141899167,
                -0.06631439721298864,
                -0.0421543110111501,
                -0.07019036639225307,
                -0.0695548562489737,
                -0.04991995679604016,
                -0.02757192266880227,
                -0.06752223625260688,
                -0.06741846676374846,
                -0.05970414774807472,
                -0.05367649690070977,
                -0.06979727858942106,
                -0.06846425430490316,
                -0.036906252074487576,
                -0.005068920767234066,
                -0.05991120297019132,
                -0.06029325338327162,
                -0.06747668677138682,
                -0.038794704114637986,
                -0.0698094045332377,
                -0.06932097945770253,
                -0.05266644686814253,
                -0.023450616683416692,
                -0.06637938029364457,
                -0.06638681794182592,
                -0.06165229406581909,
                -0.05108423274710631,
                -0.07018394866254613,
                -0.06904279208207689,
                -0.04046582261689977,
                -0.014638761910230565,
                -0.0635243293471458,
                -0.06373200344622872,
                -0.06495669108892227,
                -0.045322699194225026,
                -0.07038004606972584,
                -0.0695870900157759,
                -0.04697166605320487,
                -0.03150320994292145,
                -0.06847503357673708,
                -0.06825192228431252,
                -0.05755767402724745,
                -0.05607577990847055,
                -0.06921754035780824,
                -0.06768006134991526,
                -0.033140845163457645,
                -0.06800535765999309,
                -0.05966378301337986,
                -0.05899161252399381,
                -0.0029902332065407998,
                -0.06960975922226591,
                -0.03744026178618483,
                -0.035912392449216,
                0.04392784154257776,
                -0.07032609345629896,
                -0.05007086394512331,
                -0.04903016878076464,
                0.01888957791842104,
                -0.06584003764403616,
                -0.02175528251007367,
                -0.019585970680457098,
                0.07217724722745283,
                -0.06954469099871906,
                -0.05524634200782793,
                -0.05440251419176028,
                0.007557807372239275,
                -0.06810794320218842,
                -0.02998096418332829,
                -0.028153883316440392,
                0.05764750701093355,
                -0.07034836901385269,
                -0.04413610571730684,
                -0.04286888083024786,
                0.031010820981842824,
                -0.06280259680798915,
                -0.012759723937522312,
                -0.010200709359567689,
                0.08752505446291409,
                -0.06886971290825038,
                -0.05754976141843162,
                -0.0567946352463559,
                0.0021861577763578415,
                -0.0689544190156787,
                -0.033806214661681204,
                -0.032133838716804024,
                0.050686892480227695,
                -0.0704322188186903,
                -0.04719849451603252,
                -0.046048520559174876,
                0.02485113450618103,
                -0.06441774646441929,
                -0.01735397810794731,
                -0.01499602714941292,
                0.07974837098096102,
                -0.07003019515687366,
                -0.052753422120908576,
                -0.05181459015544659,
                0.013125380671998704,
                -0.06706995379215162,
                -0.025964126475348237,
                -0.023971585828247266,
                0.06481063144070777,
                -0.07007430665970259,
                -0.04088345428072723,
                -0.03949044978166457,
                0.03736944304386051,
                -0.06099407007754452,
                -0.007971995515462205,
                -0.005198936283484993,
                0.0955083845868831,
                -0.04567778905794804,
                -0.07041735494355933,
                -0.07031285543923349,
                -0.04739361668379722,
                -0.06410247784531183,
                -0.06501445831674847,
                -0.06407686360777583,
                -0.017319758111702985,
                -0.056408043013662916,
                -0.06923408206245767,
                -0.06877078364352213,
                -0.03393363081330473,
                -0.06874558459953971,
                -0.05774259804044373,
                -0.05617959084360619,
                0.0024998826220288977,
                -0.05142177563562581,
                -0.07020462102585687,
                -0.06993293305975498,
                -0.04105496854627253,
                -0.0668067680605846,
                -0.061761402117941545,
                -0.06053221686616494,
                -0.007814252842813946,
                -0.060635496218242026,
                -0.06750459599046495,
                -0.06682081277483945,
                -0.026023961980118242,
                -0.06991558276741962,
                -0.05295465430041912,
                -0.05101114140346375,
                0.01363053950854056,
                -0.04864445078080951,
                -0.0704056642064205,
                -0.07022034494803843,
                -0.04432179819034789,
                -0.06555012008899692,
                -0.06348345868562293,
                -0.06240506935848012,
                -0.01266761302007658,
                -0.05861671179342932,
                -0.06846430076389759,
                -0.06789464751164917,
                -0.030077712348218197,
                -0.06942691699321739,
                -0.05544500258466808,
                -0.0536978562792037,
                0.007962630716037875,
                -0.05400967947850432,
                -0.06981413537184193,
                -0.06944997320025523,
                -0.03759247529130883,
                -0.06787205640106574,
                -0.05984791736855991,
                -0.058457378341585105,
                -0.0027587439045352467,
                -0.06246417153664994,
                -0.06635473710457407,
                -0.0655484922514071,
                -0.021771586641183366,
                -0.07021107595557816,
                -0.050271041334993265,
                -0.04811837781958265,
                0.019504683282475378,
                -0.06698212897491446,
                -0.02555925316465671,
                -0.024316819153056474,
                0.0647670313389674,
                -0.05176528425642515,
                0.013485936709160831,
                0.015608258335175365,
                0.12853203642581118,
                -0.0608929714661297,
                -0.007556270268280016,
                -0.005934793259396313,
                0.09506792041659529,
                -0.039581941671440364,
                0.037584870154659326,
                0.04036545684005257,
                0.16521287728864228,
                -0.06431664759738626,
                -0.016936922346311105,
                -0.015517965862150014,
                0.07952506461256276,
                -0.04605699175938711,
                0.025151867205319055,
                0.027581417629341916,
                0.14646667111150166,
                -0.05670980351720179,
                0.002584047222458363,
                0.00443849516102656,
                0.11140144234596629,
                -0.03233658720770246,
                0.050788539431143497,
                0.05396842219406877,
                0.18477874827307497,
                -0.06574410353380108,
                -0.021342815873311792,
                -0.020015092109901364,
                0.0720482884142107,
                -0.049006783002645556,
                0.0192232205477837,
                0.02149395891193212,
                0.13739839119453393,
                -0.0588964270053021,
                -0.0025811756789941727,
                -0.000847297777938456,
                0.10313546092100116,
                -0.03605579613053141,
                0.044090124914954835,
                0.047064048890043904,
                0.17489282687777602,
                -0.06269965176051179,
                -0.01234145729236148,
                -0.010824768574409302,
                0.08719803765555187,
                -0.04291551990637373,
                0.03127227318817756,
                0.0338715875379153,
                0.15573783511335884,
                -0.054332850989111676,
                0.007939654334929498,
                0.009923398000450667,
                0.11986668302057747,
                -0.02842378367511883,
                0.05768065081719472,
                0.06107967041019683,
                0.19487174101874252,
                -0.025757652673716998,
                -0.06703775206276996,
                -0.06721622629810661,
                -0.06083795731808286,
                -0.05259219238908764,
                -0.07004484318015021,
                -0.06940092961084729,
                -0.03918525598557628,
                -0.04069255851017486,
                -0.07005917914055312,
                -0.06988342013073133,
                -0.051587447793670464,
                -0.06144144953735226,
                -0.06697926269582513,
                -0.06571765443031861,
                -0.023579904873030903,
                -0.033603922057216955,
                -0.06892731990747299,
                -0.06894069150812078,
                -0.056603797046435665,
                -0.05739941362176668,
                -0.06889477761523341,
                -0.06796293539131872,
                -0.03178654417505499,
                -0.04702251758130525,
                -0.07043223822164532,
                -0.07003886827277354,
                -0.045783318577543704,
                -0.06471500596361887,
                -0.06429495716062138,
                -0.06265729311374181,
                -0.014557497376320616,
                -0.029775448173510424,
                -0.06807720331023262,
                -0.06817585145314742,
                -0.05881832333843976,
                -0.055091267254230934,
                -0.06956530470810247,
                -0.06878237821281658,
                -0.035586422942735556,
                -0.043952459966604816,
                -0.07034064889130161,
                -0.07005992272507729,
                -0.04878422708734855,
                -0.0631745155423455,
                -0.06573343955396001,
                -0.06428986788728963,
                -0.019171184162891527,
                -0.037242996496260304,
                -0.06958801813978004,
                -0.06951010620421555,
                -0.054193732297124424,
                -0.05951627244800161,
                -0.06803289697171348,
                -0.06694167967242545,
                -0.02778469232247116,
                -0.049902512918141,
                -0.07033372280931467,
                -0.06981947590745001,
                -0.042583935511751124,
                -0.06606242114992,
                -0.06266330997842112,
                -0.06081886802818733,
                -0.009737776545695916,
                -0.0704126456700019,
                -0.0455304452153163,
                -0.044573489121680444,
                0.027969079761666377,
                -0.06360655736612038,
                -0.014896233562857453,
                -0.013071682378710106,
                0.08331026701729217,
                -0.06852848840310652,
                -0.03173255313425423,
                -0.030401912274733732,
                0.05405926657955267,
                -0.055630131064933995,
                0.004995611705615939,
                0.007469917595532957,
                0.1157751748166599,
                -0.06984959518333046,
                -0.03901058549205241,
                -0.03787958903391723,
                0.04062203830809212,
                -0.06000155273583053,
                -0.005333671797573557,
                -0.003205949984584179,
                0.09913731261901476,
                -0.06644807878791831,
                -0.0236950545114309,
                -0.022134712860839838,
                0.06828655764841833,
                -0.050488796091079056,
                0.016095160298140933,
                0.01896391606587146,
                0.13323189640353725,
                -0.07022582152445321,
                -0.04236522805102654,
                -0.041324174007701706,
                0.03419786541634196,
                -0.0618996606345855,
                -0.010210593407920368,
                -0.008239605318312752,
                0.09112291844831384,
                -0.06758329632865237,
                -0.027808839927807354,
                -0.0263673839935123,
                0.06107377022735561,
                -0.05315594322720419,
                0.010448859436316064,
                0.013114128767979086,
                0.1244006535419316,
                -0.06928386355679221,
                -0.035466408562417104,
                -0.03423906868025002,
                0.04724226984312869,
                -0.05791184936489641,
                -0.00026507854072277366,
                0.0020302303576697277,
                0.10735440215072381,
                -0.06512259208350447,
                -0.019390947301589325,
                -0.017703092749080832,
                0.07569844085651027,
                -0.04762816474404034,
                0.021935045089743574,
                0.025020366831962876,
                0.14226999663036413,
                -0.059760376984085824,
                -0.06795938798769005,
                -0.06757135496826526,
                -0.028111082563567487,
                -0.06977502864859512,
                -0.054146296174199075,
                -0.052914064269146376,
                0.010384558219218978,
                -0.06628591205717237,
                -0.06257133752199745,
                -0.06181974177802523,
                -0.01044133395698095,
                -0.07021181362474739,
                -0.04266797409805486,
                -0.04080241377298949,
                0.03441887934630492,
                -0.06340205377888367,
                -0.06564432001861394,
                -0.06508691364008223,
                -0.01966780988904312,
                -0.07037630867832724,
                -0.04879016486145681,
                -0.047262581455164564,
                0.021997045808674884,
                -0.068410806322604,
                -0.058739247912413244,
                -0.05776419444386741,
                -0.00042596274007408627,
                -0.06927814827056761,
                -0.03577628157762557,
                -0.033525666563454064,
                0.047658000580355596,
                -0.061675893072457556,
                -0.0668965407524364,
                -0.06642664478219958,
                -0.02398701285172189,
                -0.07017120031772585,
                -0.051563794774943654,
                -0.05018893702441273,
                0.016090108159759482,
                -0.06744332325494835,
                -0.060750277612846716,
                -0.05989088982352931,
                -0.005532637980770802,
                -0.06984136140624413,
                -0.03931855267154771,
                -0.03726662799527085,
                0.04093576067208117,
                -0.06493876864415486,
                -0.06420262944087891,
                -0.06355150865246845,
                -0.015152814899952263,
                -0.07038998205607346,
                -0.04582502887327757,
                -0.04413406345684049,
                0.02810631115666136,
                -0.06918813019337224,
                -0.05653801146779484,
                -0.055438862142037436,
                0.004879491148246783,
                -0.0685216619358331,
                -0.03204064264826884,
                -0.029578454765419197,
                0.05458667966938297,
                -0.05771366891200241,
                0.0002499411909716838,
                0.0017785896136772953,
                0.10740382314680615,
                -0.034085774445916935,
                0.047706423866778445,
                0.05012764870877522,
                0.17959337817411422,
                -0.04741939059037261,
                0.022458146097439728,
                0.02437139388931462,
                0.14191575444326007,
                -0.017695290624023696,
                0.07601268106623288,
                0.07910087946170373,
                0.22049059644164729,
                -0.05294570288202421,
                0.010974802177902875,
                0.012682554251474052,
                0.1242670946032287,
                -0.02627408812946006,
                0.06147583435839175,
                0.06420844523780643,
                0.19963581759050678,
                -0.041133384450573095,
                0.03470136762513563,
                0.03685095555555223,
                0.1603556967843329,
                -0.008345784622194125,
                0.09132060838679543,
                0.09481304812976062,
                0.2421658585659082,
                -0.055424416925498966,
                0.005517626515152589,
                0.0071328060269112365,
                0.11573763173947467,
                -0.03027561732452863,
                0.054495405390406336,
                0.05706707633833224,
                0.18951354247293425,
                -0.04437145544557695,
                0.028484663023114615,
                0.030511947059680647,
                0.15103642494889596,
                -0.013117122986802478,
                0.08357000990521224,
                0.08685396897345041,
                0.23122513613480852,
                -0.050277411061103554,
                0.016621589785832183,
                0.01842851243807543,
                0.13299289577491227,
                -0.022080789925119026,
                0.06864811359246169,
                0.07155271477302465,
                0.2099611687787938,
                -0.03770492127732746,
                0.04110852211767093,
                0.04338923813519765,
                0.16987439459397494,
                -0.003380737987047714,
                0.09926501994026832,
                0.10297921690402,
                0.25331386959446733,
                -0.05446108829135194,
                -0.0697230908478599,
                -0.06945892684697622,
                -0.037061329054789656,
                -0.06806718954951826,
                -0.0595013453801413,
                -0.058404876990715955,
                -0.002168604977730413,
                -0.0627820947683094,
                -0.0661304739676741,
                -0.06550771356497309,
                -0.021191832093452198,
                -0.07030094306148958,
                -0.049819898799140026,
                -0.048098992015683205,
                0.02006015411353095,
                -0.05900046766235308,
                -0.06830570999719948,
                -0.06787441056712061,
                -0.029517910748493636,
                -0.06956679983139835,
                -0.05504350125060369,
                -0.05365588114147602,
                0.008541493938238852,
                -0.06580488455788733,
                -0.0631962506188705,
                -0.06235325134732079,
                -0.012077461507373492,
                -0.07026628446751819,
                -0.04382715616439787,
                -0.041726375399184897,
                0.03239525685137753,
                -0.05682545116420581,
                -0.06910908353104327,
                -0.06876411423644005,
                -0.03338712244127257,
                -0.06891249161859583,
                -0.05736795370920975,
                -0.05613089805721152,
                0.003085844934359779,
                -0.06438843411328515,
                -0.06475832843688904,
                -0.06402932410884209,
                -0.016733557235616807,
                -0.07037994438570981,
                -0.04691990334094428,
                -0.04501516125208772,
                0.02612513561075193,
                -0.06098605488221157,
                -0.0673128814566122,
                -0.06678917050520035,
                -0.025453042756500725,
                -0.07002975006922604,
                -0.052527617999488484,
                -0.05097889969457455,
                0.01419927446897619,
                -0.06703122259097515,
                -0.06144401111634313,
                -0.06047870933903405,
                -0.007222753081211473,
                -0.06995945858065639,
                -0.04054114665710728,
                -0.038231567300481266,
                0.03887159087803614,
                -0.06238661979727698,
                -0.011486144090552009,
                -0.010085226673688755,
                0.08847710894064927,
                -0.04235149618698699,
                0.03237763074587676,
                0.034656545703673235,
                0.1570596611558858,
                -0.05388830322229101,
                0.00892611677190296,
                0.01070532504456934,
                0.12118691582697805,
                -0.02775915239687045,
                0.058885820838496965,
                0.06182147713315072,
                0.19614876346953383,
                -0.05851655894281461,
                -0.0016591828792157054,
                -8.20708367167414e-05,
                0.10443963221847953,
                -0.03543868329858305,
                0.04524820082051376,
                0.04783363093887295,
                0.1761984775118358,
                -0.04850056549424655,
                0.020271089093342673,
                0.022282747553508134,
                0.13872479343856284,
                -0.01930936661945036,
                0.07329407475130474,
                0.07662812059078478,
                0.21691860242233826,
                -0.060546305251893244,
                -0.0066673943703790305,
                -0.005181339069214391,
                0.09636061817282611,
                -0.038990730410479575,
                0.03871723656731347,
                0.04114422350047479,
                0.16652811887579547,
                -0.051289472025481085,
                0.01450353848949296,
                0.0163948993391924,
                0.12985664380792752,
                -0.023630784391454863,
                0.06599337259114925,
                0.06912192496509961,
                0.20643071163953144,
                -0.056297272705192976,
                0.003538604433920824,
                0.005213248618887021,
                0.11271482755882788,
                -0.0316949654713316,
                0.05197091877157837,
                0.05472571982906837,
                0.18607169476033944,
                -0.0455213348561806,
                0.026229023241993547,
                0.028369680890158004,
                0.14779218180766,
                -0.014794369093332913,
                0.08078846319262172,
                0.08434115642796437,
                0.227613534121846,
                -0.0700990876877357,
                -0.05227993127414634,
                -0.051448634582334125,
                0.014031166968842058,
                -0.06688502983665619,
                -0.025237666942338442,
                -0.023552011847736577,
                0.06576747423749289,
                -0.0700106071101355,
                -0.04027768812188177,
                -0.039078344082233325,
                0.038320205645003554,
                -0.06070611793330565,
                -0.007143253088891467,
                -0.004817404409819135,
                0.09642558292796773,
                -0.07043382113394306,
                -0.04665784505490673,
                -0.045655081476165905,
                0.025783844184838742,
                -0.06417860710348612,
                -0.016573649034163772,
                -0.014589358639916339,
                0.08069153391523187,
                -0.06882825951991707,
                -0.033138227289595944,
                -0.031712736862260414,
                0.05164598397669174,
                -0.056464126508778544,
                0.003057003799893728,
                0.005771786101770377,
                0.11297760362399584,
                -0.07036114568349724,
                -0.0495635918995885,
                -0.04864942268900941,
                0.01980988136559795,
                -0.06562738400604477,
                -0.02100125953116839,
                -0.01917137388784115,
                0.07312873233632493,
                -0.0695144211117835,
                -0.03680296973716971,
                -0.03549452651657511,
                0.04488403744276661,
                -0.05868154671135011,
                -0.0021395969140199866,
                0.0003745183871570828,
                0.1045988259488707,
                -0.07031701850485711,
                -0.04356258931975104,
                -0.04246495297935386,
                0.031953719277149,
                -0.06253832237964703,
                -0.011954452815857107,
                -0.00980502692439469,
                0.08845682403991552,
                -0.06795188619276225,
                -0.029283218751251595,
                -0.027732176547280295,
                0.05860684970492277,
                -0.05405333996870038,
                0.008447072295875824,
                0.011375478521146901,
                0.12156300162660347,
                -0.031322950637162374,
                0.05265907980289441,
                0.05463245941434005,
                0.18627773451317023,
                0.005534359658586214,
                0.1133455710607594,
                0.11622217247517783,
                0.2717094077062711,
                -0.014414341983820293,
                0.08148185695179357,
                0.08384456348895718,
                0.22740964324315174,
                0.028541008945054472,
                0.14826845349742204,
                0.15181913656303278,
                0.3192312548051922,
                -0.02324789353708387,
                0.06669113919891591,
                0.06884583745567834,
                0.20645074457403842,
                0.01665397341147848,
                0.13042312525875452,
                0.13361451797562726,
                0.295063830225942,
                -0.004820907790849346,
                0.0970326683371293,
                0.09963452514257827,
                0.24916036523799065,
                0.04119910416677604,
                0.16688524077330177,
                0.17084416558673496,
                0.34421986588243714,
                -0.027380169102044556,
                0.059580344941092135,
                0.061641325942860654,
                0.196266352417485,
                0.010998444211732199,
                0.12178858474702584,
                0.12481729770393579,
                0.2832854832661303,
                -0.009712718948886923,
                0.08916213926574805,
                0.09164024991651852,
                0.2381856334350819,
                0.03477342475574963,
                0.15748016247349547,
                0.16122856921608172,
                0.3316223785342327,
                -0.018926003146799188,
                0.07399158925798129,
                0.07624667717850876,
                0.2168316000946803,
                0.0225013492684233,
                0.13924960049267868,
                0.14261479773108496,
                0.30704541891267717,
                0.00026135289333198614,
                0.10509371145511177,
                0.10782821300040972,
                0.2603346683712868,
                0.047818589796290646,
                0.1764842369011327,
                0.18066703072338372,
                0.35702482778433287,
                -0.06519886716617988,
                -0.06392030558319672,
                -0.06337286415140073,
                -0.0144342010729187,
                -0.07039498880870096,
                -0.045288411246232056,
                -0.043897836559257546,
                0.028879995272829917,
                -0.06931516703757834,
                -0.056122917800601475,
                -0.05521225356422229,
                0.005644920130046765,
                -0.06842249872580806,
                -0.031400575453714934,
                -0.029377783847732965,
                0.055323230356837,
                -0.06763593877370144,
                -0.060400589903119424,
                -0.05968389684838341,
                -0.004786223357722048,
                -0.06979162387751182,
                -0.03872752417778719,
                -0.03704210551626058,
                0.04169697842819573,
                -0.07023541638394494,
                -0.05108610661269889,
                -0.04995229928317357,
                0.01686491149521129,
                -0.06628422805878417,
                -0.023304132690131714,
                -0.020896986816991266,
                0.06976668288451676,
                -0.06651208438446089,
                -0.06225514034946018,
                -0.06162588477898196,
                -0.009707774775271481,
                -0.07018883675967652,
                -0.04210353286490135,
                -0.040570574039838506,
                0.035187802023032594,
                -0.069870257018748,
                -0.053699500478688246,
                -0.05268118945672389,
                0.011155932726472044,
                -0.06744974013256734,
                -0.027448777320786093,
                -0.025239959518612715,
                0.062442288836755865,
                -0.06857034111500324,
                -0.05835655913914089,
                -0.057546248710471225,
                0.00033111071499801996,
                -0.06920297972819088,
                -0.035160008864738614,
                -0.03331149812427209,
                0.048408463238705506,
                -0.07041041530671137,
                -0.04828250049004074,
                -0.0470247907868788,
                0.022772654579091604,
                -0.06492545146288337,
                -0.018966124634042424,
                -0.016347792271059074,
                0.07729749185806453,
                -0.04977374788955886,
                0.017667471058985057,
                0.01935424229973501,
                0.13445799228383046,
                -0.02132768444458831,
                0.06994243997426243,
                0.07251962274647834,
                0.21146473209182157,
                -0.03707034898165002,
                0.04228492104649651,
                0.044355402107763585,
                0.1713786766916657,
                -0.0025283038036280317,
                0.1006578550296613,
                0.10390035022565829,
                0.25476998120670974,
                -0.04380121750347379,
                0.02959695011552342,
                0.03146242845662781,
                0.15252567551496246,
                -0.012311525810663918,
                0.08491644476789979,
                0.08780423123650243,
                0.2327112419958767,
                -0.029579804660096798,
                0.055732768604974565,
                0.05803900035901203,
                0.19102288000889114,
                0.008025568961449863,
                0.11717030523355687,
                0.12081606654075666,
                0.27764908364020957,
                -0.046882213329415216,
                0.023537463680085725,
                0.025310579790586908,
                0.14339401494845308,
                -0.016915285807637993,
                0.07733372187226036,
                0.08006097163584326,
                0.2219869447803137,
                -0.03342014186977004,
                0.048913751730299555,
                0.0510979863693257,
                0.18110148835059783,
                0.002652055052666438,
                0.10881745101428565,
                0.11225523132085805,
                0.26610645668095145,
                -0.04053064593156989,
                0.035846050731597405,
                0.037810465208257114,
                0.1618536567798919,
                -0.00751600875838446,
                0.09269101024259817,
                0.09575035967397184,
                0.2436385877501612,
                -0.025549082264907173,
                0.0627422326443798,
                0.06517926159478031,
                0.20114367507063788,
                0.013592774225562676,
                0.12571695987644996,
                0.129583954618429,
                0.2893989667036915,
                -0.06916169804346362,
                -0.03480190671850847,
                -0.03368613275814907,
                0.0483348898417641,
                -0.05753723403629205,
                0.0006509755182757355,
                0.0026327293100095015,
                0.10849397347206595,
                -0.06486834978115792,
                -0.018594710337046516,
                -0.01710586634511096,
                0.07683415261495764,
                -0.04715170869462284,
                0.02295216967433447,
                0.025582291856488776,
                0.1433673667749983,
                -0.06739405623438761,
                -0.02707740755422708,
                -0.025787852372707303,
                0.062192413346594054,
                -0.052727664216094865,
                0.01141821886313648,
                0.013702498349852647,
                0.1255253086512881,
                -0.061583342064846995,
                -0.009352531358959613,
                -0.0076344386145527346,
                0.09226589079674112,
                -0.04080588113200837,
                0.035256361380816593,
                0.038280095611664365,
                0.1620281807140231,
                -0.06837257990069266,
                -0.031034373631160794,
                -0.029834619236828216,
                0.055165964100674196,
                -0.055228051412542216,
                0.005938957626792069,
                0.00806683791301007,
                0.11690878077811138,
                -0.06332085783950188,
                -0.014068658269797873,
                -0.012469213166433577,
                0.08445088842487276,
                -0.04407526878463126,
                0.029007742606424754,
                0.03182842137171887,
                0.15259490524323902,
                -0.06622602519501608,
                -0.022930900752041034,
                -0.02154516788602032,
                0.06941490774542493,
                -0.05003568938230133,
                0.017089148178092817,
                0.019540656115421016,
                0.13434450847261395,
                -0.05965556000010381,
                -0.004446081261306671,
                -0.0026007378021433067,
                0.10027997050402217,
                -0.03734302206454695,
                0.041698555555852244,
                0.044938400678767663,
                0.17166828517592883,
                -0.007034069733409848,
                0.0934888498374978,
                0.09574963654587483,
                0.24393655689406146,
                0.03823482121374952,
                0.1625872184862248,
                0.16576443355005557,
                0.3377939360491614,
                0.014079889470143199,
                0.12651710557638338,
                0.12917303445616632,
                0.289280050139095,
                0.06544898433265774,
                0.20171782411490444,
                0.20557808819782455,
                0.3895328457071763,
                0.003143577959166289,
                0.109623558763417,
                0.11206837473231643,
                0.26621506735723444,
                0.05145800615519098,
                0.1817684434700705,
                0.18526473651266565,
                0.3632564969480959,
                0.025776303508574766,
                0.14417097607453025,
                0.14706955386835666,
                0.31313749047965556,
                0.08021144417614293,
                0.22243909593979902,
                0.226712676477405,
                0.4166312172873527,
                -0.002040010915037065,
                0.1014614204570287,
                0.10381111461142183,
                0.25497785519338156,
                0.044750648086910726,
                0.17208202302053513,
                0.17541344371310266,
                0.3504239857312395,
                0.019832971784180278,
                0.13524888553249526,
                0.13802191859685473,
                0.30110931706710525,
                0.07273352654934236,
                0.21198171818997105,
                0.21604219405138883,
                0.4029787419896368,
                0.008516823999997458,
                0.11797539775359472,
                0.12052210644959069,
                0.2776488888127867,
                0.05835730374450534,
                0.19164689404688048,
                0.19531928270489265,
                0.3762924463420176,
                0.03191015236168271,
                0.15328365080698045,
                0.15631677041926353,
                0.3253654064114688,
                0.08788328614653282,
                0.23309051218399676,
                0.23759064683958037,
                0.43049138885016724,
                -0.03206129504567105,
                -0.06860262707980282,
                -0.06870155691348134,
                -0.05758416376331727,
                -0.056486638175016916,
                -0.06920041147460541,
                -0.06847754399060171,
                -0.03352236297441138,
                -0.045791612257149276,
                -0.07041942753209392,
                -0.07016432291646241,
                -0.04712905186663611,
                -0.06413130771610415,
                -0.06493013711153385,
                -0.06359015951769552,
                -0.016712659755806512,
                -0.03930527501431009,
                -0.06988989077632984,
                -0.06982379326133635,
                -0.05274769162513913,
                -0.06069156057925299,
                -0.06744799821240191,
                -0.06643747025506375,
                -0.025521454507980622,
                -0.051519267284144514,
                -0.07019015076797157,
                -0.069717606946937,
                -0.04072265846680589,
                -0.06680259037458633,
                -0.06164349187193819,
                -0.05992782312563386,
                -0.007088142975947329,
                -0.035777947372518916,
                -0.06934092885439778,
                -0.06936006421068572,
                -0.05526337149038716,
                -0.05868456267980272,
                -0.06841969927451397,
                -0.06755794692718868,
                -0.029622426762973553,
                -0.04875036198568617,
                -0.07039973072114489,
                -0.07003973878795727,
                -0.04402469546813057,
                -0.0655632346507588,
                -0.06338314299776186,
                -0.06186137828923619,
                -0.012002878323139947,
                -0.04264320076262367,
                -0.070249429751044,
                -0.07009210442677709,
                -0.050036478642782205,
                -0.06250727344982944,
                -0.06628494397859622,
                -0.06511519312045369,
                -0.02121851946952419,
                -0.05409811033654446,
                -0.06979046397045989,
                -0.06919714714718643,
                -0.037222154730312505,
                -0.0678488758564895,
                -0.059710678816830516,
                -0.05778843256555618,
                -0.001967386366761617,
                -0.070026839325305,
                -0.040405865346207034,
                -0.03936999580596055,
                0.03791174817611786,
                -0.06081173501589234,
                -0.007362505172113977,
                -0.005460180657001395,
                0.09566134943806161,
                -0.06693815077060551,
                -0.02540339278705352,
                -0.023994312091115064,
                0.06520622759430361,
                -0.051630910256988786,
                0.013733856015420681,
                0.016285075835589885,
                0.12933016775923487,
                -0.06886151985409293,
                -0.03328371631019975,
                -0.03207401909864255,
                0.05116687194135749,
                -0.05660451789362194,
                0.0028023235488815585,
                0.0050074131043871236,
                0.11209037914183427,
                -0.06425549049467343,
                -0.016763606107519466,
                -0.015125133761329259,
                0.08003560324608422,
                -0.04588742080488289,
                0.025435630617691697,
                0.02838079827959527,
                0.14738875312233005,
                -0.06953888016240385,
                -0.03693950406719878,
                -0.03581963689588077,
                0.04444162085978894,
                -0.05880372903266438,
                -0.0023757296003534332,
                -0.0003271649460281774,
                0.10377499982031745,
                -0.06569183160038683,
                -0.021178534853594083,
                -0.019658787625313527,
                0.07252177919346271,
                -0.04885564093412025,
                0.01948821993027186,
                0.022230158202124428,
                0.13825658651313547,
                -0.0679946559306857,
                -0.029438393719388396,
                -0.02813247751432437,
                0.05808817220688032,
                -0.054213717913961436,
                0.008172043846529996,
                0.010544499609283584,
                0.12060843940378539,
                -0.06262888437622025,
                -0.012158357585449447,
                -0.010392544991681877,
                0.08774851114578185,
                -0.04272572557691388,
                0.031576618256177906,
                0.03473808279060007,
                0.15672776019555168,
                -0.0627192241420427,
                -0.0661794646288845,
                -0.06571217655956728,
                -0.021512754443338215,
                -0.07032475640934717,
                -0.049957132091860874,
                -0.04864651043821721,
                0.01939165617223361,
                -0.06804019270802424,
                -0.05958680406068711,
                -0.05875628946984288,
                -0.002638551799754318,
                -0.06955704180233903,
                -0.03727419856609945,
                -0.03533097048598405,
                0.04463011516396522,
                -0.06575861846178276,
                -0.06326209665399184,
                -0.06262557921517055,
                -0.012467239950784855,
                -0.07032377750351045,
                -0.04399869017726315,
                -0.04239305390724273,
                0.03160623741602581,
                -0.06956280634565944,
                -0.05515239922478366,
                -0.054098667346598746,
                0.00797899707581852,
                -0.06802115904978472,
                -0.029780219913244622,
                -0.027452370476516268,
                0.05847122620305616,
                -0.06433359949758713,
                -0.0648154689621595,
                -0.06426638390885452,
                -0.017087560432673135,
                -0.07041979663477434,
                -0.04707347448249324,
                -0.04562038939782608,
                0.025398258810368116,
                -0.06889646285629276,
                -0.05746458686950293,
                -0.05652639442395319,
                0.002571237635904169,
                -0.06888547766841861,
                -0.033623631923884865,
                -0.031494250130827774,
                0.05144799850299784,
                -0.06699419119557633,
                -0.061519251979194146,
                -0.06078911020922594,
                -0.007651134842249664,
                -0.07003632796138597,
                -0.040732402235863545,
                -0.03896357048206059,
                0.0380165313597481,
                -0.07003899272951163,
                -0.05265000479378198,
                -0.051472315360932656,
                0.013585525282970952,
                -0.06696357428470764,
                -0.025743444986313993,
                -0.02320425743108475,
                0.06570087824223972,
                -0.053983485188441795,
                0.008718901292404272,
                0.0103260693069229,
                0.12069050317179293,
                -0.027946704311352037,
                0.058584414085093454,
                0.06108274358891375,
                0.19528809017609802,
                -0.042484723899735725,
                0.032131643951123424,
                0.034122800317446696,
                0.15640655253042088,
                -0.010351936258611454,
                0.08809507857162664,
                0.09125938482103634,
                0.23738897852116878,
                -0.048613270215152875,
                0.020046034348292628,
                0.021832024616902056,
                0.13815585669710084,
                -0.019532858497215512,
                0.07295604133556095,
                0.07576528258476424,
                0.21593239759154095,
                -0.03559650361695787,
                0.04497711981520818,
                0.04720423847566837,
                0.17544847982794495,
                -0.00040034524936764375,
                0.10400516522854182,
                0.10757314208578064,
                0.2596659718421126,
                -0.05139310717541742,
                0.014287723139194058,
                0.015981287572355216,
                0.12932535824827596,
                -0.023835463405637566,
                0.06567450695689946,
                0.0683230514486086,
                0.2055091964044358,
                -0.039135678888274995,
                0.03845928977343346,
                0.04056429949022224,
                0.16582822220396445,
                -0.005472720841886355,
                0.09595349128784374,
                0.09931327886816536,
                0.24842439298297483,
                -0.04564385920732875,
                0.02599395590615433,
                0.02787895797111785,
                0.14718268193495598,
                -0.01503849327064908,
                0.08042941942264946,
                0.08341039574305299,
                0.22655865836921932,
                -0.03186694237790611,
                0.05168539567046059,
                0.05404343541189779,
                0.18526814942661005,
                0.004865727441940308,
                0.1122506432028514,
                0.11604007382711382,
                0.2711148203379486,
                -0.05030902450976341,
                -0.0703098214402594,
                -0.07012591567871831,
                -0.04246753996317259,
                -0.06632455203015544,
                -0.062497647815036285,
                -0.06148137474297819,
                -0.009984743471129268,
                -0.05983469926175743,
                -0.06792192855748101,
                -0.06737949138076481,
                -0.027803024250368548,
                -0.06976311355153601,
                -0.054021133236871306,
                -0.052380100966903466,
                0.011039143885633465,
                -0.05545072432364285,
                -0.06949478462672161,
                -0.069143800041214,
                -0.03552661416452888,
                -0.06842656254458358,
                -0.05864226164781899,
                -0.05733470056602722,
                0.00012290777172186044,
                -0.0634598593115317,
                -0.06559011613088218,
                -0.06482740024291615,
                -0.019291133677158206,
                -0.07033086531749762,
                -0.04863087575959885,
                -0.046609736770213316,
                0.022771851135078985,
                -0.052974543870318976,
                -0.06999698134153087,
                -0.06973230461686192,
                -0.03909457976425038,
                -0.06747105296239007,
                -0.06066548280541307,
                -0.059508560353743224,
                -0.00503152003698776,
                -0.06174222124340418,
                -0.0668509849276356,
                -0.06620228993234965,
                -0.023645990800046604,
                -0.07014332004291594,
                -0.05142237927786889,
                -0.04959740136164747,
                0.016802923756953782,
                -0.057737482345998035,
                -0.06880314188595871,
                -0.06835975599780222,
                -0.03176299132390047,
                -0.06919071603788025,
                -0.056427613717265034,
                -0.054958868210740384,
                0.005479473010224175,
                -0.06498738933484387,
                -0.06413909214978912,
                -0.06325403575093229,
                -0.014737660434037677,
                -0.07032524402886572,
                -0.04564611144951288,
                -0.0434160394159527,
                0.028946999682792046,
                -0.06492409102453418,
                -0.018762440243860347,
                -0.017441283181608754,
                0.07638175504492532,
                -0.04729829182242038,
                0.02269184222457212,
                0.02489160937842059,
                0.1425549863987832,
                -0.05763042475063108,
                0.0004451034053658028,
                0.0021447611511222742,
                0.10788685109146799,
                -0.03391060625547498,
                0.04799523891081894,
                0.050852343019747094,
                0.18043961919896448,
                -0.06165634986424096,
                -0.009537827915825298,
                -0.008040395425994627,
                0.09174191278120973,
                -0.04098781251171283,
                0.03496001539685265,
                0.03746657140846733,
                0.16109154795386274,
                -0.05284502358100281,
                0.01118769291149321,
                0.01311997809432228,
                0.12482240860936165,
                -0.02606313123006542,
                0.06180110167919169,
                0.06505696547777988,
                0.20060728848868667,
                -0.0633849346520645,
                -0.014244862224432173,
                -0.012838532904884346,
                0.08396407928599313,
                -0.04423869364121177,
                0.028730249855115464,
                0.031078219804953747,
                0.15172231201730124,
                -0.05533276139916903,
                0.0057213352158951595,
                0.007533228135494607,
                0.11625541556492537,
                -0.03008339567282521,
                0.05480159411122861,
                0.05785177334389329,
                0.19042047659615405,
                -0.05973822787606075,
                -0.004641222646901891,
                -0.0030461995297016565,
                0.09971593263194715,
                -0.03754525843380419,
                0.041381534736038596,
                0.044057616619316724,
                0.17066365252495683,
                -0.0501669619035704,
                0.016844431770856802,
                0.01890582285040221,
                0.13358864793370717,
                -0.021849282319516217,
                0.0689942981085229,
                0.07246901245932101,
                0.21100115380060994,
                -0.06929185195192702,
                -0.056211505265452606,
                -0.055460243996375426,
                0.005280297745482876,
                -0.06848718253747522,
                -0.0315787861403174,
                -0.029972828732131085,
                0.054606967689509615,
                -0.0704080372131,
                -0.04541398926921942,
                -0.044294608231776354,
                0.028364483826771328,
                -0.0635130103011281,
                -0.014689241542188572,
                -0.012442632338481576,
                0.08406039920528872,
                -0.07022890874201469,
                -0.05119176878178159,
                -0.05026902852741865,
                0.016430542661523554,
                -0.06638312998478395,
                -0.023517198939838002,
                -0.02161240123838852,
                0.06892867285489797,
                -0.06982804630754454,
                -0.03887692858104877,
                -0.03753129260993118,
                0.04108785882982306,
                -0.05987338270792943,
                -0.005091426079712278,
                -0.0024555818119533055,
                0.1000101340502184,
                -0.06985506891567493,
                -0.0537963369879897,
                -0.052962203178944005,
                0.010757794801708522,
                -0.06753072157377031,
                -0.027643592792926344,
                -0.02589330836718286,
                0.06166704486099333,
                -0.07021302809343576,
                -0.04224046842618609,
                -0.041011939962780235,
                0.03462711152935328,
                -0.06178962201181378,
                -0.009986806030713375,
                -0.0075517855122547535,
                0.09193249438915918,
                -0.07041327527657647,
                -0.04839769860632307,
                -0.04738006145719446,
                0.02229920579566793,
                -0.06504403040102928,
                -0.019199221325429464,
                -0.01712916754602562,
                0.07639279735708057,
                -0.06925285509349706,
                -0.035323127085743714,
                -0.03385186698106617,
                0.04774753080647894,
                -0.05776377441242873,
                -2.577826003847303e-06,
                0.0028470591697040385,
                0.10829440448188264,
                -0.03720487333232545,
                0.04203831713693439,
                0.04393226371340817,
                0.17083820400013874,
                -0.0027567972134485527,
                0.10031539506833272,
                0.10311345081278729,
                0.25386089899795944,
                -0.021500886340949522,
                0.06965640011683404,
                0.0719400208538996,
                0.21076555674684808,
                0.01904528839510783,
                0.13403357304899366,
                0.13750644347003346,
                0.3001784973460699,
                -0.029732125725991813,
                0.055468035052635346,
                0.057543449779955146,
                0.19040892182858357,
                0.007760526115242756,
                0.11679059272002335,
                0.11990378216772121,
                0.2766131729789557,
                -0.012509762029434726,
                0.08460485256637403,
                0.08712786952488401,
                0.23191404843365435,
                0.031101132494850067,
                0.15204802601302678,
                0.15592957703030855,
                0.3245650614989643,
                -0.03356324589969303,
                0.048658413246094344,
                0.05064002993767861,
                0.18052567253812277,
                0.002406140291363322,
                0.10845722971194875,
                0.11140756217131209,
                0.265135894557741,
                -0.017100418842667497,
                0.07703550343370268,
                0.07943464523297807,
                0.22124042729433244,
                0.02497657556826933,
                0.1429441128593347,
                0.14661492035358356,
                0.3122685906418848,
                -0.025711391395585814,
                0.06246730985832851,
                0.06464320708610863,
                0.2004886416035269,
                0.01330676288894323,
                0.12531589260944623,
                0.12860307586300226,
                0.2882937052087284,
                -0.0077286538780565505,
                0.09236471542417778,
                0.0950205181830474,
                0.24278725050437885,
                0.037419502413162484,
                0.16134586163451578,
                0.1654515191687562,
                0.3370690214719907,
                -0.06719929211041352,
                -0.061181894787385734,
                -0.060553381844325814,
                -0.006875384435712623,
                -0.06998570092389456,
                -0.04014010659739423,
                -0.038667995756149764,
                0.03884962451428162,
                -0.07011081561141194,
                -0.05217965719016137,
                -0.05118759267338504,
                0.01440912533735754,
                -0.06680815398405442,
                -0.025047072232644234,
                -0.022942801493779513,
                0.06649827940653318,
                -0.06903399802438595,
                -0.05705978095858565,
                -0.05626182789611151,
                0.003375280650911036,
                -0.06877982013339956,
                -0.03297663707894143,
                -0.031209686661930865,
                0.052269320582627614,
                -0.07042861425886757,
                -0.0465403457804101,
                -0.04532504612164367,
                0.026231826767208852,
                -0.06406732214229591,
                -0.016347984635860346,
                -0.013859460476253365,
                0.08154442785052014,
                -0.06821133241491041,
                -0.05921553747901339,
                -0.05850511012105731,
                -0.0018476164908358059,
                -0.06947829439758671,
                -0.036653941510164274,
                -0.03503944270224774,
                0.04545878816311128,
                -0.07036468493580622,
                -0.04945499551673905,
                -0.048355232161978685,
                0.020221492167952746,
                -0.06553411701550552,
                -0.020793954961909323,
                -0.018503702422084482,
                0.07391868752705279,
                -0.06966720034009771,
                -0.05471453074122431,
                -0.0538228841405101,
                0.008793963904641213,
                -0.06788990831747235,
                -0.029107817603729887,
                -0.02717779539110326,
                0.05928215990306163,
                -0.07030237437429426,
                -0.043435472888737316,
                -0.04209624291584294,
                0.03244092665779804,
                -0.06240725894300566,
                -0.011708644946942822,
                -0.009009002804631698,
                0.08937657911472435,
                -0.045084514552286035,
                0.027095595070938033,
                0.028863073008536855,
                0.14870625701649878,
                -0.014228761405880735,
                0.08178045709118674,
                0.0844382615745697,
                0.2281232814315425,
                -0.031176317884708676,
                0.05291792745212218,
                0.05506916916502714,
                0.18683209894891364,
                0.005775565669010731,
                0.11370097148557762,
                0.1170237565570105,
                0.27263358749686495,
                -0.03850959953974966,
                0.03962749680398866,
                0.04157373293124405,
                0.1673765203345626,
                -0.004610133885890541,
                0.09735700295647921,
                0.10032526933029066,
                0.24997233105794037,
                -0.023083336884413802,
                0.06696826680716732,
                0.0693552138545147,
                0.20707887209325923,
                0.016931919682511974,
                0.1308159921912501,
                0.13454180512029698,
                0.2961151797029627,
                -0.041891791552340164,
                0.03326679409013627,
                0.03512064847011428,
                0.15794356974567034,
                -0.009515129718700034,
                0.08947300706547422,
                0.09228081366522219,
                0.23894676648290916,
                -0.027224895066570838,
                0.05984800033436052,
                0.06211297897383757,
                0.1968561967827994,
                0.011257164997024739,
                0.1221618515018626,
                0.12567980858505415,
                0.2842713115994209,
                -0.034937824654505366,
                0.04617782295863946,
                0.04822300268217058,
                0.17700579095955407,
                0.0004866211676742787,
                0.10543284572546333,
                0.10857258607513626,
                0.26120093854812904,
                -0.018751388870669607,
                0.07427898722424518,
                0.07679669070486124,
                0.21750094766423103,
                0.022800365408157684,
                0.13966393512255845,
                0.1436108442756606,
                0.3081662958065469,
                -0.06781724361990196,
                -0.028718589010489,
                -0.027521899820315297,
                0.059238507033692316,
                -0.05378306524606618,
                0.00914419980672106,
                0.011207058656931265,
                0.12180815237106969,
                -0.062319101741848605,
                -0.011306519974162753,
                -0.009736569390451673,
                0.08894304940494109,
                -0.04219253170824446,
                0.032650549469105596,
                0.035361582281177036,
                0.15788679060405528,
                -0.065447223375469,
                -0.02039167615823346,
                -0.01902108595401127,
                0.07369866754305833,
                -0.0483709997778265,
                0.020514008187769994,
                0.022879319630590506,
                0.13944211714330998,
                -0.058431647061354806,
                -0.0014618417115113973,
                0.0003373809699290157,
                0.10497743080798502,
                -0.035244179658694384,
                0.04555735211843303,
                0.04866182742919587,
                0.17715020066288936,
                -0.06672694116265956,
                -0.024649855049096343,
                -0.023369119500528418,
                0.06637089878617004,
                -0.05117263722088109,
                0.014733460944010186,
                0.016942415765495496,
                0.13052427594554467,
                -0.06047038998099737,
                -0.006479222994263559,
                -0.00479865359851787,
                0.0968611070570965,
                -0.038814830737060706,
                0.03900742562360767,
                0.04190893627179474,
                0.167415629844431,
                -0.0639779890289539,
                -0.015943945222389237,
                -0.014477135521152604,
                0.08122248285010354,
                -0.04537777047240874,
                0.02648622986862901,
                0.029018715126944893,
                0.1485626267252286,
                -0.056202631145985955,
                0.003745871597163604,
                0.005672338582058859,
                0.11329283081091127,
                -0.03148005542109337,
                0.05230085789176892,
                0.055621341235667525,
                0.1870915944278522,
                0.0009997076510439309,
                0.10626154513266327,
                0.10860277775340767,
                0.26152918174104267,
                0.04867823743155541,
                0.17776976720805435,
                0.18102706838422675,
                0.3577965422003189,
                0.02331845565675969,
                0.14049467990260303,
                0.14323097124237041,
                0.30807769733575247,
                0.07709727212074698,
                0.21810540290696498,
                0.2220452838593236,
                0.4107403077277222,
                0.011779739610452243,
                0.12299867917291943,
                0.1255239234399025,
                0.28441020882282997,
                0.06250385794637256,
                0.19755350274830855,
                0.20112967139370122,
                0.3838615464002066,
                0.035617289537778485,
                0.15875102815860606,
                0.16172985435050277,
                0.33253762755857974,
                0.0924621634234297,
                0.23942919824185424,
                0.24378208869172416,
                0.43844105618257234,
                0.006294955759192921,
                0.11453532439898734,
                0.11696546168658306,
                0.27287173940053633,
                0.055495281728385366,
                0.1875658255908146,
                0.1909772331689287,
                0.3707278170643613,
                0.029372746288760937,
                0.14952769606757818,
                0.15238104058894217,
                0.32020821149607365,
                0.0846830309443217,
                0.22867055854758536,
                0.23281050382783142,
                0.4244873972193178,
                0.01745418569546408,
                0.1316517418312356,
                0.1342788519342429,
                0.29614528481493474,
                0.0697043737912768,
                0.20773321227243044,
                0.21148535319453807,
                0.3971987062299883,
                0.04205235250201332,
                0.16816494916002314,
                0.1712782420554895,
                0.34506678093784166,
                0.10043521787138933,
                0.25038187618922636,
                0.2549611491945567,
                0.4526024012471763,
                -0.070427068792089,
                -0.047869062846974654,
                -0.04695676625318367,
                0.02326239460937901,
                -0.06480329406780053,
                -0.01841689502308372,
                -0.016649912790669116,
                0.07740939230904723,
                -0.06913380158373691,
                -0.03466195682228494,
                -0.0333813528151106,
                0.048756769007298896,
                -0.0574193480002218,
                0.0008826975073209409,
                0.0032897475992327645,
                0.10927283500634911,
                -0.07015942935500391,
                -0.0416445698905474,
                -0.040560652265146914,
                0.03561773483219639,
                -0.061494364762117094,
                -0.009150302552971824,
                -0.007084723771490783,
                0.09293612405862453,
                -0.06734900434313242,
                -0.02691999541795345,
                -0.02541318732604108,
                0.06268522480079962,
                -0.05257481292602056,
                0.011685583102968349,
                0.014481431619475245,
                0.12642750253927423,
                -0.07038794576430334,
                -0.04485152658865688,
                -0.043856274375781566,
                0.029342438985953054,
                -0.06324439788841034,
                -0.01387920433515808,
                -0.011968004901330794,
                0.08507198740082712,
                -0.06833639493798004,
                -0.03088599339607362,
                -0.02949625533145072,
                0.055621939252686374,
                -0.05509350665059646,
                0.006187665271720921,
                0.008782920414609742,
                0.1177474036430399,
                -0.0697414246501317,
                -0.03824809195245158,
                -0.03706924257698464,
                0.042088945378538564,
                -0.05955281855974313,
                -0.004229807661212784,
                -0.0019991308417368985,
                0.10100274672798619,
                -0.06617139427757503,
                -0.022763721480171233,
                -0.021131350847028316,
                0.06994742948962744,
                -0.04986275008975825,
                0.017376973623934207,
                0.02038636038080025,
                0.13531421674815866,
                -0.024961407517204826,
                0.06375952723482144,
                0.06581348968231508,
                0.20219822363207626,
                0.014305570321293726,
                0.12685589503386088,
                0.12981285689147323,
                0.2900400330561479,
                -0.00684800394526892,
                0.09378718673376236,
                0.09623046135817707,
                0.24453522393686364,
                0.03851713024754763,
                0.16298384381281342,
                0.16661448678230054,
                0.33876683820265885,
                -0.016283965151645555,
                0.07839401134510661,
                0.08062930917542636,
                0.22297378286455669,
                0.02602763712274587,
                0.14453597586472797,
                0.14780755286704192,
                0.3139969479063072,
                0.003347859327205645,
                0.10994048371514908,
                0.11262282889772794,
                0.2668884766052355,
                0.051777682641918836,
                0.1822031789134185,
                0.1862417910253464,
                0.36435788342238007,
                -0.020717436707878324,
                0.07098200030488426,
                0.07312357853943198,
                0.21248811665817183,
                0.020070880520808923,
                0.13560017009191624,
                0.13870916144112197,
                0.30191735779784573,
                -0.0018451684888049656,
                0.10176870866078576,
                0.10432735357172389,
                0.2556124812418456,
                0.045050775006967296,
                0.17249682599691293,
                0.17632506236866272,
                0.351459183259844,
                -0.011660872673180778,
                0.08599568641694942,
                0.08833136419585787,
                0.23365591074292544,
                0.03217624151754814,
                0.15366371962887074,
                0.15710899498991263,
                0.32627977308834355,
                0.008731340285647208,
                0.11830277856587113,
                0.121117710549308,
                0.27836403912628843,
                0.05869839515040442,
                0.19210345044646374,
                0.1963657771805887,
                0.37746404900464087,
                -0.05936975495932122,
                -0.003730402253753294,
                -0.00224866734211901,
                0.1010530774304736,
                -0.036924926039625,
                0.042543275700730875,
                0.04490306057478858,
                0.17204605607813092,
                -0.04966664105894881,
                0.01788673777064856,
                0.019746886196461144,
                0.13496810451579747,
                -0.02112760329678831,
                0.07025659485368842,
                0.07327285793245804,
                0.21234031096970032,
                -0.05489731175511565,
                0.006698977958665403,
                0.008356992937030516,
                0.11761821007287702,
                -0.029409630065327638,
                0.05601639964812876,
                0.058682592228583956,
                0.1917874579106,
                -0.04367646069060283,
                0.029834206451493123,
                0.03192679405826989,
                0.1531085894704117,
                -0.01207531383284954,
                0.08526744030764603,
                0.08868188902944675,
                0.23371269368754752,
                -0.05722825362738105,
                0.0013895515119105085,
                0.00295647305637062,
                0.10923789085112819,
                -0.03326292062786538,
                0.04918415548411829,
                0.05169196463443521,
                0.18181580852311288,
                -0.046766591689992885,
                0.023765403453201044,
                0.02573770498075615,
                0.14393913691476365,
                -0.016697984115497264,
                0.0776654406427967,
                0.08087450387794211,
                0.2229235342493425,
                -0.05237682179783231,
                0.01219799051733898,
                0.01395356227478826,
                0.12619471095678303,
                -0.025364665592201956,
                0.063040402838707,
                0.06587589454728,
                0.20196196131677244,
                -0.04039599990852725,
                0.036093400803911095,
                0.03831496401148856,
                0.1624772786513641,
                -0.007259063081476305,
                0.09306312910174054,
                0.09669610518457573,
                0.244708886968055,
                0.03279899908111227,
                0.15460182628276006,
                0.15723115891953868,
                0.3266993624307653,
                0.08888943483809197,
                0.23452227791659996,
                0.2380811445350882,
                0.43139306673595834,
                0.05932324244229704,
                0.193040597869209,
                0.19607093390759886,
                0.3774597636252153,
                0.12151619959406387,
                0.27906586646313175,
                0.2833164096626042,
                0.4885542673362264,
                0.045681689571329516,
                0.17344168450185762,
                0.1762578041185309,
                0.3516860359928839,
                0.10481873019431108,
                0.2564097946061888,
                0.26029188008865856,
                0.4595663911076774,
                0.07372514196435838,
                0.21340009774423732,
                0.21667653199896533,
                0.4040265761290611,
                0.13898557702863337,
                0.3024942745677916,
                0.3071629666900896,
                0.5183649759438462,
                0.039145557325592585,
                0.16392694723880988,
                0.16664652295735785,
                0.3390946724081984,
                0.09675827216528365,
                0.24537018121306678,
                0.24908528067896799,
                0.4453784055024237,
                0.06642903413511336,
                0.20312515681336865,
                0.20627427846354998,
                0.3906436353731866,
                0.13015414446261037,
                0.2906832701970439,
                0.295136398185152,
                0.5033562280900821,
                0.052407528624281836,
                0.18314617676399622,
                0.18606569763924982,
                0.3644741543071504,
                0.11307122294624906,
                0.26764153800317764,
                0.27170191921547204,
                0.4739580058891675,
                0.08121183934354916,
                0.22386569996146735,
                0.2272785303575976,
                0.4176094276227266,
                0.14801105192076855,
                0.31449944009014646,
                0.31939723223629096,
                0.5335816338425273,
                -0.06166690813575871,
                -0.06690244076166826,
                -0.0664674148674621,
                -0.024043440028787312,
                -0.07017524843807108,
                -0.05158292521944847,
                -0.05031053847017291,
                0.015951897465138788,
                -0.06743917001376906,
                -0.060761060833036014,
                -0.059965285634111444,
                -0.005623119788007902,
                -0.06985953311508235,
                -0.03935204691469018,
                -0.037451567547030815,
                0.0407335942719013,
                -0.06493193788202536,
                -0.06421069758897996,
                -0.06360755364671856,
                -0.01522471964501227,
                -0.07040019215723384,
                -0.045850429610250924,
                -0.044285157861687595,
                0.027938310496593205,
                -0.06918749688964457,
                -0.05655237576341202,
                -0.05553500374641606,
                0.004767013714529559,
                -0.06854991394933178,
                -0.03208437268140199,
                -0.02980191072203827,
                0.05434565268430656,
                -0.06339410045305433,
                -0.06565125567251061,
                -0.06513495663330288,
                -0.019731608355215494,
                -0.07038323277760475,
                -0.04881222249236596,
                -0.04739840529887248,
                0.021844467161280953,
                -0.06840828780620539,
                -0.058751693478016696,
                -0.05784901883728245,
                -0.0005269950981308445,
                -0.06930107535273071,
                -0.035814605988403365,
                -0.03372926046851782,
                0.0474370106852079,
                -0.06628033469533828,
                -0.06258067489760794,
                -0.061884557750140935,
                -0.010522119854474064,
                -0.07022575963450658,
                -0.042697173744517626,
                -0.0409698667859322,
                0.03423436272989646,
                -0.06977657092919376,
                -0.05416287546819499,
                -0.053022451596385266,
                0.010259701301235446,
                -0.06760554135487545,
                -0.028160833557541516,
                -0.025668448327347444,
                0.061460596135576424,
                -0.05543824672057513,
                0.00548865933643299,
                0.007060505104642877,
                0.11564913379697844,
                -0.03030533291859005,
                0.05445021128911664,
                0.05690507007092787,
                0.1893342432828877,
                -0.044391166979474754,
                0.028449690717457808,
                0.030401959747442052,
                0.1509097398388984,
                -0.013163517523332953,
                0.08350782477863049,
                0.0866230586247214,
                0.23097624339119918,
                -0.05029382597048306,
                0.016589987592170716,
                0.018339000356411263,
                0.132886948077674,
                -0.022117851095066594,
                0.06859542966729336,
                0.07135852664078816,
                0.2097493547812155,
                -0.037728960016079054,
                0.041069125532844884,
                0.043255192451085896,
                0.16972336534308177,
                -0.0034387727509783274,
                0.09919100316461706,
                0.10270672491701789,
                0.25302301509620945,
                -0.05296075623735778,
                0.010944589436961472,
                0.01260203581652257,
                0.12417026279873121,
                -0.026307247979509993,
                0.06142712682547214,
                0.06403089564006091,
                0.1994408115471242,
                -0.04115511082247344,
                0.034664334892673336,
                0.036729406891921855,
                0.16021731038678758,
                -0.008397690972940002,
                0.09125281868351827,
                0.09456197433150022,
                0.2418966152629343,
                -0.04743734493135184,
                0.02242497067679483,
                0.024272072143143072,
                0.14179986893877725,
                -0.017736750061543065,
                0.07595551790443243,
                0.07888891770706112,
                0.22026083350524842,
                -0.034112462964134,
                0.047664320120264926,
                0.04998013045132691,
                0.17942872462030932,
                0.001713769953827549,
                0.10732291691933707,
                0.1110584056227854,
                0.26435654401866804,
                -0.0702277951425756,
                -0.04238218209821498,
                -0.04137997755878274,
                0.03412616554496667,
                -0.06191595210991357,
                -0.010242134563221197,
                -0.008380535651401462,
                0.09096506776519518,
                -0.0675905558785408,
                -0.02783116735853846,
                -0.02645877281683376,
                0.060966020242549,
                -0.05318756518260873,
                0.010401711654454974,
                0.01290714812663259,
                0.12417609901465673,
                -0.06928817142664889,
                -0.035485728793808693,
                -0.034311079872820484,
                0.047154141703087536,
                -0.0579348592258729,
                -0.00030346436149469115,
                0.001858498005323634,
                0.10716543447381773,
                -0.06513373981184357,
                -0.01941724201691668,
                -0.017817348262534855,
                0.07556755638071778,
                -0.04767061157277281,
                0.02187689898105475,
                0.024773372561752487,
                0.14200506632601836,
                -0.06985267869066511,
                -0.03902866244633296,
                -0.0379431200989678,
                0.04054250355751382,
                -0.06002098663226819,
                -0.0053684155655402375,
                -0.003361745485466265,
                0.09896444222919236,
                -0.06645714542284718,
                -0.02371922563192053,
                -0.022237078954922357,
                0.06816769944077859,
                -0.05052553394390268,
                0.016042812840465805,
                0.018737544219458425,
                0.13298777254544694,
                -0.06853417499255936,
                -0.03175327689654091,
                -0.030483196092139578,
                0.0539617466560239,
                -0.05565719031764447,
                0.004953104508134155,
                0.00728113682428709,
                0.11556899238852446,
                -0.06362010008000395,
                -0.014924971661866859,
                -0.013198779343911145,
                0.08316639834426166,
                -0.04462227788857707,
                0.027904496142999294,
                0.031015715764392354,
                0.1512290688533833,
                -0.017297551116687536,
                0.07671087041250362,
                0.07885517342845215,
                0.22052668015004337,
                0.024657535165253215,
                0.14249511348407654,
                0.14554763327873602,
                0.31106085371729625,
                0.0021598155746407736,
                0.10808240740332245,
                0.11061815950249516,
                0.26420936156198005,
                0.05021364303024053,
                0.17996740074248932,
                0.18369762566729833,
                0.3611355642387509,
                -0.007948136191387466,
                0.09201729200825719,
                0.09434388091568523,
                0.2419749684706142,
                0.037051811833610046,
                0.16084730719169613,
                0.16421633619569717,
                0.3356915546869371,
                0.01302771495793142,
                0.12490767446331269,
                0.12768391940729665,
                0.2872358167316303,
                0.06414668925261845,
                0.19985910172300933,
                0.20399966163289182,
                0.387401089401169,
                -0.012717594555526204,
                0.08426931363213637,
                0.08650167820334122,
                0.2311529115757666,
                0.030758935994558506,
                0.15157543261171855,
                0.15478089944416548,
                0.32327503159869087,
                0.007498661670663888,
                0.11639990888867052,
                0.11905171293156525,
                0.2756231870853706,
                0.05708351351218791,
                0.18981654660994327,
                0.1937455183722054,
                0.3741651024594259,
                -0.002989052405039106,
                0.09995493504623376,
                0.10238246761495086,
                0.2529935427701878,
                0.043536567516757683,
                0.17031114794449534,
                0.17385491079791707,
                0.34831139613275425,
                0.01874723966323437,
                0.13360597424017678,
                0.1365156055867149,
                0.2990480830439231,
                0.07140371569344041,
                0.21009561740973207,
                0.2144611633215007,
                0.40084463882225746,
                -0.06886612822290876,
                -0.057561101736658286,
                -0.05684277225306993,
                0.0021222517475256203,
                -0.06896447439475989,
                -0.03383142835889813,
                -0.03226491940206835,
                0.050539054679448255,
                -0.07043367525064023,
                -0.04721494543515794,
                -0.04613124536831766,
                0.024752193801898498,
                -0.06444251118143378,
                -0.017394159321412077,
                -0.015191784345454805,
                0.07953522110167548,
                -0.0700288458365082,
                -0.05276702075249564,
                -0.05187845958922365,
                0.013045530573011903,
                -0.06708644050628897,
                -0.02599588880335941,
                -0.02413280515450809,
                0.06463234900848658,
                -0.07007945830142821,
                -0.04090367053168908,
                -0.03959547198459622,
                0.03724794612902052,
                -0.06102927853537781,
                -0.008022784939160572,
                -0.005433949648212827,
                0.09525562537478949,
                -0.06954217263933067,
                -0.055258757177845196,
                -0.05445814698535046,
                0.007486302683339857,
                -0.06812100335720235,
                -0.03000923835599246,
                -0.0282995033604874,
                0.05748497980450339,
                -0.07035154192662574,
                -0.04415430522993067,
                -0.04296230414209972,
                0.03090105531482184,
                -0.06283229273628811,
                -0.01280491564862385,
                -0.010415484910706927,
                0.08729271259482478,
                -0.07032605577179132,
                -0.05008579453182486,
                -0.0491030555918042,
                0.01880059577556157,
                -0.0658604125842518,
                -0.021791000557096624,
                -0.019763889096127946,
                0.0719821038655348,
                -0.06961719172483917,
                -0.0374628028040894,
                -0.03602995381536357,
                0.043793667211073216,
                -0.05903295471337711,
                -0.0030472474415610125,
                -0.00024610226241132785,
                0.10342504162326527,
                -0.039286853440640555,
                0.03818077785019481,
                0.04003847815019077,
                0.16516849210724807,
                -0.00574300450477441,
                0.09555351363240543,
                0.0983066306880707,
                0.247277763139604,
                -0.024034692729705383,
                0.06534699421892733,
                0.06759053162117894,
                0.20463996363483264,
                0.015605842428991703,
                0.1288183439981024,
                0.1322404020807386,
                0.2931358940640659,
                -0.03203996359364177,
                0.05138462212928801,
                0.053421999337917116,
                0.18451146057015186,
                0.004547820654929983,
                0.11180216293311236,
                0.11486760415416877,
                0.2698005604403201,
                -0.015269680594828711,
                0.0800693014621942,
                0.08254993469585771,
                0.2255599080862513,
                0.02743467079235297,
                0.14660571389139535,
                0.1504331338846017,
                0.3172919205167429,
                -0.03575814309831426,
                0.044687950002434744,
                0.04663245661817363,
                0.17474213171760686,
                -0.0006932878482140178,
                0.10358210340879428,
                0.10648612423218103,
                0.25843808256127104,
                -0.019747261306940753,
                0.07261304601748346,
                0.07497098610866766,
                0.21500061454320882,
                0.021423658193644994,
                0.13761537980477836,
                0.14123374743952635,
                0.30511078893523846,
                -0.0281321976227073,
                0.058270917420805333,
                0.06040778604357216,
                0.19447716428516873,
                0.009980719523690961,
                0.12021409661052943,
                0.12345203140330185,
                0.2813661636121544,
                -0.01060169268189463,
                0.08771602435066846,
                0.09032819772445917,
                0.23631867049180497,
                0.033639419351707764,
                0.15578989127067963,
                0.15983966297279215,
                0.3296803962515412,
                -0.06575185986092034,
                -0.021365623422855636,
                -0.020078928181691623,
                0.07196841335608957,
                -0.04902960576515828,
                0.019185041375600807,
                0.021342742169272365,
                0.1372300754994689,
                -0.058909749471364285,
                -0.002609654787426759,
                -0.0009477519844828181,
                0.10301848491876552,
                -0.03609460590796563,
                0.04403566461319703,
                0.04684537264894376,
                0.17465638018020266,
                -0.06270985892247438,
                -0.012366756593302263,
                -0.010905305198466725,
                0.08710123243390235,
                -0.0429453658014781,
                0.03122693561949543,
                0.03368888770138607,
                0.15553771236580968,
                -0.05435027229865042,
                0.00790698829278965,
                0.009799490111078911,
                0.11972597655057639,
                -0.02847381715474153,
                0.057614784375664106,
                0.06082020538370397,
                0.19459413440348453,
                -0.06432556622515247,
                -0.016960909706424075,
                -0.015589770023178894,
                0.07943710960792717,
                -0.04608310343636094,
                0.025110334435076126,
                0.02741500106170265,
                0.14628299656050422,
                -0.05672503252069767,
                0.0025536204798315737,
                0.004326776067493565,
                0.11127306601262778,
                -0.03238070641686603,
                0.05072868142721885,
                0.053729973049757594,
                0.184522346054499,
                -0.06090463327960257,
                -0.007583053524072326,
                -0.006024866604037188,
                0.09496145482366765,
                -0.039616006972109825,
                0.037535236703394016,
                0.0401653504069582,
                0.1649951771201559,
                -0.05178522352438122,
                0.013450699818423992,
                0.01547119785734976,
                0.1283780301298229,
                -0.024373411625632946,
                0.06469450584062654,
                0.06811715857697694,
                0.20487284003948827,
                0.010529815779243579,
                0.12107910194096366,
                0.12351080003645751,
                0.281723916412039,
                0.06089646840398783,
                0.19527520254626948,
                0.19862831372448983,
                0.3806837602871754,
                0.03419252685379092,
                0.15665610858051596,
                0.15948506588068936,
                0.3296181654992809,
                0.09066007998517656,
                0.23695520010619964,
                0.2409949786582344,
                0.4349755125787307,
                0.02198181846037317,
                0.1384881688428163,
                0.14110486088287896,
                0.30527769696187007,
                0.0753943114496025,
                0.21573106084131746,
                0.2194049653430736,
                0.4074225894884109,
                0.04716340225856242,
                0.17558442954220718,
                0.17865737577083327,
                0.35475132985429697,
                0.10669748503071506,
                0.2589513784500005,
                0.2634065641318562,
                0.4633507871090997,
                0.016161048267032883,
                0.12968884859173724,
                0.1322099130171228,
                0.29340282420795205,
                0.06804960920936959,
                0.20540730948445077,
                0.20891546050564683,
                0.3939519072786617,
                0.040582830378634825,
                0.166025105164173,
                0.1689718131979798,
                0.3420852632402808,
                0.09858207403551873,
                0.24785652754148643,
                0.25209753975143867,
                0.44905981784704274,
                0.027992256293813127,
                0.1474771985148853,
                0.15019633599851026,
                0.31734923292471007,
                0.08293098627435291,
                0.22624687365267013,
                0.23009780181667294,
                0.421096786382459,
                0.053934513035681024,
                0.18533435814286262,
                0.18854258657159287,
                0.36761720419980637,
                0.11500686472798961,
                0.2702403104751019,
                0.2749231659869459,
                0.4778495404384956,
                -0.06837716628759534,
                -0.031053893466486446,
                -0.029890255373191392,
                0.05509457838113931,
                -0.05524603831899521,
                0.005905817899249121,
                0.007928883348669476,
                0.11675410247910274,
                -0.06333038967786628,
                -0.014093186069242111,
                -0.012559148586545428,
                0.08434476351951803,
                -0.04410777293676268,
