{
    "78": {
        "hyperparams": {
            "stocks": [
                "AMGN",
                "CRM",
                "JNJ",
                "JPM",
                "MSFT"
            ],
            "start": "2015-01-01",
            "end": "2025-01-01",
            "risk_aversion": 0.1,
            "n_qubits": 11,
            "budget": 869,
            "log_encoding": true,
            "layers": 10,
            "prices_now": {
                "AMGN": 258.5511779785156,
                "CRM": 333.80548095703125,
                "JNJ": 143.4715576171875,
                "JPM": 237.0184326171875,
                "MSFT": 420.6565246582031
            },
            "assets_to_qubits": {
                "AMGN": [
                    0,
                    1
                ],
                "CRM": [
                    2,
                    3
                ],
                "JNJ": [
                    4,
                    5,
                    6
                ],
                "JPM": [
                    7,
                    8
                ],
                "MSFT": [
                    9,
                    10
                ]
            },
            "optimizer": "CMAES",
            "lambda_budget": 0.001
        },
        "continuous_variables_solution": {
            "weights": {
                "AMGN": 1.2412670766236388e-17,
                "CRM": 0.0,
                "JNJ": 1.5287833813247047e-16,
                "JPM": 7.799741913928165e-17,
                "MSFT": 1.0
            },
            "allocation": {
                "MSFT": 2,
                "AMGN": 0,
                "CRM": 0,
                "JNJ": 0,
                "JPM": 0
            },
            "value": 0.006844689409352567,
            "left_overs": 27.686949596988256
        },
        "continuous_variables_solution_unconstrained": {
            "weights": {
                "AMGN": 0.0,
                "CRM": 0.05877262653626084,
                "JNJ": 0.0,
                "JPM": 0.0,
                "MSFT": 1.0
            },
            "allocation": {
                "MSFT": 2,
                "AMGN": 0,
                "CRM": 0,
                "JNJ": 0,
                "JPM": 0
            },
            "value": 0.006844689409352567,
            "left_overs": 27.68695043715161
        },
        "exact_solution": {
            "smallest_eigenvalues": [
                -0.05244814010411727
            ],
            "smallest_bitstrings": [
                "10001000100"
            ],
            "first_excited_energy": -0.05244806777270924,
            "optimized_portfolio": [
                {
                    "AMGN": 1,
                    "CRM": 0,
                    "JNJ": 1,
                    "JPM": 2,
                    "MSFT": 0
                }
            ],
            "second_optimized_portfolio": [
                {
                    "AMGN": 1,
                    "CRM": 1,
                    "JNJ": 2,
                    "JPM": 0,
                    "MSFT": 0
                }
            ],
            "spectrum": [
                -5.071419189271991e-17,
                -0.05241297616691266,
                -0.038494399572453805,
                -0.0417481324302459,
                -0.04162237823239197,
                -0.038614776123899144,
                -0.052413739773387605,
                -0.0002116512138746309,
                -0.024713545150511374,
                -0.04942486813495502,
                -0.04935977518268338,
                -0.02489810729573484,
                -0.05071465718793985,
                -0.019961844003463323,
                -0.04763994425057468,
                0.0323365989819061,
                -0.04632138852072888,
                -0.031627526188575776,
                -0.05127093880420547,
                0.012623630227766401,
                -0.05009542306428732,
                0.020109706300655523,
                -0.027303547350531,
                0.09216535750779938,
                -0.05212438996501723,
                -0.009691923944040616,
                -0.04321077366149356,
                0.048450059447408,
                -0.04020884580181272,
                0.05781202063481896,
                -0.0035191108183015526,
                0.14380868753453593,
                -0.02891243213355268,
                -0.04779033230988638,
                -0.05064197820968527,
                -0.02034630530678756,
                -0.05162927650154293,
                -0.015050531617201516,
                -0.04564122936004122,
                0.04016024457126564,
                -0.044177983334743307,
                -0.03534039387214208,
                -0.05205418074559054,
                0.005977685771431057,
                -0.051247569596737284,
                0.013107010564729153,
                -0.031379874979533415,
                0.08223363423879974,
                -0.05206265710649476,
                -0.003732354980459245,
                -0.04020307391723692,
                0.057367872379681675,
                -0.03683016713859738,
                0.0670845791791876,
                0.0028039524209147646,
                0.15603632452898517,
                -0.04837533362280222,
                0.027725963835367896,
                -0.02263812712811775,
                0.10273843130195869,
                -0.017394615657641516,
                0.11438504711981841,
                0.036160213762389384,
                0.21730761516587116,
                -0.015887952398842466,
                -0.05153622696223611,
                -0.0460009432986935,
                -0.03248441014922073,
                -0.04806057077360022,
                -0.02827255306730923,
                -0.05046440574808296,
                0.018530619225891328,
                -0.03587849384042262,
                -0.043819356692292095,
                -0.05214130548707896,
                -0.010900134857351819,
                -0.05241889115091721,
                -0.004871509967249694,
                -0.040950444997957317,
                0.05583666525683628,
                -0.05066481215943638,
                -0.019162564013984588,
                -0.047214312628039684,
                0.03350701047145353,
                -0.04494520120358214,
                0.04210258315578365,
                -0.01373788018761953,
                0.12259900433227318,
                -0.05172694924633759,
                0.007528938710415325,
                -0.03440663461831647,
                0.07409946688704268,
                -0.030290476024686996,
                0.08459647540118297,
                0.014825549706823456,
                0.17904823592249763,
                -0.039062668978552095,
                -0.04116102313834897,
                -0.05240498465688259,
                -0.005317799408463845,
                -0.05231442034976742,
                0.0010688621388126162,
                -0.03792838611984212,
                0.06469654815760473,
                -0.04959959098745782,
                -0.02397205818255331,
                -0.04908422888923443,
                0.02575302550553318,
                -0.04718496503851037,
                0.03399294392529882,
                -0.018910757285445372,
                0.11154848168359056,
                -0.05047813638618955,
                0.014703386733650575,
                -0.030198686273114898,
                0.08424825119706918,
                -0.025710229052744626,
                0.09509928503339175,
                0.022363791714628416,
                0.19252265818342845,
                -0.042031103698259215,
                0.05094108967290436,
                -0.00786506237177817,
                0.13441064035721123,
                -0.0014795204636506832,
                0.14722297887368752,
                0.06052837500838971,
                0.25863381777058536,
                -0.049638208430501055,
                -0.02402515169829304,
                -0.049124339462755615,
                0.025670992178440533,
                -0.04729090336448391,
                0.033778925804048524,
                -0.019058317526465054,
                0.11123870265953155,
                -0.05237153953228508,
                0.0009581170130069788,
                -0.03800323682977244,
                0.06452727867006766,
                -0.03438004139462156,
                0.07446254727988737,
                0.007731184015932531,
                0.16583504378817798,
                -0.042755304971893934,
                0.049972940029529164,
                -0.008693650971235162,
                0.13326328889442793,
                -0.002551067030320014,
                0.14573268190426053,
                0.059271713176111636,
                0.2568568987350766,
                -0.02657576074864491,
                0.09391005594194128,
                0.02135733471836194,
                0.1911043431445824,
                0.02934883467458151,
                0.20547989048056825,
                0.10508404992980451,
                0.3305645352662831,
                -0.05194924541252554,
                0.007201487019317775,
                -0.03466984266449995,
                0.07367997272871918,
                -0.03069194731433555,
                0.08395564570882631,
                0.014322738175001825,
                0.17822824309384994,
                -0.04523333446837907,
                0.0416498449178766,
                -0.014093313518151603,
                0.1220144892879569,
                -0.008301925438406616,
                0.13415106197673515,
                0.05060597796323852,
                0.24235791376725613,
                -0.02188919361396859,
                0.10448439159446672,
                0.02898542449542053,
                0.20463012032143674,
                0.0373253697091946,
                0.21933165737947186,
                0.11599623508223987,
                0.3473602879560775,
                0.00378159448505219,
                0.15794715371082368,
                0.0685431161216467,
                0.27201923924931076,
                0.0787790905294714,
                0.2886838751440031,
                0.1713862468845035,
                0.43070374602161926,
                -0.0522254646231392,
                -0.009846800226888589,
                -0.04333004373781378,
                0.0482376991123092,
                -0.04042612897199992,
                0.057427032539716545,
                -0.0038048679800597083,
                0.14328924450692246,
                -0.05023514739588592,
                0.01986688068493501,
                -0.027482780391664904,
                0.09183038839504697,
                -0.022778700829248915,
                0.10286237793226809,
                0.027727909055523855,
                0.20264749707903745,
                -0.033795785368216605,
                0.07574490185906564,
                0.008667636868311195,
                0.1674566263551946,
                0.015904039651439165,
                0.18103651067786541,
                0.08614498892350368,
                0.3006054603825921,
                -0.012874896741883886,
                0.12443940363947044,
                0.043467118141831684,
                0.2300656958606394,
                0.0525745322930094,
                0.24557874552808814,
                0.136739264730874,
                0.37912294951118103,
                -0.04879840789313135,
                0.027134351791790776,
                -0.023130843914317297,
                0.10201420420210326,
                -0.018073910645087895,
                0.11338271190371683,
                0.03534069810809058,
                0.21607539443562146,
                -0.037353305423798666,
                0.06632330388373316,
                0.0021797085397013984,
                0.15509762494366758,
                0.009066384944745485,
                0.16834819842606552,
                0.0763832403288849,
                0.2849876422885786,
                -0.0069983700534851775,
                0.13623206773733343,
                0.05229862098872554,
                0.24482617871772475,
                0.06175338763948508,
                0.26066208535155494,
                0.14886766557182723,
                0.3971670942209737,
                0.023432525008265297,
                0.19447561707804017,
                0.09662589015687671,
                0.3170090336556029,
                0.10800462630094372,
                0.3348408950912259,
                0.20906886273063657,
                0.48535428998347757,
                -0.03255800747165677,
                -0.04596268422265635,
                -0.051550299359758134,
                -0.015785544726008658,
                -0.05219784929298497,
                -0.010164669201299908,
                -0.04347967298681086,
                0.04776301811481105,
                -0.04628236677024972,
                -0.03197832628006305,
                -0.051423561649121916,
                0.012066076029729813,
                -0.05029040474477344,
                0.01950135138130168,
                -0.027700076041446284,
                0.09133285293319389,
                -0.05227621889245681,
                0.001431182671814751,
                -0.037721661154047695,
                0.06519911346794818,
                -0.034062373710138,
                0.0751775948239271,
                0.008243050873183935,
                0.16676429774183013,
                -0.047088344314695815,
                0.03436673568197886,
                -0.018666687177907638,
                0.11203184450624164,
                -0.013170456824669536,
                0.12390062442435311,
                0.043039910289630556,
                0.22943784453769633,
                -0.048169283627966755,
                -0.02803705206829382,
                -0.05039611564498489,
                0.018921116210686473,
                -0.04890083764028176,
                0.026707328232207794,
                -0.023401640934416993,
                0.10144551768509326,
                -0.052444762748571176,
                -0.004588972148814842,
                -0.04081481596014072,
                0.056249097152446983,
                -0.03751655802849703,
                0.06588181342195472,
                0.0018688667430776882,
                0.15454484919209582,
                -0.04471311049029118,
                0.042635713539993195,
                -0.013347237728367028,
                0.12325613597184419,
                -0.00749031600072392,
                0.13546626284317598,
                0.05166053932156552,
                0.24395348593808325,
                -0.03003418933029101,
                0.08509571011813853,
                0.015213742219654202,
                0.17963522638067841,
                0.022953259732035877,
                0.19379113602130998,
                0.09603241084728283,
                0.3162591859865554,
                -0.04179539685507068,
                -0.038434652739506754,
                -0.05240607533168948,
                0.0001302841429385855,
                -0.05198408127465771,
                0.006831239020301058,
                -0.03487767099187514,
                0.07316030070025291,
                -0.050796299044497915,
                -0.019720576487477073,
                -0.047553619463366836,
                0.03271736246309287,
                -0.045341243260705,
                0.04124730814125234,
                -0.014356222596079712,
                0.12149012024813367,
                -0.04996784169034195,
                0.020550240126291263,
                -0.027012241810170288,
                0.09273820088897904,
                -0.02225911803891281,
                0.10382680527106901,
                0.02846324684472001,
                0.20385639272699219,
                -0.04003873164216412,
                0.05824256740056546,
                -0.0032091325183813573,
                0.1443380842430733,
                0.0034022993632817837,
                0.15734326805425225,
                0.06804070355929372,
                0.2713379476934748,
                -0.0516687112247912,
                -0.014755426797527765,
                -0.045507714311122716,
                0.04060315631169259,
                -0.04293385698342905,
                0.04948135868678381,
                -0.009035571985040501,
                0.13263817874466352,
                -0.05121514889647868,
                0.013432594567850288,
                -0.03119279273048534,
                0.0826791373526874,
                -0.026800435221284866,
                0.09342427989621004,
                0.020992855225858784,
                0.19051820186084922,
                -0.036475051976615214,
                0.06772807507454591,
                0.0033120738300196,
                0.15679514030113806,
                0.01028431056099252,
                0.17013974454274705,
                0.07787695588325212,
                0.28710110380057174,
                -0.01703609164294968,
                0.11496828841676117,
                0.03664231219529361,
                0.21796714492408792,
                0.04552435485859374,
                0.23328965774846494,
                0.1270587121535674,
                0.3642487382628421,
                -0.051227633472887994,
                0.013416350390625066,
                -0.03120167068739945,
                0.08264008705795085,
                -0.02688901069385181,
                0.09323229822598585,
                0.020864736151088272,
                0.19023357154452725,
                -0.04296831385827629,
                0.0494009709033988,
                -0.009084171355892564,
                0.13250388957482362,
                -0.0029712572097515635,
                0.14493781320082927,
                0.05866802563969615,
                0.2558611208457945,
                -0.01774772029068099,
                0.11401243193372938,
                0.03582589800299284,
                0.21683272234676915,
                0.04444898379291769,
                0.23178921394021046,
                0.12579480616640448,
                0.36245928667649646,
                0.009424067376190866,
                0.1689525030597045,
                0.07687387846077177,
                0.2856839013766897,
                0.08735929568838734,
                0.30256384537671527,
                0.18262545488506932,
                0.44720466608394743,
                -0.040240369551226826,
                0.05794099246975352,
                -0.003449331541826839,
                0.14394785155451684,
                0.003008902761689708,
                0.15670968867885093,
                0.06754529604401092,
                0.27052556845413417,
                -0.022531970383468835,
                0.10339154501943261,
                0.0281239344814767,
                0.2032912296598629,
                0.036407616633624115,
                0.217929804269963,
                0.11484462693144086,
                0.345689755795576,
                0.016418998523189624,
                0.18182734376448056,
                0.08680669754524355,
                0.3015053698003812,
                0.0976263553412662,
                0.3186939877189859,
                0.19582238484344783,
                0.46627183530428146,
                0.05308170299863975,
                0.24629373936963814,
                0.13736155954367363,
                0.37990579445447387,
                0.15009212225946933,
                0.3990762695935041,
                0.2622328471892565,
                0.5606561801670724,
                -0.047165697033224305,
                0.034243548826245085,
                -0.018758510056841312,
                0.11185593279991886,
                -0.013374694846411019,
                0.12353060609095574,
                0.04276790209698056,
                0.22893510903631903,
                -0.03418280005006685,
                0.07495901325026645,
                0.008085330362947589,
                0.16645682115423416,
                0.015280535337362197,
                0.1799892581805116,
                0.08531562894116641,
                0.2993262343146624,
                -0.00213822745852254,
                0.14643559649967897,
                0.059837618932343996,
                0.25767834197584205,
                0.06955424795140344,
                0.2737454350409048,
                0.15931920192306276,
                0.41286182275421074,
                0.029774751363736782,
                0.20613340291716598,
                0.10563419306195808,
                0.3312981370201807,
                0.11723597902312148,
                0.34931642366212085,
                0.22093286927059208,
                0.5024186370054464,
                -0.03044032178139178,
                0.08452350941259036,
                0.014738943526115844,
                0.1789324208361534,
                0.022276416216828503,
                0.19278767892198656,
                0.09521330150152561,
                0.31502483215325466,
                -0.008002843192541307,
                0.1347150467227755,
                0.05104637208860375,
                0.24302534502655557,
                0.06042627318584941,
                0.25877923682193665,
                0.1472730555403028,
                0.3949732200642528,
                0.03796130365009539,
                0.22022851856971137,
                0.11677222926029919,
                0.34835640008493013,
                0.12870595679901986,
                0.36667902165690497,
                0.23534675518704204,
                0.5227352234321261,
                0.07938392069697649,
                0.2894760096791363,
                0.17209672574496343,
                0.4315511203645515,
                0.1859700286543819,
                0.4518891852737556,
                0.3065694413209818,
                0.6219648470946797,
                -0.043845693734091085,
                -0.035839473679990595,
                -0.05213298827148928,
                0.005045804896736246,
                -0.0514173720768852,
                0.012044903058660341,
                -0.03198721217899404,
                0.08069616720933025,
                -0.05153798060184287,
                -0.01581664482442605,
                -0.04597203532812999,
                0.0389422651240606,
                -0.04346554490818384,
                0.04777250729288275,
                -0.010155688536757397,
                0.1303393555124488,
                -0.048917347816917256,
                0.026232480712192075,
                -0.023645514988154346,
                0.10073477768892862,
                -0.018594553536381963,
                0.11213076706597781,
                0.03444749581065576,
                0.21447963735131048,
                -0.03768202204417033,
                0.06523424683182029,
                0.001465234701027592,
                0.1536462721114749,
                0.008377180916506998,
                0.16696317869730265,
                0.075337898587079,
                0.28328051772736634,
                -0.05215017232614846,
                -0.010597224351436056,
                -0.043668840857602836,
                0.04707922382292069,
                -0.0407999519218285,
                0.05625949203680914,
                -0.004579423773212142,
                0.14173758085572444,
                -0.050389280569709656,
                0.01889980664339051,
                -0.028045936635746466,
                0.09046561525673076,
                -0.02335696315195895,
                0.10151606913194598,
                0.026760427996836835,
                0.2009338649593191,
                -0.03394960002947285,
                0.07487525245530603,
                0.008148604897524407,
                0.16625207282291582,
                0.015422881983373169,
                0.1799107778175722,
                0.08533160086027163,
                0.2991883817512407,
                -0.01320536548480371,
                0.12342550604877271,
                0.04278631360635737,
                0.2287370613799467,
                0.05197416556462928,
                0.24437910502385632,
                0.1358279968851288,
                0.3776585782352376,
                -0.049431809773931815,
                -0.024656745415780498,
                -0.04933665101615828,
                0.024620657770651557,
                -0.04754722071386955,
                0.032706799778611365,
                -0.019724896097593692,
                0.10976685637511636,
                -0.052399338043384404,
                0.00010019409644114767,
                -0.038447132996935515,
                0.06325851333865579,
                -0.03485368454459675,
                0.07319385894410042,
                0.006856339958947382,
                0.16418098122969332,
                -0.042916755711238125,
                0.04905906744757882,
                -0.009237095387094225,
                0.13199166708470636,
                -0.00308040921699653,
                0.14451236225480008,
                0.05838845664205756,
                0.2553174806300765,
                -0.026932111107200483,
                0.09282878205027802,
                0.020631418407654024,
                0.18968303347105758,
                0.02867392315918894,
                0.20415439533353985,
                0.1040740995522219,
                0.32894410287044923,
                -0.05198583514992643,
                0.006357534599793351,
                -0.03511286213204036,
                0.07244169756326213,
                -0.031157314619073662,
                0.08272472976087829,
                0.013469205298807454,
                0.1766318400017472,
                -0.0454912095195667,
                0.04060229032360976,
                -0.014750098160343313,
                0.12058541780844036,
                -0.008955477228144276,
                0.1327625402044818,
                0.04957822850200472,
                0.24062315847235544,
                -0.021974917780670757,
                0.10372549757226031,
                0.02855429827962031,
                0.2035622061634123,
                0.03695958789655204,
                0.21837378043205508,
                0.11532294572009093,
                0.34614185681552917,
                0.003540830234407643,
                0.15707053308462793,
                0.06797428513149366,
                0.2708562195184334,
                0.07832382838509004,
                0.2876867268664508,
                0.1706472602610299,
                0.42947511234289554,
                -0.04554648080954282,
                0.040486937166613945,
                -0.014825392324655235,
                0.12040550248301897,
                -0.009144421715387022,
                0.13238354898679894,
                0.04931095178543794,
                0.24009460342437156,
                -0.03125740643613627,
                0.08250722563578448,
                0.013323761925264301,
                0.17631109887263952,
                0.020815213078513358,
                0.19014766101804587,
                0.09316342401796428,
                0.3117922769728933,
                0.002555925351106893,
                0.15573492541748096,
                0.06683588886862131,
                0.2692752133649147,
                0.07685278476038813,
                0.2856538172840463,
                0.16892381674654944,
                0.42707120345702604,
                0.03577081323635856,
                0.2167363733917862,
                0.1139350514205718,
                0.3442000768756906,
                0.12583837960802857,
                0.3625328108516728,
                0.23184323156767775,
                0.5179386539026227,
                -0.027262432511197376,
                0.09231712501715723,
                0.020226368224857936,
                0.1890284244586926,
                0.028061853750379794,
                0.20319042627696843,
                0.10330869243201606,
                0.32773188059514885,
                -0.003520996790722123,
                0.14381280903332994,
                0.057837661818583484,
                0.25442615080497016,
                0.06751575881742972,
                0.2704886305259728,
                0.15667360680676717,
                0.40898877464342115,
                0.04410919439389856,
                0.23096893075160188,
                0.1252177666069085,
                0.36138845696944705,
                0.1374554116581599,
                0.3800287531190411,
                0.24639736045630542,
                0.5383815985047532,
                0.08683184462513137,
                0.30151973045866615,
                0.18184374709500029,
                0.4458886842160584,
                0.1960233351573299,
                0.46654845246965043,
                0.31892655339145953,
                0.6389241606087493,
                -0.03783777287204071,
                0.0649638014299554,
                0.0012651151336283161,
                0.15327507672281354,
                0.00802075897872767,
                0.16634179774449942,
                0.07486864876597814,
                0.28246323533708634,
                -0.018824327967094625,
                0.1117188178314543,
                0.03414294906386711,
                0.21392318840000074,
                0.042723677680991126,
                0.22886794495723617,
                0.1234729109918161,
                0.3589349283585053,
                0.021849093256700047,
                0.19185655032660703,
                0.09453780567122365,
                0.3138293014771986,
                0.10565938108462468,
                0.33133233753640673,
                0.20615915632686155,
                0.4812091376845273,
                0.05981274733207313,
                0.25762639948524574,
                0.14639468235878655,
                0.39353499232425765,
                0.1594289841889437,
                0.41302336822726177,
                0.27387572428632917,
                0.5769052483414718,
                -0.013805140806247748,
                0.12256572569492093,
                0.042075435292766625,
                0.2276861128803257,
                0.05099748636120888,
                0.24295155719178033,
                0.1346514559681598,
                0.37592441122910286,
                0.014669558434183603,
                0.17880966942855026,
                0.0844266209535837,
                0.2978422056976536,
                0.09521173266990547,
                0.31503349275227005,
                0.1927875370678614,
                0.4619793402786226,
                0.06937756443360325,
                0.2731169012093026,
                0.15891885676954404,
                0.4119992637814654,
                0.17228551699276895,
                0.4317912033896602,
                0.2896848190696231,
                0.5986384746983849,
                0.11687109320687132,
                0.34846285324932486,
                0.22032698314351773,
                0.5013093889113399,
                0.23566772544539868,
                0.5231578553569896,
                0.36704376123825305,
                0.704046931905575,
                -0.052434619496059064,
                -0.005418879591851707,
                -0.04121943014669879,
                0.05498000700602483,
                -0.03802094494586755,
                0.06446928034889694,
                0.000919704872516179,
                0.15264699503773874,
                -0.04913675220935136,
                0.025601743347806304,
                -0.024065107644473897,
                0.09987989496349263,
                -0.01906666621718635,
                0.11121327697242166,
                0.03376004592898291,
                0.21331535982605382,
                -0.030916080676550512,
                0.08324531944140097,
                0.013858642337769437,
                0.17726410902036244,
                0.021393279064320526,
                0.19115262293435853,
                0.09394823531551134,
                0.31303283902380036,
                -0.008690975952944673,
                0.1332465151263839,
                0.04996339172464713,
                0.24118167199674456,
                0.05937101582269169,
                0.2570069883853505,
                0.14585201159409822,
                0.39286546265784844,
                -0.04744331040626859,
                0.03311939569990931,
                -0.01945968569556961,
                0.11031050039194883,
                -0.014107048538083084,
                0.1219825945459939,
                0.04162478422885171,
                0.22698918774204507,
                -0.03469241095356812,
                0.0736150796630624,
                0.007156944298169752,
                0.1647016811113503,
                0.014340208308119882,
                0.178258385889218,
                0.0839757726006997,
                0.29721397286083656,
                -0.002653819410178566,
                0.14518599329683762,
                0.058948660233788704,
                0.2560819299392239,
                0.06870558748506406,
                0.27223290590519883,
                0.1581296031399596,
                0.4110454846579579,
                0.029079883052741926,
                0.2047363707654823,
                0.10458056027892566,
                0.3295741840311292,
                0.1162645253137463,
                0.3477258442155255,
                0.21964152728013958,
                0.5005505843555382,
                -0.05137257571731809,
                0.012411930734617138,
                -0.03177512684358978,
                0.08120336774196409,
                -0.027502268907028938,
                0.09178062933077875,
                0.019830854530151213,
                0.18836806493643687,
                -0.043350012775509456,
                0.048167104058949334,
                -0.009892050873092091,
                0.13084534210373655,
                -0.0038053626336990646,
                0.14328550210086327,
                0.05742207788060736,
                0.2538090388271102,
                -0.018268338533700353,
                0.11272055363365406,
                0.034914805793205925,
                0.2151708592607811,
                0.04355477370370858,
                0.23018407120531015,
                0.12453764295533666,
                0.36052225144368527,
                0.008705939790793047,
                0.16749005524252075,
                0.07577742539085468,
                0.2838689029773886,
                0.0863159446422488,
                0.3008493970318051,
                0.1812377469601445,
                0.4451822072057467,
                -0.040631690982120536,
                0.05672214673075083,
                -0.0042562246988803966,
                0.14232178580567195,
                0.0021831535826341273,
                0.1550971122621424,
                0.06632168081324945,
                0.26853404914513296,
                -0.02314716174229992,
                0.10196595400730847,
                0.02710041229350665,
                0.20147094525646447,
                0.03539013645037177,
                0.21615551702552366,
                0.11344296935432881,
                0.3435555000382358,
                0.015968626024940796,
                0.18068628660781366,
                0.08600310441341176,
                0.30004371865552054,
                0.09689017458018691,
                0.3173470800517613,
                0.19477031946414858,
                0.4646522411073207,
                0.05247365558426499,
                0.2450317622925696,
                0.13641734756319118,
                0.37834556517823487,
                0.1492628644294215,
                0.39768593537468505,
                0.26111120856928843,
                0.5590219489683652,
                -0.023169303594000306,
                0.10189371025675066,
                0.02706297906558448,
                0.20133990477946428,
                0.03522373204448995,
                0.21580300298310312,
                0.11319994278010638,
                0.34305616617036744,
                0.002111810973040112,
                0.15491531587554952,
                0.06620820742672386,
                0.2682532704779434,
                0.07619140758354499,
                0.2845907336151879,
                0.16806764012521785,
                0.4257870609288011,
                0.05150860141131081,
                0.24371498936649108,
                0.13529803554005942,
                0.37678366123904766,
                0.14779345504646813,
                0.39564760119048964,
                0.25938561138882094,
                0.5566098615168356,
                0.09571305684369132,
                0.31571729252878095,
                0.1933918048991562,
                0.4627168374394694,
                0.20778854394186197,
                0.48355367734641425,
                0.33332270996756325,
                0.6585150025022376,
                0.008403413971963784,
                0.16701067579400952,
                0.0754021533069801,
                0.2832495880072559,
                0.08571726790585106,
                0.29989725977282505,
                0.18048469358897373,
                0.4439818117485312,
                0.04313569470642267,
                0.22950748712259125,
                0.124008828503491,
                0.35965539649638795,
                0.1361799815129569,
                0.3782208557600009,
                0.24486610354242658,
                0.5362742028152638,
                0.10634835106037126,
                0.33223673407801463,
                0.20696671348489692,
                0.4821862029624025,
                0.2216808245296653,
                0.5033105490669049,
                0.3501452226267144,
                0.6812108326898364,
                0.16005920908467297,
                0.4137880345614355,
                0.27458644369728985,
                0.5776948911582486,
                0.29125884529708007,
                0.6008589395687375,
                0.433693205211191,
                0.7927931965677761,
                -0.0088159378913792,
                0.13301408959775707,
                0.049797418052617726,
                0.24085288743112385,
                0.05903288663951255,
                0.256405088296689,
                0.1454013900964008,
                0.39206903064438253,
                0.021188959903276145,
                0.19077033851617553,
                0.09367099012575962,
                0.3125089351200682,
                0.10474424027028197,
                0.32995575096483015,
                0.20502152295378312,
                0.4795750930658878,
                0.07744496007139746,
                0.2864802375186751,
                0.16964320444879477,
                0.42798205351659774,
                0.1832423936865777,
                0.44796990158971867,
                0.3032638573078606,
                0.6173927594846323,
                0.1263975121027701,
                0.36325077494538477,
                0.23249426968798265,
                0.5186961414689967,
                0.24802180273479688,
                0.5406888294362329,
                0.38199867225669654,
                0.7241276265843496,
                0.028504257256769024,
                0.20390247295218422,
                0.10389443951237988,
                0.32855076003750355,
                0.11529568594512017,
                0.3463018263590642,
                0.2184704127824078,
                0.4988185678533314,
                0.06796917306365725,
                0.27114741822191085,
                0.15724062966406305,
                0.40971506055698276,
                0.17051909383362168,
                0.42941000936868906,
                0.2876235938361688,
                0.5959101009678833,
                0.13826029638910842,
                0.3810294999013209,
                0.24731183408220944,
                0.5394428798562377,
                0.2631535744274814,
                0.5617178693197367,
                0.40007628362009934,
                0.7481141562531098,
                0.196741322220714,
                0.46737574465418413,
                0.3197132507813612,
                0.6397615092074402,
                0.33754615090090095,
                0.6641139858620474,
                0.4884545375262039,
                0.8645634399936107,
                -0.02656470780271231,
                -0.04876910427284147,
                -0.049955735739259724,
                -0.02299553729872694,
                -0.051163350235537135,
                -0.0179313684911872,
                -0.04684510117068375,
                0.03559336262460428,
                -0.04276798250646227,
                -0.03726496375567188,
                -0.05230879038329972,
                0.0023758928396126005,
                -0.05173572833556867,
                0.00925577824756032,
                -0.03354507841075389,
                0.07668547581948586,
                -0.05226517999512063,
                -0.007346836739796375,
                -0.042105461484890666,
                0.05202715389336847,
                -0.03899525302740098,
                0.061464531316996744,
                -0.0010806824913904512,
                0.1486630867678875,
                -0.0495507959032781,
                0.023119100137925144,
                -0.025522266757317228,
                0.09639288379411572,
                -0.020569668754096094,
                0.1077273534833909,
                0.03125268096257246,
                0.20888016653694652,
                -0.045173901101422054,
                -0.0338386374967476,
                -0.051798810227232775,
                0.008719484969001821,
                -0.050860246606257396,
                0.015954649056770766,
                -0.02975773001518871,
                0.08629599720551039,
                -0.051927299207300416,
                -0.012867190395937986,
                -0.04469501238374633,
                0.043572153993553506,
                -0.04195076066441231,
                0.05265787756783873,
                -0.006960473451389524,
                0.13692651834762223,
                -0.04765762836782908,
                0.03091520488147909,
                -0.020680778012510708,
                0.10715037174158408,
                -0.015361014655994763,
                0.11883362389995168,
                0.039407391627427985,
                0.22294397230594065,
                -0.035444337114919455,
                0.0709160340928814,
                0.0054175773592074665,
                0.16107420387200688,
                0.012628121601850036,
                0.17471277096817472,
                0.0813289544213459,
                0.29280898074516143,
                -0.037301801612653604,
                -0.04274004606939369,
                -0.05231120903551169,
                -0.008577240722450368,
                -0.05244814010411727,
                -0.002430698822796691,
                -0.03974035586701308,
                0.05949814173730253,
                -0.04878155000723036,
                -0.026504823949344537,
                -0.04993782927513994,
                0.021531657320465938,
                -0.04828303925918982,
                0.029509876026953947,
                -0.02169574913071678,
                0.10535426628105311,
                -0.051439130371056,
                0.010295782165375399,
                -0.032875783675896886,
                0.07809382269308575,
                -0.02866631423566113,
                0.08864790210027036,
                0.01766907673726269,
                0.18429465611060825,
                -0.043980009529316744,
                0.04552328868012262,
                -0.011540305306476834,
                0.1272321473292673,
                -0.005465711886939892,
                0.139710969101548,
                0.054789202094760646,
                0.24932720274912762,
                -0.05016814803582105,
                -0.02204852147577058,
                -0.048403931658258556,
                0.028912746277729977,
                -0.046383506667886765,
                0.03724433706752171,
                -0.01687931111817202,
                0.11600834037220252,
                -0.05219071945303878,
                0.0036659464041174585,
                -0.03656407963251723,
                0.06851714178141302,
                -0.03272107705672827,
                0.07872109721065836,
                0.010680313544703638,
                0.17142529578260493,
                -0.04088179900210742,
                0.05455380523778313,
                -0.005479820088431827,
                0.13924092429109994,
                0.000962825535804741,
                0.15206737538618298,
                0.06417819142628013,
                0.26465846344699695,
                -0.02390325125631636,
                0.09934136262590713,
                0.02539365806647322,
                0.19796482909500845,
                0.03375566395691734,
                0.21278009017385174,
                0.11091751960994019,
                0.3393745810385955,
                -0.05223322144047816,
                0.0035891145569174458,
                -0.036615865067314804,
                0.06839503349937245,
                -0.03285966251798534,
                0.07843639759664041,
                0.010483225566310194,
                0.17101940835708096,
                -0.046455463005466185,
                0.037089810714380125,
                -0.01698133444264936,
                0.11577440789123715,
                -0.01142632084889335,
                0.127657388405421,
                0.045801821124996214,
                0.23416305513491575,
                -0.024742866409658695,
                0.09820737100586911,
                0.024426578115482874,
                0.19662001187712902,
                0.03250372035263793,
                0.21104078749943955,
                0.10944829298301602,
                0.33730794223445787,
                -4.7182933976271536e-05,
                0.15067415113868626,
                0.0629996350417019,
                0.26299998433106586,
                0.07294314253835085,
                0.27934959324887604,
                0.16381035806388167,
                0.41959070578434193,
                -0.04424662816231127,
                0.04511637358020887,
                -0.011863269713820068,
                0.1267092095611666,
                -0.005958378517790017,
                0.1389256225555595,
                0.05417067104217447,
                0.24832962258067856,
                -0.02901877771968413,
                0.08808660241591772,
                0.01722933415054666,
                0.1835730542762808,
                0.0249609685520257,
                0.19766884718036964,
                0.0989916471060079,
                0.3210188346918847,
                0.00646196137306295,
                0.16307399515696935,
                0.07245157135992113,
                0.2783533241540748,
                0.08273697037587553,
                0.2950202194783456,
                0.1765404230551566,
                0.4382066897522295,
                0.04065643827073737,
                0.2250775645692548,
                0.12054068053364102,
                0.35429430112590493,
                0.1327437567561569,
                0.37295117302450026,
                0.24049550502843672,
                0.5301442102095953,
                -0.049672142380690315,
                0.022916454671250194,
                -0.02567342075854426,
                0.09611259586296585,
                -0.02084504147621453,
                0.10723859790140026,
                0.0308881318580564,
                0.20822770732501122,
                -0.03917072935983225,
                0.06114936605069649,
                -0.0013118247815785862,
                0.1482310744497271,
                0.00532787038906121,
                0.16121611341484,
                0.07095390531554911,
                0.2761389647165867,
                -0.010618644486489174,
                0.12915142160333815,
                0.04695574813489342,
                0.23599067142159416,
                0.056131740335285646,
                0.2515285095516762,
                0.14149945865632035,
                0.3862474272410226,
                0.01882173944135356,
                0.1863807404178759,
                0.09028155507643827,
                0.3071447103268759,
                0.10134810727323036,
                0.32464049215524166,
                0.20065071498875203,
                0.47334909235082895,
                -0.035943447872194334,
                0.07020560104287617,
                0.00482956840297268,
                0.1602033537760264,
                0.011816862111309044,
                0.17351750615907585,
                0.08034912829565329,
                0.291346938147008,
                -0.015984724751438136,
                0.1179199019895628,
                0.038658775110278196,
                0.22182047897338675,
                0.047491161814458185,
                0.23703727672240588,
                0.12993498409379878,
                0.3688261015041711,
                0.02653819883228054,
                0.20001783817598018,
                0.10095504487681688,
                0.32375246600675694,
                0.11236196297856456,
                0.3415619686295395,
                0.21461548810665015,
                0.4932335305411382,
                0.06549781363789532,
                0.2668090225224769,
                0.15381966091999832,
                0.40449490508077907,
                0.16717429591172422,
                0.4243293396271816,
                0.28339068253049887,
                0.5900255125541412,
                -0.04713775908150035,
                -0.030333187390151315,
                -0.051026461968258066,
                0.014953360738762507,
                -0.04975221136848135,
                0.02250659297554212,
                -0.025923919155562775,
                0.09555685982769695,
                -0.05235124103515174,
                -0.007831902128707735,
                -0.042386652425522864,
                0.05132742529969689,
                -0.03932337918973375,
                0.060708602886933215,
                -0.0016164642303325401,
                0.14767247632338715,
                -0.04624072071686591,
                0.0376902364774067,
                -0.01657747383868056,
                0.11658088986581384,
                -0.010983325662220744,
                0.12851094842904592,
                0.04644450202488319,
                0.2352407319016046,
                -0.03253588639165991,
                0.07915598626752966,
                0.011000247901364299,
                0.171952927699714,
                0.01844805232223155,
                0.18579522788531355,
                0.0897908864189458,
                0.3064889144311341,
                -0.05244806777270924,
                -0.002102800705830701,
                -0.039570443983651976,
                0.059969749920934776,
                -0.03614850187395524,
                0.06969626237433467,
                0.00446527107268811,
                0.15956559860808522,
                -0.04821130324325423,
                0.029867166366919048,
                -0.02147290939694006,
                0.10582693126696287,
                -0.01623547279354449,
                0.11741769226026381,
                0.038272795332789725,
                0.22122346392443926,
                -0.028333311078189403,
                0.0892563217628299,
                0.018148850686181137,
                0.18501117356041225,
                0.025952162829497038,
                0.1991874874699373,
                0.10023661464754109,
                0.3228330914222601,
                -0.005129364281090803,
                0.14025817453988976,
                0.05524244105241174,
                0.24994302694846035,
                0.06494926108386637,
                0.2660912654558423,
                0.1531738693381514,
                0.4037328789209756,
                -0.05122528508545878,
                -0.017654240627360044,
                -0.04673236197448914,
                0.03602217092898992,
                -0.04438655223040455,
                0.0446590377463815,
                -0.012168216689981628,
                0.1261145417686664,
                -0.05171504550141893,
                0.009578824136696728,
                -0.033365671463216465,
                0.07713465262984247,
                -0.02921906439090421,
                0.08761615515578482,
                0.016885250263016623,
                0.18299610033584318,
                -0.03876498926482683,
                0.06198443313993201,
                -0.0006973211296650592,
                0.14930054906550067,
                0.005996011583758042,
                0.16234761893836858,
                0.07184595545103799,
                0.27752751628420685,
                -0.020315305248410787,
                0.10821236817960943,
                0.03163304852914736,
                0.20944604858297222,
                0.04020350207221582,
                0.22443374032932428,
                0.1199804475128327,
                0.35359301411860883,
                -0.05079306257008009,
                0.01633767579354434,
                -0.029525913999606978,
                0.08681439055667294,
                -0.025021710885087162,
                0.09763811511938388,
                0.02399464296946047,
                0.19593162802890335,
                -0.04182531726704876,
                0.05305132040150353,
                -0.006691919810116623,
                0.1374242064735714,
                -0.0003546025631715383,
                0.150134714880789,
                0.06256592223643768,
                0.26237781719256287,
                -0.014906624833646008,
                0.119548462515344,
                0.040001852355133635,
                0.22375707294275893,
                0.048927494239178096,
                0.2390764190338693,
                0.13166059520154222,
                0.3712050717488539,
                0.013062650254044935,
                0.17533761793805225,
                0.08187088863786983,
                0.2934898248088275,
                0.09272934794180217,
                0.31081532069542256,
                0.18941691990248916,
                0.4569577756917574,
                -0.041838623137552475,
                0.053014032891260936,
                -0.006709593503934806,
                0.13734759209640046,
                -0.0004736715925639532,
                0.1498738370443966,
                0.062390244876821994,
                0.2619986796754456,
                -0.02506839650061624,
                0.09751618627118404,
                0.023921295272511817,
                0.19573473190222657,
                0.03196725895313382,
                0.21011770665000723,
                0.10872346971181525,
                0.33617466389145617,
                0.012238811733308564,
                0.17421875523320113,
                0.08091900297480849,
                0.2921605881053269,
                0.09147587417337454,
                0.30906779726518224,
                0.1879425593296098,
                0.4548803462938528,
                0.04792552345127616,
                0.23768756331370225,
                0.13048798343560114,
                0.3695499020408795,
                0.1429253712251577,
                0.3884039784857752,
                0.2533227450186784,
                0.5482009492986712,
                -0.020558131995778047,
                0.10783409521662417,
                0.03133604264711494,
                0.20895495353535265,
                0.03972113408608047,
                0.2236574998050912,
                0.1193713603075141,
                0.3526047191183363,
                0.005661507812556306,
                0.16180610778100712,
                0.07142482849826136,
                0.2768273928418576,
                0.0816493541708365,
                0.2934258927074976,
                0.17520875245720485,
                0.4363290608196995,
                0.05673759632509266,
                0.2523813919838647,
                0.14223867113827543,
                0.3871918702329404,
                0.1550023756716975,
                0.40634454719453544,
                0.26832966432923205,
                0.5690793743556087,
                0.10192225805442597,
                0.32538715127563783,
                0.2013233631071577,
                0.4741428532894067,
                0.2160203564819738,
                0.49530500111820414,
                0.3433044891458558,
                0.6720573618454804,
                -0.032630412490076574,
                0.0789877604155118,
                0.01087945541099637,
                0.1717116344589535,
                0.018187913516116944,
                0.1853232625807273,
                0.08944209092516657,
                0.305854799135205,
                -0.011136860399502018,
                0.12822230255642636,
                0.04623733174314312,
                0.23483830333429156,
                0.05536906661306629,
                0.25032481191728,
                0.14052339734964203,
                0.3847998003268471,
                0.03300982203694311,
                0.21181042520938376,
                0.11009522198116585,
                0.3381797472055564,
                0.12175035044129982,
                0.35620381194337575,
                0.22664094456588887,
                0.5104695067746405,
                0.0734408227876583,
                0.280041863223408,
                0.1644167923734794,
                0.42034347017986423,
                0.17797736231317768,
                0.4403442427571768,
                0.29681114290999294,
                0.6086103354140672,
                -0.005608364401535087,
                0.1395699533936568,
                0.054675334880510885,
                0.24909621484762381,
                0.06414271221132291,
                0.26489676965742076,
                0.1521965245408291,
                0.4022704099877413,
                0.025341777809117994,
                0.19828617046442304,
                0.09950060463439366,
                0.321722318367388,
                0.1108264961408779,
                0.33944282238102813,
                0.21279965897190523,
                0.4907860681533502,
                0.08346156860101527,
                0.2959745884058385,
                0.1773905338723623,
                0.4392416394596404,
                0.1912746887086993,
                0.4595362407087314,
                0.3130532068867408,
                0.6307579361497893,
                0.1334109156752736,
                0.37376801274002397,
                0.24125053148329886,
                0.5309943860621067,
                0.25709874499611457,
                0.553334143679365,
                0.39284892441380076,
                0.7385916681263814,
                -0.05183863088233804,
                -0.013617878075858288,
                -0.0450208905569931,
                0.042383040168997715,
                -0.04237853372382462,
                0.051321827958959725,
                -0.007833223065354783,
                0.13510549167397104,
                -0.05101842096444822,
                0.014927086531691459,
                -0.030343451844617533,
                0.08480894713087041,
                -0.025897405312766634,
                0.0955969241262269,
                0.02253586666478562,
                0.1933077587548701,
                -0.03626959473762682,
                0.06912060281658593,
                0.004118137634847645,
                0.15875761796399462,
                0.011116555778076057,
                0.1721201733176087,
                0.07929180762526593,
                0.28962770872843147,
                -0.01650897957879435,
                0.11666448434724842,
                0.037761759222792304,
                0.22022213230944077,
                0.04664237513970998,
                0.23553204760697238,
                0.12874815368528392,
                0.36702323213656357,
                -0.049834933727587266,
                0.021942098606897328,
                -0.02624481832029885,
                0.09474204243617006,
                -0.021440497247297626,
                0.10587377192457682,
                0.02990252426719969,
                0.20649570982392318,
                -0.03955682378141871,
                0.05996958028709962,
                -0.002098910160686917,
                0.14666799230256988,
                0.004542509701988961,
                0.1596921514191217,
                0.06979245582686382,
                0.27426717993631233,
                -0.010928289674586951,
                0.12815994955856552,
                0.04629629693006003,
                0.234686077141573,
                0.05553338831716001,
                0.25032978587040733,
                0.14058938535745147,
                0.3847842375035931,
                0.01835265524479129,
                0.1852673330809923,
                0.08948009529093055,
                0.3057408969040804,
                0.10065617332875691,
                0.3233985857856288,
                0.1996709379521503,
                0.4718718838352168,
                -0.05227265738670587,
                0.0027208738952789846,
                -0.037071010044310446,
                0.06711742392711242,
                -0.03335090998607178,
                0.07714872475440464,
                0.009589815877312677,
                0.16934648485717446,
                -0.046725746892506206,
                0.03600368790214767,
                -0.017662165895735122,
                0.11428936335465227,
                -0.01212313282994574,
                0.1261900123620864,
                0.0447144561485798,
                0.23232732338100553,
                -0.02508839834731737,
                0.09713846106599557,
                0.02371198177138598,
                0.19521265258003706,
                0.03182338680589154,
                0.2097087159735565,
                0.10843207218059676,
                0.3356811699452162,
                -0.0005731725869158161,
                0.14945737961465888,
                0.062119557617500855,
                0.2614650258065435,
                0.07214009362758642,
                0.2779402980117505,
                0.16269284629344588,
                0.4179134199014068,
                -0.04450842565654983,
                0.04406632915336549,
                -0.01252353171355771,
                0.1252791782135072,
                -0.0066269564181953055,
                0.13752080740471911,
                0.05312699061658114,
                0.24657875393242754,
                -0.02949296496231604,
                0.08684694920135323,
                0.016366751452364974,
                0.1819687689123966,
                0.024121513792781536,
                0.1961288316530122,
                0.09779360663234997,
                0.31915456819943727,
                0.006253782279133139,
                0.16223161813879938,
                0.07191588353240617,
                0.2772261909160754,
                0.08229291615132449,
                0.29403323769354034,
                0.17581185241824,
                0.4369885155119095,
                0.040313207335332994,
                0.22414254701119066,
                0.11988982508505523,
                0.3530996972899629,
                0.13223862250310187,
                0.3719584180344218,
                0.23973218634424479,
                0.5289518804667784,
                -0.02957415692077531,
                0.0866740251484202,
                0.016251848082494687,
                0.18170904784735575,
                0.02386023178104499,
                0.19562767211296178,
                0.09743121356900424,
                0.3184725197001938,
                -0.006772748646968287,
                0.13721686235525132,
                0.05291761315164748,
                0.24614479189265784,
                0.06235076468573958,
                0.2619414488166077,
                0.14982313669332997,
                0.3987317327013083,
                0.03914887026401684,
                0.2225652826186832,
                0.1185430209421469,
                0.3512395124124557,
                0.13050550926735816,
                0.3695830337332115,
                0.23770860724149254,
                0.526158884578263,
                0.08088681927638079,
                0.292107193615966,
                0.17417311506934519,
                0.43471603139353204,
                0.18804472051844956,
                0.4550415973244984,
                0.309193784776379,
                0.6256213733570168,
                -0.000990843673916827,
                0.1488114355161343,
                0.061605825637152715,
                0.2606462513076196,
                0.07137614739625524,
                0.27675933417983706,
                0.16174513995096046,
                0.4164452341443991,
                0.031266614664180875,
                0.20883695051649176,
                0.10773921553198497,
                0.33458320432075433,
                0.11937063482429365,
                0.3526204808807379,
                0.22366098623235586,
                0.5062787421894127,
                0.0910622905704994,
                0.3081808629010299,
                0.1872947350586951,
                0.45374812299057116,
                0.20149206179882256,
                0.47437050594503843,
                0.32557935522881315,
                0.6478992015574843,
                0.14231839023060203,
                0.3872861074621318,
                0.25246383218844276,
                0.5468157843031958,
                0.2686299855361733,
                0.5694897526833393,
                0.4066924914771079,
                0.7570585761233204,
                -0.016717533896097116,
                0.11630194165102435,
                0.03749132584014912,
                0.21973278299400134,
                0.04617767771473394,
                0.2347449167916255,
                0.12814402776596429,
                0.3660050529661118,
                0.010809670543826888,
                0.17158272918941253,
                0.07888809460652417,
                0.2889151631084252,
                0.08941591792885513,
                0.3058269488424759,
                0.18529306266699125,
                0.45104540398816423,
                0.06361622039913863,
                0.26387095996736326,
                0.15142354171544187,
                0.40098412816085066,
                0.1644973375580575,
                0.4204602496913618,
                0.28013539729408216,
                0.5855037864727654,
                0.1101077110284694,
                0.3381878443404753,
                0.2118170237874235,
                0.4892489450520327,
                0.2268283302591591,
                0.5107404203638594,
                0.3564263995429648,
                0.6898054038031737,
                0.01762332067414878,
                0.18422341251806995,
                0.08861450382485715,
                0.3044721079854969,
                0.09947635259486641,
                0.32169513489278984,
                0.19825701131621631,
                0.4698190232732175,
                0.0546171430629142,
                0.2490020845312463,
                0.13949178469981793,
                0.38317322314737096,
                0.15223727956174865,
                0.40234790796702363,
                0.2649510210020866,
                0.5644593597636545,
                0.12153050445661816,
                0.35554191394413853,
                0.2262017740733932,
                0.509580168849039,
                0.24153641050904714,
                0.5313640298595681,
                0.37408895898804634,
                0.713397106620722,
                0.17756393298173517,
                0.4394505579258287,
                0.296160365794328,
                0.607466873514883,
                0.3134980672893228,
                0.6313414740687079,
                0.4600421909416074,
                0.8274345195261952,
                -0.04844451045097417,
                0.028786196837305347,
                -0.02212418593036958,
                0.10430129144119328,
                -0.016998388639970694,
                0.11573093370464167,
                0.03705780018295099,
                0.21904190423116554,
                -0.03663403046808246,
                0.06832935937494895,
                0.003546882219142946,
                0.15773117394693903,
                0.010486187118448792,
                0.17102370598405098,
                0.0784368470824321,
                0.2882707754878301,
                -0.006294250170457589,
                0.1381063595655549,
                0.05359567567670739,
                0.24725963863370334,
                0.06307707219135333,
                0.26311412946243845,
                0.15076482216728815,
                0.4001530699313432,
                0.02445522716291004,
                0.19664904182070647,
                0.09823252415375337,
                0.3197297366598482,
                0.10960885695898524,
                0.337548208607443,
                0.2112346487977143,
                0.4885807316011707,
                -0.033148948095939046,
                0.07763747998233629,
                0.00994316235232001,
                0.16995225015749016,
                0.017231168920854554,
                0.18357585070141008,
                0.08808548478794558,
                0.3037267507415489,
                -0.011881230886399459,
                0.12666350213343236,
                0.04508253981865347,
                0.23288302077977896,
                0.05421892339042318,
                0.24841421182344878,
                0.13898717636108676,
                0.3825276332162712,
                0.032335398283141616,
                0.21043664131212148,
                0.10906316438420828,
                0.3364812579787359,
                0.12078157485619158,
                0.3546160144398805,
                0.225352061389388,
                0.5086051016364479,
                0.07260437800101442,
                0.27854300352542866,
                0.163239864929355,
                0.4185423420595494,
                0.17691146087229748,
                0.4387091601516852,
                0.29544873282422196,
                0.6067275298419241,
                -0.04223219790211673,
                0.05177081159566115,
                -0.007528359390107305,
                0.13568176453144964,
                -0.0013245773351844492,
                0.14820454714354397,
                0.061127136338221595,
                0.25993034327396597,
                -0.02569533845783006,
                0.09605200508892407,
                0.022874044416297767,
                0.19385811239477108,
                0.0309073075406639,
                0.20826467390694448,
                0.1072626454867981,
                0.33393920035274643,
                0.011531151688264027,
                0.17276952219338837,
                0.07983411984402154,
                0.2903609917611019,
                0.09042779262697968,
                0.30734866577863956,
                0.1865498733640088,
                0.4528540416125298,
                0.04703483622108116,
                0.2360873407356366,
                0.12923477051272525,
                0.3676192992730117,
                0.14175104293982838,
                0.38660353342884596,
                0.2518249574680301,
                0.5461197619223941,
                -0.021177540444033267,
                0.10640692143167506,
                0.030309349308288266,
                0.20713521717662559,
                0.03868937555742839,
                0.22186886865345717,
                0.11795512038437282,
                0.3504569003321018,
                0.004827165255054232,
                0.1601862223632547,
                0.07019299085802276,
                0.27483002037970977,
                0.080443212517446,
                0.2914979964292181,
                0.1736343669779853,
                0.4340635001970265,
                0.05616172695271883,
                0.25115445310623313,
                0.14132779605877976,
                0.3856689228940528,
                0.15418496105840712,
                0.40496621647151626,
                0.2672196778458111,
                0.5674580404514189,
                0.10120874226169128,
                0.3240644187949974,
                0.20029444658559054,
                0.47254900304734754,
                0.21513830535624703,
                0.49391678222175045,
                0.3421559188891122,
                0.6704574782285176,
                0.004783906127248923,
                0.16006084285727912,
                0.070120567690991,
                0.2746234251776803,
                0.08020836430760468,
                0.2910268395331059,
                0.17329993365158858,
                0.4334140142206437,
                0.038576681092580466,
                0.221604611647087,
                0.1177818773369834,
                0.3500666969329182,
                0.12970714433218375,
                0.3683647291477768,
                0.23670743223095855,
                0.524707086709587,
                0.10006920004950066,
                0.322510565040479,
                0.19897148670527187,
                0.470712312155162,
                0.2134108608391872,
                0.4915396395438251,
                0.34013403647137747,
                0.6676597858734897,
                0.15279501042001795,
                0.4030519129722287,
                0.2655946254183695,
                0.5651958695400967,
                0.2819587398258953,
                0.5880247473467323,
                0.42263621541947133,
                0.7781595707831004,
                0.04664983448982634,
                0.2354781797404413,
                0.1287555062759478,
                0.36684014020910977,
                0.1410044534796435,
                0.3854379972414001,
                0.25089338484738427,
                0.5446668147044195,
                0.08989694799636537,
                0.3065039201431236,
                0.18588323189575184,
                0.4517844174227443,
                0.20000743947903482,
                0.47232451364722655,
                0.32382556070650853,
                0.6455359417023757,
                0.16526079920354747,
                0.4214047859221555,
                0.2810013007599827,
                0.5865007235643432,
                0.2976728215105067,
                0.6096049923321354,
                0.4412811190315827,
                0.8026801490033635,
                0.22750288412431086,
                0.5115085966626645,
                0.3571620690493534,
                0.6905750551969811,
                0.3758194998605335,
                0.7157518755015493,
                0.5334118462413603,
                0.9228784145907614,
                0.024282300316521555,
                0.19632898932733978,
                0.09800089112202846,
                0.31928708437114,
                0.10916638119824403,
                0.33678411931401325,
                0.21065289598550374,
                0.48758677933937944,
                0.06280002597232895,
                0.2626103656442788,
                0.15039261032521017,
                0.399476900726682,
                0.16341300454388474,
                0.41889090295873915,
                0.278817893688817,
                0.5836618798677178,
                0.13117573053518924,
                0.37045545671860564,
                0.23849104992593137,
                0.527096623900371,
                0.2540405046983996,
                0.549055710391801,
                0.3891990068604945,
                0.7336445269963997,
                0.18865415475982739,
                0.45577135293455523,
                0.30987690015657493,
                0.6263683054393874,
                0.3273802188595482,
                0.6503629816715641,
                0.47650731558262177,
                0.8489842481889172,
                0.07190410191552192,
                0.27752950621087785,
                0.16240375584407535,
                0.41730543422885075,
                0.17574347926103595,
                0.43701287027043717,
                0.2940440477694313,
                0.6046802666938997,
                0.11988669285348517,
                0.3533080196783515,
                0.22427473716037272,
                0.5070137409788043,
                0.2395129996673039,
                0.5286916105888437,
                0.37175473323666924,
                0.7103570710121339,
                0.20236801607307076,
                0.4754056615155579,
                0.32654759864888744,
                0.648973469434476,
                0.34435472613487833,
                0.6732378990701334,
                0.49642903726698134,
                0.8748188150226551,
                0.2693864609524009,
                0.5703124054414228,
                0.4074971439586051,
                0.7578666295207088,
                0.4273251501086574,
                0.7842434949624268,
                0.5934001240984591,
                0.9998958855373401
            ],
            "result_with_budget": [
                {
                    "portfolio": {
                        "AMGN": 1,
                        "CRM": 0,
                        "JNJ": 1,
                        "JPM": 2,
                        "MSFT": 0
                    },
                    "budget": 876.0596008300781,
                    "difference": -7.059600830078125,
                    "objective_value": -3.0838754621183133
                }
            ],
            "result_with_budget_excited": [
                {
                    "portfolio": {
                        "AMGN": 1,
                        "CRM": 1,
                        "JNJ": 2,
                        "JPM": 0,
                        "MSFT": 0
                    },
                    "budget": 879.2997741699219,
                    "difference": -10.299774169921875,
                    "objective_value": -0.6670180460416318
                }
            ]
        },
        "qaoa_solution": {
            "two_most_probable_states": [
                "00010000000",
                "00000000001"
            ],
            "final_expectation_value": -0.04749305719067034,
            "params": [
                3.037124041072515,
                -0.039576523959217416,
                4.878990230433795,
                -4.650116698057778,
                6.903717208460144,
                6.845470082385047,
                2.376947247133614,
                16.756795595045105,
                16.51429911095071,
                7.846836113276535,
                3.1241410467916104,
                1.6112823488905954,
                3.6639503074988014,
                -1.3700951175195346,
                1.1630599944181688,
                2.217136985087355,
                2.3768941448316463,
                2.9826498862583803,
                1.5326911975736452,
                1.6336355221612686
            ],
            "total_steps": 800,
            "states_probs": [
                0.012817563317762855,
                0.015202561319767601
            ],
            "optimized_portfolios": [
                {
                    "AMGN": 0,
                    "CRM": 2,
                    "JNJ": 0,
                    "JPM": 0,
                    "MSFT": 0
                },
                {
                    "AMGN": 0,
                    "CRM": 0,
                    "JNJ": 0,
                    "JPM": 0,
                    "MSFT": 2
                }
            ],
            "training_history": {
                "xbest": [
                    3.037124041072515,
                    -0.039576523959217416,
                    4.878990230433795,
                    -4.650116698057778,
                    6.903717208460144,
                    6.845470082385047,
                    2.376947247133614,
                    16.756795595045105,
                    16.51429911095071,
                    7.846836113276535,
                    3.1241410467916104,
                    1.6112823488905954,
                    3.6639503074988014,
                    -1.3700951175195346,
                    1.1630599944181688,
                    2.217136985087355,
                    2.3768941448316463,
                    2.9826498862583803,
                    1.5326911975736452,
                    1.6336355221612686
                ],
                "fbest": -0.04749305719067034,
                "evals_best": 9507,
                "evaluations": 9600,
                "iterations": 800,
                "xfavorite": [
                    3.0494153570069424,
                    -0.07408627772697378,
                    4.910917076766949,
                    -4.607977893352978,
                    6.918514228980915,
                    6.83465229048512,
                    2.3187558006782067,
                    16.717264465687386,
                    16.426796934290646,
                    7.802810771585768,
                    3.1333138255601174,
                    1.5810016491194243,
                    3.681679126986895,
                    -1.3743735272573834,
                    1.1660161911624523,
                    2.2008164829789796,
                    2.385424136291338,
                    2.982902269676091,
                    1.5324512461354394,
                    1.6401863855469703
                ],
                "stds": [
                    0.053099631284589395,
                    0.05369915574096091,
                    0.06564015378699348,
                    0.09873646853139756,
                    0.04484523432397095,
                    0.05332310072298575,
                    0.07673302849883426,
                    0.1840440977714346,
                    0.19001684745220115,
                    0.11880815563466024,
                    0.01553215282719516,
                    0.017425357350933292,
                    0.013565249839892966,
                    0.009311182850040903,
                    0.008012968307981387,
                    0.011460020810581664,
                    0.013268280690663053,
                    0.0036005439458294606,
                    0.0038806309890260684,
                    0.003441304985123502
                ],
                "stop": {
                    "maxiter": 800
                }
            },
            "objective_values": [
                -0.5791500485345467,
                0.006844689409352567
            ],
            "result_with_budget": [
                {
                    "portfolio": {
                        "AMGN": 0,
                        "CRM": 2,
                        "JNJ": 0,
                        "JPM": 0,
                        "MSFT": 0
                    },
                    "budget": 667.6109619140625,
                    "difference": 201.3890380859375
                },
                {
                    "portfolio": {
                        "AMGN": 0,
                        "CRM": 0,
                        "JNJ": 0,
                        "JPM": 0,
                        "MSFT": 2
                    },
                    "budget": 841.3130493164062,
                    "difference": 27.68695068359375
                }
            ]
        }
    }
}