{
    "16": {
        "hyperparams": {
            "stocks": [
                "DIS",
                "GS",
                "IBM",
                "JNJ",
                "NKE"
            ],
            "start": "2015-01-01",
            "end": "2025-01-01",
            "risk_aversion": 0.1,
            "n_qubits": 13,
            "budget": 691,
            "log_encoding": true,
            "layers": 10,
            "prices_now": {
                "DIS": 111.3499984741211,
                "GS": 569.7945556640625,
                "IBM": 218.37515258789062,
                "JNJ": 143.4715576171875,
                "NKE": 75.28893280029297
            },
            "assets_to_qubits": {
                "DIS": [
                    0,
                    1,
                    2
                ],
                "GS": [
                    3
                ],
                "IBM": [
                    4,
                    5
                ],
                "JNJ": [
                    6,
                    7,
                    8
                ],
                "NKE": [
                    9,
                    10,
                    11,
                    12
                ]
            },
            "optimizer": "CMAES",
            "lambda_budget": 1
        },
        "continuous_variables_solution": {
            "weights": {
                "DIS": 3.568642845292955e-17,
                "GS": 0.8337425876556446,
                "IBM": 6.927418690944561e-17,
                "JNJ": 0.0,
                "NKE": 0.16625741234435548
            },
            "allocation": {
                "GS": 1,
                "NKE": 1,
                "DIS": 0,
                "IBM": 0,
                "JNJ": 0
            },
            "value": 0.0386056180932044,
            "left_overs": 45.916510304011354
        },
        "continuous_variables_solution_unconstrained": {
            "weights": {
                "DIS": 0.0,
                "GS": 0.709376593847561,
                "IBM": 0.11554931237050506,
                "JNJ": 0.020745204235454777,
                "NKE": 0.20588373024392834
            },
            "allocation": {
                "GS": 1,
                "NKE": 1,
                "DIS": 0,
                "IBM": 0,
                "JNJ": 0
            },
            "value": 0.0386056180932044,
            "left_overs": 45.9165114310141
        },
        "exact_solution": {
            "smallest_eigenvalues": [
                -0.04186529523423355
            ],
            "smallest_bitstrings": [
                "1000011000000"
            ],
            "first_excited_energy": -0.041865244924319985,
            "optimized_portfolio": [
                {
                    "DIS": 1,
                    "GS": 0,
                    "IBM": 2,
                    "JNJ": 1,
                    "NKE": 0
                }
            ],
            "second_optimized_portfolio": [
                {
                    "DIS": 1,
                    "GS": 0,
                    "IBM": 1,
                    "JNJ": 2,
                    "NKE": 1
                }
            ],
            "spectrum": [
                -5.433710665633722e-16,
                -0.04117351246820276,
                -0.028539799906680964,
                -0.03789631540987471,
                -0.016257983252434778,
                -0.041524202806805556,
                -0.03684514423388436,
                -0.030288752400604184,
                -0.008626001078757566,
                -0.04184611897296522,
                -0.033189557955036274,
                -0.034590069709902034,
                -0.022895926870892896,
                -0.04020764530109026,
                -0.03950648958383902,
                -0.02499219530410074,
                -0.04066266998947397,
                -0.021221339968428583,
                -0.03889517363346473,
                0.012363780904232674,
                -0.04176702837955277,
                -0.006418123574830851,
                -0.03204678406936675,
                0.03512548729855657,
                -0.04171186345723884,
                -0.014317005903770587,
                -0.03596807354460206,
                0.02324708151180504,
                -0.04082814311215289,
                0.0024754276811474116,
                -0.027131234054249467,
                0.047999168436490776,
                -0.027550594710462853,
                -0.03841676091565192,
                -0.04093677294090311,
                -0.01998567254806497,
                -0.036231776000346584,
                -0.03119053042818304,
                -0.04166527182678371,
                -0.004801081421997321,
                -0.03238819652830625,
                -0.035300912715987114,
                -0.041798111983082024,
                -0.012890920492425953,
                -0.03908131247938306,
                -0.026085494386544478,
                -0.04053818231556005,
                0.004284013838162818,
                -0.03933601847229936,
                0.010413007288934425,
                -0.022414769844265485,
                0.059152326637852255,
                -0.03286352063763618,
                0.03279328705640167,
                -0.007989436433850259,
                0.08949124783957461,
                -0.0365967883069799,
                0.02110586457299329,
                -0.015699204305654357,
                0.07382422418746651,
                -0.028136192822943468,
                0.045475396398977914,
                0.0007146059217182897,
                0.10615356876324192,
                -0.015580104457245865,
                -0.041599959442423416,
                -0.03654309859112203,
                -0.030745832830482427,
                -0.02804968857133145,
                -0.03816219672876732,
                -0.041060024799515794,
                -0.019349765882515507,
                -0.022311906654576493,
                -0.04037834210292799,
                -0.039298649264882184,
                -0.025545338840094807,
                -0.03279343005884059,
                -0.03495140415277732,
                -0.04182715553710562,
                -0.012158945281333258,
                -0.041804203174084294,
                -0.007209053319109863,
                -0.032459841941220126,
                0.03395314449682135,
                -0.039120138391639504,
                0.011382684303724815,
                -0.02182298815273625,
                0.06050344507822151,
                -0.04095918712279795,
                0.0015895372988324944,
                -0.02763851280443671,
                0.04673073713953608,
                -0.03628703483781535,
                0.02217050885685471,
                -0.015013196334078,
                0.07527143898341239,
                -0.035911457159168485,
                -0.03162389709356379,
                -0.041720806258620534,
                -0.005615811671377039,
                -0.04080423039053673,
                -0.020609182562267847,
                -0.038660867069824,
                0.013357325420656109,
                -0.03885485632523327,
                -0.026613810243588283,
                -0.04068792863800188,
                0.0033732089985802037,
                -0.04175955820934687,
                -0.013609893885376598,
                -0.03563955089910798,
                0.024336707268323488,
                -0.033258069430012784,
                0.0316448945036522,
                -0.008759907791573844,
                0.08796138307219352,
                -0.022997127114976153,
                0.05781373887960798,
                0.009453922186778275,
                0.12208895287594466,
                -0.02862461978144852,
                0.044232029340890024,
                -0.0001500977229978781,
                0.10452759917469516,
                -0.016375568290740314,
                0.07239014527815556,
                0.020052224586856838,
                0.1406456158435391,
                -0.036197472533917814,
                -0.0312407206758479,
                -0.04167223518631242,
                -0.004897979277679442,
                -0.040922952920787105,
                -0.020058686468646898,
                -0.03844499767036982,
                0.01424251470512984,
                -0.039057225124582574,
                -0.026146975818033324,
                -0.04055570924060221,
                0.004174717015920419,
                -0.041794634280983615,
                -0.01297573196764676,
                -0.035340029324820575,
                0.025305583959237654,
                -0.032907183679479625,
                0.03266464397833322,
                -0.008074562921512297,
                0.08931551436880945,
                -0.022479003007051114,
                0.059000680129828086,
                0.010306474190249161,
                0.12361027645634105,
                -0.028190112404904565,
                0.04533537516739159,
                0.000618852169451271,
                0.10596532608561988,
                -0.01577383185024816,
                0.07366068151980844,
                0.02098837628579982,
                0.1422505376443838,
                -0.041771608086532706,
                -0.006507405699628897,
                -0.032092711683564236,
                0.03498932340207195,
                -0.03892027150973686,
                0.01225159384233355,
                -0.021288598971396854,
                0.06170690476415611,
                -0.04084295483783811,
                0.0023748151948460522,
                -0.02718775277633837,
                0.047850554760465354,
                -0.036003535463619334,
                0.023123051899937082,
                -0.014395178120883112,
                0.07655854457949458,
                -0.009603959276047966,
                0.08627571794548254,
                0.030382475911920878,
                0.15808090798534316,
                0.008401105011664021,
                0.12018887436896396,
                0.05634049901432885,
                0.19995295653217784,
                -0.0010984515952295046,
                0.10273499988088834,
                0.04286437660268574,
                0.17851935154803664,
                0.01889473517736575,
                0.13863746506093563,
                0.07081091728883053,
                0.22238189609824227,
                -0.0407893504362681,
                -0.02067889205961972,
                -0.03868729017497517,
                0.013240825540619986,
                -0.041726424958570534,
                -0.005708383320154185,
                -0.03167162043711116,
                0.03616985231902533,
                -0.04175490124345326,
                -0.013690913078600268,
                -0.03567655026416977,
                0.024207784092028797,
                -0.04070389944154138,
                0.0032688183742910866,
                -0.02667242904447357,
                0.04912720088942935,
                -0.023060441612984182,
                0.05766527969316553,
                0.009349073552148155,
                0.12189328606479728,
                -0.008843824847100565,
                0.0877898647486167,
                0.031518595186121164,
                0.1599766773910185,
                -0.01644915481994788,
                0.07223028081181217,
                0.019936727378889234,
                0.14043740688150086,
                -0.0002444275602398778,
                0.10434415465627588,
                0.044094750617292976,
                0.1805112702552924,
                -0.03914422780023192,
                0.011273762282446238,
                -0.02188847893067889,
                0.060347541281918875,
                -0.0325044733413458,
                0.033821270445598316,
                -0.007295910943365762,
                0.09085370056422491,
                -0.03632136744902734,
                0.02205023365485739,
                -0.015089295221476966,
                0.07510305677070299,
                -0.02769352234004712,
                0.046586994810303435,
                0.0014917465500422528,
                0.10759964432736659,
                0.007462313869432174,
                0.11849601546722908,
                0.05502569779282975,
                0.19787843995931242,
                0.029255838655806082,
                0.15619776727127507,
                0.08477224085835695,
                0.24353917525714655,
                0.017862048581583925,
                0.13684958988079615,
                0.06940185425009486,
                0.2202112206883225,
                0.041643709223362836,
                0.17654067178842384,
                0.10113693225812759,
                0.26786247732479046,
                -0.022279978440845245,
                -0.04038839982051213,
                -0.039287273264491,
                -0.02557847210914073,
                -0.03277171528425326,
                -0.034972746896353414,
                -0.04182633868706959,
                -0.01220446961643346,
                -0.02802285735035985,
                -0.038177839711981694,
                -0.04105389488721308,
                -0.019389013676946294,
                -0.03652653159668209,
                -0.03077300170928933,
                -0.04160453450896991,
                -0.004024670754017716,
                -0.04096618005183187,
                0.0015403452357329193,
                -0.027666141277583517,
                0.04665829311179263,
                -0.03630427705372894,
                0.022109949378822803,
                -0.01505144307591802,
                0.07518649823007181,
                -0.03913224478288812,
                0.011327867234937316,
                -0.02185589081872797,
                0.06042483514973437,
                -0.03248225422438695,
                0.033886713325850325,
                -0.007252725899939637,
                0.09094345352051258,
                -0.038842347297036776,
                -0.026643376519411618,
                -0.040696004874196536,
                0.003320487579039331,
                -0.041757276236994566,
                -0.013650782074494454,
                -0.03565821153765921,
                0.024271546260124573,
                -0.04079682443624349,
                -0.02064435182016654,
                -0.038674201292901556,
                0.013298465941634712,
                -0.041723681056384514,
                -0.005662546620996122,
                -0.031647964456317186,
                0.03623989870515502,
                -0.028651253004508555,
                0.044163038696377215,
                -0.000197433998563173,
                0.10443524251594162,
                -0.016412481646050893,
                0.07230973310273726,
                0.019994227561926366,
                0.14054069670791328,
                -0.023028888495730048,
                0.05773909689862702,
                0.009401291205238324,
                0.1219903981680165,
                -0.008802008818442104,
                0.08787506996423051,
                0.031581448217776815,
                0.16008631030040224,
                -0.03236597103369917,
                -0.035320713531880106,
                -0.041796453073756686,
                -0.012933834502324661,
                -0.03906930615547823,
                -0.026116597595288626,
                -0.040547094105798716,
                0.004228685577699854,
                -0.036214650000674996,
                -0.03121592482953285,
                -0.04166886441654812,
                -0.00485012118593278,
                -0.040929918353734086,
                -0.02002261166627932,
                -0.03843107148788697,
                0.014302755460688573,
                -0.03661358061810883,
                0.021046798291273,
                -0.015736663761508424,
                0.07374185106988757,
                -0.028163248766845422,
                0.04540493672113038,
                0.0006665080336268532,
                0.1060586671212206,
                -0.0328854332203234,
                0.032728583141999175,
                -0.008032179800718239,
                0.08940269328543235,
                -0.022447004119177043,
                0.059075981185658745,
                0.010359472389271719,
                0.12370994424349059,
                -0.04170909158837672,
                -0.014356366946783656,
                -0.03598590992640803,
                0.023184519068195034,
                -0.04083560833786074,
                0.0024247230508128836,
                -0.02715967069478855,
                0.04792413891254504,
                -0.0417693642403538,
                -0.006463098073329568,
                -0.032069886002640914,
                0.035056773413230324,
                -0.038907801739461505,
                0.012307217585573819,
                -0.02125519235216772,
                0.061786786235316186,
                -0.01707914871492653,
                0.07088912114099229,
                0.018951599604277926,
                0.13873852523682154,
                -0.0010519256467801431,
                0.1028243947620497,
                0.04293176865046628,
                0.1786326463254782,
                -0.009562561338773421,
                0.08635946396899734,
                0.03044457456639727,
                0.1581880083585841,
                0.008452782496613133,
                0.12028403667420264,
                0.056413255501291774,
                0.20007261180080627,
                -0.04175246559224712,
                -0.013730442606888037,
                -0.035694661114998805,
                0.024145203382007166,
                -0.040711675539978,
                0.0032180148387240077,
                -0.02670109269155093,
                0.04905224479667187,
                -0.0417290857469113,
                -0.005753492896253927,
                -0.031694974490513235,
                0.03610116463374016,
                -0.038700212334195246,
                0.013184202253791766,
                -0.020712943571612834,
                0.06299861503579547,
                -0.016485656353159246,
                0.07215159651898238,
                0.019879593824182952,
                0.14033549280506843,
                -0.00029117778517339754,
                0.10425411287288279,
                0.04402700405365668,
                0.18039687404223742,
                -0.008885439836485815,
                0.0877055601207457,
                0.03145618977691363,
                0.15986860441679157,
                0.009297154432153702,
                0.12179737842526324,
                0.057592110795034686,
                0.2019204748405231,
                -0.036338356475836754,
                0.02199118788716251,
                -0.015126864895716184,
                0.07502087913467494,
                -0.027720737280371464,
                0.04651663760085493,
                0.0014435982803816477,
                0.10750504223882716,
                -0.03252656516243186,
                0.033756626640060634,
                -0.0073387359925582325,
                0.09076539214525188,
                -0.021920849195341423,
                0.060271343422353164,
                0.01122021106666433,
                0.12524000157745563,
                0.017805891148484167,
                0.13675108921200405,
                0.06932499619276401,
                0.22008937509198673,
                0.041577271705998266,
                0.17643075896592347,
                0.10104941816402302,
                0.26772808329338565,
                0.029194552797467563,
                0.1560936196630755,
                0.08469009015980973,
                0.24341113834100003,
                0.054954073502514376,
                0.19776263176747932,
                0.11840305534308922,
                0.2930403841053235,
                -0.040850224019910376,
                0.002325539359751833,
                -0.027215583379559226,
                0.04777818955392165,
                -0.03602102240047846,
                0.023062484417118383,
                -0.01443357334314685,
                0.0764737805321191,
                -0.03893263977032494,
                0.012196729502807957,
                -0.021321678324984834,
                0.06162842121690389,
                -0.03211534877458828,
                0.03492292625695997,
                -0.006551195789015186,
                0.09231443916309111,
                -0.0011447596813806196,
                0.10264643310424983,
                0.04279740434725555,
                0.17840749956940838,
                0.018838163780013194,
                0.13853751453895305,
                0.07073331158734046,
                0.22225752991056064,
                0.008349676523202532,
                0.12009467449349683,
                0.05626824504943576,
                0.1998349299831434,
                0.030320727218958128,
                0.1579750773890195,
                0.08619267860012321,
                0.24567547300930787,
                -0.028216843233547922,
                0.04526652889566401,
                0.0005715171599294511,
                0.1058733011415082,
                -0.015810798904718017,
                0.07358050185871408,
                0.02093044655089418,
                0.14214606048249748,
                -0.02251084142252376,
                0.05892622521005444,
                0.010253876104396103,
                0.12351210721025543,
                -0.008116691547285776,
                0.0892294819929819,
                0.03260130214151575,
                0.16177533361882046,
                0.04036634871653683,
                0.174465623616189,
                0.09946242503773152,
                0.2653811812436677,
                0.06792620012134391,
                0.21793390647619804,
                0.1349753810091875,
                0.3168085976100379,
                0.053649242340641064,
                0.1957024551776561,
                0.11672178155928822,
                0.29059729213545576,
                0.08319724818561415,
                0.24116010265727736,
                0.15422329902364545,
                0.3440152723221248,
                -0.040577262652145805,
                -0.021568459439230143,
                -0.039025950493598485,
                0.011800100763533888,
                -0.041789697067181185,
                -0.006873492395300893,
                -0.032285708705307316,
                0.034453426411315984,
                -0.04168049057992997,
                -0.01471824276907096,
                -0.03615291887624188,
                0.022629220142109094,
                -0.04090486140160574,
                0.001965911412867607,
                -0.027424249759254175,
                0.04727288881118905,
                -0.02389795322152303,
                0.05572578731763691,
                0.00796069317484347,
                0.11940234708333942,
                -0.00995674614748049,
                0.08557469660722707,
                0.029854694924527095,
                0.15720986107300508,
                -0.017424365815164333,
                0.07015296172373627,
                0.018410595374253096,
                0.13780854325771882,
                -0.001495071512054188,
                0.10199111369302057,
                0.042293064041329924,
                0.17760647176335503,
                -0.0394568753415576,
                0.009859315570636499,
                -0.02275192551032166,
                0.05838180196584527,
                -0.033092500976239246,
                0.03213121970180912,
                -0.008434826741220345,
                0.08861217671328099,
                -0.03677170089463173,
                0.020497994780703414,
                -0.016090469412150293,
                0.07299943789640974,
                -0.02841925387702495,
                0.04475911106180266,
                0.00021507372107056709,
                0.10522018865355491,
                0.006099724409995783,
                0.11603122605454264,
                0.05311215103930158,
                0.19486203114415496,
                0.02761780050881657,
                0.1534572209614079,
                0.08258311415702359,
                0.2402467869063088,
                0.016361741554351647,
                0.13424693450664038,
                0.06735052715421481,
                0.21705683744801588,
                0.039867924976869744,
                0.17366220814081806,
                0.09880998526045363,
                0.2644320517502533,
                -0.04182187718753378,
                -0.007659397269019032,
                -0.03269375200573702,
                0.033286109181171725,
                -0.03924590942920853,
                0.010824030583865345,
                -0.022165086702782104,
                0.05972794888518886,
                -0.041030904863938296,
                0.0010850469761935894,
                -0.0279265104634109,
                0.046009481761378486,
                -0.03646686967252017,
                0.021557673783314725,
                -0.015409410003779218,
                0.07444168029116806,
                -0.010703977771955172,
                0.08407361378817461,
                0.028731546733944444,
                0.15532727317319467,
                0.007025658500739544,
                0.11771105505481495,
                0.05441402109498499,
                0.19692339445859164,
                -0.0023361779810335843,
                0.10039504997391253,
                0.04107568202720772,
                0.17562776778949118,
                0.01738155487831232,
                0.13602175125432475,
                0.06874663665147192,
                0.21921432491318427,
                -0.0334822418465713,
                0.030987700541223934,
                -0.009200452642785715,
                0.08708720367596297,
                -0.023329454892167353,
                0.05704809796847817,
                0.008905091092404999,
                0.12110613600246112,
                -0.028902862630134453,
                0.04352062288017642,
                -0.000644776583663299,
                0.10359911387984165,
                -0.016761996424783793,
                0.07157024703250993,
                0.019449222102552437,
                0.13960844077944926,
                0.026513201445599058,
                0.15159867843185137,
                0.08110255730910489,
                0.2380066784082515,
                0.051819729546480266,
                0.19281325019057666,
                0.1143620268772928,
                0.2871800973766484,
                0.03866944168649062,
                0.1717086704112612,
                0.09723518274769498,
                0.2620958104195548,
                0.06596408922757786,
                0.21491254099030194,
                0.13248316340915584,
                0.3132597120092842,
                -0.033135208776393844,
                0.03200399565751066,
                -0.008518810142313163,
                0.08843822632580615,
                -0.022815120521768234,
                0.058231745503561534,
                0.009754052519330763,
                0.12262456042955577,
                -0.028472179515669688,
                0.04462059161677392,
                0.00012052378258039079,
                0.10503383383759114,
                -0.01616400909098746,
                0.0728375790400695,
                0.020381848280887103,
                0.1412105773331432,
                0.027497096301602436,
                0.1532515089364121,
                0.08242093510325742,
                0.2399939631277041,
                0.05297087163328961,
                0.19463330563125847,
                0.11584763282185301,
                0.28933461968404656,
                0.03973696184623796,
                0.1734451130889595,
                0.09863717531376,
                0.26416671264642466,
                0.06719885036058383,
                0.21681621027962944,
                0.13405238183460877,
                0.31549785746613784,
                -0.010038347751685628,
                0.08540836742940046,
                0.029731735325247553,
                0.156996630075456,
                0.007858568979928747,
                0.11921310356690522,
                0.055581489418124415,
                0.19876007723685785,
                -0.001586907190045515,
                0.10181344960856528,
                0.04215951003405539,
                0.17738078519611788,
                0.0182981044590012,
                0.13760745202367936,
                0.06999774668746518,
                0.22113467842618056,
                0.0794713767574849,
                0.23553372310329412,
                0.14954906734109696,
                0.3374305531826647,
                0.11252205320001263,
                0.2844926670090535,
                0.19055277326758113,
                0.39434852785892216,
                0.09549968716103686,
                0.2595158911765468,
                0.16955380396491687,
                0.36539195008246783,
                0.13053850056929983,
                0.31046417531419507,
                0.21254605045322483,
                0.42430046073465455,
                -0.023391590440114962,
                0.0569013491259835,
                0.00880164305361871,
                0.12091257738568495,
                -0.009283090938150334,
                0.08691758360875572,
                0.030862945680798608,
                0.15888745675032956,
                -0.016834356852077702,
                0.07141218411312746,
                0.019335194667862043,
                0.13940245324037537,
                -0.0007377694960998232,
                0.1034176698335952,
                0.04338496880390837,
                0.17936775964552049,
                0.051679361009964724,
                0.19258770787119356,
                0.1141801121469834,
                0.28690732541520947,
                0.08094158080899631,
                0.23775806656556964,
                0.1513953051225218,
                0.340036626666658,
                0.06581344611245318,
                0.21467558835356304,
                0.13229059631307732,
                0.3129743916144791,
                0.09706379029595012,
                0.26183526672206503,
                0.17149431328092246,
                0.36809420429584516,
                0.006924538640537211,
                0.11752507611324668,
                0.05427148912113714,
                0.19669041303752527,
                0.028609880132572287,
                0.1551183324719565,
                0.08390970772833238,
                0.24224245208000642,
                0.017270189596299987,
                0.13582441442280235,
                0.06859349310395503,
                0.2189688591214537,
                0.040943634448649145,
                0.17540695347849672,
                0.10022020670281191,
                0.26651136464021813,
                0.11087319574942921,
                0.28208961303182073,
                0.1885278559877862,
                0.39156370792609874,
                0.147712342560066,
                0.3348371669092767,
                0.23332009410767873,
                0.4522703863053291,
                0.12879573797148508,
                0.3079660807312485,
                0.21042685434569797,
                0.4214194503206533,
                0.16762303570858944,
                0.3627029967778189,
                0.2572076509763937,
                0.4841166906012859,
                -0.04103748060904009,
                0.0010364755079517996,
                -0.027953642072742847,
                0.04593782611069588,
                -0.03648366037095529,
                0.021497813284847088,
                -0.015447103522677901,
                0.0743576283251745,
                -0.03925758284635062,
                0.010769871925690124,
                -0.022197465701994625,
                0.05965017616230688,
                -0.032715691474855875,
                0.03322042031191438,
                -0.007702484317548019,
                0.09006035283503787,
                -0.0023816871102518705,
                0.1003073292930506,
                0.04100953239010991,
                0.17551678520013003,
                0.017325794291586677,
                0.13592265849785834,
                0.06866986533003101,
                0.2190908396925313,
                0.0069750349018065285,
                0.11761770711574322,
                0.05434259563503132,
                0.1968062430934529,
                0.028670614761210057,
                0.15522230616001187,
                0.08399141468647757,
                0.24237074722722673,
                -0.028928861522070637,
                0.04345253757951927,
                -0.000691365047318968,
                0.10350786414804952,
                -0.01679822421497272,
                0.07149083548610517,
                0.019392046149109467,
                0.13950474588152312,
                -0.02336055770139734,
                0.05697440759733318,
                0.008853243175964887,
                0.12100874550026477,
                -0.009241838357737097,
                0.087001942969389,
                0.030925116086421428,
                0.15899603652462557,
                0.038604279664442624,
                0.17160113723730652,
                0.09714931205293685,
                0.2619649006310648,
                0.06588864457443273,
                0.21479358129655002,
                0.13238662822116365,
                0.31311623351000856,
                0.051749438195128956,
                0.19270006326352201,
                0.11427085968243961,
                0.2870429864998412,
                0.08102192350153702,
                0.237881815054068,
                0.1514966918775385,
                0.3401848148884933,
                -0.036787980799663604,
                0.020439678116908836,
                -0.01612731988157314,
                0.07291799907941109,
                -0.028445754631057925,
                0.04468948783681328,
                0.00016764962876257943,
                0.10512633017262589,
                -0.03311388113754229,
                0.032067307446199685,
                -0.008476930093579731,
                0.08852460951337647,
                -0.02278357907368181,
                0.058306340513772266,
                0.009806491001229588,
                0.12272333179142952,
                0.016306427283480626,
                0.13414933319116173,
                0.06727454044663277,
                0.21693591902460369,
                0.039802344738488295,
                0.17355320860442974,
                0.09872335654087484,
                0.264298598732595,
                0.027557364876832552,
                0.15335397967867065,
                0.08250184182636182,
                0.24011968408924522,
                0.05304139106910056,
                0.19474714318758912,
                0.11593915830007123,
                0.2894728356830443,
                -0.017460105466616836,
                0.0700750773992692,
                0.018354242836584992,
                0.13770744791701794,
                -0.001541050264594766,
                0.10190188128466938,
                0.04222610799338843,
                0.1774929036007336,
                -0.00999759445404126,
                0.08549119665680686,
                0.029793075287434745,
                0.15710261149760923,
                0.00790955030531319,
                0.11930725350494122,
                0.05565341366728347,
                0.19887849595772322,
                0.0645119201959022,
                0.21266279778859387,
                0.1306339004692107,
                0.31060378947354084,
                0.0955847455111478,
                0.25964383447978656,
                0.16965973517954536,
                0.365543805027264,
                0.07955130579419377,
                0.23565601500163838,
                0.14964970323768323,
                0.33757621055349873,
                0.11261226454447817,
                0.2846263804392478,
                0.19066407100175808,
                0.39450674662029195,
                -0.01687042766008548,
                0.07133413624391972,
                0.019278572661988506,
                0.13930134451351417,
                -0.0007840540904102348,
                0.10332834343040387,
                0.04331779072010448,
                0.17925426976419717,
                -0.009324259126221065,
                0.08683395350619784,
                0.030801078909324854,
                0.15878023824015536,
                0.008750211146753475,
                0.12081742873443886,
                0.056828781302980934,
                0.2007236113127876,
                0.06573842434044912,
                0.21455836931448186,
                0.13219493651086994,
                0.31283393180299734,
                0.0969785171391258,
                0.26170668500927735,
                0.1713880365316658,
                0.36794125591957727,
                0.0808614443120831,
                0.23763522467769027,
                0.15129437157456804,
                0.3398900048211142,
                0.11408966851510807,
                0.28677287502126847,
                0.1924760065849413,
                0.39698785931965763,
                0.017214689379863216,
                0.13572684427089754,
                0.0685174068878193,
                0.21884814676885783,
                0.04087790595381869,
                0.1752980670299153,
                0.10013353828135381,
                0.26637822173516573,
                0.028549276017233442,
                0.15501516193256087,
                0.08382836441010717,
                0.24211560597230636,
                0.05420060388608735,
                0.19657568327792296,
                0.11743300270727507,
                0.29163616728164626,
                0.1287010469316755,
                0.30782903063541034,
                0.2103114560165117,
                0.4212590436520377,
                0.16751806156319776,
                0.3625545290169111,
                0.2570815923440946,
                0.4839437287412178,
                0.14761252166217215,
                0.3346944671961646,
                0.23319940108191956,
                0.4521037850165246,
                0.18841769332534292,
                0.3914093418067366,
                0.2819581060028748,
                0.5167790500444526,
                -0.0016326846566943486,
                0.10172565295075037,
                0.042093166122208404,
                0.17726988916271402,
                0.01824210703679619,
                0.1375083590273254,
                0.06992083471078332,
                0.22101137761610906,
                0.0078076914121934,
                0.11911971613706614,
                0.05550989511082808,
                0.1986430599726417,
                0.02967058641505134,
                0.15689170483796078,
                0.0853260586292587,
                0.2443750148187956,
                0.09541485269197854,
                0.2593887828531033,
                0.1694482989896532,
                0.3652415452400194,
                0.13044339993183185,
                0.31032567789815646,
                0.21242990792967104,
                0.4241375350908786,
                0.11243209697785381,
                0.2843599229909693,
                0.19044198460955358,
                0.3941919452277435,
                0.14944878774597437,
                0.33728617278521755,
                0.23541214465131494,
                0.4550784895492259,
                0.039671715843228546,
                0.17333773779184536,
                0.09855131944938413,
                0.2640361480163475,
                0.06712336560275917,
                0.2166974965741159,
                0.1339559274708384,
                0.31535483435423084,
                0.0529005168567707,
                0.194520319254396,
                0.11575651207195449,
                0.28919790769778353,
                0.08234028727619344,
                0.23986939396449863,
                0.1531496403502829,
                0.3425071017084327,
                0.16559706130680601,
                0.35987917310250883,
                0.2547844649356327,
                0.480886490577077,
                0.20820255782894836,
                0.4183933003551116,
                0.30534314866758233,
                0.547359901957083,
                0.1864027733865345,
                0.38863891850861243,
                0.2795666791100846,
                0.5136255884997124,
                0.23099644182316945,
                0.4491424448496244,
                0.33211395030649704,
                0.5820896066660504,
                -0.036576494142928066,
                -0.03070505219251461,
                -0.041594223947672086,
                -0.003903604071186285,
                -0.04107350958801336,
                -0.019293822376131003,
                -0.038138262426602336,
                0.015466769665573176,
                -0.039322023812262456,
                -0.025496745647259508,
                -0.04036335883275443,
                0.0052839826984434485,
                -0.04183092318673557,
                -0.012096155077190222,
                -0.03491885693652364,
                0.02664493364138896,
                -0.03241561217269135,
                0.034070860925747355,
                -0.007125957658008343,
                0.0911803460087527,
                -0.02175896029521536,
                0.06063605247984045,
                0.011483786487219845,
                0.1257049244087264,
                -0.027584313392971488,
                0.04685613515113691,
                0.0016817895685151158,
                0.10794501793302179,
                -0.014939522601854454,
                0.07541074220792111,
                0.022280112884921505,
                0.144460244241175,
                -0.04171534499664432,
                -0.005536472295437356,
                -0.031579414017583525,
                0.03641891878801726,
                -0.03863553970947806,
                0.01345170338937004,
                -0.020546585149164465,
                0.06336634882025216,
                -0.04067246621623483,
                0.0034603012794007576,
                -0.02656011913949667,
                0.04939502580663215,
                -0.03560453619586721,
                0.024437862333471366,
                -0.013538733256833248,
                0.07833306563712471,
                -0.00867706340487929,
                0.08811722928796308,
                0.03176640217261017,
                0.16038098418331065,
                0.009556473308648157,
                0.12225951909988701,
                0.05795312191179101,
                0.20248281541096957,
                -5.7326882440669364e-05,
                0.10469104397871377,
                0.04436263052667939,
                0.18093427186374467,
                0.020164368443017694,
                0.14082278494460707,
                0.0725379571118225,
                0.22502679462735636,
                -0.04095073314623666,
                -0.019925593929310474,
                -0.03839163885459501,
                0.014452808341863426,
                -0.04165934068322331,
                -0.004725899154592428,
                -0.03114724887680291,
                0.03761169949155798,
                -0.04180205964727996,
                -0.012823057684769755,
                -0.03526656129413615,
                0.025534650041017216,
                -0.040522547472091004,
                0.004366009461691434,
                -0.026033623311372527,
                0.05068413400320231,
                -0.02235120943178324,
                0.05928914296729002,
                0.010515338124944542,
                0.12397573943140693,
                -0.007906120691229446,
                0.08964287257750021,
                0.03291356175327593,
                0.1622889304134998,
                -0.015625694385745122,
                0.07396868206139394,
                0.02121732193073711,
                0.14263471249032933,
                0.0008075424278633444,
                0.10631184431020295,
                0.04560413787790752,
                0.18293857250475737,
                -0.03887031298098614,
                0.012462335616111061,
                -0.02115752962655186,
                0.061994753271202484,
                -0.0320020884051525,
                0.0352390097112233,
                -0.0063362498851409375,
                0.09273074520404372,
                -0.035933226031732456,
                0.023353354926488636,
                -0.014244011784520163,
                0.07686513677344585,
                -0.027076870322208776,
                0.04811942876784683,
                0.0025658353598706886,
                0.10959175686977445,
                0.008606875474808602,
                0.12055517564839667,
                0.05662728714869739,
                0.20039613912201354,
                0.03062887281966597,
                0.15848604935609123,
                0.08660252117493457,
                0.2462866398071469,
                0.01912083945796019,
                0.13902327743795706,
                0.07111776879428101,
                0.2228437556850476,
                0.04313100733308748,
                0.17894362219445453,
                0.10308162557306652,
                0.27072497178921395,
                -0.038661463890298044,
                0.013340789858807609,
                -0.020613944132871376,
                0.06320824034116242,
                -0.031625885672957176,
                0.03628495787450658,
                -0.00562524854346941,
                0.0941118201332979,
                -0.035640703512379864,
                0.024315550754125323,
                -0.013616722750565429,
                0.07816241140606765,
                -0.026616980097176154,
                0.04924914051329921,
                0.0033605582725174457,
                0.11105664532544753,
                0.009452537597204599,
                0.1220701496082177,
                0.057807575723423786,
                0.2022458891319177,
                0.031641842784895534,
                0.16016839802456584,
                0.0879501430923484,
                0.248303821757782,
                0.0200501544038481,
                0.14062193567091552,
                0.07238172195079419,
                0.22477721759249625,
                0.0442276350093244,
                0.1807096679566384,
                0.10451292092631079,
                0.27282588242449346,
                -0.02182378304946878,
                0.060486052617943965,
                0.011377458321731706,
                0.12550756590754567,
                -0.00721135737333887,
                0.09100722273618021,
                0.03394306273880824,
                0.16398827298305718,
                -0.015014601780649698,
                0.07524930773778964,
                0.022163129285257918,
                0.14425029179327464,
                0.0015859814443791875,
                0.10775992790352523,
                0.04671733946354561,
                0.18472168927654925,
                0.05516776298788933,
                0.19809339531852882,
                0.1186766977857381,
                0.2934235492785448,
                0.08493399212759657,
                0.24376881061624786,
                0.15639629461836885,
                0.3470588181094235,
                0.06955383617312211,
                0.22043375523624664,
                0.13703935115341898,
                0.319743534261842,
                0.10130826411735185,
                0.2680986937430662,
                0.17674761095587266,
                0.3753695826150725,
                -0.03204744202035719,
                0.0351085814816613,
                -0.0064230693002387765,
                0.0925530444877435,
                -0.02122344330598811,
                0.061841241798412196,
                0.012354074711708957,
                0.12724517641242467,
                -0.027132472640738987,
                0.047977585286567405,
                0.002468374049464324,
                0.10940148738092276,
                -0.01432032324272021,
                0.07669968080907406,
                0.023234112969126832,
                0.14608429088337632,
                0.030505265507531475,
                0.15827685408443365,
                0.08643723793152851,
                0.246029775752554,
                0.0564830263419435,
                0.2001636740943301,
                0.12036831094409374,
                0.29587636187486244,
                0.042997107511258924,
                0.17872292132350576,
                0.1029056333573809,
                0.2704554253438931,
                0.07096305476709334,
                0.22259924418290833,
                0.13882535296842258,
                0.3222927666407124,
                -0.007990466180470826,
                0.08947323025865984,
                0.032787662627123064,
                0.16207183468849334,
                0.010410394470612974,
                0.12378292922727517,
                0.05914174098037186,
                0.20434114148157928,
                0.0007129306392799767,
                0.10613074587302604,
                0.04546756762512818,
                0.18270885550527938,
                0.02110195708397464,
                0.14242991111034647,
                0.07381026397254724,
                0.22696887291558138,
                0.08344008368906315,
                0.24151983315513,
                0.15452601203375876,
                0.34442727265143813,
                0.1169947953411005,
                0.29098386898340867,
                0.1960341524113392,
                0.4018512549514731,
                0.09972039481445301,
                0.2657544980279965,
                0.1747829328608449,
                0.37264160806211966,
                0.13526331903357525,
                0.3172080788044308,
                0.2182797539590579,
                0.43205639561181,
                -0.04180023935063432,
                -0.012863456261246844,
                -0.03528536976128675,
                0.02547093968083198,
                -0.040530968909705346,
                0.00431421772321116,
                -0.026063059144441916,
                0.05060788452050393,
                -0.0416626290318673,
                -0.004771934569677531,
                -0.03117133504479603,
                0.037541803072786206,
                -0.038405229704998926,
                0.014395128915062646,
                -0.01996046327182825,
                0.06466936183087525,
                -0.01566281623866407,
                0.07388914907842552,
                0.021159498456161184,
                0.14253170178338362,
                0.0007601482294045622,
                0.1062208410127471,
                0.045535633155530574,
                0.18282292225221103,
                -0.00794836504066527,
                0.08955766563409441,
                0.032850435091329226,
                0.16217968489083606,
                0.010462754844818482,
                0.12387880550615053,
                0.05921517343128548,
                0.2044615936685218,
                -0.0359508318684458,
                0.023293451316860083,
                -0.014282274199624833,
                0.07678184702430958,
                -0.027104728891654516,
                0.048048097727140616,
                0.002516922945073858,
                0.10949588209374914,
                -0.03202480765918541,
                0.03517345285565578,
                -0.00637980059076838,
                0.09264124717133913,
                -0.02119056528964189,
                0.06191751522601937,
                0.012407976193360067,
                0.12734593059549107,
                0.01906405614088911,
                0.13892393517636215,
                0.07104022158361646,
                0.2227208268863331,
                0.04306392344333362,
                0.17883275812062666,
                0.10299335725215691,
                0.2705893403118521,
                0.030566953619712976,
                0.15838100811239225,
                0.08651965157288345,
                0.24615744535339815,
                0.056554997882086074,
                0.20027931648989328,
                0.12046142040101869,
                0.29601669255977137,
                -0.040680351223731696,
                0.0034101622560525737,
                -0.026588644664503433,
                0.04932153997525988,
                -0.035622667360068284,
                0.02437631409037462,
                -0.013577896387853627,
                0.07824701880784325,
                -0.03864853520988359,
                0.01339591986214434,
                -0.020580393131457972,
                0.06328666635619869,
                -0.031602717896605674,
                0.036351473736917876,
                -0.005581075146763082,
                0.09420277563561545,
                -0.00010425781362372948,
                0.10460163231741192,
                0.044294968991454874,
                0.18082133022547753,
                0.02010715212951534,
                0.1407218782967365,
                0.0724595954743673,
                0.22490118295375794,
                0.00950441372616167,
                0.12216442150571051,
                0.05788014812558386,
                0.20236362407572234,
                0.031703989168241194,
                0.16027413348078934,
                0.0880333923188557,
                0.248434187159128,
                -0.027611662529612925,
                0.046786435870180824,
                0.0016337634854333204,
                0.10785188887390668,
                -0.014977133200840079,
                0.075329595130974,
                0.022221422254885072,
                0.14435450397260757,
                -0.0217914268503791,
                0.06056069013409208,
                0.011430465203587216,
                0.12560557433836433,
                -0.007168750806253912,
                0.0910932806540631,
                0.034006714923316146,
                0.1640988570791191,
                0.04184217723366109,
                0.17685611545790447,
                0.10139531093835337,
                0.2682302526654982,
                0.06963051532810653,
                0.2205535398355047,
                0.13713697474306807,
                0.3198874567745035,
                0.05523930702300541,
                0.19820748403099914,
                0.11876900091316574,
                0.29356121039764116,
                0.08501583491783014,
                0.24389441465878078,
                0.1564993147061729,
                0.3472091730926924,
                -0.02716014208480802,
                0.047907727585111935,
                0.0024200864848613855,
                0.10930834719744426,
                -0.014358230265569585,
                0.07661844343030676,
                0.02317520685869075,
                0.14597862972668257,
                -0.021256219609144898,
                0.06176575370915651,
                0.012300513564768552,
                0.12714585895347122,
                -0.006466142783524094,
                0.09246592703761504,
                0.03504424714643289,
                0.16580683931537732,
                0.042930482844313785,
                0.17861391176487385,
                0.1028183155233542,
                0.2703229651742813,
                0.07088616081574474,
                0.22247877670013605,
                0.13872736161233667,
                0.3221476839804548,
                0.056411280417511846,
                0.200048996478896,
                0.12027569349402946,
                0.29573767512547344,
                0.08635515730369482,
                0.24590338471176834,
                0.1581734026522051,
                0.34955317353164905,
                0.0006658310535414549,
                0.10604137694142174,
                0.045399821009917234,
                0.18259612864150887,
                0.021044608373811845,
                0.14232912768518408,
                0.07373187563055812,
                0.22684357862704754,
                0.010358182980171193,
                0.12368791322695351,
                0.05906870991955716,
                0.20422221484376607,
                0.03272513950208333,
                0.16196515160222724,
                0.08938939991978669,
                0.2504604007867147,
                0.09963409456166404,
                0.2656256628803585,
                0.1746758760746947,
                0.37248921239601684,
                0.13516672072206798,
                0.31706773368773566,
                0.21816198324123298,
                0.43189131377484247,
                0.11690336017087355,
                0.29084934048371736,
                0.19592177653154913,
                0.40169260159268994,
                0.15442421047698973,
                0.3442809757726527,
                0.24139657997473526,
                0.46308553173196065,
                -0.015051977900930132,
                0.07516970712305075,
                0.02210512274355817,
                0.144147373125025,
                0.0015383630492884009,
                0.10766893128014304,
                0.046648703862332046,
                0.18460622748610217,
                -0.007253842337118819,
                0.09092198393157873,
                0.03387977772153395,
                0.16387916632844418,
                0.01132467002738052,
                0.12541067995632738,
                0.06041198244428845,
                0.206328736894829,
                0.06947739599915338,
                0.2203148594761778,
                0.13694218828281274,
                0.31960113509063404,
                0.10122154134861382,
                0.2679683151131905,
                0.17663975543519095,
                0.37521453018990114,
                0.08485242440456177,
                0.2436442346901472,
                0.15629382293131933,
                0.3469101773403833,
                0.11858478059452296,
                0.2932872335270126,
                0.19798006906688692,
                0.4045143759301427,
                0.01999330761776726,
                0.14052276607322656,
                0.07230420722002041,
                0.22465464587681744,
                0.0441605300956217,
                0.18059906322689206,
                0.10442474964791039,
                0.27269071682790214,
                0.03157987995611574,
                0.16006357140251354,
                0.08786733686915006,
                0.2481750374035892,
                0.0577352908024357,
                0.2021293733310081,
                0.12197652783169942,
                0.29820186544364835,
                0.1334006342246303,
                0.3145463838640402,
                0.21601943768870413,
                0.4289872620739763,
                0.17272175617735064,
                0.36977709585885754,
                0.26329410536862646,
                0.4921781012672858,
                0.1525641441834622,
                0.3416643765204592,
                0.23915961385865347,
                0.4600850136401696,
                0.1938735049665692,
                0.39888467565800323,
                0.2884229964881442,
                0.5252667082433395,
                -0.03264992732457899,
                0.033404086662491846,
                -0.007576450801864854,
                0.09029712785264497,
                -0.02210135528003509,
                0.059861080344716856,
                0.010925169402469069,
                0.12471340462676503,
                -0.027872666636546674,
                0.04613526750460222,
                0.001177238142928197,
                0.10700765638058041,
                -0.01533596390944497,
                0.07458165354692943,
                0.02166742183160419,
                0.14341455046453827,
                0.02885303668444813,
                0.15552220954374557,
                0.08423395194532081,
                0.2427233798877839,
                0.054555300900076854,
                0.19713320869894158,
                0.11788938906570588,
                0.2922939145037471,
                0.04120713765558603,
                0.17583037934341006,
                0.10056453955745513,
                0.26701101956946355,
                0.06889755775764313,
                0.21943082796855623,
                0.13620858131904134,
                0.3185722445581014,
                -0.009117754783638405,
                0.0872437478340929,
                0.03110940674112947,
                0.15929077509135975,
                0.00900764892186034,
                0.12127770775681425,
                0.057187909943200575,
                0.20128413325471195,
                -0.0005520804766156815,
                0.10376340559671723,
                0.04365153297918047,
                0.17978983612005373,
                0.019561463754451114,
                0.13978678367553926,
                0.07171861748509802,
                0.22377384536573672,
                0.081262692683175,
                0.2382397669456768,
                0.1517974551895695,
                0.3405952621715097,
                0.11454185864579172,
                0.2874278907130088,
                0.1930298895365284,
                0.3977430806911504,
                0.09740523955739445,
                0.2623364900927502,
                0.17191653445045563,
                0.36867153285224497,
                0.1326725822851512,
                0.31351410016173187,
                0.21513760229382084,
                0.4278100865527533,
                -0.02268865820316224,
                0.05851908049479653,
                0.00996165377728279,
                0.1229890966395096,
                -0.00835167316005758,
                0.08876454894750278,
                0.0322517098896434,
                0.16119390299955372,
                -0.016017191949160264,
                0.07314449579471329,
                0.020609558745716725,
                0.14159388603591105,
                0.0003079280082760313,
                0.10537936881578927,
                0.04488818656244039,
                0.18178932590230795,
                0.05325298613388447,
                0.19507607770265806,
                0.11621081178038037,
                0.28985438621475623,
                0.08274369529416971,
                0.2404756277172346,
                0.15365473882628972,
                0.3432135485769452,
                0.06750130726457737,
                0.2172785186251161,
                0.13443564104544198,
                0.3160363344655902,
                0.09898018206091518,
                0.2646675358357604,
                0.17386818647042368,
                0.3713862089148183,
                0.008062801314320458,
                0.11957811325455041,
                0.05586682956692377,
                0.19920219087928542,
                0.02997663089450705,
                0.15740058289528192,
                0.0857337925888496,
                0.24498412461179167,
                0.018522686935645075,
                0.1379920222590143,
                0.07030318309479829,
                0.22159553507832905,
                0.04242466403209862,
                0.17780392502303927,
                0.10215873839951652,
                0.2693681388486058,
                0.11288220756627072,
                0.285013334700593,
                0.19099393650376012,
                0.39494606828276135,
                0.14994984373735454,
                0.3379900566625188,
                0.23601489707575524,
                0.4558825729195404,
                0.1309189865422194,
                0.3110043519483353,
                0.21300727487759746,
                0.4249166760283758,
                0.1699748119869925,
                0.36597058069695354,
                0.26001688544279566,
                0.487843940319313,
                0.008904704551401488,
                0.12108974054529269,
                0.05704351651423934,
                0.20104894687886926,
                0.030985908390820327,
                0.1590797490115039,
                0.08707792814546537,
                0.24699852551914686,
                0.019448273151279002,
                0.139587412828169,
                0.07156358920406898,
                0.2235261064058394,
                0.043517641607033856,
                0.17956687945079935,
                0.10358661418468428,
                0.2714663840835416,
                0.11436086203917183,
                0.2871614215833376,
                0.19280726557161587,
                0.39742902793254886,
                0.15159582708850533,
                0.34030556357650166,
                0.23799559266529868,
                0.4585330219762287,
                0.13248130359734644,
                0.31323614500653607,
                0.21490428435776687,
                0.42748337554981863,
                0.17170446584378124,
                0.36836980964286026,
                0.2620812733345931,
                0.4905781490706528,
                0.05441344192216747,
                0.196906136496316,
                0.11770600910806987,
                0.29201945813316754,
                0.08407150884459923,
                0.24247317213265743,
                0.15531734991287865,
                0.3455461938460995,
                0.06874543892995282,
                0.21919231524241145,
                0.1360145412569677,
                0.31828518708049514,
                0.10039168400017785,
                0.26674883851961706,
                0.17561451691911817,
                0.373802659291791,
                0.18874724317788516,
                0.39185592363256105,
                0.2823475889557183,
                0.5172780088785855,
                0.23355915378569272,
                0.4525772635569232,
                0.335112971841249,
                0.5859593748987889,
                0.2106561516227729,
                0.42171923614058704,
                0.30823312775114375,
                0.5511210306092212,
                0.2574562839948401,
                0.4844301392282556,
                0.36298720506347015,
                0.6217932246032202,
                0.029854250152342946,
                0.1571930927345634,
                0.08556993113473875,
                0.24472933709210187,
                0.05572388192701263,
                0.1989716056617334,
                0.11939280098757514,
                0.29446748238567577,
                0.042292031325479186,
                0.17758501385942943,
                0.10198423054394505,
                0.26910077556016754,
                0.07014983379248206,
                0.22135299899550992,
                0.1377957238104151,
                0.320829637931904,
                0.14974915995521937,
                0.337703744865157,
                0.2357725198245415,
                0.4555485648412584,
                0.19077259108061323,
                0.3946364736028932,
                0.2847493653520461,
                0.5204412298932483,
                0.16976383177759485,
                0.3656727568926884,
                0.25976379405671146,
                0.48749724219766866,
                0.21277547169393757,
                0.4245950278439261,
                0.31072931704945417,
                0.554380710285402,
                0.0825823023252002,
                0.240228900488716,
                0.1534517759954777,
                0.3429193417571511,
                0.11602881315636658,
                0.2895844786309014,
                0.1948516020310827,
                0.4002346932039653,
                0.09880851920325472,
                0.2644093464095122,
                0.17365454767861443,
                0.3710793734961362,
                0.13424321701713715,
                0.3157544290039793,
                0.21704302139472958,
                0.43038548224097817,
                0.2313551670251184,
                0.4496180193973377,
                0.33253253138001315,
                0.5826174246532402,
                0.2799555720701541,
                0.5141279964988388,
                0.3890864720962336,
                0.6550875231500237,
                0.2551583192250591,
                0.4813756450362503,
                0.3603123446301616,
                0.6183548061674211,
                0.30574696038712623,
                0.5478752076303272,
                0.4188549981141976,
                0.692815758955514,
                -0.01605387894497491,
                0.07306557465331599,
                0.020552236594898327,
                0.14149164173950946,
                0.0002609963938531336,
                0.10528904913799639,
                0.044820232916332615,
                0.18167453586397858,
                -0.008393470165522195,
                0.08867998835811518,
                0.032189108051111366,
                0.1610854694126716,
                0.009909551074454688,
                0.12289288635275801,
                0.0584456910411135,
                0.20325901996247364,
                0.06742566047447142,
                0.2171604428067493,
                0.13433928492959585,
                0.3158947682390715,
                0.09889425938448358,
                0.26453798367207515,
                0.17376114432096845,
                0.37123199586684663,
                0.08266292431496754,
                0.24035187500082808,
                0.15355307720798195,
                0.34306574397459777,
                0.11611969801844632,
                0.2897189001744116,
                0.19496356811322835,
                0.40039370477898917,
                0.018466567143484096,
                0.13789358810860186,
                0.07022639967660034,
                0.2214737027606737,
                0.04235828829463819,
                0.17769405773893793,
                0.10207130052403722,
                0.2692337145564274,
                0.029915396156556945,
                0.1572964927254385,
                0.08565171872914769,
                0.24485608061456476,
                0.05579527489609359,
                0.1990864135059589,
                0.11948522590888043,
                0.2946067844523679,
                0.1308236629874707,
                0.31086645023797255,
                0.2128911790687335,
                0.4247551744402821,
                0.1698691839905554,
                0.36582115081530764,
                0.2598900634096568,
                0.4876697284485003,
                0.14984938244303514,
                0.33784645286834125,
                0.23589347639630448,
                0.45571480195219083,
                0.19088310096252092,
                0.39479067642985655,
                0.28488102295053064,
                0.5206201357894409,
                -0.0005984755682225278,
                0.10367474056036108,
                0.043584490650637166,
                0.17967781257615745,
                0.01950481945768226,
                0.13968670388093268,
                0.07164093325706107,
                0.22364925404040753,
                0.008956141890929982,
                0.12118339552514347,
                0.05711558308844448,
                0.20116590976418597,
                0.03104758797186919,
                0.15918479548605713,
                0.08716062150556896,
                0.24712802477239584,
                0.09731977657862322,
                0.2622085278292092,
                0.17181033283533959,
                0.368520027599348,
                0.1325768302191643,
                0.31337463671668264,
                0.21502069562655635,
                0.4276459038245617,
                0.11445126524108273,
                0.287294239496937,
                0.1929183732732842,
                0.397585322099107,
                0.1516965043468262,
                0.3404498513408978,
                0.23811738223835818,
                0.4587019541374141,
                0.04114126961247138,
                0.17572214391420587,
                0.10047798719203517,
                0.2668793420061468,
                0.06882142487550762,
                0.2193111388766401,
                0.13611135978496786,
                0.31842794867358926,
                0.05448431382791528,
                0.1970193073493981,
                0.11779753926669899,
                0.29215601245112655,
                0.08415263459214492,
                0.24259776935132152,
                0.15541953009298498,
                0.34569533103817096,
                0.16793737297696265,
                0.3631342695028311,
                0.25758188000264626,
                0.4846002713285892,
                0.21077137552306574,
                0.42187758698620414,
                0.30836930559160436,
                0.5513035338538389,
                0.18885732997100346,
                0.3920085753590625,
                0.28247844372413966,
                0.5174542468747938,
                0.2336795434641691,
                0.45274143723377136,
                0.33525454894530926,
                0.5861483146244788,
                0.04222585164881327,
                0.1774766285630358,
                0.10189742531059685,
                0.26896909536551616,
                0.07007341313021744,
                0.2212332281249418,
                0.13769829537939415,
                0.3206854296221511,
                0.05565259376566369,
                0.19885758710692253,
                0.1193007199237834,
                0.2943296214224188,
                0.08548834207518748,
                0.24460368296830012,
                0.15709023351938822,
                0.3480367008251657,
                0.16965867769509874,
                0.36552519793041205,
                0.2596379380581103,
                0.4873262188952986,
                0.21266004426378127,
                0.42443600440420926,
                0.310592782220515,
                0.5541970566940619,
                0.19066231378681592,
                0.3944832433849783,
                0.28461820716108077,
                0.5202639761897512,
                0.23565190345282966,
                0.4553836143334352,
                0.3375617470724933,
                0.5891256432628029,
                0.09872290195281852,
                0.2642814411379918,
                0.17354827530612,
                0.3709280972197758,
                0.13414734690723926,
                0.315615103013819,
                0.21692610231539727,
                0.43022163106975,
                0.11593808221152226,
                0.28945092325593813,
                0.19474004280076834,
                0.4000772134963231,
                0.15335072936974314,
                0.34277411275990544,
                0.24010653668902773,
                0.4613615317975718,
                0.2550334734871147,
                0.481208243102486,
                0.3601667329533935,
                0.6181638293296403,
                0.3056118121989869,
                0.5476962888459849,
                0.4186986668692557,
                0.6926120878203272,
                0.2798255892968472,
                0.513954897850076,
                0.38893553858538954,
                0.654890284634105,
                0.3323921775174319,
                0.5824325504326062,
                0.44945620263813524,
                0.7313294227399438,
                0.068669549400869,
                0.2190741832000896,
                0.13591801354209757,
                0.3181437242402074,
                0.10030554862535575,
                0.26661930440768067,
                0.17550735532878425,
                0.3736486460233108,
                0.08399050876436633,
                0.24234939894780086,
                0.15521554139227245,
                0.34539853944426435,
                0.11761470181508153,
                0.29188403142946684,
                0.1967935376921227,
                0.4028942253363301,
                0.21054117453829496,
                0.42156178282547596,
                0.30809741889278486,
                0.5509400598256416,
                0.25733102008822595,
                0.484261196325928,
                0.3628407980826467,
                0.6215995926032454,
                0.23343904711627947,
                0.4524141267948889,
                0.334971951508066,
                0.5857721586139719,
                0.2822171282795013,
                0.5171031252624555,
                0.39170404295114214,
                0.6584225451465643,
                0.13238593381098535,
                0.3130984330769083,
                0.21478823820590648,
                0.4273222481013085,
                0.1715988340306509,
                0.3682206561919845,
                0.26195456549093654,
                0.4904044201070159,
                0.1514953393876858,
                0.3401621915057298,
                0.23787425252674377,
                0.4583656781499108,
                0.1926964515681855,
                0.39727395998247494,
                0.28702926043603727,
                0.5234386563286698,
                0.3031356319015046,
                0.5444646423152292,
                0.4158459406968036,
                0.6889975940580076,
                0.35750247950447156,
                0.614741347066631,
                0.4781664505856698,
                0.7672346105444824,
                0.32982199846269633,
                0.5791056208785579,
                0.44650902962415173,
                0.7276184216750917,
                0.38617711084926065,
                0.6513719557203692,
                0.5108182889130329,
                0.807846345016345,
                -0.022636776602260763,
                -0.04028797370890965,
                -0.039415597678622495,
                -0.02524880615264194,
                -0.0330142978855383,
                -0.03475777531099258,
                -0.04184033571943482,
                -0.011759933823828039,
                -0.02832255139961367,
                -0.03802015781519814,
                -0.04112506592026239,
                -0.01900193639598958,
                -0.0367119920932426,
                -0.030500703211006376,
                -0.041561333600100815,
                -0.003522625941624183,
                -0.04088772034659196,
                0.0020760018898531053,
                -0.027359209869666595,
                0.04742314109635442,
                -0.03611159990629673,
                0.02276013015383943,
                -0.014630194021634808,
                0.07606618308041654,
                -0.038996679298364374,
                0.011920769723898992,
                -0.021491810171337323,
                0.06124707869968359,
                -0.03223245620947338,
                0.0345942081590842,
                -0.006774285950396074,
                0.09188062872720978,
                -0.03898151870325794,
                -0.026325336040774795,
                -0.04060670291848282,
                0.003867744282299787,
                -0.04178223082357726,
                -0.01321820648005284,
                -0.03545458674940203,
                0.02493365663280709,
                -0.04087889073750333,
                -0.020269060372279806,
                -0.0385277478676713,
                0.013903126249056529,
                -0.04169151399762563,
                -0.005172650381746167,
                -0.031387145090573935,
                0.0369595089251464,
                -0.028355161716800345,
                0.044916309449169405,
                0.0003271260586548602,
                0.10541767843108472,
                -0.016002172930551298,
                0.07317751634456325,
                0.020633099442378903,
                0.14163795204824564,
                -0.02267569107289275,
                0.058549608033375146,
                0.00998299795340976,
                0.12303022129129577,
                -0.008334580331798463,
                0.08880016035920547,
                0.032277506992786704,
                0.16124104618765261,
                -0.03261395660487958,
                -0.03511148070564533,
                -0.04181596493108914,
                -0.012495373482091275,
                -0.03920307545715484,
                -0.025792824394653063,
                -0.04045228077635701,
                0.004782008430316866,
                -0.03640553092348441,
                -0.030949438586272904,
                -0.04163122380877162,
                -0.004354252661580134,
                -0.04100656574056812,
                -0.019641514646968738,
                -0.03827906185927551,
                0.014913582786663738,
                -0.03642630493768174,
                0.02169126249715932,
                -0.015320917685749431,
                0.0746154936814087,
                -0.027861755571807416,
                0.04616391931160147,
                0.0011965689238055968,
                0.107047137957847,
                -0.03264105154288018,
                0.03343029049609394,
                -0.007559285719936004,
                0.09033372732352522,
                -0.022088390565016554,
                0.059892274421622295,
                0.010946722214168978,
                0.12475590057156215,
                -0.04173944774057193,
                -0.01392951836363251,
                -0.03578779338705884,
                0.023840571588117608,
                -0.04075174727952125,
                0.0029661013319340155,
                -0.02684723383636499,
                0.04869503677968939,
                -0.04174261491061682,
                -0.005979001048323014,
                -0.03181461906898694,
                0.03577022555773686,
                -0.03876681938490078,
                0.012905913258017416,
                -0.020885562717561302,
                0.06261517924410055,
                -0.016674242673500338,
                0.07175119695017217,
                0.01958497247091437,
                0.13982975264659098,
                -0.0005328024236210026,
                0.10380097700547407,
                0.04367945018991345,
                0.1798386842012823,
                -0.009100549103724527,
                0.08727877731426147,
                0.031135092730298172,
                0.15933661867843507,
                0.00902902482331855,
                0.12131792249881283,
                0.05721812181551577,
                0.2013361251993821,
                -0.04177803189560294,
                -0.013298728446974535,
                -0.03549172831733885,
                0.02480619370612413,
                -0.04062301429168615,
                0.0037642919467009697,
                -0.026383817779213364,
                0.0498281251725942,
                -0.041697542113684004,
                -0.005264514385343912,
                -0.03143488111665243,
                0.03681957621882721,
                -0.03855442247140859,
                0.013787815525854822,
                -0.020338462837573863,
                0.0638320150533666,
                -0.01607595444370208,
                0.07301854856020894,
                0.020517791286367923,
                0.14143167099236267,
                0.00023275280615295895,
                0.10523560575747028,
                0.0447795331432787,
                0.1816079085591728,
                -0.008418626699243413,
                0.08862976618670874,
                0.03215154329777046,
                0.1610221877300652,
                0.009878212024811385,
                0.12283619424331164,
                0.05840183828446369,
                0.20318900995975053,
                -0.0361462875625821,
                0.022640523371845547,
                -0.014706298018635195,
                0.07589946641144808,
                -0.02741443993188114,
                0.04728052529972767,
                0.0019785023469971958,
                0.10849850302480092,
                -0.03227738550775428,
                0.0344632214718491,
                -0.00686101063880225,
                0.09170139277473836,
                -0.021557423879699486,
                0.06109256082923801,
                0.011812317403272746,
                0.1262909726446387,
                0.018433219948475937,
                0.13783564915628765,
                0.07018081686047588,
                0.22140313426240593,
                0.042318828797537934,
                0.17762984774578522,
                0.10201956426011974,
                0.2691566809769322,
                0.02987899299312958,
                0.15723542799125007,
                0.08560306414971301,
                0.2447822940921877,
                0.055752756311087635,
                0.19901903638777285,
                0.11943039565032972,
                0.2945264723937682,
                -0.040766972680238746,
                0.0028660645352496733,
                -0.026903833348227782,
                0.04854797886680481,
                -0.035823542987745725,
                0.02371756725336191,
                -0.014007483580090112,
                0.07735845170512441,
                -0.03879227805184061,
                0.012794516567166235,
                -0.020952768727405882,
                0.06245562787643854,
                -0.031860741031222765,
                0.03563534206906232,
                -0.0060679019403016825,
                0.09325662533733543,
                -0.0006262433206188967,
                0.10362219042151936,
                0.043544414577479866,
                0.1796124697320186,
                0.01947090870710286,
                0.13962780677531267,
                0.07159465042509501,
                0.2235773475741744,
                0.008925304235501698,
                0.12112768305488998,
                0.05707241000990152,
                0.2010973010389367,
                0.031010598545039944,
                0.15912268905213423,
                0.08711121378316293,
                0.2470527863163261,
                -0.0279159573018122,
                0.04602467349747589,
                0.001100900009180814,
                0.1068606848716376,
                -0.01539568433481059,
                0.07445319306892013,
                0.0215741638882507,
                0.14324830921166726,
                -0.022152844466374385,
                0.0597416265375969,
                0.010840416261130565,
                0.12455690021954086,
                -0.007644449453327226,
                0.09015949956373419,
                0.03330221985358187,
                0.16293508782955057,
                0.041102487458026506,
                0.1756589830527998,
                0.10042705332672143,
                0.26680372596873264,
                0.06877656672036316,
                0.21924178850563789,
                0.13605433138817857,
                0.31834597170111467,
                0.05444249244231473,
                0.19695306005830554,
                0.1177435616828006,
                0.2920772290492541,
                0.08410473974008946,
                0.24252529686120536,
                0.15535944140001962,
                0.34561013189997397,
                -0.03638865298459525,
                -0.0309746527310918,
                -0.041634931199195,
                -0.0044026553147284726,
                -0.04099991280875311,
                -0.01967806530615727,
                -0.038293359928208086,
                0.01485271761885937,
                -0.039191299047476445,
                -0.025823648301777257,
                -0.04046124877143207,
                0.00472745677499673,
                -0.04181446930592881,
                -0.012537779763241831,
                -0.03513119019777972,
                0.02597330070709692,
                -0.03266310096099461,
                0.0333659462644331,
                -0.007601998561679847,
                0.09024602340680905,
                -0.02212069821971288,
                0.05981651390487925,
                0.010893362193805855,
                0.12465563109887494,
                -0.027888921679473613,
                0.046093926886691707,
                0.0011485686817677544,
                0.10695323497271421,
                -0.015358403625092202,
                0.07453383329410986,
                0.021632458440301473,
                0.14335338726965188,
                -0.04174515748659372,
                -0.006023719844256583,
                -0.03183777740709955,
                0.03570224127944617,
                -0.03877959927553821,
                0.012849822369525385,
                -0.020919335677070723,
                0.06253468523766414,
                -0.040759396811295735,
                0.0029157557118071747,
                -0.02687566402336672,
                0.048620880619688354,
                -0.03580573891976286,
                0.02377860510695054,
                -0.013968716899406214,
                0.07744382962067288,
                -0.009142247256347281,
                0.08719463129716142,
                0.03107266626388145,
                0.15922900154491,
                0.008977038897856915,
                0.12122230738977101,
                0.05714500699892173,
                0.20121587806772567,
                -0.0005796313067178657,
                0.10371115711890198,
                0.04361171646463007,
                0.17972483650546678,
                0.01952779131105878,
                0.13972820908194436,
                0.07167261532968534,
                0.22370230271310937,
                -0.04087171573795726,
                -0.020304015217398285,
                -0.038541171260265544,
                0.013844946562178507,
                -0.041694569082154916,
                -0.00521895845353682,
                -0.03141117005632913,
                0.036888844193659405,
                -0.0417801595281393,
                -0.013258779080024631,
                -0.03547327583037055,
                0.024869317042383897,
                -0.040614918938976695,
                0.003815571141586604,
                -0.026354778967867042,
                0.04990370200477314,
                -0.022707543648896236,
                0.05847538842552736,
                0.009930451662278404,
                0.12293258843629144,
                -0.008376704835720573,
                0.08871449913963748,
                0.03221429401404894,
                0.16113081663238948,
                -0.01603914867817184,
                0.07309763624375056,
                0.020575256360063215,
                0.14153410491628482,
                0.0002798153336086743,
                0.10532610358683216,
                0.04484764158863381,
                0.18172289956750048,
                -0.0390089610316823,
                0.01186625678099715,
                -0.02152472934395421,
                0.06116925532665924,
                -0.03225498464162047,
                0.034528302104153814,
                -0.006817834946228824,
                0.0917902687889189,
                -0.03612899292389351,
                0.02269998024061246,
                -0.014668392280447041,
                0.07598217477072454,
                -0.027386909726774336,
                0.04735134784820443,
                0.0020270186260366585,
                0.10859371236707212,
                0.008032838269097859,
                0.1195237311256226,
                0.05582469839249569,
                0.19913532207587276,
                0.02994058458192545,
                0.15733999645002772,
                0.08568555584625127,
                0.2449108762965522,
                0.018489681261564188,
                0.13793454653266227,
                0.0702580029190656,
                0.22152548985770143,
                0.042385576682394586,
                0.1777402083484248,
                0.10210743513551318,
                0.2692916583723793,
                -0.038804892153242766,
                0.01273983606583493,
                -0.02098595998083712,
                0.06237778570248443,
                -0.031883577217208574,
                0.03556933730506321,
                -0.006111676285145871,
                0.09316633756503305,
                -0.03584125744865136,
                0.023657282824038436,
                -0.014045931936162671,
                0.07727446869561476,
                -0.026931824505009555,
                0.04847612548130829,
                0.0028168834353653758,
                0.11005356779238558,
                0.008873748219614043,
                0.12103385353186054,
                0.05700019655898091,
                0.20098013647787155,
                0.030948786120717185,
                0.1590174544013816,
                0.0870283596463758,
                0.2469230720212544,
                0.01941423662419891,
                0.13952833434617484,
                0.07151715252871933,
                0.2234539915641367,
                0.04347742565719776,
                0.17950134166400172,
                0.10353389636922722,
                0.271387555324995,
                -0.022184883833038408,
                0.05966743444606821,
                0.010787768215271039,
                0.12445946838701809,
                -0.007686723759332971,
                0.09007394708417742,
                0.033238964226249994,
                0.16282516263801794,
                -0.015432829761150605,
                0.07437337971392573,
                0.021516247221926577,
                0.14314471339046475,
                0.001053462123381352,
                0.10676926352628413,
                0.04595599668845551,
                0.18350099260838787,
                0.05437127282814166,
                0.1968394116973728,
                0.11765161864908656,
                0.29194013312457273,
                0.08402323363405244,
                0.24240019001851817,
                0.15525681596170943,
                0.34546042125195364,
                0.06870021672466586,
                0.2191224712887878,
                0.13595708377685028,
                0.31820265256000135,
                0.10034035350139218,
                0.266672696850148,
                0.17555089465800044,
                0.3737136176732607,
                -0.0322997042916111,
                0.034398797432762966,
                -0.006903920184687353,
                0.09161377018242821,
                -0.021589970098726992,
                0.061016795541595815,
                0.011758813597736941,
                0.12619088165044115,
                -0.02744186138693145,
                0.047210489203308344,
                0.0019303304779550508,
                0.10840472855876851,
                -0.014744002974561478,
                0.07581784291855533,
                0.02258160613634137,
                0.14497240543762308,
                0.029817627019550565,
                0.15713171519788832,
                0.08552100990243112,
                0.24465519215151715,
                0.05568111996415124,
                0.19890389286646437,
                0.11933768093460827,
                0.29438678930121664,
                0.042252340138084786,
                0.1775204796098072,
                0.10193221603969894,
                0.26902337224195527,
                0.07010399594430948,
                0.22128208343291228,
                0.13773748354296522,
                0.32074562130360035,
                -0.008460409494705135,
                0.08854577458241165,
                0.03208912959877833,
                0.16091491088983684,
                0.0098261846322531,
                0.12274082095792989,
                0.05832880152859423,
                0.2030692126498066,
                0.00018585948574099625,
                0.10514598260678226,
                0.04471184344972235,
                0.18149445453851443,
                0.02046059439432917,
                0.14133041710384736,
                0.07294008179413851,
                0.22563936220095235,
                0.08253473978182989,
                0.2401570033605996,
                0.15339208003231114,
                0.3428350228242433,
                0.11597518281532404,
                0.28950640773628683,
                0.19478582350950296,
                0.40014403284913014,
                0.09875792129461504,
                0.2643343704876319,
                0.173591813747767,
                0.3709918967197089,
                0.13418655478757846,
                0.31567324456868256,
                0.21697418927038714,
                0.43029161018386863,
                -0.04096214077524444,
                0.0015690843282867345,
                -0.02764981347961705,
                0.04669971916683099,
                -0.03629409930718485,
                0.02214498793821365,
                -0.01502893453322689,
                0.07523441892140402,
                -0.039125136524515915,
                0.011359746251798081,
                -0.021836477679551675,
                0.0604694939358491,
                -0.03246900409430472,
                0.03392493343497378,
                -0.007227109502449198,
                0.09099466768018331,
                -0.0018710657307184758,
                0.10127518999650552,
                0.04174863931512638,
                0.17671388045569025,
                0.017950638198536806,
                0.1370050630968634,
                0.06952330233135283,
                0.22040279893324172,
                0.007542764144191384,
                0.11864282308232159,
                0.05513885755544621,
                0.19806074701503945,
                0.02935258345538791,
                0.15636203608169397,
                0.08490205017516285,
                0.2437402117611067,
                -0.028635886138681114,
                0.044202768392048265,
