{
    "11": {
        "hyperparams": {
            "stocks": [
                "MMM",
                "NKE"
            ],
            "start": "2015-01-01",
            "end": "2025-01-01",
            "risk_aversion": 0.1,
            "n_qubits": 13,
            "budget": 5710,
            "log_encoding": true,
            "layers": 10,
            "prices_now": {
                "MMM": 128.4563446044922,
                "NKE": 75.28893280029297
            },
            "assets_to_qubits": {
                "MMM": [
                    0,
                    1,
                    2,
                    3,
                    4,
                    5
                ],
                "NKE": [
                    6,
                    7,
                    8,
                    9,
                    10,
                    11,
                    12
                ]
            },
            "optimizer": "CMAES",
            "lambda_budget": 0.001
        },
        "continuous_variables_solution": {
            "weights": {
                "MMM": 0.39543997475845544,
                "NKE": 0.6045600252415445
            },
            "allocation": {
                "MMM": 18,
                "NKE": 45
            },
            "value": -333773.0469426441,
            "left_overs": 9.783819123935245
        },
        "continuous_variables_solution_unconstrained": {
            "weights": {
                "MMM": 0.3892031098518122,
                "NKE": 0.6004744164072321
            },
            "allocation": {
                "MMM": 17,
                "NKE": 46
            },
            "value": -351224.01219533774,
            "left_overs": 62.95123118594347
        },
        "exact_solution": {
            "smallest_eigenvalues": [
                -0.01022012803225744
            ],
            "smallest_bitstrings": [
                "0010100100100"
            ],
            "first_excited_energy": -0.010214844570293301,
            "optimized_portfolio": [
                {
                    "MMM": 20,
                    "NKE": 18
                }
            ],
            "second_optimized_portfolio": [
                {
                    "MMM": 20,
                    "NKE": 17
                }
            ],
            "spectrum": [
                6.624475273886432e-17,
                0.026631687700328966,
                -0.006110757116515725,
                0.18608439725559864,
                -0.0047047392131244845,
                0.08274441612183121,
                0.0012830147280278948,
                0.35676887130631685,
                -0.002563629045298302,
                0.0498992367824327,
                -0.004000397742530473,
                0.26160850910113875,
                -0.006078263474480093,
                0.12733931421833333,
                0.01099805805956273,
                0.47465108310634685,
                -0.0013219836962961942,
                0.037195092987181544,
                -0.005382468959594949,
                0.2215758508323395,
                -0.005517937274698906,
                0.10342847379093072,
                0.0054990004226226265,
                0.4126679750514992,
                -0.0037032130762425855,
                0.06499421974069725,
                -0.0018286316526328666,
                0.3065466615585378,
                -0.006306900420741429,
                0.15478413247961645,
                0.01797319387250066,
                0.5431395793883638,
                -0.0006702340185918336,
                0.0316608717584141,
                -0.005820398994984929,
                0.20328468398829092,
                -0.005138578702357729,
                0.09270173924111193,
                0.0032421289094305833,
                0.3839837015723393,
                -0.0031480939739050957,
                0.05713168451257007,
                -0.00302227860768361,
                0.2834410729000252,
                -0.006239526753988372,
                0.14060021886481155,
                0.014288495741723977,
                0.5080552636614105,
                -0.00195387181225896,
                0.0432642758179666,
                -0.004781316184250933,
                0.24100209582432125,
                -0.005834300906673775,
                0.11496168100524319,
                0.00807641689631907,
                0.44287302658299366,
                -0.004224040730146383,
                0.07352033529945977,
                -0.00040023764997327454,
                0.33097304151456375,
                -0.006268302049954678,
                0.1699316846980144,
                0.02207850848191799,
                0.579958933527712,
                -0.0003373763232725417,
                0.029084985512325665,
                -0.005983081216020864,
                0.1945509081376424,
                -0.0049279717935544675,
                0.08762918273210747,
                0.0022267415313812506,
                0.37019577961746664,
                -0.002859255484169286,
                0.053438758164623956,
                -0.003537112798588744,
                0.2723686134478275,
                -0.006169911011948666,
                0.1338568949250663,
                0.012595606748773957,
                0.49114655309225475,
                -0.0016405313734678374,
                0.04016090907769433,
                -0.005103308438717182,
                0.23114429133488357,
                -0.005684560432368337,
                0.10909191714023374,
                0.006746181464944044,
                0.4275771602855858,
                -0.003968257283303136,
                0.06917220182903952,
                -0.0011450140816360473,
                0.31859173237432425,
                -0.006301637739258612,
                0.16223487956349303,
                0.019971592017833432,
                0.5613289103562871,
                -0.000998484567757053,
                0.034363003358105465,
                -0.005620837734551858,
                0.21229116592771113,
                -0.0053355793210055685,
                0.09796663466868318,
                0.004331941681359637,
                0.39813897039142865,
                -0.0034296099461414327,
                0.06098211879594584,
                -0.0024535764007951226,
                0.29483177462806154,
                -0.006285684031906954,
                0.14757428110757004,
                0.016079935907760107,
                0.5253839940844695,
                -0.002261693469387124,
                0.046509073152591424,
                -0.0044143964522582345,
                0.2511549284459001,
                -0.0059659550540046916,
                0.12104253743087916,
                0.009492694561013286,
                0.45856213018929814,
                -0.00446980582332593,
                0.07804294614671423,
                0.0004082394364572237,
                0.3436966991746666,
                -0.006205243659055307,
                0.17787976597826421,
                0.024297377159182995,
                0.5990366511983749,
                -0.007690659030119786,
                0.05328750206832118,
                -0.0017475610371482453,
                0.2527096675933901,
                -0.007183436429515466,
                0.1267104741081989,
                0.015047794897938232,
                0.4523320820413361,
                -0.007793938646760208,
                0.08459966182502889,
                0.004685519075713243,
                0.3418597986747719,
                -0.005397865435292724,
                0.1819082473317351,
                0.030714064108024505,
                0.5873283368423928,
                -0.007811612137007895,
                0.06772784865346057,
                0.0010548334072427448,
                0.29481065679199003,
                -0.006475285966744982,
                0.15252155032327663,
                0.022123084471317167,
                0.5165556783124459,
                -0.007601388099351521,
                0.10416756972690237,
                0.00929493527021446,
                0.39423591022754,
                -0.0038578299541701475,
                0.21519228769841275,
                0.04102826753097434,
                0.6650859690379398,
                -0.007766755817158848,
                0.060219723733875005,
                -0.00044105532429546785,
                0.27316476160607506,
                -0.006870243464358421,
                0.13918860971416358,
                0.01840839172168899,
                0.4836519342947543,
                -0.007722346221657388,
                0.0940295071129806,
                0.006857925838133312,
                0.3673577496180904,
                -0.0046920661812066625,
                0.1980424343722897,
                0.03564223442583238,
                0.6253062292063379,
                -0.007822034832654786,
                0.07584361719457171,
                0.00275757191971893,
                0.3176933671238682,
                -0.005988233977043051,
                0.1667481731056537,
                0.026216476711695497,
                0.5510964648697638,
                -0.007424302721520762,
                0.11504915843559825,
                0.0120175825355193,
                0.4225438628771647,
                -0.0028812583932406165,
                0.2334002528815295,
                0.04690033538963377,
                0.7067242755138607,
                -0.00773244775739391,
                0.05668357391964335,
                -0.0011169242330858146,
                0.2627912054787055,
                -0.007036449738686029,
                0.1328450862612502,
                0.01668533419421445,
                0.4677973087733013,
                -0.007763925396633106,
                0.0892282292536394,
                0.005739926973269267,
                0.35443931198887346,
                -0.005060186629978661,
                0.1898510005668606,
                0.0331226423187289,
                0.6060955621917808,
                -0.007821362107838898,
                0.07170775885068814,
                0.0018792199205537135,
                0.3060944993437186,
                -0.006243952253551144,
                0.15952068677200604,
                0.02412087058468894,
                0.533618084502522,
                -0.007520318762440963,
                0.10951318167368422,
                0.010619204628322181,
                0.4082080288012827,
                -0.0033882395856699703,
                0.22416131861196387,
                0.043901751520558724,
                0.6856692216491496,
                -0.007793267699193994,
                0.06389983542254693,
                0.0002821454000986074,
                0.28383600408768395,
                -0.00668360999598433,
                0.14574582047879575,
                0.020219959291565268,
                0.4999025188182069,
                -0.007668439561448559,
                0.09900782536474646,
                0.00804206143134498,
                0.3806212257247723,
                -0.004291850428264708,
                0.20648777081004227,
                0.038276278290701404,
                0.6449673441487415,
                -0.007813091776152982,
                0.08013953062172426,
                0.0036922121406960046,
                0.3296131512697065,
                -0.0057067005015904605,
                0.1742090083611597,
                0.028413117688622043,
                0.5689976026517636,
                -0.007312355391124599,
                0.12078005299942075,
                0.01349283777792726,
                0.4372497496426144,
                -0.002335009691088197,
                0.24291453559421333,
                0.05002768002464783,
                0.7282583599198318,
                -0.0073525534740677915,
                0.03385668789719515,
                -0.008383893766482211,
                0.21094529157304753,
                -0.009837484449794289,
                0.09753770389158133,
                0.0029741666704476708,
                0.39466157080265707,
                -0.008857198465806746,
                0.06062502087241256,
                -0.004458530075537752,
                0.2925857262006105,
                -0.00989023443998509,
                0.14682493541155728,
                0.015230884192924616,
                0.5203165345714472,
                -0.008154143287553891,
                0.046103277029587955,
                -0.006786256573574888,
                0.2493986434612599,
                -0.010013921009017547,
                0.12048619268213957,
                0.008408308848758608,
                0.4543362599634172,
                -0.009432732293432097,
                0.07767928382491462,
                -0.0012575387150506182,
                0.3408780930322727,
                -0.009380343606339289,
                0.17686839090004342,
                0.023642162681228894,
                0.5930310422888803,
                -0.007764411103207454,
                0.03971111583683572,
                -0.007667945423541954,
                0.22960291567562985,
                -0.009958395612120257,
                0.1086072626580613,
                0.005529642924809209,
                0.42373695011830703,
                -0.00916327478086477,
                0.06881894462229618,
                -0.0029766985381376914,
                0.3160699694646252,
                -0.00968950218996585,
                0.16136336282194902,
                0.01922486110771214,
                0.5558046612499002,
                -0.008519464838173759,
                0.05306400387486618,
                -0.005722268422407214,
                0.2703775809345925,
                -0.009994638648932781,
                0.13321246316585067,
                0.011633860039089927,
                0.48651174314526313,
                -0.00965971741326546,
                0.08724043928099219,
                0.000719076589207386,
                0.367058771309519,
                -0.008949768296241787,
                0.19338155724918554,
                0.028510052911579348,
                0.6320514888969723,
                -0.00756113999259757,
                0.03671857738767076,
                -0.00804563708142365,
                0.2201346249415797,
                -0.00990555922483284,
                0.10297365009507946,
                0.004212952216060544,
                0.4090119994720852,
                -0.009014482971926087,
                0.06464079601813873,
                -0.003746057240499902,
                0.3041653700973669,
                -0.009802644554791498,
                0.15397588528583028,
                0.01717662622018959,
                0.5378467694684749,
                -0.008340033064056998,
                0.049510607873028856,
                -0.00627811968294602,
                0.2597373570140037,
                -0.010014254520739051,
                0.12674100244374525,
                0.009976207963157848,
                0.47022367986412406,
                -0.00955193459949984,
                0.08237007462355662,
                -0.00030270579545479503,
                0.35379378583415366,
                -0.009181079789322475,
                0.18499632584285558,
                0.02601804536674917,
                0.612313484348581,
                -0.007962164791686729,
                0.042838073660210904,
                -0.007248832577971171,
                0.23935571839137432,
                -0.009994899497118128,
                0.1144432040963748,
                0.006927117111887227,
                0.43884286945782636,
                -0.009302925828248614,
                0.07316368315056952,
                -0.0021480217034213047,
                0.3283055249687228,
                -0.00954926718080609,
                0.16899247658592542,
                0.021378913220849075,
                0.5741971026823881,
                -0.008692013570611503,
                0.05676745847570283,
                -0.0051164935520105845,
                0.2813250928642854,
                -0.009953756253978372,
                0.13990546038938784,
                0.013384366416830223,
                0.5032071195484179,
                -0.009755209645272682,
                0.09229481728798779,
                0.001810463729047477,
                0.38067927314978856,
                -0.008684645937313289,
                0.20202941671012775,
                0.03112173270615784,
                0.6522521717258016,
                0.008658319875599643,
                0.09699452738608925,
                0.02466975792955505,
                0.3246468028033235,
                0.013529481548624494,
                0.1829325641012235,
                0.048974856425725063,
                0.5436491226662084,
                0.010598507034175126,
                0.13419327689124208,
                0.034602986647869746,
                0.42299972408889686,
                0.017970640319087437,
                0.2455588073869837,
                0.06921827489866662,
                0.6898549276416108,
                0.009528106338386464,
                0.114289065070471,
                0.02916217788021597,
                0.3712310283505148,
                0.015519904592320109,
                0.21235424408317127,
                0.05826414434481292,
                0.6133448077817255,
                0.011913036167622121,
                0.15697905473691004,
                0.041149887279098546,
                0.48033897074890286,
                0.02098229735454585,
                0.2828752403221302,
                0.08205204555482996,
                0.77362265739726,
                0.00907029840295414,
                0.10533202264155865,
                0.02680671818046804,
                0.34731442928596756,
                0.014472884461484802,
                0.197190547758602,
                0.05342426233494035,
                0.577672301765178,
                0.011221978345695572,
                0.14520841925522726,
                0.0377277614774212,
                0.4509483409453403,
                0.019399508071424324,
                0.2636819209435929,
                0.07538622280953312,
                0.7308033352727976,
                0.010035844806987404,
                0.12389830300839917,
                0.031754511759130126,
                0.3964435219377773,
                0.01668177986884141,
                0.22846343821312542,
                0.06352001398829536,
                0.650720699459282,
                0.01267935002635556,
                0.1695414000731723,
                0.04489130718454343,
                0.5112221038417083,
                0.022733814497473106,
                0.303182119062097,
                0.08924482306881863,
                0.8183705211597407,
                0.008858801935916417,
                0.10108783729044755,
                0.02571203919688389,
                0.33582739224553937,
                0.013988898375620682,
                0.18995079356998135,
                0.05115230949089081,
                0.5604578901747923,
                0.010902238873865605,
                0.13960864013190868,
                0.03612954178918823,
                0.4367969016974419,
                0.018666724551802506,
                0.254489263186098,
                0.07224179714801822,
                0.7100988339944228,
                0.009775443088053752,
                0.11901008423216576,
                0.03042755227896251,
                0.3836723208598368,
                0.016085748119218986,
                0.2202881325036694,
                0.06083845139387427,
                0.6318164168937436,
                0.012286271899318838,
                0.16315896527949464,
                0.0429792791754533,
                0.4955907838900978,
                0.021836004700300837,
                0.29288674032804707,
                0.08558071262217731,
                0.7957518850295329,
                0.009293238282943856,
                0.10973108084696263,
                0.02795600808719337,
                0.3591136955328036,
                0.014982760912775084,
                0.20465671617495163,
                0.055793820265086294,
                0.5952990311458918,
                0.011558600506059455,
                0.15099705771890248,
                0.03940030496961788,
                0.4654602694909502,
                0.02017075803467453,
                0.2731421162175037,
                0.07865510324058762,
                0.7519755512354247,
                0.010309963526500274,
                0.1289579418317933,
                0.03314549255268662,
                0.40955063621761423,
                0.01730954397282741,
                0.2368852737444896,
                0.06631216046037063,
                0.6700645522119459,
                0.013093368630208475,
                0.17613102560072957,
                0.04688885358850005,
                0.5272393812871735,
                0.02367771692786635,
                0.3137669351073945,
                0.0930481512772128,
                0.8414859085716537,
                -0.004204043724714435,
                0.02921736009334005,
                -0.007937040092195624,
                0.19697573826246612,
                -0.007857956976684346,
                0.08887998875203058,
                0.001292215195142121,
                0.3738542886575217,
                -0.006262245903514291,
                0.054123653265864685,
                -0.00498703506793932,
                0.2754025722949548,
                -0.008617054936702449,
                0.13568751003017004,
                0.012188343439975735,
                0.49544554156390486,
                -0.005276494580123522,
                0.04056790185451753,
                -0.006806637191763103,
                0.23387178987253426,
                -0.008374386224582815,
                0.1106308586964324,
                0.006073771520131622,
                0.431553886151102,
                -0.007135942851807913,
                0.07013834685431196,
                -0.00233869003571941,
                0.32193600689858515,
                -0.008503513849000837,
                0.16436076970113683,
                0.019832569060642576,
                0.5659542706857478,
                -0.004750079478933515,
                0.03463228048788597,
                -0.007449824627295204,
                0.21486686023880436,
                -0.008145796151308128,
                0.09936107017210312,
                0.003528098727198262,
                0.4019560860885685,
                -0.006715243414945508,
                0.06180721644231292,
                -0.0037757344583964243,
                0.29802040542586083,
                -0.008610521259536657,
                0.14955207957655153,
                0.015806402093378698,
                0.5298456508616283,
                -0.005781457823390786,
                0.04705460260860954,
                -0.005991372975465082,
                0.2540351791842683,
                -0.008534759188994814,
                0.12272686954301344,
                0.008952475186696694,
                0.46269947766835906,
                -0.0075189446078980215,
                0.07915099131854696,
                -0.0006562285884639722,
                0.34719759713505405,
                -0.008283496296271143,
                0.18015466402323072,
                0.024293654355832223,
                0.6038267582608112,
                -0.004479434580815777,
                0.031861596472394185,
                -0.0077119571531100144,
                0.20578482919708113,
                -0.008008757048864308,
                0.09402425092749041,
                0.0023728510566886117,
                0.38772138899789266,
                -0.00649247929083235,
                0.05788657577801885,
                -0.004408408011763391,
                0.28655224674638224,
                -0.008625598636908387,
                0.1425043126096227,
                0.01394800000565455,
                0.5124354573758323,
                -0.005531806981972396,
                0.04374043380950095,
                -0.006421556079512329,
                0.24380585146969386,
                -0.008463695193535339,
                0.11657320678064782,
                0.007470007045743953,
                0.44692993632876965,
                -0.007332528263006332,
                0.07455732330618799,
                -0.0015294008635483327,
                0.3343955047973123,
                -0.00840844971363079,
                0.17213196376361933,
                0.02200703644369858,
                0.5846665363302083,
                -0.005015833152861602,
                0.037533125807331535,
                -0.00714871304789008,
                0.2242273292558083,
                -0.008268036917482369,
                0.10489505225371211,
                0.004760779773859445,
                0.41656476989804947,
                -0.0069299469594842,
                0.06588973497642715,
                -0.0030866388908135306,
                0.309812992251727,
                -0.008570339387890159,
                0.15683586274896355,
                0.017766817320500138,
                0.547682958039955,
                -0.0060250788130910005,
                0.05051434494444118,
                -0.005513935387678616,
                0.26456549390951545,
                -0.00858631781934582,
                0.12909667577645534,
                0.010524220535260328,
                0.47886912316345476,
                -0.007694377545031441,
                0.08392373363415011,
                0.000283425331640397,
                0.3603484508552284,
                -0.008126947155142646,
                0.18843414532305952,
                0.026695913439477692,
                0.6234419955213,
                -0.002462095700879516,
                0.0710965877286878,
                0.008053504580989539,
                0.28382180967482606,
                1.815823910149511e-05,
                0.1503929885176507,
                0.02830721090392964,
                0.49266249054584343,
                -0.0016426371098380212,
                0.10516546448383741,
                0.01609387246872435,
                0.37734296663459566,
                0.0030106322675547614,
                0.2090965232225548,
                0.046097372543626614,
                0.6330112555364019,
                -0.0021358081332704367,
                0.08687210940518085,
                0.011630886994211616,
                0.32805060091549054,
                0.001308368045012483,
                0.17790649832091399,
                0.036408527028877286,
                0.5594973672699438,
                -0.0009427002982412241,
                0.1262449129808497,
                0.021596532178794675,
                0.4320813556902606,
                0.005221927660032285,
                0.2442884176597268,
                0.05758491304340657,
                0.7136436986242962,
                -0.002317877265986223,
                0.07868582807997133,
                0.009740567290626173,
                0.305326603976281,
                0.000617259824354853,
                0.16370995612160283,
                0.032172068079675466,
                0.5252719663573375,
                -0.0013215646360361989,
                0.11533960324133243,
                0.018705056033218374,
                0.40400694762902134,
                0.004046032457765457,
                0.22617134453417237,
                0.05160255050798121,
                0.6724096287100212,
                -0.0019122411616805171,
                0.09568762605584961,
                0.013742384438037786,
                0.3520402684492281,
                0.0021022668447460823,
                0.19302194626973795,
                0.041041645300447724,
                0.5953922980430592,
                -0.0004988285540916607,
                0.13791715645523264,
                0.02478979005305511,
                0.4616162271763977,
                0.006552670219337198,
                0.26349064215468143,
                0.06407308610012531,
                0.7567706384399284,
                -0.0023945247220139975,
                0.07481855508189042,
                0.008872714010538461,
                0.2944246758954635,
                0.00030684735111305753,
                0.15694394884467217,
                0.030194720519258478,
                0.5087685532637443,
                -0.001488908732207687,
                0.11016333781421568,
                0.01736573590239222,
                0.39050174617316824,
                0.003511632660045393,
                0.21750629877616856,
                0.04879206772863985,
                0.6524845185055054,
                -0.002029474671319472,
                0.09119916632019313,
                0.012657833604282295,
                0.33988428676307614,
                0.0016917597783462598,
                0.18534686603183292,
                0.0386739028048904,
                0.5772327562788052,
                -0.0007293761710274691,
                0.13198289798146143,
                0.023154060480445146,
                0.44666307138516725,
                0.005867011150824555,
                0.2537511699161442,
                0.06076394928704629,
                0.7349669516242294,
                -0.0022317810745704093,
                0.08270234738246587,
                0.010659220880133465,
                0.3165333187774695,
                0.0009506600173800727,
                0.17069584310830582,
                0.03424230214438874,
                0.5421793467871403,
                -0.0011397865129340679,
                0.12069864747488702,
                0.02011443537024751,
                0.41786474191251033,
                0.004615542069431914,
                0.23509693930659242,
                0.05453231549102237,
                0.6927936491606348,
                -0.0017835123210459952,
                0.10034165229676838,
                0.014886918979440814,
                0.3645244938592207,
                0.002541376627847052,
                0.200936794819573,
                0.043515026099839565,
                0.6139828325482993,
                -0.00025001611396269967,
                0.14405229813694503,
                0.02650654643075091,
                0.47694721699938714,
                0.007280838299368993,
                0.27351233621044924,
                0.06751604111709754,
                0.7790620451071573,
                -0.00884965155668232,
                0.04144526888184981,
                -0.006705580408709014,
                0.22903851499658695,
                -0.00997251392143241,
                0.10968808933008366,
                0.007149536904255531,
                0.42031110557061113,
                -0.009715144030975635,
                0.0703364023818541,
                -0.0016316800248369686,
                0.3142408936371738,
                -0.009189529263483627,
                0.16175958316191774,
                0.020983813078542746,
                0.5504219149676856,
                -0.009340319622298468,
                0.05471554878725958,
                -0.004556856869452577,
                0.2692206019126727,
                -0.009747001412069642,
                0.13398373604256347,
                0.013342012663726014,
                0.482154216822244,
                -0.009941506195003875,
                0.08856882593719469,
                0.0022167575547736443,
                0.3644745752835782,
                -0.008210384467001201,
                0.19333372138067056,
                0.03027883999930432,
                0.6255464795413825,
                -0.009107984947580574,
                0.0478023418276745,
                -0.005719657400603157,
                0.24854767436046638,
                -0.00989620312131661,
                0.12142021074104244,
                0.010076795505030123,
                0.4504560477428994,
                -0.009849479118007506,
                0.07910929808475393,
                0.00016739814603700825,
                0.33868205408784013,
                -0.00875883057197623,
                0.177051427652882,
                0.02541137179731326,
                0.5870995139173943,
                -0.009543916407863446,
                0.062216176144059,
                -0.0032001660370440293,
                0.29110285764190014,
                -0.009515032818098795,
                0.14741708842072165,
                0.01696933796117651,
                0.5154583095999571,
                -0.009984917687682277,
                0.09874984072394079,
                0.004536979380896183,
                0.3916675856143905,
                -0.007530746571655688,
                0.21064845593266884,
                0.03561393566665928,
                0.6658190770322758,
                -0.008981931741012259,
                0.044556209154338874,
                -0.006233700144067428,
                0.23865043630661015,
                -0.009942887484210438,
                0.11545259115070321,
                0.00857239588603573,
                0.4351926819951618,
                -0.009787240700022367,
                0.07463916479099016,
                -0.0007621746180816612,
                0.32629558944607917,
                -0.008988092918526038,
                0.16928428887933916,
                0.023144301278740294,
                0.5685430253351248,
                -0.009445916297204834,
                0.058390444669372626,
                -0.003903845887212945,
                0.28000768140819654,
                -0.009642015071818328,
                0.14058924755026436,
                0.015108867598635717,
                0.49860219435167896,
                -0.009969717960444583,
                0.09356693419206281,
                0.0033416894942723714,
                0.3778929139350552,
                -0.007887839614350313,
                0.20185937423176276,
                0.03288616717825818,
                0.6454510228812587,
                -0.009227552414171425,
                0.05118749406538256,
                -0.005161409215445325,
                0.2587358405223361,
                -0.009831309970207655,
                0.12759566736495415,
                0.011665670824437232,
                0.46610770627833453,
                -0.00990115447255146,
                0.08375107547683523,
                0.0011595272805537626,
                0.3514063449768008,
                -0.008500145311127241,
                0.18506616479656318,
                0.027788405747623493,
                0.6060983302291657,
                -0.009633838166976426,
                0.06619679339992676,
                -0.00244355133099315,
                0.30251196500304833,
                -0.009364680763285829,
                0.1544722009428704,
                0.018926581839628608,
                0.5327292890566743,
                -0.009986177539255533,
                0.10412204177160024,
                0.0058053392527615075,
                0.4058048707610098,
                -0.0071372854011284795,
                0.21970635482248663,
                0.038465749602951585,
                0.686657814534192,
                0.02790167039494136,
                0.13351212381472782,
                0.05048214174346076,
                0.3778653097923731,
                0.035656546214321516,
                0.22693493365276335,
                0.07950660421788193,
                0.6080475712355624,
                0.031198041490724554,
                0.17425136683126696,
                0.06263126935788393,
                0.48154819886098793,
                0.04182563644439535,
                0.29393829762868984,
                0.10257010893752358,
                0.760652411000976,
                0.029429946478497317,
                0.1525282509284443,
                0.05604838130507936,
                0.4270513344154653,
                0.03848406889535687,
                0.25848925290880553,
                0.09016454167859221,
                0.6808723251858344,
                0.033253101508595034,
                0.19895699528401867,
                0.07039214082077179,
                0.5417456157316911,
                0.04578548935937142,
                0.33361468599420363,
                0.1169417353345344,
                0.8478346357047,
                0.028638220137741442,
                0.1426984764452945,
                0.05314770633259816,
                0.40181826660108233,
                0.03701200941475498,
                0.2422454836714612,
                0.08463021349449619,
                0.6436178996038668,
                0.032186196681439,
                0.1862135891911456,
                0.06635381616793151,
                0.5109094236428149,
                0.043721204637315464,
                0.3132267276566769,
                0.10949595534732286,
                0.8032897729900776,
                0.030281404526339168,
                0.16303454958378882,
                0.05920299537527508,
                0.4536118891603733,
                0.04008441656787759,
                0.27570648048702884,
                0.09613555428716179,
                0.7198653607089367,
                0.03440687948263324,
                0.21251825583080852,
                0.07476864043208573,
                0.5741077194537756,
                0.04803375092362361,
                0.3551459801648127,
                0.12493698281745957,
                0.8943450802736224,
                0.028263298038248563,
                0.138026906445745,
                0.051786677187090555,
                0.3896847004686529,
                0.03632039917633258,
                0.23447603635725162,
                0.08201865698989665,
                0.6256255954658048,
                0.031682748253260035,
                0.18013708711697035,
                0.0644544355046198,
                0.4960475895112374,
                0.04275324989661068,
                0.3034477747265433,
                0.10596985146747165,
                0.7817362496277169,
                0.029847889497042805,
                0.1576947309919473,
                0.057592734310645724,
                0.44016268007863124,
                0.039267441115473936,
                0.26697363461249857,
                0.09309380473733685,
                0.7001480748116076,
                0.03381858878518239,
                0.20563306698294725,
                0.07253668408922062,
                0.557732709770528,
                0.04688563441898773,
                0.34423464328248243,
                0.12086879492147003,
                0.8708404953391558,
                0.029026922447655736,
                0.14753088796892191,
                0.05456749913487398,
                0.4142718465458628,
                0.03773275478415192,
                0.2502482218512642,
                0.08734443578689839,
                0.6620312141062774,
                0.03270931857966079,
                0.19248537325950144,
                0.06833212735287414,
                0.5261399856620885,
                0.04473132457123667,
                0.3232805487251278,
                0.11315202868245992,
                0.8253201575947515,
                0.030731200345703872,
                0.16855198388459552,
                0.060881657478940227,
                0.4674050230419744,
                0.040936596132212996,
                0.2846929598133505,
                0.09929317540836705,
                0.7400311363594334,
                0.03501912843042922,
                0.21961728505839295,
                0.0770909488795041,
                0.590877152212882,
                0.04923188580308839,
                0.36635431197231294,
                0.12915013015296778,
                0.918355790039876,
                -0.002212690052436023,
                0.027707823032231536,
                -0.007165687457732832,
                0.19119466353527645,
                -0.006402102698141432,
                0.08554162381124238,
                0.001113844021085854,
                0.36490040232311405,
                -0.00452728039144149,
                0.05176917375862562,
                -0.004650127822550308,
                0.2681336182363888,
                -0.007477562454275619,
                0.13121178917915205,
                0.011399333326840974,
                0.4845951425199274,
                -0.0034114025718611487,
                0.038652353475692194,
                -0.00624331109111961,
                0.2273704991296353,
                -0.007071148555695919,
                0.10674390757819317,
                0.0056029089095691025,
                0.42167909898420464,
                -0.005536784604255624,
                0.06731020047180454,
                -0.002248409903177732,
                0.3138501262882355,
                -0.007540711065996233,
                0.1592542796258546,
                0.018697939442711746,
                0.5540717327839438,
                -0.002821487030651342,
                0.03292373924824629,
                -0.00678029971557252,
                0.20873149492024556,
                -0.006764972601502521,
                0.09575332159099538,
                0.0032065753471372865,
                0.3925484747224799,
                -0.005047357943081738,
                0.05922035896180626,
                -0.0035595012412221287,
                0.2903492594919277,
                -0.007557642066690774,
                0.1447663375458474,
                0.014848129724133645,
                0.5184863617573401,
                -0.003980832463191735,
                0.04492381713792429,
                -0.005538843766259616,
                0.24715610119204234,
                -0.007311889545227629,
                0.11855066999881074,
                0.008325859329116132,
                0.4523438369395065,
                -0.005990387760779519,
                0.0760724181132855,
                -0.0006974075889925547,
                0.33868421205522004,
                -0.0074144600353875986,
                0.17471647204646013,
                0.022975345504620104,
                0.5914063858322638,
                -0.0025193833055337945,
                0.030253543505100663,
                -0.0069909861809761276,
                0.19982804934132686,
                -0.006590112927668592,
                0.09055240734164278,
                0.0021236629706908906,
                0.3785423073067836,
                -0.004790862087852484,
                0.05541700696323641,
                -0.00413119208543071,
                0.27908375041326183,
                -0.00752899409624075,
                0.13787490783987133,
                0.013075231451535342,
                0.5013323939568487,
                -0.0036988133347350995,
                0.041718309815831175,
                -0.0059130394775417094,
                0.23711716401725552,
                -0.007200279582181928,
                0.11254290137253174,
                0.006922083750738229,
                0.4368164462880385,
                -0.005768422256654429,
                0.07160511993939891,
                -0.0015041478544858126,
                0.32609748236335434,
                -0.007492054740650478,
                0.1668610061567083,
                0.020781496644202722,
                0.5725169185681868,
                -0.003118884335585251,
                0.035722095555182076,
                -0.0065317269686633785,
                0.21791046976620243,
                -0.006925672727112196,
                0.10114894395314179,
                0.004365374343611087,
                0.4069252661646974,
                -0.005296205014762146,
                0.06318336109801288,
                -0.0029327081469020886,
                0.3019360610167179,
                -0.007562051322931073,
                0.15189110174108233,
                0.016721267387985385,
                0.5360638535660607,
                -0.004257120039945957,
                0.048272783760566984,
                -0.0051185998393327966,
                0.25749300317324697,
                -0.007404746427220027,
                0.12477201387595306,
                0.009817251862970862,
                0.4682678555581865,
                -0.006201895149181718,
                0.0807164493622231,
                0.00017438106140640257,
                0.3516164539332447,
                -0.007306248882430795,
                0.18282592376419687,
                0.025282948292395538,
                0.6107471652459142,
                -0.00568938502679777,
                0.061323144523393186,
                0.002433913427679569,
                0.26720320488019944,
                -0.004243198179485592,
                0.13759148816690558,
                0.020888997459748607,
                0.47132151409480916,
                -0.005353702771464723,
                0.09396935987349077,
                0.009637282359128299,
                0.35848359815796205,
                -0.0018820568185060834,
                0.19449236530680353,
                0.03757838389729995,
                0.6089332993293127,
                -0.0055975792924653055,
                0.07640926932119949,
                0.005607466441967062,
                0.31034081184833096,
                -0.0032576165004184372,
                0.16422923488382074,
                0.028458227935147525,
                0.5368207303816682,
                -0.0049196890676128065,
                0.11426986026030105,
                0.014675616417272391,
                0.41201219673105494,
                -2.1358316602342075e-05,
                0.22870441793685015,
                0.04845881500527756,
                0.6880969482806645,
                -0.005660669420908291,
                0.06857305639528319,
                0.003922615461641214,
                0.28816959294149513,
                -0.003793764601940766,
                0.1504768521557131,
                0.024492273802591093,
                0.503271253551868,
                -0.005163399779861389,
                0.1037598485198742,
                0.012020311105490998,
                0.38455032379124865,
                -0.0010188550338294247,
                0.21108399762692737,
                0.04278492314166388,
                0.647605823282888,
                -0.005496694492437211,
                0.08486375066065503,
                0.007506160122929505,
                0.33376310256545905,
                -0.0026241969232667023,
                0.17888774051336426,
                0.0328116904143103,
                0.5720233223515819,
                -0.004615582084377354,
                0.12553493085559442,
                0.017624460450054887,
                0.4409190263434448,
                0.0011245586861374317,
                0.24739629880001746,
                0.054628458446343744,
                0.7304636204913277,
                -0.0056791451275267765,
                0.06487677593988529,
                0.003154816838337798,
                0.2775386502677827,
                -0.004028695744401231,
                0.14392820198136042,
                0.022646817969592357,
                0.48709971791453766,
                -0.005264825304016382,
                0.09877684994730908,
                0.010796056198687108,
                0.3713456457990004,
                -0.0014663948058455196,
                0.20266221515568578,
                0.040124974529294394,
                0.6280457604634478,
                -0.005552109833382885,
                0.08055719363159634,
                0.006528942237557664,
                0.32189264832264197,
                -0.00295376030344352,
                0.17144274347811106,
                0.030584933873928313,
                0.5542120160159801,
                -0.004775656741933891,
                0.11980575736836883,
                0.016111982361145503,
                0.4262818440201276,
                0.0005321299668492396,
                0.23791372391639454,
                0.0514798579960723,
                0.7090422470011732,
                -0.005633614022719089,
                0.07241589817511987,
                0.004739437382468027,
                0.29910172938752466,
                -0.0035371687675535557,
                0.15724224307582219,
                0.026428385143950697,
                0.5198427095933154,
                -0.005048636264612742,
                0.10892271392688214,
                0.013312621214581785,
                0.39810377467105984,
                -0.0005377554677434007,
                0.21976296315654936,
                0.045561695969778354,
                0.6676205224243097,
                -0.0054307663603229955,
                0.08933307571899128,
                0.008541471208042854,
                0.34595809408805245,
                -0.0022674673502552046,
                0.18656925340052427,
                0.035141740766581525,
                0.5902614610000686,
                -0.004438452135474455,
                0.1314619620827566,
                0.019215847844124345,
                0.4559301092624368,
                0.0017578329010585426,
                0.2571576160488269,
                0.05790830561654328,
                0.7523683264128884,
                -0.008360740128298202,
                0.03721037808243058,
                -0.007872960373639368,
                0.2193951346087501,
                -0.010193455716605892,
                0.10309968603774398,
                0.004682913909274725,
                0.4067950635706067,
                -0.009558849840726304,
                0.06500517466666585,
                -0.003397317152624939,
                0.3027706567524674,
                -0.009846853280629736,
                0.15373863814178224,
                0.017698948022772054,
                0.5346265917446901,
                -0.009013047437649567,
                0.04995168639454976,
                -0.006011432295848674,
                0.25869025388562605,
                -0.01017783307058191,
                0.1267018906232355,
                0.010481833630628717,
                0.46752862669228434,
                -0.009967344685976086,
                0.0826300232341824,
                0.0001143765495099212,
                0.3520097123866045,
                -0.009112619274234153,
                0.18452620334975173,
                0.026536343000145575,
                0.6085194223261139,
                -0.008698839293240898,
                0.04330765095174856,
                -0.007027765312285512,
                0.23846731180932035,
                -0.01022012803225744,
                0.11449068007342582,
                0.00741717224305089,
                0.4363926413022934,
                -0.009782743436506357,
                0.07347942257983164,
                -0.0017632871524684826,
                0.3267214598373369,
                -0.009536194184224267,
                0.1686432437996115,
                0.021901922505947843,
                0.5706961873066768,
                -0.009300852380571446,
                0.05717354380226829,
                -0.004807175538135472,
                0.28010929383434036,
                -0.010056921848006219,
                0.13977151388122672,
                0.013900820660822039,
                0.5002554895398768,
                -0.010106573006872737,
                0.09249160442246247,
                0.0022560281408140004,
                0.3786843157982569,
                -0.008562911165776147,
                0.20142928138756722,
                0.03162970049548938,
                0.6481523350036076,
                -0.008532653924695812,
                0.04019257555969974,
                -0.007470740823379788,
                0.22879017606419172,
                -0.010214844570293301,
                0.10869500840577821,
                0.006010203008569399,
                0.42140479599394876,
                -0.009675362993182732,
                0.06915988391997797,
                -0.0026095190762245217,
                0.31458189860155616,
                -0.009704846970238946,
                0.161071222173699,
                0.01974818785219582,
                0.5524456521333704,
                -0.00916044216827488,
                0.05348841129316065,
                -0.005433878343957742,
                0.2692473934659717,
                -0.010127842401048954,
                0.13312697855391165,
                0.012145506430928493,
                0.4836898842237555,
                -0.010043045346556546,
                0.08746974217686561,
                0.0011508968746082012,
                0.36517062904958897,
                -0.008854392804037917,
                0.19284758242282074,
                0.02902390158812234,
                0.6281061317223964,
                -0.008859065845720155,
                0.04655940304810055,
                -0.006542019251488122,
                0.24843212483431598,
                -0.010208183613957448,
                0.12049139193053761,
                0.008906728301915157,
                0.45176507458614634,
                -0.0098803147323201,
                0.07796803548591348,
                -0.0008561607423245088,
                0.33919536950014795,
                -0.009339326383881097,
                0.1764598399595334,
                0.02416350472338745,
                0.5893851184052769,
                -0.009433824661243815,
                0.061011105736477944,
                -0.00412908626443146,
                0.29128176100599634,
                -0.009963725897830929,
                0.14664041052011634,
                0.01575090603458708,
                0.5172321407562345,
                -0.010157028203465675,
                0.09770007783574171,
                0.0034324540122412815,
                0.3925570246980308,
                -0.008236382795662333,
                0.21027666020908775,
                0.03435731548668801,
                0.6686651763354978,
                0.017109216800066593,
                0.11375172453174674,
                0.03626165580853878,
                0.34952335684056657,
                0.023355951618377366,
                0.20332207253251267,
                0.06283825669197893,
                0.5739836765438205,
                0.019695722442922788,
                0.15266705163430572,
                0.04726011265360268,
                0.45047664502239215,
                0.028623828715831627,
                0.26807773308657834,
                0.08444352304847437,
                0.7233189080004694,
                0.01829270345098205,
                0.13188056447155808,
                0.04126996702393171,
                0.3973765155479799,
                0.02574664289924151,
                0.23378084273302435,
                0.07278811388188593,
                0.6452091927397409,
                0.021363603916702965,
                0.17638489384465522,
                0.05439161168029159,
                0.509211641930395,
                0.03208993362992485,
                0.3065435458388027,
                0.09802109759544683,
                0.8087578134135589,
                0.01767579415399234,
                0.12250048777512233,
                0.03865249448816699,
                0.37281775082735535,
                0.024496329414250045,
                0.21809181019128587,
                0.06761297206487389,
                0.6087631641389464,
                0.0204931646730774,
                0.16414188905678373,
                0.05067266549319392,
                0.4791149839428286,
                0.03027630718787462,
                0.2867682914597991,
                0.09097794374897634,
                0.765093842432292,
                0.01896427280814636,
                0.14192482994864627,
                0.04413267513818396,
                0.42324679993527137,
                0.027118356993082574,
                0.2504291822879426,
                0.07838942066798653,
                0.6833760480816544,
                0.022314936692220212,
                0.18943250972682163,
                0.058439121338556915,
                0.5408173363192346,
                0.03407974136302336,
                0.3274470767551081,
                0.105602291514167,
                0.8543686750810329,
                0.017386449643796903,
                0.11804921183210736,
                0.03742987367631369,
                0.3610154194528642,
                0.023913080264987997,
                0.21059449541199726,
                0.06517713488305345,
                0.5911684607264718,
                0.020085777616048434,
                0.15831069231025807,
                0.04892944069001971,
                0.4646166595849329,
                0.02943082919049821,
                0.2772901142080185,
                0.08764893859070273,
                0.7439738266835783,
                0.018621350267054033,
                0.1368175840568771,
                0.04266946917843088,
                0.4101447361273213,
                0.02641657346490359,
                0.24198256352802894,
                0.07553385314832027,
                0.6640740893619219,
                0.021828630232904815,
                0.18280581281822633,
                0.05637287559513038,
                0.5248226548936045,
                0.03306184040485894,
                0.31685151809890344,
                0.10174257301521425,
                0.8313162321803034,
                0.017977707710886234,
                0.12710957814233456,
                0.03993175982498677,
                0.3849361609462374,
                0.025107048546724225,
                0.22581893475224712,
                0.07014890191865593,
                0.6267744888637703,
                0.020918787044406424,
                0.1701651137055899,
                0.052492474694177116,
                0.4939778741284371,
                0.031162058238685193,
                0.29651762877396015,
                0.09443411825467424,
                0.7866861033792985,
                0.01932215147957418,
                0.14720655095349056,
                0.04566204950916107,
                0.43668873997911173,
                0.027853565989420983,
                0.2591258399197174,
                0.08135817314718168,
                0.703121994006543,
                0.022823649750128037,
                0.19626967942723045,
                0.0605932595667049,
                0.5572021652647359,
                0.03514565506022438,
                0.33833580876453384,
                0.10960405584876724,
                0.87792251327352,
                -0.005937901422700673,
                0.031233923487611573,
                -0.00836992292085796,
                0.20351997854603637,
                -0.00902677620216274,
                0.09284250180060878,
                0.0018823866016982912,
                0.38373225367086483,
                -0.007727682861154233,
                0.05704098303433486,
                -0.004951544253423623,
                0.28351241151193285,
                -0.00944653194894225,
                0.14085415075402774,
                0.013434029876696582,
                0.5073086867258297,
                -0.006878758563834627,
                0.043017704290728515,
                -0.007015213599365418,
                0.24117442173301673,
                -0.009379782871655381,
                0.1151746595651751,
                0.0069781881689257395,
                0.44239640147663006,
                -0.00845750353542277,
                0.07355930818151853,
                -0.002037555261870166,
                0.33090368518779656,
                -0.009142758233823158,
                0.17019361825121787,
                0.021448365767136733,
                0.5788959411444404,
                -0.006418680987746895,
                0.036861290862847146,
                -0.0077729108495498914,
                0.22178430783439335,
                -0.009234352723627064,
                0.10360914662240424,
                0.0042721281826721075,
                0.41230942981348806,
                -0.008109736887577068,
                0.06497173546583156,
                -0.0036102322523757745,
                0.3065527217184786,
                -0.009346784578150651,
                0.15504628972112278,
                0.017233425108745454,
                0.5422407082433804,
                -0.007316075954050738,
                0.04973376917865027,
                -0.00608049936815051,
                0.2617351992545426,
                -0.009453871646714263,
                0.1275767828389347,
                0.010024035165233274,
                0.47404518447555055,
                -0.008765356206468471,
                0.08283787499009997,
                -0.000213613078442776,
                0.3566137493338343,
                -0.008821689515116164,
                0.1863374469556382,
                0.02610588885795466,
                0.6173299696455766,
                -0.006180785164205474,
                0.03398335440894172,
                -0.008090516642597906,
                0.21251419020455278,
                -0.009137792919772595,
                0.0981282897368418,
                0.0030391495316545647,
                0.3978353334428951,
                -0.00792267898196781,
                0.06092635772993467,
                -0.004308599961534416,
                0.29487172807306206,
                -0.009408930270354767,
                0.14783336860773855,
                0.015283439279639438,
                0.5245627352275324,
                -0.007100425767152663,
                0.04630383261655305,
                -0.0065710391916904524,
                0.25130563775495846,
                -0.009426354465945952,
                0.12126875117488646,
                0.008457136655355272,
                0.458022280722996,
                -0.008616805628103677,
                0.07811004661348417,
                -0.0011582709296572714,
                0.34358576686518505,
                -0.008997686731488897,
                0.17813835332076056,
                0.02372007984794302,
                0.5978870970837941,
                -0.006651415253116266,
                0.03987147489084629,
                -0.007415147700850446,
                0.23133585767773418,
                -0.009315389873190225,
                0.10928970659914324,
                0.005584172495941946,
                0.42716096112514246,
                -0.008288236887609688,
                0.06918130433370855,
                -0.00285403723492029,
                0.31856136474052177,
                -0.009258583081630254,
                0.16249799428618877,
                0.01928728335536918,
                0.5603494701660368,
                -0.007525312459238187,
                0.05331147904362038,
                -0.0055414132628002315,
                0.272468855499027,
                -0.009461045648342473,
                0.1341036117242495,
                0.011681956664832587,
                0.4904717541018786,
                -0.008902312555062974,
                0.0877472044281296,
                0.0007990452078824739,
                0.3699938279111651,
                -0.008613031768923201,
                0.19479620237294293,
                0.028609311813608373,
                0.6372316462475321,
                0.00223176916730045,
                0.08288585691369338,
                0.015370505147358568,
                0.3028622397116707,
                0.005850559298367204,
                0.16540236664237856,
                0.03757109420751377,
                0.5166611353812948,
                0.0035845016840136117,
                0.11847068401178569,
                0.02431926525530612,
                0.39873934496530117,
                0.00953481142123906,
                0.22601279568716076,
                0.05654437215026481,
                0.6598730125767435,
                0.002816603123356399,
                0.09939673569800704,
                0.019386729351667086,
                0.34823912329098405,
                0.007474935704783076,
                0.1938430736796149,
                0.0462449822926532,
                0.5848940545272431,
                0.004577163117770823,
                0.14037777780737945,
                0.03032399996870001,
                0.45474716952889915,
                0.012128979137196837,
                0.26223870303832786,
                0.06868224531173535,
                0.7420393687450324,
                0.0025033516488296584,
                0.09083723479898406,
                0.017273263668793355,
                0.32493372322638947,
                0.006613927068206759,
                0.17917648387533597,
                0.04171760431153143,
                0.5499613674795715,
                0.004049573337268806,
                0.12905265041462893,
                0.027177307253677434,
                0.4260302327735931,
                0.010758376673484182,
                0.2435977204837545,
                0.062369629409601265,
                0.7000296233823813,
                0.0031753977239516095,
                0.10859678095431406,
                0.021729049934291745,
                0.3728251348542476,
                0.008444596143787545,
                0.20944169420138975,
                0.05117851269181101,
                0.6215130282757199,
                0.005174713559900637,
                0.152482055934899,
                0.033781059539995675,
                0.4849404185813224,
                0.013661198149378577,
                0.2819788698983632,
                0.07551107279890946,
                0.7859596488174179,
                0.002362559069588395,
                0.08678752196592525,
                0.01629664539887147,
                0.3137466254869259,
                0.006220691410756551,
                0.1721803037239084,
                0.03959828621102393,
                0.5331105241985533,
                0.0038096530554650714,
                0.1236709866008537,
                0.02571352732596768,
                0.41220963936278343,
                0.010129090756821718,
                0.2346759114272582,
                0.059397849410804573,
                0.6797232288218127,
                0.0029900305519095106,
                0.10391462909985903,
                0.020528113699196913,
                0.3603690993533135,
                0.007945461417832008,
                0.20152337286901073,
                0.048659363308500445,
                0.6029893562317471,
                0.0048666932500642905,
                0.14633023882257035,
                0.0320123417909182,
                0.4696560787109201,
                0.012873940518497403,
                0.27196865817327665,
                0.07203029445063332,
                0.763757069585294,
                0.0026545475372528656,
                0.09503896444640848,
                0.01830254479000726,
                0.33642928616425427,
                0.007031559003273517,
                0.18639576823052612,
                0.043932125442247436,
                0.5672203105588699,
                0.004305109211816488,
                0.13462009053681287,
                0.02871323592148232,
                0.44020732448209,
                0.01142440795394589,
                0.25278353004067644,
                0.06546323513003009,
                0.7207992876431375,
                0.0033733282967928534,
                0.1134473833199927,
                0.02299194591491614,
                0.3856132060530625,
                0.008973855640287196,
                0.21760312183570069,
                0.05380573040087813,
                0.6404719390187595,
                0.005502293754753456,
                0.15883786725315024,
                0.03563300712406099,
                0.5006066114495448,
                0.014492713837641637,
                0.292274868422701,
                0.07912832636502055,
                0.8086544208511723,
                -0.008680927852320301,
                0.04673718521217522,
                -0.0047246614598797,
                0.24006999015819197,
                -0.009026932904918152,
                0.11748810493777882,
                0.010540494319657175,
                0.43541362047676146,
                -0.009183038003427,
                0.07679921206092771,
                0.001000156845865441,
                0.3271956774025908,
                -0.007765853102963063,
                0.17107764476736959,
                0.025256621150731372,
                0.5679111110407495,
                -0.008995258371486606,
                0.06057303068755383,
                -0.0022630963194610852,
                0.281186586527147,
                -0.008571358311011187,
                0.14251926167241624,
                0.01715764617543128,
                0.49841929559049963,
                -0.009209832224273618,
                0.09567854154001622,
                0.005213721401893511,
                0.3784742638341667,
                -0.006518888335942943,
                0.20348316085132073,
                0.03504313703231367,
                0.6443231622981161,
                -0.008852317377769718,
                0.0533721841628929,
                -0.003585358495126492,
                0.26003973153225635,
                -0.008837723938385108,
                0.12958221661164587,
                0.013676142156571034,
                0.466132263895775,
                -0.009219268010683509,
                0.0858902499615705,
                0.002978303676975001,
                0.3521521635455548,
                -0.007203831286081127,
                0.18677895945872308,
                0.029925521553860204,
                0.6052244186639261,
                -0.009106784668478958,
                0.06837123816163182,
                -0.0007406351626505327,
                0.30355634212357685,
                -0.008217733055183894,
                0.15633789029818312,
                0.021009382949091215,
                0.5323276393442717,
                -0.009148196077895167,
                0.10619916857304847,
                0.0077272181921640305,
                0.4062113336504508,
                -0.005697352883625913,
                0.22123246752456677,
                0.040637412560254965,
                0.6852638341279682,
                -0.008770028143868526,
                0.049985888479089136,
                -0.004176837240896644,
                0.24991054848124694,
                -0.008941376416450077,
                0.12343217488981127,
                0.012066574903505075,
                0.45058016654059363,
                -0.009206487668538642,
                0.08125973206490361,
                0.0019583370627464817,
                0.3395062685695742,
                -0.007499387723290528,
                0.1788055450889342,
                0.027536693681096354,
                0.5863480812648315,
                -0.009055168590054301,
                0.06439545987227958,
                -0.0015280029470075849,
                0.2922157052162069,
                -0.008406119419799086,
                0.14931592755587586,
                0.019035677084438832,
                0.515167460875877,
                -0.009185982454143485,
                0.10084508566599083,
                0.006434374555469231,
                0.3921628079923043,
                -0.00612608398078353,
                0.21222450251898078,
                0.0377789108815441,
                0.6645596915793756,
                -0.008927508417805307,
                0.05689992780111468,
                -0.002948153885695944,
                0.2704631790494064,
                -0.008714796234177657,
                0.13594297774113862,
                0.015372159516055963,
                0.4820764443808172,
                -0.00922064584347937,
                0.09069506733862014,
                0.004062574075588125,
                0.3651394481188802,
                -0.0068775585046253526,
                0.19500308156475482,
                0.03242651425638732,
                0.6245471011267055,
                -0.00914959644545992,
                0.0725044441182208,
                0.00010130139556523859,
                0.315214360012528,
                -0.008004796955537971,
                0.1635901205622785,
                0.023081950231670888,
                0.5499065858592755,
                -0.00909551688406487,
                0.11174531487396257,
                0.009094992724096756,
                0.42062614962203726,
                -0.005230846732678629,
                0.23051247258117974,
                0.043622274580893,
                0.7064427908576527,
                0.041378441192655005,
                0.15665595077728608,
                0.06769270877166347,
                0.4100716197059071,
                0.05078339212134353,
                0.25416073925668503,
                0.09935075829323177,
                0.646249131041054,
                0.04545290783623923,
                0.19933113115060663,
                0.08108263292428343,
                0.5166180267780766,
                0.057932873415892774,
                0.32353477593425606,
                0.12397357498183845,
                0.8022684440689796,
                0.04328493751647705,
                0.176614691546497,
                0.07386125532411507,
                0.46065678456324943,
                0.054086650928666685,
                0.2868714079683373,
                0.11076662858784415,
                0.7207448709827389,
                0.04793131416507121,
                0.2250826092865954,
                0.08951999242722346,
                0.5783468748892955,
                0.06242811601711383,
                0.36448527727238467,
                0.13919184275123253,
                0.8912684732596443,
                0.04230150766818931,
                0.16630738497588576,
                0.07065501753266092,
                0.4347161054358696,
                0.052373222029443445,
                0.2700423307753945,
                0.10484801669516165,
                0.6826460032411132,
                0.04664968881099625,
                0.21180959910834996,
                0.08513856044676128,
                0.5467364720002508,
                0.06009218111241843,
                0.3434526752367171,
                0.13131697080215482,
                0.8458053051535617,
                0.044333512838668,
                0.1876111998007508,
                0.07733047785241666,
                0.48794126000491844,
                0.05593559772278403,
                0.3046884369497651,
                0.11713278648029037,
                0.7606004739854204,
                0.049306134400924545,
                0.239187059398284,
                0.09424955297337094,
                0.6115004067633922,
                0.06495616543505973,
                0.38667661655681784,
                0.14762795173939347,
                0.938716256508028,
                0.041832693042480856,
                0.16140173206439246,
                0.06914452815733546,
                0.4222347787308467,
                0.051563567285319564,
                0.2619855935912322,
                0.10204832049199682,
                0.6642382040831869,
                0.046041179834937704,
                0.20547331861130513,
                0.08307128778733659,
                0.5314939180405206,
                0.058991381972032866,
                0.3333571050533902,
                0.12758066358512749,
                0.8237996956434641,
                0.043800748264343645,
                0.18202467753352258,
                0.07556176766684149,
                0.47412803771482426,
                0.05499340480970896,
                0.2956538645056802,
                0.11389209240461486,
                0.7404496244963095,
                0.048606518168702845,
                0.2320285633960314,
                0.0918398077751864,
                0.5947275166481576,
                0.0636671236076939,
                0.3754333177536139,
                0.14333784771086355,
                0.9147406088858296,
                0.04278539919801849,
                0.17137699204131407,
                0.07222647522653282,
                0.44752146655117986,
                0.05321376258228036,
                0.2783359254390474,
                0.1077530373319471,
                0.701479287345363,
                0.047279394942816744,
                0.21834450122145188,
                0.08728719528161451,
                0.5623520014376291,
                0.06123712311577885,
                0.353826907164279,
                0.1351861331123051,
                0.8682924774799674,
                0.0448839683927697,
                0.1933785639028116,
                0.07916990723481539,
                0.502102541188819,
                0.056914858921539344,
                0.3139803229555471,
                0.1204921242691744,
                0.7812044013056831,
                0.050031346065220195,
                0.24656284889814678,
                0.09675219542591638,
                0.6286720810404525,
                0.06629731680302248,
                0.3982208173871187,
                0.15206601434128897,
                0.9632028440320193,
                -0.0011327501490336846,
                0.02711918363794757,
                -0.006671236794207476,
                0.1885604536088735,
                -0.0055817622909596736,
                0.084079564188711,
                0.0011580047364716482,
                0.36073720206016746,
                -0.0035724858275354085,
                0.0507775336373556,
                -0.0043616402352189285,
                0.2647831500181136,
                -0.006808248765677092,
                0.1292046275364535,
                0.011153539629898587,
                0.47951547271487993,
                -0.002393325720092817,
                0.037870187080660214,
                -0.005847500475261771,
                0.22438976529235682,
                -0.0063237959535339255,
                0.10501908624448096,
                0.005508249845377998,
                0.417071085121426,
                -0.004647599532518798,
                0.06609223193072766,
                -0.0020768362933107727,
                0.31010580525076403,
                -0.0069553953675836645,
                0.1569442911082852,
                0.018287788291764563,
                0.5484926567261136,
                -0.001772357996542367,
                0.03224027294626961,
                -0.006334140451278442,
                0.2059268675991649,
                -0.005980551456267672,
                0.09416227168959442,
                0.003182808781376511,
                0.38816616620441646,
                -0.004125020476716902,
                0.05811771821533401,
                -0.00332821502600077,
                0.28680493641683424,
                -0.006929525740602493,
                0.14261038003445364,
                0.01452186690085048,
                0.5131605143627211,
                -0.0029941626028210004,
                0.04403896396846452,
                -0.005195552544052666,
                0.24399345822103574,
                -0.006602868263274483,
                0.11668718258333592,
                0.00815722905320112,
                0.4475034071464029,
                -0.0051351638767670035,
                0.07473468111219227,
                -0.0005881713137341476,
                0.33473363645380083,
                -0.006873661725826047,
                0.1722471038892241,
                0.022477773328676065,
                0.5855669165415739,
                -0.001454825766147886,
                0.029617967711640037,
                -0.0065204311544164294,
                0.1971093347642745,
                -0.005787595584820137,
                0.08902644313035608,
                0.0021342236041632864,
                0.3742703704589786,
                -0.003852216254081834,
                0.0543704003320398,
                -0.0038709983734994055,
                0.27563711556127213,
                -0.006880085774252228,
                0.13579399556151028,
                0.012789623498087424,
                0.49613050964771965,
                -0.002696388534032883,
                0.04088530546225748,
                -0.005543210121856861,
                0.23404620803380477,
                -0.0064719276994817665,
                0.11074936592262045,
                0.006790831013347485,
                0.4320930703767988,
                -0.004896109586142105,
                0.07032782934499103,
                -0.0013634077272657514,
                0.32225082321260634,
                -0.006928776048015901,
                0.1644720034919923,
                0.02032808366142428,
                0.5668085485586337,
                -0.0020852441350150165,
                0.03498977044834871,
                -0.0061104777789361955,
                0.21501850742071338,
                -0.0061596350997724075,
                0.09949161307326583,
                0.004306539274296262,
                0.40243093670397734,
                -0.004390349740074807,
                0.06202360444391426,
                -0.002730957236701739,
                0.29829251394213074,
                -0.00695512780903435,
                0.14965879021228679,
                0.016353494894536476,
                0.5306122803175419,
                -0.003286322196173542,
                0.04733505673087558,
                -0.00480241781090997,
                0.25423719418629853,
                -0.006715399814300364,
                0.12283732245854954,
                0.009610445996205684,
                0.4633086658628137,
                -0.005363990623945731,
                0.07931712741408918,
                0.0002514289283871196,
                0.3475603693567598,
                -0.00678838852023858,
                0.1802748245820654,
                0.02474030537495002,
                0.6047747771576736,
                -0.006829236979983584,
                0.05710447672899299,
                0.00017861935456217333,
                0.2597083521067882,
                -0.00586383472099188,
                0.13192788426873947,
                0.017787062954682326,
                0.4615509897176263,
                -0.0067183447732148665,
                0.0890728812513268,
                0.006988797804894134,
                0.34991009429604625,
                -0.0037971561355912052,
                0.18796505793976503,
                0.03395547622705504,
                0.5978401212654697,
                -0.0068463796925738295,
                0.07186240643490772,
                0.0031626555779662854,
                0.3023209757249732,
                -0.005020221916196853,
                0.15814630550936642,
                0.02510470123332468,
                0.5264050372916185,
                -0.006407973793802611,
                0.10900143729020505,
                0.011808393305375973,
                0.4028554327738907,
                -0.0021003845301074834,
                0.22170677209285222,
                0.04454782962686672,
                0.676293061014022,
                -0.006854190701220431,
                0.06419291188743002,
                0.0015742758574959265,
                0.2804157772936827,
                -0.005484126700208767,
                0.14460666033593517,
                0.021266710047599766,
                0.4931821276028632,
                -0.006588831255476681,
                0.09868024554825679,
                0.009264397128859235,
                0.37568894567430033,
                -0.003014431926730488,
                0.20432482282996062,
                0.039020370457809136,
                0.6361615003942747,
                -0.006802497301021592,
                0.0801448142349299,
                0.00496133877423573,
                0.32547007486940405,
                -0.0044616769133141955,
                0.17258581045516025,
                0.029325753572739678,
                0.5612729830552563,
                -0.006168897333860899,
                0.12007187874198577,
                0.014641934994016895,
                0.43145925146487263,
                -0.001041002088769836,
                0.2401534647958749,
                0.050566139196421264,
                0.7182916357973832,
                -0.006845637613692636,
                0.06057801790338117,
                0.0008534211223093075,
                0.26991519116381313,
                -0.005683887437695331,
                0.13816206573302076,
                0.019483603458176332,
                0.47717088135409613,
                -0.00665961116411099,
                0.09378951401304604,
                0.008094334803861973,
                0.3626291366642149,
                -0.0034213685362406675,
                0.1960197924323211,
                0.03643183571886199,
                0.6167780553378769,
                -0.006829188933143783,
                0.07592497046421294,
                0.004034575627815683,
                0.31373711989358055,
                -0.004753467005761037,
                0.16525110374641605,
                0.027165765094846604,
                0.543630016799447,
                -0.006296177477180028,
                0.11444075306314654,
                0.013187614321788551,
                0.4169745348309095,
                -0.0015897707787565624,
                0.23079433072496375,
                0.0474938254225257,
                0.6970553847455394,
                -0.006854566545345006,
                0.0679530567796713,
                0.002343297457999039,
                0.2912157927955831,
                -0.0052633307109826236,
                0.1512664582763399,
                0.023139388721157547,
                0.5095913028634419,
                -0.006505229299925979,
                0.10374942000565414,
                0.010501544727926712,
                0.38909564967565113,
                -0.0025746784593473748,
                0.21288538538170615,
                0.041724532492264224,
                0.6559974768843397,
                -0.006765752073903378,
                0.08452605887067309,
                0.005945281940185412,
                0.33752574597671303,
                -0.00414340681622487,
                0.18015543885953883,
                0.031587895690290246,
                0.57934073348364,
                -0.006025134591377599,
                0.12589938150050056,
                0.016174138295183674,
                0.4463159340502102,
                -0.0004521875873521751,
                0.24978963357969122,
                0.053768446022003286,
                0.7400090576443132,
                -0.007913906760161826,
                0.03543337392040588,
                -0.00820166266576278,
                0.215032182710805,
                -0.010079349380917728,
                0.1002009687195347,
                0.0037432114369293935,
                0.4005672457123265,
                -0.009268251661709094,
                0.06270649723217739,
                -0.004006863718492588,
                0.2975289826692449,
                -0.009936759187111585,
                0.15015425058396464,
                0.016372514266584575,
                0.5272979447769401,
                -0.00864225356633608,
                0.047923187438660864,
                -0.006474846754792039,
                0.25390091460972486,
                -0.010161838822084253,
                0.12347149596374742,
                0.009356291422572306,
                0.4607651839301101,
                -0.009762006362807793,
                0.08004157566828003,
                -0.0006536300314654347,
                0.3462888480986148,
                -0.009317121371563418,
                0.1805645993684743,
                0.024993057915328222,
                0.6005950838830284,
                -0.008289562897086588,
                0.04140717810537879,
                -0.0074224529433106895,
                0.2338943529030637,
                -0.010154160979695825,
                0.11142885678120361,
                0.00638637463139754,
                0.42990065165677127,
                -0.009534085416964579,
                0.07103836578424276,
                -0.0024504659893621605,
                0.32124360432441634,
                -0.009682254433641376,
                0.16487320771871017,
                0.020469114806012725,
                0.5630735622579841,
                -0.008969580082966886,
                0.05501234781567653,
                -0.0053421718100230015,
                0.2750970873314552,
                -0.010092847420519762,
                0.13636696896521,
                0.012676770903257447,
                0.49321319883562986,
                -0.009946047412985699,
                0.08975064118102323,
                0.0014038848466913707,
                0.3727135018938176,
                -0.008828256112004202,
                0.1972700766326118,
                0.029971721088645473,
                0.639918434356669,
                -0.008104490441943791,
                0.03835439964014861,
                -0.00783210019232768,
                0.22432301023875661,
                -0.010124585779551847,
                0.10571541418121837,
                0.005025402055206336,
                0.4150457953147233,
                -0.00940556954529173,
                0.06679063613759037,
                -0.003257489436973836,
                0.3092229801281563,
                -0.009822551203566966,
                0.15739474318300078,
                0.018369072960775702,
                0.5449709759458286,
                -0.00880927210920677,
                0.05139415478056891,
                -0.005932719742744319,
                0.26434743852724596,
                -0.01013755759243788,
                0.12981021322081732,
                0.010971187910756788,
                0.4767879489372221,
                -0.009859919665414827,
                0.08480568447984828,
                0.0003412426516930157,
                0.3593256646520484,
                -0.009089009107192647,
                0.18878793925736798,
                0.0274238035529353,
                0.620028000372067,
                -0.008468907924378254,
                0.04459549391861865,
                -0.006970720516844737,
                0.2437517795069039,
                -0.01016696667980999,
                0.11734597322233974,
                0.007829021667697769,
                0.44513827564197517,
                -0.009653137025352174,
                0.07545391682482017,
                -0.0015833469236264852,
                0.3335968701113651,
                -0.009514314525631564,
                0.17259476694410636,
                0.022675978354653722,
                0.5816126106670694,
                -0.00912273826132253,
                0.058781774171587683,
                -0.00470097952967896,
                0.2861556528506116,
                -0.010026376979708375,
                0.14314666292485845,
                0.01447615592735098,
                0.5100476175539157,
                -0.01001950432906278,
                0.09488089944957225,
                0.0025369660306422803,
                0.3864585977023457,
                -0.00853308500921291,
                0.20601635727230205,
                0.032640372099898535,
                0.6602735158155816,
                0.012611498237379884,
                0.10502049173821403,
                0.030158728626959244,
                0.3366758417856426,
                0.018154460891853134,
                0.19274775066798744,
                0.05557811880707886,
                0.5583747542220462,
                0.014867193962404176,
                0.14306440544788757,
                0.04061418377371154,
                0.4363130849659145,
                0.022999959670497463,
                0.2564242095140957,
                0.07649070510723772,
                0.7061280424050214,
                0.013634394986361592,
                0.12272570378319582,
                0.034903985922493955,
                0.3838866886662069,
                0.02034059400645231,
                0.22268081475229096,
                0.06519189883427305,
                0.6288268253912158,
                0.01635431733824269,
                0.1663093965888759,
                0.04744793319527252,
                0.49434201938327715,
                0.02623407447768692,
                0.29430782923094945,
                0.08969024306159637,
                0.790722488382936,
                0.01309892765657938,
                0.1135604039865734,
                0.03242009533097791,
                0.35965295077948445,
                0.01919416060487343,
                0.20725805220509452,
                0.06018730456697652,
                0.5927718442083126,
                0.015575631151848212,
                0.1543060072801029,
                0.043880143787078066,
                0.46460249055352676,
                0.02453827108138833,
                0.2748273152980889,
                0.0828388434718116,
                0.7474852990157923,
                0.014222114847827204,
                0.13254915295966438,
                0.0376288886278489,
                0.4094240908826333,
                0.021605112520310863,
                0.2390559369437823,
                0.0706175266379304,
                0.6665938700101937,
                0.017211035543998193,
                0.17911090360709764,
                0.051339608625946484,
                0.5255822752932947,
                0.028102289684424287,
                0.31490921834818675,
                0.09707409730686414,
                0.8358973511472036,
                0.012849436774306602,
                0.10921428718566543,
                0.03126271715950869,
                0.34801022253808567,
                0.018661643653606907,
                0.19989130262724752,
                0.05783485234024377,
                0.5753694137328965,
                0.015213083023738914,
                0.1485922187213125,
                0.042210778797600476,
                0.4502796502466673,
                0.023750326519162215,
                0.2654937682295354,
                0.07960365637809604,
                0.7265752530582381,
                0.013921425089146235,
                0.1275530772368063,
                0.03623512039912635,
                0.3964894571707369,
                0.020957348312695,
                0.23074680238019302,
                0.0678504471320772,
                0.6474929191585607,
                0.016772401152130495,
                0.1726080798970807,
                0.04935187177090235,
                0.5097713588656992,
                0.027145663268017168,
                0.30446566285413257,
                0.09331375391523394,
                0.8130640669527134,
                0.013360414077430294,
                0.11806285373547935,
                0.03363309053525385,
                0.37160982230503536,
                0.019753347039211885,
                0.2148529030963946,
                0.06263859498149112,
                0.6105887335438216,
                0.01595572759012734,
                0.16021022876896523,
                0.04562495218619504,
                0.47928784773185196,
                0.025365574700898546,
                0.2844302004647936,
                0.08619983193276205,
                0.7688653142233723,
                0.014537130480718417,
                0.13771816557139335,
                0.03908774102763089,
                0.42269660862217584,
                0.022285444947941123,
                0.24761334516300842,
                0.0734964798711281,
                0.6861365888667212,
                0.017671332782323024,
                0.18582254838871387,
                0.05341404022953769,
                0.5417812335365051,
                0.02910595809571306,
                0.32564406848322913,
                0.10097506180594742,
                0.8592296979371785,
                -0.005106417595056964,
                0.030156663911153764,
                -0.008200219038371552,
                0.20014569234047025,
                -0.008482089386397834,
                0.09077704178439068,
                0.0015308116724595234,
                0.3786704055693142,
                -0.007032206171590522,
                0.055506069584379925,
                -0.005020560919678558,
                0.27934531819401975,
                -0.009074681487326179,
                0.13817798773414958,
                0.012748795225600537,
                0.5012428724247224,
                -0.00611388444730548,
                0.04172027538007854,
                -0.006959844261008791,
                0.2374160214461497,
                -0.008918304438881764,
                0.11281432158584102,
                0.006466625045156887,
                0.4368466756863312,
                -0.007835119956754224,
                0.07176868701906723,
                -0.002241917361297273,
                0.32630241192101606,
                -0.00886786329960989,
                0.1671797751452882,
                0.020574868287837188,
                0.5722849195423871,
                -0.005620210299183971,
                0.035676054271927334,
                -0.0076591745545731196,
                0.21822098020888953,
                -0.008730524398842027,
                0.10139880926130203,
                0.003842212824763022,
                0.40700711247231414,
                -0.0074502880449647015,
                0.0633113028042827,
                -0.003745494958641787,
                0.3021717810388648,
                -0.009022439187700461,
                0.15220407528691193,
                0.01645593970416208,
                0.5359059868885723,
                -0.0065854953385179075,
                0.04831981914699186,
                -0.006086009851534461,
                0.25777558156887503,
