{
    "83": {
        "hyperparams": {
            "stocks": [
                "BA",
                "MMM"
            ],
            "start": "2015-01-01",
            "end": "2025-01-01",
            "risk_aversion": 0.1,
            "n_qubits": 7,
            "budget": 1054,
            "log_encoding": true,
            "layers": 7,
            "prices_now": {
                "BA": 177.0,
                "MMM": 128.4563446044922
            },
            "assets_to_qubits": {
                "BA": [
                    0,
                    1,
                    2
                ],
                "MMM": [
                    3,
                    4,
                    5,
                    6
                ]
            },
            "optimizer": "CMAES",
            "lambda_budget": 0.001
        },
        "continuous_variables_solution": {
            "weights": {
                "BA": 0.5344932269809859,
                "MMM": 0.46550677301901416
            },
            "allocation": {
                "BA": 3,
                "MMM": 4
            },
            "value": -54.15380849531762,
            "left_overs": 9.174621469073372
        },
        "continuous_variables_solution_unconstrained": {
            "weights": {
                "BA": 0.5253155108896893,
                "MMM": 0.4526331742122813
            },
            "allocation": {
                "BA": 3,
                "MMM": 4
            },
            "value": -54.15380849531762,
            "left_overs": 9.174621501750153
        },
        "exact_solution": {
            "smallest_eigenvalues": [
                -0.25138191457618125
            ],
            "smallest_bitstrings": [
                "1100010"
            ],
            "first_excited_energy": -0.2510339714785645,
            "optimized_portfolio": [
                {
                    "BA": 3,
                    "MMM": 4
                }
            ],
            "second_optimized_portfolio": [
                {
                    "BA": 4,
                    "MMM": 3
                }
            ],
            "spectrum": [
                -5.0523821237824507e-17,
                -0.2441391967161452,
                -0.18573688530598542,
                -0.15440430338924238,
                -0.10805927840185575,
                -0.21966324351186628,
                -0.23181052011194375,
                -0.04346533373527109,
                -0.05778684050308229,
                -0.23672891446795258,
                -0.21283647916123039,
                -0.10498677356945438,
                -0.15075065288718453,
                -0.19241618028718033,
                -0.2423626759732046,
                0.03091569104979822,
                -0.22489126319525748,
                -0.1344879361995453,
                -0.24430448069012034,
                0.12645841241848035,
                -0.24995701799645487,
                -0.02484891847980195,
                -0.20657417426321123,
                0.3244682755209008,
                -0.24121484594844905,
                -0.08459821395035741,
                -0.22956990208251937,
                0.21927500260260685,
                -0.2510339714785645,
                0.04530310082440152,
                -0.1750038179957008,
                0.44281105316142794,
                -0.14108328168432344,
                -0.2186388733646158,
                -0.2439038701818927,
                -0.04393695474086749,
                -0.20774399400619942,
                -0.15187616624873918,
                -0.2482720214046596,
                0.11014439197830098,
                -0.17818144796557922,
                -0.19013011708193717,
                -0.2501784781152802,
                0.02698971363863194,
                -0.22969568547126057,
                -0.10334244377852944,
                -0.23787959433932304,
                0.2062913287404179,
                -0.25056808275877734,
                0.009726298569318887,
                -0.1858044440485293,
                0.35847289288716794,
                -0.23370328309454053,
                0.16297038908925598,
                -0.10544350040140324,
                0.601336617194953,
                -0.24596156992563822,
                0.081349081469068,
                -0.14980687552878091,
                0.47362979087286644,
                -0.21370084087898567,
                0.25514194556795106,
                -0.05239226590411327,
                0.7423747673672817,
                -0.0776708115107407,
                -0.23865531853796418,
                -0.22199353199879723,
                -0.1065791874618105,
                -0.16504665545869018,
                -0.19310098262041653,
                -0.2472548464274666,
                0.02584140365400622,
                -0.1251197033941875,
                -0.2207267605920294,
                -0.23869930779850274,
                -0.04645033609577938,
                -0.19738072013221886,
                -0.15524769429952545,
                -0.24735952893787416,
                0.11105599348693077,
                -0.2450728090891025,
                -0.07000027326026004,
                -0.2225111848197177,
                0.23463432055647698,
                -0.24922393661968112,
                0.061341485241035824,
                -0.1635407825730213,
                0.45494674581481215,
                -0.25095513322841384,
                -0.009292382693299787,
                -0.19718118684943964,
                0.33856041621976946,
                -0.2397911246392992,
                0.142448767917921,
                -0.12127220599107352,
                0.584570418092564,
                -0.1901862266176717,
                -0.18396907454099476,
                -0.25138191457618125,
                0.03367798280470588,
                -0.23608270945329934,
                -0.09585060705372231,
                -0.23475865907642418,
                0.20961661995674002,
                -0.21691218997017686,
                -0.1448094969385661,
                -0.24717930448846748,
                0.11549766400890268,
                -0.24761826396922199,
                -0.03655354103707606,
                -0.21381078586644958,
                0.3168033858733899,
                -0.24117710345140192,
                0.10496136279410004,
                -0.13394947624766124,
                0.49827851429147635,
                -0.20317767598014652,
                0.2803247772577743,
                -0.03203014493145582,
                0.7639596752302537,
                -0.22602547494323877,
                0.18760446238565787,
                -0.0872034856476456,
                0.6247962117868237,
                -0.1725370384127335,
                0.383678318311411,
                0.03189688542608489,
                0.9165545868985124
            ],
            "result_with_budget": [
                {
                    "portfolio": {
                        "BA": 3,
                        "MMM": 4
                    },
                    "budget": 1044.8253784179688,
                    "difference": 9.17462158203125,
                    "objective_value": -54.15380849531762
                }
            ],
            "result_with_budget_excited": [
                {
                    "portfolio": {
                        "BA": 4,
                        "MMM": 3
                    },
                    "budget": 1093.3690338134766,
                    "difference": -39.36903381347656,
                    "objective_value": -50.82739348172283
                }
            ]
        },
        "qaoa_solution": {
            "two_most_probable_states": [
                "0100010",
                "0000001"
            ],
            "final_expectation_value": -0.22940688390788577,
            "params": [
                0.7585795727395507,
                1.9897820996309648,
                2.8708962681544277,
                5.33830155680862,
                6.956614453397086,
                2.2716512076789845,
                5.6335014009251685,
                1.5479085262852148,
                2.3437138131949995,
                -0.5987916125850937,
                2.957162098459919,
                1.5311832036901367,
                3.0763558744361266,
                1.640404713087053
            ],
            "total_steps": 800,
            "states_probs": [
                0.03035542629909868,
                0.03316615131471364
            ],
            "optimized_portfolios": [
                {
                    "BA": 2,
                    "MMM": 4
                },
                {
                    "BA": 0,
                    "MMM": 8
                }
            ],
            "training_history": {
                "xbest": [
                    0.7585795727395507,
                    1.9897820996309648,
                    2.8708962681544277,
                    5.33830155680862,
                    6.956614453397086,
                    2.2716512076789845,
                    5.6335014009251685,
                    1.5479085262852148,
                    2.3437138131949995,
                    -0.5987916125850937,
                    2.957162098459919,
                    1.5311832036901367,
                    3.0763558744361266,
                    1.640404713087053
                ],
                "fbest": -0.22940688390788577,
                "evals_best": 8730,
                "evaluations": 8800,
                "iterations": 800,
                "xfavorite": [
                    0.7585817592022226,
                    1.9897829774189417,
                    2.8708986758963415,
                    5.338298549979601,
                    6.95661793922509,
                    2.2716403263688734,
                    5.633522000568243,
                    1.547909985437419,
                    2.343713513124907,
                    -0.598791611797302,
                    2.957162171707656,
                    1.5311834531802468,
                    3.0763556274234185,
                    1.6404046217514736
                ],
                "stds": [
                    1.2928640841532298e-06,
                    1.4549689261979611e-06,
                    1.388904929668497e-06,
                    2.6853753841663766e-06,
                    6.1124546131457235e-06,
                    1.0529686529348897e-05,
                    1.7298854524524443e-05,
                    8.817851361166571e-07,
                    2.533933576122254e-07,
                    2.3064400512905754e-07,
                    8.852184535275506e-08,
                    2.9603181081819617e-07,
                    1.78249641930225e-07,
                    1.4783847132768848e-07
                ],
                "stop": {
                    "maxiter": 800
                }
            },
            "objective_values": [
                -37.454153486349625,
                -423.92294482681854
            ],
            "result_with_budget": [
                {
                    "portfolio": {
                        "BA": 2,
                        "MMM": 4
                    },
                    "budget": 867.8253784179688,
                    "difference": 186.17462158203125
                },
                {
                    "portfolio": {
                        "BA": 0,
                        "MMM": 8
                    },
                    "budget": 1027.6507568359375,
                    "difference": 26.3492431640625
                }
            ]
        }
    }
}