{
    "28": {
        "hyperparams": {
            "stocks": [
                "CAT",
                "NKE"
            ],
            "start": "2015-01-01",
            "end": "2025-01-01",
            "risk_aversion": 0.1,
            "n_qubits": 8,
            "budget": 2231,
            "log_encoding": true,
            "layers": 8,
            "prices_now": {
                "CAT": 359.7030334472656,
                "NKE": 75.28893280029297
            },
            "assets_to_qubits": {
                "CAT": [
                    0,
                    1,
                    2
                ],
                "NKE": [
                    3,
                    4,
                    5,
                    6,
                    7
                ]
            },
            "optimizer": "CMAES",
            "lambda_budget": 1
        },
        "continuous_variables_solution": {
            "weights": {
                "CAT": 1.0,
                "NKE": 5.551115123125783e-17
            },
            "allocation": {
                "CAT": 6,
                "NKE": 0
            },
            "value": -22.347024846448935,
            "left_overs": 72.78179794080233
        },
        "continuous_variables_solution_unconstrained": {
            "weights": {
                "CAT": 1.0,
                "NKE": 0.04799052842570173
            },
            "allocation": {
                "CAT": 6,
                "NKE": 0
            },
            "value": -22.347024846448935,
            "left_overs": 72.78179651557957
        },
        "exact_solution": {
            "smallest_eigenvalues": [
                -0.5267853619971099
            ],
            "smallest_bitstrings": [
                "01110000"
            ],
            "first_excited_energy": -0.5267460580040327,
            "optimized_portfolio": [
                {
                    "CAT": 6,
                    "NKE": 1
                }
            ],
            "second_optimized_portfolio": [
                {
                    "CAT": 5,
                    "NKE": 6
                }
            ],
            "spectrum": [
                -1.0402623383466876e-17,
                -0.41525118673768124,
                -0.24603905924368347,
                -0.5075439183048219,
                -0.1326195075516688,
                -0.47102064649537156,
                -0.340252834187152,
                -0.5247998822551261,
                -0.06870953385724753,
                -0.44554051952013696,
                -0.2955471820190535,
                -0.5185817831613112,
                -0.19172955204298153,
                -0.49168928624535146,
                -0.3801546905188208,
                -0.526194977979358,
                -0.034954698221741194,
                -0.4309968706039662,
                -0.271393355968237,
                -0.5136651284407512,
                -0.16277455335051338,
                -0.48195655419992756,
                -0.36080432899714465,
                -0.5261005172266543,
                -0.10126448318716001,
                -0.45888187071961484,
                -0.318500394153165,
                -0.5222935001763158,
                -0.21948442014790975,
                -0.5002185201032607,
                -0.39830371574740786,
                -0.5250828224612466,
                -0.460367343247469,
                -0.5087413298433239,
                -0.5229678218207608,
                -0.4175953760125338,
                -0.5012675636187316,
                -0.47279145683820134,
                -0.5254622935739839,
                -0.3431319640647319,
                -0.4832172340912926,
                -0.4931709985164938,
                -0.5266162944254584,
                -0.3827735560397605,
                -0.5145179623656662,
                -0.44760042296657787,
                -0.5195044936133437,
                -0.2986673620567021,
                -0.47239222008020376,
                -0.501557182196507,
                -0.5253922937896005,
                -0.40078674448728957,
                -0.5084927867690513,
                -0.46079752837945476,
                -0.523083960673403,
                -0.3215027510295456,
                -0.4928423615083982,
                -0.48358251598372803,
                -0.526639680432385,
                -0.36355542832678056,
                -0.519343006874433,
                -0.43319981801820784,
                -0.5147236893360507,
                -0.27462535504122954,
                -0.2849588364409248,
                -0.5167714895284374,
                -0.4392786285105883,
                -0.517344941754574,
                -0.3717187094706794,
                -0.5266813120714022,
                -0.487632770976419,
                -0.4887412569717028,
                -0.3307385526975304,
                -0.5241310042115161,
                -0.46585693513129056,
                -0.5054529831762956,
                -0.40789893750817185,
                -0.524420131478146,
                -0.5046048106048997,
                -0.46720652532196705,
                -0.3084486257641793,
                -0.5210522644587852,
                -0.4531680171656003,
                -0.51200124039283,
                -0.3904088469974275,
                -0.5261523097710694,
                -0.4967193574955898,
                -0.47857697852893677,
                -0.3518285934951303,
                -0.5260074459935615,
                -0.47734523913819915,
                -0.4976997877882966,
                -0.4241888974952601,
                -0.521484454637754,
                -0.5112889272730872,
                -0.4546294552723129,
                -0.5262253994052114,
                -0.39116061613535413,
                -0.4971065328934974,
                -0.2082951442654305,
                -0.5212659563482636,
                -0.3093509966156388,
                -0.45374130306600025,
                -0.08797193408779998,
                -0.5261454607075448,
                -0.3526604145715124,
                -0.4778251573042843,
                -0.15054342862186287,
                -0.5115865166513325,
                -0.26123008021394734,
                -0.42485364431373396,
                -0.020577422420578393,
                -0.5267853619971099,
                -0.37251153411185745,
                -0.48806608140124996,
                -0.18002156575257416,
                -0.517026260859539,
                -0.2858921276866642,
                -0.4398980414584538,
                -0.054877767123782485,
                -0.5243056717376895,
                -0.33160699466827237,
                -0.46638361728016386,
                -0.11986035050364068,
                -0.5049466401630133,
                -0.23536453158963672,
                -0.40860790854759843,
                0.014929542153273044,
                -0.15617320466265466,
                -0.47970514302215217,
                -0.35635263703047915,
                -0.5261382516791386,
                -0.2658628976808677,
                -0.512544791924579,
                -0.42763660097492895,
                -0.5204644015272527,
                -0.2134178309263131,
                -0.4985295704739502,
                -0.3943958541913961,
                -0.5257112097934242,
                -0.3135080357800767,
                -0.5217485258500462,
                -0.45607355204595956,
                -0.5103945891677558,
                -0.18539544899926386,
                -0.4897183742407293,
                -0.3759744809124481,
                -0.5265270085145665,
                -0.29028549022181227,
                -0.5177482467609898,
                -0.44245564314573405,
                -0.5160325825540073,
                -0.24024032671119927,
                -0.5061384689419909,
                -0.41161661361111135,
                -0.5236904732122812,
                -0.3355304508612522,
                -0.524545306650122,
                -0.4684901246575889,
                -0.503549979303265,
                -0.5069901880221376,
                -0.4636448007651788,
                -0.5237309970806483,
                -0.3266391009917403,
                -0.5249605775650813,
                -0.40476506041314453,
                -0.5032956214415968,
                -0.22924579835170789,
                -0.5183751643810903,
                -0.4366095371180164,
                -0.5159145471304133,
                -0.2803523372378931,
                -0.5267460580040327,
                -0.36810908870273507,
                -0.48587289425524194,
                -0.17331624619648012,
                -0.5132826078381366,
                -0.450728187289854,
                -0.5204230080507019,
                -0.3040979979605969,
                -0.5264533418135988,
                -0.38703866339315385,
                -0.49518482523332774,
                -0.20188411065405032,
                -0.5222678338654173,
                -0.42128858741686437,
                -0.5102054710105938,
                -0.25540173646721753,
                -0.5258386425889954,
                -0.3479760137472834,
                -0.4753596254363416,
                -0.14354176286078113,
                -0.3863568869311178,
                -0.5264502215362733,
                -0.4948170271220319,
                -0.48116398565257945,
                -0.4501869354382704,
                -0.5134302031364365,
                -0.5202413385505013,
                -0.4296304466307842,
                -0.4206716912276358,
                -0.5223448164729995,
                -0.5099304187371841,
                -0.4578071008918059,
                -0.4749022502048619,
                -0.4997040997906731,
                -0.5257484610149493,
                -0.3966307849447279,
                -0.4041142203430095,
                -0.5249985367680846,
                -0.5029739583959295,
                -0.4700878214272062,
                -0.46314461642473836,
                -0.5071687396609813,
                -0.5235954666358058,
                -0.4137337034239663,
                -0.43602927582590456,
                -0.5184887978447045,
                -0.5156862648630931,
                -0.44432144171645616,
                -0.48545975325774293,
                -0.4910359609573951,
                -0.5267001186434245,
                -0.3783212491013418,
                -0.5180729510647037,
                -0.29128875330529214,
                -0.44309440476903517,
                -0.06256348502676082,
                -0.4901836745571494,
                -0.18654924371798465,
                -0.3767993148777792,
                0.08068964861297794,
                -0.5065280971990969,
                -0.2413236086888525,
                -0.4123481009172232,
                0.006653190154744841,
                -0.4690393133568663,
                -0.12696337623294235,
                -0.3364467206798317,
                0.15954912869656007,
                -0.51290045645535,
                -0.26690720024417347,
                -0.4283214895811862,
                -0.02855742728659196,
                -0.48021151872595635,
                -0.15735789976250147,
                -0.3572235860095798,
                0.11951629921702944,
                -0.49895584948387117,
                -0.2145377157800371,
                -0.3951740954414654,
                0.04306874968015067,
                -0.45666697487600216,
                -0.09536535050821125,
                -0.31446851579104873,
                0.20078857919627557
            ],
            "result_with_budget": [
                {
                    "portfolio": {
                        "CAT": 6,
                        "NKE": 1
                    },
                    "budget": 2233.5071334838867,
                    "difference": -2.5071334838867188,
                    "objective_value": -21.891814815091543
                }
            ],
            "result_with_budget_excited": [
                {
                    "portfolio": {
                        "CAT": 5,
                        "NKE": 6
                    },
                    "budget": 2250.248764038086,
                    "difference": -19.248764038085938,
                    "objective_value": -88.26877985273978
                }
            ]
        },
        "qaoa_solution": {
            "two_most_probable_states": [
                "11001110",
                "11011110"
            ],
            "final_expectation_value": -0.5099077301254201,
            "params": [
                -10.507882973268817,
                10.917223919620351,
                4.218129716536874,
                4.774277952454428,
                4.802112870905303,
                6.063603132021489,
                6.535067574186107,
                8.616050594883122,
                1.5889085569881463,
                1.3662490319822096,
                2.674863119743606,
                1.189957411260276,
                1.187411546793881,
                -0.2951444117769381,
                2.962192049192182,
                1.4910303537817573
            ],
            "total_steps": 800,
            "states_probs": [
                0.015386136749261647,
                0.017271856786555687
            ],
            "optimized_portfolios": [
                {
                    "CAT": 3,
                    "NKE": 14
                },
                {
                    "CAT": 3,
                    "NKE": 15
                }
            ],
            "training_history": {
                "xbest": [
                    -10.507882973268817,
                    10.917223919620351,
                    4.218129716536874,
                    4.774277952454428,
                    4.802112870905303,
                    6.063603132021489,
                    6.535067574186107,
                    8.616050594883122,
                    1.5889085569881463,
                    1.3662490319822096,
                    2.674863119743606,
                    1.189957411260276,
                    1.187411546793881,
                    -0.2951444117769381,
                    2.962192049192182,
                    1.4910303537817573
                ],
                "fbest": -0.5099077301254201,
                "evals_best": 9583,
                "evaluations": 9600,
                "iterations": 800,
                "xfavorite": [
                    -10.50613199565859,
                    10.916742894093963,
                    4.217450999878659,
                    4.77414966667938,
                    4.8021419186939855,
                    6.063566235784922,
                    6.534914384822555,
                    8.615815617078386,
                    1.5889136119339846,
                    1.3661904097217796,
                    2.674898340651381,
                    1.1899921943917962,
                    1.1874411200862096,
                    -0.29513357748822805,
                    2.962162309705379,
                    1.4910268748338071
                ],
                "stds": [
                    0.002762649148142893,
                    0.0011009492296871945,
                    0.0010570625699283971,
                    0.00037229340860811235,
                    0.0002516891288228016,
                    0.0002640772636978433,
                    0.0003421101208446569,
                    0.000628904666205384,
                    1.6596815055685645e-05,
                    6.607688904629377e-05,
                    5.999496686941387e-05,
                    3.645589516269489e-05,
                    2.2828144168642606e-05,
                    2.5909399737748614e-05,
                    2.388526614538565e-05,
                    1.0351631065637595e-05
                ],
                "stop": {
                    "maxiter": 800
                }
            },
            "objective_values": [
                -2272.6352510451293,
                -2993.300840116687
            ],
            "result_with_budget": [
                {
                    "portfolio": {
                        "CAT": 3,
                        "NKE": 14
                    },
                    "budget": 2133.1541595458984,
                    "difference": 97.84584045410156
                },
                {
                    "portfolio": {
                        "CAT": 3,
                        "NKE": 15
                    },
                    "budget": 2208.4430923461914,
                    "difference": 22.556907653808594
                }
            ]
        }
    }
}