{
    "15": {
        "hyperparams": {
            "stocks": [
                "GS",
                "JNJ",
                "MSFT",
                "UNH",
                "WBA"
            ],
            "start": "2015-01-01",
            "end": "2025-01-01",
            "risk_aversion": 0.1,
            "n_qubits": 13,
            "budget": 747,
            "log_encoding": true,
            "layers": 10,
            "prices_now": {
                "GS": 569.7945556640625,
                "JNJ": 143.4715576171875,
                "MSFT": 420.6565246582031,
                "UNH": 503.7073059082031,
                "WBA": 9.329999923706055
            },
            "assets_to_qubits": {
                "GS": [
                    0
                ],
                "JNJ": [
                    1,
                    2,
                    3
                ],
                "MSFT": [
                    4
                ],
                "UNH": [
                    5
                ],
                "WBA": [
                    6,
                    7,
                    8,
                    9,
                    10,
                    11,
                    12
                ]
            },
            "optimizer": "CMAES",
            "lambda_budget": 1
        },
        "continuous_variables_solution": {
            "weights": {
                "GS": 1.2937319022073066e-16,
                "JNJ": 0.0,
                "MSFT": 0.9999999999999999,
                "UNH": 0.0,
                "WBA": 5.022360443555964e-16
            },
            "allocation": {
                "MSFT": 1,
                "WBA": 11,
                "GS": 0,
                "JNJ": 0,
                "UNH": 0
            },
            "value": -705.7466911314526,
            "left_overs": 223.7134761334006
        },
        "continuous_variables_solution_unconstrained": {
            "weights": {
                "GS": 0.0,
                "JNJ": 0.0,
                "MSFT": 1.0,
                "UNH": 0.05911158573560351,
                "WBA": 0.0
            },
            "allocation": {
                "JNJ": 1,
                "MSFT": 1,
                "WBA": 4,
                "GS": 0,
                "UNH": 0
            },
            "value": -11.989091774751927,
            "left_overs": 145.55191754365148
        },
        "exact_solution": {
            "smallest_eigenvalues": [
                -0.05968745146802919
            ],
            "smallest_bitstrings": [
                "0010100010000"
            ],
            "first_excited_energy": -0.05968729612830295,
            "optimized_portfolio": [
                {
                    "GS": 0,
                    "JNJ": 2,
                    "MSFT": 1,
                    "UNH": 0,
                    "WBA": 4
                }
            ],
            "second_optimized_portfolio": [
                {
                    "GS": 0,
                    "JNJ": 5,
                    "MSFT": 0,
                    "UNH": 0,
                    "WBA": 3
                }
            ],
            "spectrum": [
                -3.2734774092768593e-16,
                -0.048306680620361794,
                -0.03760703002526403,
                -0.012105502872833875,
                -0.02143539210667735,
                -0.03783633106875807,
                -0.047259041175230665,
                0.03345716597068078,
                -0.01132955111696098,
                -0.044725733376289475,
                -0.04335885880900202,
                0.0078787635163763,
                -0.030238245679928756,
                -0.027144760230704053,
                -0.04902108174580823,
                0.06533063604606396,
                -0.0058148081079595825,
                -0.046900930403716234,
                -0.0406985178723374,
                -0.002770852078266178,
                -0.026006670765087125,
                -0.032998697421887484,
                -0.048427258760259356,
                0.048561185719338956,
                -0.016539176039811223,
                -0.041724232028657895,
                -0.045557097586949105,
                0.01992610368163252,
                -0.034112112733451244,
                -0.020204710855226446,
                -0.04899660375301097,
                0.0838612278519529,
                -0.002944722855534534,
                -0.047696559244932046,
                -0.03920485908546689,
                -0.007597502065785072,
                -0.023762495622353146,
                -0.03554031562424746,
                -0.0479123316198852,
                0.04080685247818561,
                -0.013972945626739012,
                -0.043331950812722606,
                -0.044517802146718924,
                0.013722419066134603,
                -0.03222114442259873,
                -0.023814989081885254,
                -0.04908900099626634,
                0.07436968085691005,
                -0.008609927675999067,
                -0.04591299045015895,
                -0.04208444052195949,
                0.002384488518917623,
                -0.028165970562282816,
                -0.03020305392380306,
                -0.04879863784111728,
                0.05673182601465519,
                -0.01902710482924121,
                -0.03989496393187979,
                -0.046472369820116696,
                0.026500668237724633,
                -0.035908394194230114,
                -0.016304693567192673,
                -0.048737895815146384,
                0.09381774679736686,
                -0.0014816785278189124,
                -0.0480243910427032,
                -0.03841875087777988,
                -0.009890713932286315,
                -0.0226091961300884,
                -0.036718505187359377,
                -0.04760266566813341,
                0.03708214924801671,
                -0.012660830693247343,
                -0.04405511620854764,
                -0.043953020912940455,
                0.010756257932973724,
                -0.031241021983842692,
                -0.025514368946796418,
                -0.04907471419993818,
                0.06979436713410565,
                -0.007221767012350022,
                -0.04643143244863272,
                -0.04140517698554197,
                -0.0002349035999498406,
                -0.027097059672407272,
                -0.03163316314817088,
                -0.048631223760072784,
                0.05259373081045189,
                -0.017793007137657798,
                -0.040837775367364174,
                -0.04603051796600696,
                0.02316633988268314,
                -0.03502226950098371,
                -0.018291504497595125,
                -0.048888421163203535,
                0.08878057856573486,
                -0.004389110944369762,
                -0.04732235374261147,
                -0.03996492788671774,
                -0.005224631066063389,
                -0.02489506618327945,
                -0.034300728533570066,
                -0.04818740990746384,
                0.04463271422986981,
                -0.01526577269795119,
                -0.04255530452367032,
                -0.04505267456802263,
                0.016778584303833433,
                -0.03317828741529741,
                -0.02204548560941109,
                -0.04906321183106309,
                0.07905811696386668,
                -0.009979217469775706,
                -0.04534472233350423,
                -0.04273583112962913,
                0.005088611075956738,
                -0.029213128444167957,
                -0.02870728531257882,
                -0.04892882129001708,
                0.06097696049098475,
                -0.020241295304723256,
                -0.038894814466706576,
                -0.04688207461661008,
                0.0299304767250851,
                -0.03677011064193747,
                -0.014243092447106018,
                -0.04854424681475636,
                0.09897432288659196,
                -0.05335664794169,
                -0.037392641222708134,
                -0.05880003936062831,
                0.0308010264166855,
                -0.05870677007153112,
                -0.010908103809537162,
                -0.05238782934943216,
                0.09229886533824923,
                -0.05664315428437565,
                -0.02580056720150498,
                -0.05651753624768269,
                0.05875872222151274,
                -0.05946912377905813,
                0.007777556655135988,
                -0.04612532905285735,
                0.132121481557757,
                -0.05514988782636755,
                -0.031980376016230494,
                -0.05787386254065451,
                0.04412379640288962,
                -0.05925752651965403,
                -0.0020722473068096815,
                -0.049543051340898675,
                0.11137908908407822,
                -0.05783150754916093,
                -0.018796470489748165,
                -0.05470021845404448,
                0.07478845042245312,
                -0.05932367095263292,
                0.018711003495640834,
                -0.04209086932708238,
                0.1546216404397424,
                -0.054290582302837245,
                -0.03477903152833575,
                -0.058388918483921325,
                0.037303430864219445,
                -0.05902355148899725,
                -0.006612689502751209,
                -0.05103444778359906,
                0.10163705449932696,
                -0.0572758802772151,
                -0.022405227826688846,
                -0.055668555391060526,
                0.06659394413894025,
                -0.059442273283528003,
                0.013104342275975315,
                -0.04418805491795999,
                0.14314573886679854,
                -0.05593425058358427,
                -0.028989885192417117,
                -0.057251319819492094,
                0.051272150309310593,
                -0.059406762343484625,
                0.0027216311635826556,
                -0.04790846941867498,
                0.12153661526043884,
                -0.058308912725856796,
                -0.014966696251047741,
                -0.05360816427963869,
                0.08335307779432631,
                -0.059110574520696756,
                0.02460675814508759,
                -0.03982779223190863,
                0.16656164189018297,
                -0.053832932011164916,
                -0.0361085506641078,
                -0.058607256728378875,
                0.03401310230410623,
                -0.058875398682107075,
                -0.008790507522950452,
                -0.05172807516820077,
                0.09691819922158208,
                -0.05696909231475254,
                -0.024129107730378022,
                -0.056107700661851306,
                0.06263209202486532,
                -0.059467004023851695,
                0.010406533225394317,
                -0.04517631506912921,
                0.13757792525039714,
                -0.055551464576051354,
                -0.030509542266403573,
                -0.0575762569140115,
                0.04765634020060011,
                -0.059342865538416376,
                0.00029247896525643504,
                -0.04874398963213593,
                0.11640517993306891,
                -0.05808006601505518,
                -0.016909693321587916,
                -0.054169936498570326,
                0.07902381377245991,
                -0.059229113795642545,
                0.021622160122464092,
                -0.04098044887529498,
                0.16053284229968312,
                -0.05472957854700232,
                -0.033403254100027494,
                -0.05814459963472066,
                0.040673246535219865,
                -0.05915100586108206,
                -0.004373617672160186,
                -0.05030631984167756,
                0.10645686797109329,
                -0.057563396721351315,
                -0.020627996594365625,
                -0.05519957426206826,
                0.07064561418263975,
                -0.0593946077462602,
                0.01587211706436582,
                -0.04315982006469271,
                0.14882646038727898,
                -0.05629817498890778,
                -0.027420524488553054,
                -0.05689857567420788,
                0.05497251175756947,
                -0.05944894371338578,
                0.005216291955302039,
                -0.04703581275621256,
                0.12677488245615132,
                -0.05851787564080009,
                -0.012966497791702137,
                -0.05301432503365394,
                0.08777762869730839,
                -0.05896767872561504,
                0.02766598141135173,
                -0.03863212027191272,
                0.17270962778191207,
                -0.048296220306244794,
                -0.04291747161523231,
                -0.05904161422796781,
                0.02003205422254647,
                -0.05629841413805527,
                -0.01906116723993807,
                -0.05527464827318722,
                0.07892885449775656,
                -0.052908870997356486,
                -0.03264089553203192,
                -0.05808247810148291,
                0.04668721282432092,
                -0.05838615997383722,
                -0.0016851608066042146,
                -0.05033221689965568,
                0.11745732326412166,
                -0.05075253960009542,
                -0.0381632808431218,
                -0.05877728725138725,
                0.03270307102665555,
                -0.05751195344286693,
                -0.0108805427758474,
                -0.053090150633939584,
                0.09736144037884416,
                -0.054760234952674194,
                -0.02629353161437854,
                -0.056926304971785704,
                0.06206716594424167,
                -0.058903103055054425,
                0.008594713865933305,
                -0.046957014133308606,
                0.13931214061284652,
                -0.0495616936945434,
                -0.04063297801820988,
                -0.05896145737432295,
                0.026208463420065834,
                -0.056946606195831154,
                -0.0150934677220373,
                -0.054251465882763084,
                0.08794308617809614,
                -0.05387311160272713,
                -0.029574011379134103,
                -0.057564118622896954,
                0.05419741859757142,
                -0.058690536588793786,
                0.0033147300159845567,
                -0.04872464017993841,
                0.12815876131346532,
                -0.05186843912185361,
                -0.03550158562364275,
                -0.05848554717547431,
                0.03952590929128054,
                -0.057992518086796105,
                -0.00641397904372313,
                -0.05178552695171065,
                0.10719556824028643,
                -0.05556911270049068,
                -0.02279185232578002,
                -0.05616467101880267,
                0.07030729655895705,
                -0.05902111213459293,
                0.014164013546547278,
                -0.045023353739100075,
                0.15092992174820963,
                -0.04893827340916475,
                -0.041797958514576614,
                -0.05901432307181916,
                0.023081103130989964,
                -0.056632752561005514,
                -0.017107452729413764,
                -0.054780008116579904,
                0.0833861753144003,
                -0.05340056834004349,
                -0.03113368556730887,
                -0.05783796515541434,
                0.05039804271544003,
                -0.0585496607522687,
                0.000780341496733963,
                -0.04954806854661234,
                0.12275232051441763,
                -0.051319885495006864,
                -0.03685686554781922,
                -0.058645093655026105,
                0.036072826406410644,
                -0.05776296260698548,
                -0.008679499497622693,
                -0.052456083725181374,
                0.10222579650096798,
                -0.05517453295326065,
                -0.024570825059801595,
                -0.0565612463208551,
                0.06614024783243681,
                -0.058974106875283476,
                0.011342614897457805,
                -0.046011320198186045,
                0.1450621942596661,
                -0.050166460271132404,
                -0.03942169978922376,
                -0.05888259152140116,
                0.029415370149512253,
                -0.05723975178986869,
                -0.013018179519485657,
                -0.05368839359624342,
                0.09260102450999726,
                -0.054326378713452264,
                -0.027960941449891974,
                -0.05726041170914556,
                0.05808667671116066,
                -0.05880846305004219,
                0.00591913863017808,
                -0.04786120264343352,
                0.1336781842631254,
                -0.052398128999033636,
                -0.03409656014333044,
                -0.05829817160830008,
                0.04306360533135724,
                -0.058200346039281745,
                -0.0040828981254720466,
                -0.05107780174768045,
                0.11227224360830605,
                -0.05594380153205493,
                -0.02095563130434479,
                -0.055736001680489436,
                0.07456969895460118,
                -0.05904374380925887,
                0.017060094282585914,
                -0.043992335009496494,
                0.15691691227069154,
                -0.056323208569781916,
                0.013324812929095842,
                -0.03490532654920822,
                0.10826508758786986,
                -0.04824022760634325,
                0.053194520780949786,
                -0.015074579216561907,
                0.1830959289544108,
                -0.0528928405398051,
                0.03161214513453022,
                -0.025912056880081347,
                0.1428931326495091,
                -0.042287585780014916,
                0.07856416003557805,
                -0.002107891480347217,
                0.2295729147587211,
                -0.05475796728254241,
                0.02208533874799178,
                -0.030623428698199624,
                0.12492395749014107,
                -0.04543329541827333,
                0.06537314508263652,
                -0.00887722285158502,
                0.20550440966398154,
                -0.05072296201685632,
                0.041961902935655174,
                -0.02074044250902488,
                0.16225518617403306,
                -0.03878528123629664,
                0.09283718761727548,
                0.005277134613537769,
                0.25539696847724774,
                -0.055577895938689156,
                0.01761270621963813,
                -0.03281626530886263,
                0.11643576872523796,
                -0.046878121578511775,
                0.0591615089980959,
                -0.012044791903466263,
                0.1940985100500794,
                -0.05184642587203607,
                0.03668048670445097,
                -0.02338582952616906,
                0.15239476232098909,
                -0.040582247938176996,
                0.08556094439835428,
                0.0015048007681058768,
                0.24225940129921308,
                -0.053863117852874995,
                0.02674949082790234,
                -0.028323274186112822,
                0.1337396719789653,
                -0.04390382548584147,
                0.07183782823963707,
                -0.005566710638492261,
                0.21732526478382275,
                -0.04952133478013922,
                0.0474639835875479,
                -0.01797154385188277,
                0.17248523175068758,
                -0.0368939525889274,
                0.10040209834306736,
                0.00921508092403417,
                0.26899806272618854,
                -0.05595986811533095,
                0.015446083034506852,
                -0.03387355434687381,
                0.11231135792939344,
                -0.04756940228623452,
                0.05614795095167237,
                -0.013576593593203432,
                0.1885475240944548,
                -0.052379202621956875,
                0.034120148042050255,
                -0.024663574067224043,
                0.14759976702918853,
                -0.0414462075535037,
                0.08202818749587555,
                -0.0003211352812304414,
                0.23586054294661685,
                -0.05431993461592079,
                0.02439304316965051,
                -0.02948699549277123,
                0.12929023998329647,
                -0.044679269055811086,
                0.06857332292202027,
                -0.007240165133834458,
                0.21136223256918535,
                -0.05013199636306569,
                0.044684877944309795,
                -0.019371712038744177,
                0.16732332162078895,
                -0.037851590878381414,
                0.09658297609639956,
                0.007225025126654732,
                0.26213878891102627,
                -0.05517727291768111,
                0.019825511052325023,
                -0.03173303559016935,
                0.12063955326606936,
                -0.04616616399958444,
                0.06223622584947106,
                -0.010478547940929787,
                0.1997503224733655,
                -0.05129438998715992,
                0.03929409087027534,
                -0.02207829823120312,
                0.1572794529962835,
                -0.039695384269736914,
                0.08916356285297199,
                0.003370644054789788,
                0.2487710266492978,
                -0.053387447280875786,
                0.029155560880936234,
                -0.027131790342865586,
                0.1382735373581671,
                -0.04310669263442042,
                0.07516774255509233,
                -0.0038561825687841054,
                0.22339499255032697,
                -0.04889080637484029,
                0.05030020020426611,
                -0.01653936233237376,
                0.17774230162545684,
                -0.03591199311328323,
                0.1042957370575907,
                0.011248079983157749,
                0.275976377345874,
                -0.05648240130307593,
                -0.03147016690861491,
                -0.05743195777909203,
                0.04139738825059856,
                -0.059589492122808486,
                -0.0026673061462935965,
                -0.04875380468767353,
                0.1052953992890547,
                -0.05864790308575148,
                -0.01872312587023253,
                -0.05401883600225524,
                0.07054913367530012,
                -0.059227875999560704,
                0.01719102085573038,
                -0.04135035333173934,
                0.1463371317733127,
                -0.05771520912584767,
                -0.025481409302234855,
                -0.05594100229056587,
                0.05531573149275884,
                -0.0595785640962903,
                0.006753662293775131,
                -0.04533931203550051,
                0.12498349939063041,
                -0.059275428304910324,
                -0.011138457212500882,
                -0.05163450177516807,
                0.08718035645944507,
                -0.058519421824185895,
                0.028714580070236993,
                -0.03674302030684045,
                0.16945200922888043,
                -0.05713612999333735,
                -0.02856855159700529,
                -0.05673857303949943,
                0.048197223632072975,
                -0.05962549921868298,
                0.0019203659907871128,
                -0.047115748827073076,
                0.11493711337830632,
                -0.05900025419367565,
                -0.015037769882973952,
                -0.05288650117813018,
                0.07868471841246132,
                -0.058919621523115466,
                0.022812535747363843,
                -0.039126854352163315,
                0.15766830634161522,
                -0.05821931038299473,
                -0.022201936141412495,
                -0.05503567943204002,
                0.06276295349818582,
                -0.05944673954669833,
                0.011841005536881,
                -0.04341930932138466,
                0.13544621788287808,
                -0.059472287656183606,
                -0.007017574530262703,
                -0.050258462247458044,
                0.09604689892744107,
                -0.05802452024818026,
                0.03490638604422003,
                -0.034192856758539676,
                0.18170071043761843,
                -0.056818584227817506,
                -0.030042132787767288,
                -0.05709807368394035,
                0.04475809158078731,
                -0.05961774965221358,
                -0.0004036545798462508,
                -0.0479517582165144,
                0.11006639322335666,
                -0.05883366255883808,
                -0.016906724533713367,
                -0.053467361095670546,
                0.07457258966985965,
                -0.059085077527979445,
                0.01996728123164124,
                -0.040258278977585535,
                0.15194692448800784,
                -0.05797666041343512,
                -0.023866147227503662,
                -0.05550204066101051,
                0.05899761771854128,
                -0.059523392605195326,
                0.009265043719682432,
                -0.04439758838547653,
                0.1301620803872181,
                -0.059383726340489454,
                -0.009106195860629641,
                -0.050962268403268826,
                0.09156657854162444,
                -0.05828398896647239,
                0.03177367793235515,
                -0.03548911227763208,
                0.1755174477631658,
                -0.057435016531316344,
                -0.027048591822350164,
                -0.056353029054620266,
                0.05171602064126454,
                -0.059612516392482474,
                0.004305789441000196,
                -0.04624514736678588,
                0.119908998352127,
                -0.05914755474123794,
                -0.01311532922332796,
                -0.0522757282777775,
                0.08288685732062175,
                -0.05873118237452752,
                0.0257279194589991,
                -0.037955349122201484,
                0.1635028171130662,
                -0.0584430863758537,
                -0.020487893939629128,
                -0.05454144122215189,
                0.06661302565885548,
                -0.05934832990071231,
                0.014482632211118398,
                -0.042403795100307604,
                0.14083740106618747,
                -0.05954093841261272,
                -0.00487160993636014,
                -0.04952250474552573,
                0.10062270562476529,
                -0.057740639468514675,
                0.03811389005228681,
                -0.03285347282593852,
                0.18800338762152302,
                -0.04799743588290213,
                0.04127939391794953,
                -0.016784911553085227,
                0.14613192850460033,
                -0.035019663584549096,
                0.08609305935111992,
                0.007955567674761802,
                0.2259602382644037,
                -0.04212000331030384,
                0.0620359631484778,
                -0.005338312381558056,
                0.18325476067694207,
                -0.026618030056074223,
                0.11394350535328186,
                0.023382333354359183,
                0.2749484021833135,
                -0.045208707439299514,
                0.051273890474262604,
                -0.011276695395915077,
                0.16403724285700216,
                -0.03098843132539908,
                0.0995112885863982,
                0.015382465901345866,
                0.24962320826100765,
                -0.03872638183867892,
                0.07362235812006128,
                0.0010610814083372672,
                0.2038671304050022,
                -0.02189056698878074,
                0.1294594069617946,
                0.0319989650827109,
                0.3020314196024605,
                -0.046640386244082,
                0.046184115341700624,
                -0.014082773062635877,
                0.15492559929901073,
                -0.03304545175789311,
                0.09267965513330091,
                0.011600006349422643,
                0.23758979376930423,
                -0.04046174257178174,
                0.06772244723499747,
                -0.0021982960543340015,
                0.19338129704903645,
                -0.024300176022295023,
                0.12156151299457348,
                0.027610690017676555,
                0.2882640815067016,
                -0.0437020853035225,
                0.05655550904594629,
                -0.008363126605251268,
                0.1734768866915245,
                -0.028846669230715154,
                0.10659636833204368,
                0.019308117169522635,
                0.2620721281437811,
                -0.036912797500303796,
                0.07974329497964024,
                0.00444418139978709,
                0.21472309770344994,
                -0.019386460453519685,
                0.1376464053222351,
                0.036553138834113055,
                0.3162628723205208,
                -0.04732822797866566,
                0.043709039369625405,
                -0.015446620612907804,
                0.1504896361211745,
                -0.03404279583567173,
                0.08935624516745476,
                0.009760849675128625,
                0.23172525363902813,
                -0.04130044811943996,
                0.06485299388567513,
                -0.0037829596775365085,
                0.18827378614517581,
                -0.025470408912518557,
                0.11771809160764961,
                0.02547688774885119,
                0.2815505550843389,
                -0.04446479182784259,
                0.05389028706732711,
                -0.009833577292548315,
                0.16871543011539436,
                -0.029928271706595476,
                0.10302161422905783,
                0.017327061488722897,
                0.2557949942235014,
                -0.03782944575056148,
                0.07665471544979556,
                0.0027368855961388684,
                0.20924816209675995,
                -0.02065050521998706,
                0.13351618405891424,
                0.034254932950082514,
                0.3090883452383397,
                -0.04593389037990479,
                0.04870545157908164,
                -0.01269294388019322,
                0.15944105250584467,
                -0.03202740869055215,
                0.09606432135497874,
                0.013473665081135228,
                0.2435552954843841,
                -0.03960376518737556,
                0.07064525412205881,
                -0.0005837953091668214,
                0.1985786290369681,
                -0.023107007544034847,
                0.12547490280108314,
                0.029784468725034083,
                0.29509051946026005,
                -0.042920516976739,
                0.05927043674538056,
                -0.006864867721594039,
                0.17832289764348036,
                -0.02774335064674242,
                0.1102366335920306,
                0.02132631091759037,
                0.2684560974413545,
                -0.03597626501759829,
                0.08288907822556325,
                0.006183545612419427,
                0.22029332346386932,
                -0.018098058257656074,
                0.1418512546291405,
                0.038894361889355036,
                0.32355658944921656,
                -0.05313338847545705,
                0.02555818349458924,
                -0.027222874654910717,
                0.12516660069341054,
                -0.042807693908583175,
                0.06774362607050864,
                -0.0051276374079210945,
                0.20239389009255399,
                -0.04858210377260648,
                0.044999259370860786,
                -0.017099641938631904,
                0.16098690429897966,
                -0.035731454003417845,
                0.09428442465134461,
                0.008979061906112213,
                0.25008791722086765,
                -0.05100774132832993,
                0.03489460778176653,
                -0.022376508202169274,
                0.14242016605521585,
                -0.039439245380290894,
                0.08050662644551489,
                0.0016389816014749357,
                0.22540922742904823,
                -0.04585149437224974,
                0.05592892422013905,
                -0.011361392167146354,
                0.18094950364408546,
                -0.03166638721136901,
                0.10914675777682138,
                0.01693643833370054,
                0.27652559881795263,
                -0.05210787883910002,
                0.030133789871945624,
                -0.02485170014970185,
                0.1336342783018955,
                -0.04116489319098196,
                0.07400250862132678,
                -0.0018133973642806983,
                0.21369949068737215,
                -0.047255358368643904,
                0.05035728953970091,
                -0.014290246698338985,
                0.17078842684426931,
                -0.033744827295587004,
                0.10157553930519157,
                0.01287772195192133,
                0.2630807801084967,
                -0.0498326568057645,
                0.03984743192671282,
                -0.019793741892291498,
                0.1515342964386724,
                -0.03762881244780859,
                0.08726439313705607,
                0.005234675300687213,
                0.23753475169420174,
                -0.044369383200381876,
                0.06172176756049637,
                -0.008308711979372527,
                0.1914809766293888,
                -0.029493386276402613,
                0.11700730310587641,
                0.02116119630845113,
                0.2904348341715165,
                -0.05262995010023648,
                0.02782325200588288,
                -0.026050075179838147,
                0.12936128235513694,
                -0.04199653621436762,
                0.07084293088162706,
                -0.003487469167899268,
                0.20799689367790175,
                -0.04792830826298185,
                0.04765204124585844,
                -0.01570961173673564,
                0.1658433910057504,
                -0.034749453509146,
                0.09789553753627968,
                0.010908751060840252,
                0.2565286250836037,
                -0.05042959529435072,
                0.037346586501190035,
                -0.02109880205476766,
                0.14693556598310326,
                -0.038544756085810275,
                0.08385326992849988,
                0.003418582716447383,
                0.23141928000540873,
                -0.04512029812443287,
                0.05879721164381525,
                -0.00985081108292999,
                0.1861682550881235,
                -0.03059188647211987,
                0.11304028023945044,
                0.019027680138649045,
                0.2834213777080858,
                -0.05156715377125719,
                0.03249062745922736,
                -0.023627323920881713,
                0.13798682362296555,
                -0.04031254155622081,
                0.07722339201747157,
                -0.00010479399203045087,
                0.21950311857165944,
                -0.046563131988095266,
                0.053115935799545946,
                -0.012841019999114618,
                0.175823348084522,
                -0.03271725089982838,
                0.10532556386665178,
                0.014886703765097755,
                0.26974592092694905,
                -0.04921685435142707,
                0.04239802501513919,
                -0.01846085148076702,
                0.1562176431015574,
                -0.03669114059372683,
                0.09074107938940192,
                0.0070879379495831065,
                0.24375713053647546,
                -0.043598576908245215,
                0.06470357410769446,
                -0.006734517441792831,
                0.19688905512822258,
                -0.028370511570951204,
                0.1210490108750248,
                0.02333776661920293,
                0.2975675574300003,
                0.000681258998977404,
                0.143635940781855,
                0.058753455430287496,
                0.27522756080620264,
                0.027091703736829748,
                0.20183138587809524,
                0.09691056126488813,
                0.3683840021744553,
                0.013275443121155113,
                0.17108616531261522,
                0.076909958304455,
                0.3190183993208995,
                0.04220783996084815,
                0.23636383777098452,
                0.11904028151535538,
                0.4240238227484808,
                0.006828430328907425,
                0.15697791963453872,
                0.06761698431767359,
                0.2964678267433952,
                0.03448040133896842,
                0.21859141958867112,
                0.10768944453948227,
                0.395373895795909,
                0.02002716559111718,
                0.18601735055371227,
                0.08666314786714259,
                0.342961853537459,
                0.05029183894842322,
                0.2552182642932207,
                0.13100679379957647,
                0.4544293091614695,
                0.0037175422687306696,
                0.15021456242524,
                0.063133335915454,
                0.2856889399062964,
                0.03074469714366931,
                0.21008907969029317,
                0.10223111481408291,
                0.3816772887259886,
                0.0166127849070752,
                0.1784452219658001,
                0.08172697650814408,
                0.3308107288109911,
                0.04620402922391728,
                0.24565132202196605,
                0.12494371916759622,
                0.4390010241634569,
                0.010014228164309883,
                0.16393279295983199,
                0.07220794340438856,
                0.3075742396502175,
                0.03830074019884909,
                0.22734680501462995,
                0.1132907120998478,
                0.4094854606082532,
                0.02351969960374307,
                0.19381014107209193,
                0.09172282459455176,
                0.3554826012786817,
                0.05447400245614763,
                0.2650738734718071,
                0.13723547651571716,
                0.47032112441221663,
                0.0021900861918584674,
                0.14690257553744568,
                0.060930638201461426,
                0.28041918013017636,
                0.028907973929206885,
                0.20593016908376643,
                0.09955393071638967,
                0.37498094980718344,
                0.014934545899011028,
                0.1747395261173577,
                0.07930383737046197,
                0.3248703834928046,
                0.04419464496257168,
                0.2409732152946399,
                0.12197241100829193,
                0.4314568080202025,
                0.00841193855841254,
                0.16043098509356313,
                0.06989882069776131,
                0.3019794583875523,
                0.03637986328883566,
                0.22293694874087228,
                0.11047188058187883,
                0.4023770732530325,
                0.021763585874710462,
                0.18988568079211704,
                0.0891772681417342,
                0.3491753398903341,
                0.05237094774202897,
                0.26010940205891336,
                0.13410005304835776,
                0.4623164896836518,
                0.005263646381311676,
                0.15357273004261568,
                0.06536197244681276,
                0.29103807345477084,
                0.03260209489334943,
                0.21430914865646766,
                0.10494273979393,
                0.38847445461249375,
                0.01831028047777276,
                0.18220418263602722,
                0.0841799007727566,
                0.3368407697763748,
                0.04823631543872496,
                0.2503992900924641,
                0.12795493340993824,
                0.44665800804057276,
                0.01163536888867082,
                0.16748422242107602,
                0.07454482690245649,
                0.3132534544419492,
                0.04024330417249501,
                0.23182206995908872,
                0.11614661591970483,
                0.4167005441335474,
                0.025295677700993727,
                0.19779171176207583,
                0.09430039287120416,
                0.3618850227937692,
                0.056601376374973006,
                0.2701128612617565,
                0.1404138422086787,
                0.47844480079984664,
                -0.037048460367331296,
                -0.048697879827008475,
                -0.05632743311658665,
                0.0058341324287547085,
                -0.04931993691115681,
                -0.02906234710016267,
                -0.05681501590122938,
                0.06056298126487533,
                -0.04379607819028784,
                -0.040534395733667586,
                -0.0574970873305498,
                0.030401418950450038,
                -0.05354075167798422,
                -0.013788012896697257,
                -0.05399471588775065,
                0.09701975849074816,
                -0.040572307477473105,
                -0.04500087439764611,
                -0.057127843109323576,
                0.017460276296281305,
                -0.05160020370622247,
                -0.021933346873186762,
                -0.055692074515464055,
                0.0779586357048115,
                -0.04671471857324054,
                -0.03524158538030821,
                -0.05740420958661492,
                0.04474032110714142,
                -0.055123575763349655,
                -0.004556535585370867,
                -0.05167903269388126,
                0.11784206146912386,
                -0.038847704077168935,
                -0.04694213408911567,
                -0.05677972554817519,
                0.011487875583045955,
                -0.050501536321043664,
                -0.025620652082165737,
                -0.056322729631711727,
                0.06905848045611147,
                -0.04529398201966474,
                -0.0379949621474676,
                -0.057510474942215034,
                0.03739085107035353,
                -0.054378130998794086,
                -0.009312531732855643,
                -0.05291703554523282,
                0.10720465398959451,
                -0.04222194236879924,
                -0.04286729698787614,
                -0.05736821981794807,
                0.02376137611582343,
                -0.052613991975929045,
                -0.017992008817183325,
                -0.0549178656790833,
                0.08727510744965815,
                -0.04805715020591096,
                -0.03226665222180579,
                -0.05717391583600595,
                0.05246068005383629,
                -0.05577432943522681,
                0.0004892076474600466,
                -0.050274713014632655,
                0.1289444508136791,
                -0.03795739965321926,
                -0.047842778871706806,
                -0.05656638622204846,
                0.008621791502999712,
                -0.049920989330758656,
                -0.027371682353776964,
                -0.05658585272246677,
                0.06476086972598517,
                -0.04455461281637528,
                -0.039290953917281546,
                -0.05751847219779936,
                0.03385180055311231,
                -0.05397076877913724,
                -0.011584767586118245,
                -0.05347554928989723,
                0.10205641370561454,
                -0.0414065244039664,
                -0.04395855854758661,
                -0.057261729848824314,
                0.020569103316311083,
                -0.05211783732842519,
                -0.019994966271808554,
                -0.05532324627162076,
                0.08256409533305593,
                -0.04739580151225074,
                -0.03378229708036655,
                -0.05730484762966333,
                0.04855345337494381,
                -0.05546096917414231,
                -0.0020704672657228676,
                -0.05099804500742827,
                0.12333434613575898,
                -0.03971935158563224,
                -0.045995113980027494,
                -0.056967024318588994,
                0.014433620890931064,
                -0.051061353467048556,
                -0.023808222424706076,
                -0.05602501749117121,
                0.07345725203870633,
                -0.046014062565901084,
                -0.03664548774431112,
                -0.05747256760671146,
                0.04101990790491862,
                -0.05476251274128438,
                -0.006970170295579469,
                -0.052318444335256994,
                0.11246601910684796,
                -0.04301848872806961,
                -0.04172620762895314,
                -0.05744683564996321,
                0.027038381507209747,
                -0.05308839264341707,
                -0.01592339005833447,
                -0.054475253009704905,
                0.09209316122842386,
                -0.0486985908296121,
                -0.030693667534357073,
                -0.05701083565820381,
                0.0564633891369177,
                -0.056063280360579074,
                0.003123674785861794,
                -0.0495082558066402,
                0.1346739658573971,
                -0.05948431377153339,
                -0.0068661080991758066,
                -0.046600434935125654,
                0.07965463069582292,
                -0.05567072782810624,
                0.02878191683367013,
                -0.031024748131180828,
                0.15031620987143368,
                -0.05818894405981974,
                0.00930770144869932,
                -0.03973618653350591,
                0.1121941732690424,
                -0.05185128598956194,
                0.05204935332041012,
                -0.02018052255239838,
                0.1947207738565906,
                -0.058986609651899266,
                0.0008370232850172234,
                -0.04338338327506912,
                0.09526831869923637,
                -0.05393058241676456,
                0.0399086578711271,
                -0.025889107176480974,
                0.17168740024241697,
                -0.05708637628340009,
                0.018602671625995455,
                -0.035628001737426376,
                0.13051484190048201,
                -0.04941494670404632,
                0.06527369954620134,
                -0.013855200155365689,
                0.21951192933975194,
                -0.05927277457716283,
                -0.0031070656532669405,
                -0.045043876030356894,
                0.08730249286929877,
                -0.05484205723514911,
                0.034222772597828646,
                -0.02852593495691513,
                0.16079988058975447,
                -0.05767620821503015,
                0.013848476982628477,
                -0.0377417718039781,
                0.12117486388272104,
                -0.050678991420130895,
                0.05852158758756503,
                -0.017097817182858095,
                0.206890527474551,
                -0.05862550494887793,
                0.0049729483278198846,
                -0.04161540483975831,
                0.10356213558041853,
                -0.05293437043476855,
                0.045847981157028275,
                -0.0231090940690549,
                0.18299041511552339,
                -0.05641832477240512,
                0.0235778844366033,
                -0.03339051505868676,
                0.1402249441627671,
                -0.048056409457464214,
                0.07231490714544146,
                -0.010446691303437788,
                0.2325974351839556,
                -0.05938786066752362,
                -0.0050093012417521095,
                -0.045834933129455066,
                0.08343943513293424,
                -0.05526663015591239,
                0.031472233653830624,
                -0.02979227810451039,
                0.15550828410194012,
                -0.057942150834740094,
                0.011551878863354022,
                -0.03875363391091516,
                0.11664027704815637,
                -0.05127644397893065,
                0.055251053959629856,
                -0.018658792969209862,
                0.2007499652131584,
                -0.058815452305280166,
                0.002880574037852039,
                -0.042513059661503455,
                0.09937359364150546,
                -0.0534431972845973,
                0.042846106326293085,
                -0.02451732986343615,
                0.17728623497879015,
                -0.056762206098348825,
                0.02106216791453883,
                -0.03452500345902068,
                0.1353229422937885,
                -0.04874766895080054,
                0.06875758236418321,
                -0.012172063872604144,
                0.2259958828765004,
                -0.05913903521597598,
                -0.001158571603585059,
                -0.044226838630526205,
                0.09124503835788149,
                -0.05439678641992611,
                0.037034565757214685,
                -0.0272250913196749,
                0.1661924361492576,
                -0.05739099473550728,
                0.016198426717365086,
                -0.03670007402468228,
                0.12579926940640979,
                -0.05005860448656481,
                0.061862087476473544,
                -0.015496866643915495,
                0.21314399863585748,
                -0.058416696707863605,
                0.007115026475409839,
                -0.04068994321217502,
                0.1078352295592954,
                -0.052403828631034335,
                0.04891536504523643,
                -0.02166372183426309,
                0.188801428057349,
                -0.056054560250032595,
                0.026150802693385457,
                -0.032223959758058585,
                0.1452222337314441,
                -0.047340793807086,
                0.07594685775258826,
                -0.008678303308085056,
                0.23931817484755835,
                -0.05952207577045178,
                -0.017489119457677307,
                -0.05194019915516966,
                0.06378749402750129,
                -0.05836056240129801,
                0.015530679670055792,
                -0.039009753227410224,
                0.13184804584205634,
                -0.05955285109659954,
                -0.0026308044847064413,
                -0.046399316403178834,
                0.09502450478703377,
                -0.05586651236731033,
                0.03748846650168852,
                -0.02948559422170585,
                0.17495846877656934,
                -0.05968745146802919,
                -0.010444060889623014,
                -0.04938499673341121,
                0.07874943148018175,
                -0.05728319974811684,
                0.02600219079367132,
                -0.03453439153033444,
                0.1525716014862269,
                -0.059113294165467414,
                0.006007434769998074,
                -0.04295227541266192,
                0.1126954012220986,
                -0.05409256863762542,
                0.050059242937590995,
                -0.02381952741915606,
                0.19910428611768222,
                -0.05964207582308216,
                -0.014059192315834421,
                -0.05071460398674578,
                0.07110936225081331,
                -0.0578633024152166,
                0.020643821691896606,
                -0.03684113868855278,
                0.14200776063277304,
                -0.05937162995754898,
                0.0015815167472300784,
                -0.044735522638328265,
                0.10368018068302755,
                -0.05502544474829031,
                0.043633807143802106,
                -0.026732585600703494,
                0.18680540481460783,
                -0.05965788368607809,
                -0.006636930594549762,
                -0.04794782059331178,
                0.08671773408273946,
                -0.05661831648946446,
                0.03161420045119255,
                -0.032084336059581595,
                0.16355121966086988,
                -0.05877671525548005,
                0.010654553613750607,
                -0.04104520847866529,
                0.12208100821703904,
                -0.05306513667912156,
                0.05677399680452819,
                -0.020740434538230185,
                0.21186757338990514,
                -0.059591391813769365,
                -0.01579688966551389,
                -0.05134018868619858,
                0.06740927213160329,
                -0.058122174528719,
                0.01805711523348005,
                -0.03794239695932104,
                0.1368781077784832,
                -0.059471817234391475,
                -0.0005508761204503155,
                -0.045582086217628895,
                0.09930806936320306,
                -0.05545729081423674,
                0.040526693456634955,
                -0.028128729939838424,
                0.18082621452672332,
                -0.059682063348859574,
                -0.008564928166967717,
                -0.0486800849790658,
                0.08269191868212329,
                -0.05696148471688585,
                0.028775956805982626,
                -0.03332760871959092,
                0.15800870230000374,
                -0.058954863534009375,
                0.008302860932623904,
                -0.04201450020441733,
                0.1173412208945427,
                -0.05359085175385833,
                0.053379870774581215,
                -0.022301117292035277,
                0.20542709230890033,
                -0.05967410689237125,
                -0.012275197056959916,
                -0.05006301942796258,
                0.07488899945964046,
                -0.057583722793356676,
                0.023291831758399568,
                -0.03570535042484144,
                0.14723844184085033,
                -0.05925216717934613,
                0.003767305650721214,
                -0.043859098855721104,
                0.10814217500172475,
                -0.054570649721329995,
                0.046810941456990676,
                -0.02529643203332928,
                0.19289757825685439,
                -0.059614840983311754,
                -0.004659187230336411,
                -0.047187727356946596,
                0.09082816334689257,
                -0.05625342120806466,
                0.03451800503274913,
                -0.03080389496968867,
                0.16920064159510312,
                -0.058578676652799186,
                0.013063494936118306,
                -0.04004382283549596,
                0.12691615003515727,
                -0.05251504837492002,
                0.060242805511587054,
                -0.019136699396415456,
                0.21842731856768166,
                -0.03662826183239454,
                0.0696708695498963,
                0.0031160859390018656,
                0.18293445073791936,
                -0.019381790040334777,
                0.11870236761586146,
                0.032109352789291626,
                0.2669265950224868,
                -0.028616080118438417,
                0.09253913488112443,
                0.016690668511153937,
                0.22214317015184465,
                -0.008847600045969461,
                0.14865279548406435,
                0.04965714841445053,
                0.31798417116872413,
                -0.032772096163077385,
                0.08072187190904452,
                0.009688654000244783,
                0.201883664012322,
                -0.014284068118841602,
                0.13317139431100744,
                0.040597274966779076,
                0.2916253752083271,
                -0.02415534642842237,
                0.10517933025842201,
                0.024152899002899627,
                0.24379554320988578,
                -0.0030545674211057217,
                0.16521619405787408,
                0.05933269379403371,
                0.3460985080876375,
                -0.03473748256615706,
                0.07510400366398733,
                0.006350485783228848,
                0.19225030516943448,
                -0.01687428517435659,
                0.1258145591104896,
                0.03628442603473607,
                0.2790743269917001,
                -0.026424233659365384,
                0.09875269755621889,
                0.02036220718783963,
                0.2327899609618287,
                -0.005996894428459185,
                0.156794767187313,
                0.05441510309551088,
                0.3318158002084846,
                -0.030731797756520973,
                0.08653125471698057,
                0.013134133239323543,
                0.21184454548113657,
                -0.011609215115835552,
                0.14078127254065037,
                0.04505306112601444,
                0.3045913767782392,
                -0.021808304113315264,
                0.11182662286530705,
                0.02806709605126741,
                0.2551707445562292,
                -1.7885820295018227e-05,
                0.17392628486464046,
                0.06441589149627254,
                0.3608447413577153,
                -0.03569218694195921,
                0.07236476071282287,
                0.0047205283253535695,
                0.18755330813592225,
                -0.018138264300908414,
                0.12222839995289841,
                0.034179982142733226,
                0.27295076589054085,
                -0.02752972524560993,
                0.09561974892788859,
                0.01851180780839074,
                0.22742238545109794,
                -0.0074335369904615966,
                0.1526894170830876,
                0.052016536534695804,
                0.32484437083840784,
                -0.03176133791914116,
                0.08360219231091538,
                0.01139775042170397,
                0.2068225303753365,
                -0.012957349250389832,
                0.13694417018474297,
                0.04280697039196772,
                0.2980557716002623,
                -0.022991672205650442,
                0.10847491180168801,
                0.02609427946224403,
                0.24943625686226634,
                -0.0015481996748511707,
                0.1695345730164327,
                0.06185321067830505,
                0.35341289823459693,
                -0.03376412956804148,
                0.07788942698599609,
                0.008006382172404233,
                0.197026675143893,
                -0.015589631162317588,
                0.1294618760326559,
                0.0384233106864912,
                0.2852987139928155,
                -0.025299485042050273,
                0.1019389105294292,
                0.022242391689985274,
                0.2382472311701806,
                -0.0045373496808930195,
                0.16096997792146955,
                0.056853575498794204,
                0.33889999612651167,
                -0.02968340594791621,
                0.08950993830020083,
                0.014898276903233965,
                0.21695099322551303,
                -0.010239393626463335,
                0.14468378291310224,
                0.047336223980463984,
                0.31123367699946186,
                -0.020605071243408702,
                0.11523544380294608,
                0.030071924400808015,
                0.26100039136827397,
                0.0015367474119855687,
                0.17839251231757886,
                0.06702151424018928,
                0.36839562489490363,
                -0.05830156982866598,
                0.0033776802799579523,
                -0.04091986645092646,
                0.09458597132112222,
                -0.05224356247142152,
                0.041350256229630955,
                -0.023074427681066528,
                0.16765636906328668,
                -0.05588465167896191,
                0.020709419504976716,
                -0.03292324611644319,
                0.12832373556517274,
                -0.04729900222862614,
                0.06579392660918253,
                -0.011086893078456313,
                0.2132848260596455,
                -0.05724319950160438,
                0.011658747600567081,
                -0.037137197281299855,
                0.11079728081250122,
                -0.049941196092168905,
                0.05306385508869106,
                -0.01736793089396148,
                0.18963778636977463,
                -0.05422087053752002,
                0.030586556338635388,
                -0.02824705487202301,
                0.1472480981856999,
                -0.04429897392701697,
                0.07961028226711088,
                -0.004187405019660006,
                0.2386932018700214,
                -0.057809717339016034,
                0.007425440662993604,
                -0.039080633711130505,
                0.10253227909617625,
                -0.051133858758605,
                0.047084233317848015,
                -0.020290379066017678,
                0.17844473055129312,
                -0.05509135773792641,
                0.02554099955817492,
                -0.03064499186033371,
                0.13760587925315992,
                -0.0458449692930752,
                0.0725618292278326,
                -0.007717326131284578,
                0.2257627383653158,
                -0.05660168788065127,
                0.016084405093736893,
                -0.03508599094301555,
                0.1193910182537959,
                -0.048663627145014196,
                0.05929754443453793,
                -0.014301898055158965,
                0.20124719719374778,
                -0.05327205219630331,
                0.03585370329307623,
                -0.025725059487431933,
                0.15726124359215132,
                -0.04265825935769227,
                0.08694851806505675,
                -0.0004911351881837979,
                0.25208868669443957,
                -0.05806496412981772,
                0.005378784497481978,
                -0.04001306055837435,
                0.0985199081727287,
                -0.05169896668101466,
                0.04418705771444227,
                -0.021699387153552126,
                0.1730006839034267,
                -0.05549759065301833,
                0.023098930376345247,
                -0.03179881375565144,
                0.13292046830068932,
                -0.04658331667110942,
                0.06914337823231338,
                -0.009421787120457407,
                0.21946798479040136,
                -0.05693184634604949,
                0.013847099372893523,
                -0.036125296144108365,
                0.11505242205130355,
                -0.04931315451636781,
                0.05614840697922273,
                -0.01585319453200496,
                0.19538971070914346,
                -0.053756331781845704,
                0.033191947298945604,
                -0.027001845863010226,
                0.15220761897310897,
                -0.04349063674580314,
                0.08324259239538027,
                -0.0023604462583585338,
                0.2453320293299815,
                -0.05753580737317089,
                0.009518480305242634,
                -0.03812215910327503,
                0.10662432034304449,
                -0.0505480142596874,
                0.05004281693001346,
                -0.018846774251128514,
                0.18398994761988152,
                -0.05466582966988891,
                0.028036559759923172,
                -0.029461252443862815,
                0.1423813058548719,
                -0.04508363446931121,
                0.07605041466661121,
                -0.005972779762895639,
                0.2321706265780929,
                -0.056252651431965964,
                0.01837154688220067,
                -0.03401880428174772,
                0.12381435626191167,
                -0.04799233894324917,
                0.0625123519351557,
                -0.012713361705735005,
                0.20721173502693624,
                -0.05276785792674167,
                0.038572807620838354,
                -0.024416117168307144,
                0.16241036006546722,
                -0.04180146554711815,
                0.09072924493736594,
                0.0014213091292602272,
                0.25896476434745164,
                -0.01889573554125535,
                0.10704511272977928,
                0.030647294103319133,
                0.23023465232741525,
                0.0032469436853236515,
                0.16102681393556656,
                0.06455412367786488,
                0.3192329252931996,
                -0.008435932155465968,
                0.1323855869447631,
                0.04667697067180848,
                0.27194233807542956,
                0.01623128619340987,
                0.19346162409232703,
                0.08456436542270575,
                0.37280646245978555,
                -0.01381584188111682,
                0.11933153402552792,
                0.03844702498754429,
                0.2504323619334946,
                0.009569508353536543,
                0.176737195604669,
                0.07427273407496156,
                0.34518854848879943,
                -0.0027510637617249294,
                0.14626401861229354,
                0.05536797601980446,
                0.2948472301391438,
                0.02325017093807907,
                0.21126979765390752,
                0.09547281371534809,
                0.4021822677226382,
                -0.01639310828259838,
                0.11309578964413404,
                0.03449518402352334,
                0.2401745129242085,
                0.006366816255409152,
                0.16875947858287416,
                0.06934441203133833,
                0.33200879910047254,
                -0.005632053180652225,
                0.1392180822638064,
                0.050962786607974694,
                0.28321512755456024,
                0.019694845368439632,
                0.20222576012203208,
                0.08993862372538962,
                0.387268527171565,
                -0.011163622053610966,
                0.1257591357224403,
                0.04250636906122125,
                0.2610182269863901,
                0.01285695315422523,
                0.1849683737407492,
                0.07934426076589272,
                0.35878381998061937,
                0.00020815983017545778,
                0.15353099528436243,
                0.059896900418796375,
                0.3068494829059597,
                0.02690000552250742,
                0.22060295487341092,
                0.10117291579540007,
                0.4175601400811054,
                -0.017653740066822722,
                0.11004773421436377,
                0.03255845928231633,
                0.23516545289645258,
                0.004796640448025903,
                0.16486303235390432,
                0.0669323289234127,
                0.3255710977521138,
                -0.007043569145262275,
                0.13577562152674544,
                0.048805221645159616,
                0.277534488089368,
                0.017951758490616986,
                0.1978092726512573,
                0.08723186898357195,
                0.37998180592902564,
                -0.012499128693059653,
                0.12252092043927156,
                0.040463029226818104,
                0.2556836578228036,
                0.011202507937910531,
                0.1808205685824431,
                0.07679026574994845,
                0.3519335081593783,
                -0.0012813093751928204,
                0.1498693940472537,
                0.0576166908466937,
                0.3008014025277309,
                0.02506309528494068,
                0.21589965226137187,
                0.09830174406419374,
                0.4098124010231986,
                -0.015113819874564956,
                0.11619010877876666,
                0.03645789336378756,
                0.24526306689319077,
                0.007957693782905801,
                0.17271718474356912,
                0.0717910003999042,
                0.3385474661821981,
                -0.0042012627669108125,
                0.14271390009633206,
                0.053150191777808595,
                0.2889855921342164,
                0.021460870683017604,
                0.20671221980645377,
                0.09268535822712913,
                0.3946681642120289,
                -0.009809251058399531,
                0.12904706022506418,
                0.044577520117955016,
                0.26643735449711536,
                0.014533117268266883,
                0.18918169379103245,
                0.0819353971114102,
                0.36574097138680084,
                0.0017175159394586736,
                0.157249803854358,
                0.06220918154402118,
                0.31299285752739603,
                0.028761276097272973,
                0.22538088938217837,
                0.10408710807829134,
                0.4254270735113407,
                -0.029129883881961773,
                0.08622568094743661,
                0.01511111839539285,
                0.20417110250942905,
                -0.009639291828970033,
                0.13757915795893239,
                0.04637270059950675,
                0.2905683578300472,
                -0.019996233340257494,
                0.11025066088636033,
                0.029817425560563136,
                0.24457626079513411,
                0.002019653094602587,
                0.16870432078569692,
                0.06506287404384657,
                0.3428477603236344,
                -0.024713074068788327,
                0.09785402944982695,
                0.02224899803783312,
                0.22371706361382276,
                -0.003979512935537869,
                0.15263431075010736,
                0.05543103074862603,
                0.3158763493610145,
                -0.014974379314990738,
                0.12347236216064612,
                0.037847285606076544,
                0.2668313832180876,
                0.008376139773387633,
                0.18585892609986926,
                0.07531206625821986,
                0.37157823101318554,
                -0.026958797916842876,
                0.09194724253745527,
                0.01862804354584824,
                0.21378497014892195,
                -0.006850831405730861,
                0.14498410935021844,
                0.050832789790735175,
                0.30302027720914537,
                -0.017523870864436724,
                0.11675470213642446,
                0.033772619751931916,
                0.25552403680272534,
                0.005151984032534134,
                0.17714156392994013,
                0.07010743532443899,
                0.35698700920820414,
                -0.022392393082248132,
                0.10395283650538124,
                0.02597753890953666,
                0.2339774155075991,
                -0.001023398271521603,
                0.1605381758707456,
                0.06017259940268862,
                0.32914822578044267,
                -0.012346629990710137,
                0.13041124522551478,
                0.04204578960684692,
                0.2785091420903466,
                0.011694867909692314,
                0.19486563045329103,
                0.08068275222035774,
                0.38663388667902676,
                -0.028053658586040153,
                0.08906372534871064,
                0.016856791713073527,
                0.20893887723397347,
                -0.008255305643783052,
                0.14125149535576714,
                0.04858579181513968,
                0.2967445187366815,
                -0.018769630597467325,
                0.11347644652653559,
                0.03178035369889822,
                0.2500058722212872,
                0.0035745042829934738,
                0.1728884960222289,
                0.06756551215869942,
                0.3498616590549031,
                -0.023562131076043536,
                0.10087899787866152,
                0.02409958995659055,
                0.2288055723146421,
                -0.00251218416667974,
                0.15655400158358074,
                0.0577835677132988,
                0.3224595759141168,
                -0.013670365323273169,
                0.12691366764160128,
                0.03993077702815022,
                0.27262327556429244,
                0.010023502662832749,
                0.19032552615153786,
                0.0779762703700533,
                0.3790472178999781,
                -0.02584528093880867,
                0.09487706289489074,
                0.020425299552108412,
                0.21871061635832506,
                -0.005425645817837283,
                0.1487780326849239,
                0.05311432254609923,
                0.30939707071290523,
                -0.01625883202489675,
                0.12008635927795576,
                0.03579475055876234,
                0.26113209082421035,
                0.006752416820908187,
                0.18146465843217718,
                0.0726893727415784,
                0.36422534942971097,
                -0.021203788561487188,
                0.10707642630155954,
                0.027883321145416553,
                0.2392338788870988,
                0.00048711863726646164,
                0.16458791694459168,
                0.06259880442695517,
                0.3359437870158123,
                -0.01100300061067936,
                0.13396607706466823,
                0.04419290077161889,
                0.2844903696713651,
                0.013390610582003786,
                0.19948042351882656,
                0.08343229160000028,
                0.39433982658685907,
                0.055605654219604755,
                0.2352212960868142,
                0.1320075668032049,
                0.3851461718378463,
                0.09118079631206392,
                0.3025830873211358,
                0.17933007338042667,
                0.48747014674708633,
                0.07278215062006756,
                0.26725462703666614,
                0.15474671852419936,
                0.4335206953476224,
                0.11087939797317291,
                0.3416989197956454,
                0.20604265613838768,
                0.5476939869805797,
                0.0640439730615938,
                0.25085481195922665,
                0.14316240770555472,
                0.4086782603013951,
                0.10086071611498114,
                0.3216347932420224,
                0.1924003736096347,
                0.5167520283364085,
                0.08182505605576516,
                0.2844774150020991,
                0.16679127068099242,
                0.45975605292061095,
                0.12125466217793597,
                0.3628450917955316,
                0.2203006435190975,
                0.5803915497542428,
                0.059787509147700306,
                0.24294568225169333,
                0.13753310025282428,
                0.39675345726740685,
                0.09597939824893469,
                0.31198661277744744,
                0.18579633189122863,
                0.5019094218761723,
                0.07726508155483285,
                0.2757594808273135,
                0.16070941474557737,
                0.44645897134588164,
                0.11602121703814271,
                0.35213227208807585,
                0.21309182758683798,
                0.563817220933175,
                0.06837535106425467,
                0.2589554658776628,
                0.1488990320470049,
                0.42093059939069943,
                0.1058266739044924,
                0.3315360282744263,
                0.19914736031257274,
                0.5320096034700034,
                0.08646318867149404,
                0.2934160196749318,
                0.17299663866171433,
                0.47342276796835814,
                0.12658246683250182,
                0.3738465879232403,
                0.22767507515775448,
                0.5974294202316488,
                0.05768726672462067,
                0.23906081211344515,
                0.1347575753032338,
                0.3909107431005109,
                0.09356987013425273,
                0.30725478524098937,
                0.18254629444119297,
                0.49464008732438014,
                0.07501404739622601,
                0.27148088536134896,
                0.15771343578659514,
                0.4399456514884853,
                0.11343901718155898,
                0.3468812301730658,
                0.2095476515988059,
                0.5556999871178183,
                0.06620027082814979,
                0.25488076669557375,
                0.1460170759300966,
                0.41476285378120903,
                0.10333298686491778,
                0.32655324606003033,
                0.19575566832223673,
                0.5243282095804063,
                0.08413427503524785,
                0.2889186512393982,
                0.16987823574024324,
                0.46654252161208054,
                0.12390659082113274,
                0.36830917183928513,
                0.223966776268972,
                0.5888517564569198,
                0.06190640065533227,
                0.2468767351137086,
                0.1403345655412956,
                0.402675547673513,
                0.0984096021840135,
                0.316779600904075,
                0.18908081198126914,
                0.5092795860988542,
                0.07953537344308458,
                0.28009134322741513,
                0.16373518047117153,
                0.45306198943549936,
                0.11862632025153523,
                0.3574531776949442,
                0.21667591153392557,
                0.5720472253037536,
                0.07056928352675042,
                0.26307978870799664,
                0.15180875053595222,
                0.4271827810551966,
                0.10834204935196236,
                0.33658422144913025,
                0.20257612642173167,
                0.5397976962919514,
                0.08881196790205352,
                0.297970500691912,
                0.17614705510578638,
                0.48039817709548405,
                0.1292826635110086,
                0.37945852279202363,
                0.23142631820724102,
                0.606126128545889,
                -0.020726035564018412,
                -0.05070457411780897,
                -0.04916917653947643,
                -0.005338537379109919,
                -0.03757951351619701,
                -0.035651885942885514,
                -0.05423912180239558,
                0.04480686382771942,
                -0.029764635305647814,
                -0.044832478389460306,
                -0.052629985644341404,
                0.016937066801641556,
                -0.044091389125079164,
                -0.022669079529655443,
                -0.05371008585413112,
                0.07897178903647432,
                -0.025395369173456184,
                -0.0481532546295356,
                -0.05111515762694063,
                0.00514177545003485,
                -0.041005305326907895,
                -0.029668640424279042,
                -0.05426180515317226,
                0.06105660333652817,
                -0.03382878050072961,
                -0.04068538741548838,
                -0.053682704870699385,
                0.03013009691891988,
                -0.046819760320289214,
                -0.014583394146362921,
                -0.05254005705373574,
                0.0986481323013254,
                -0.023098021438035844,
                -0.04952166931965089,
                -0.05019425296028954,
                -0.0002577072405290081,
                -0.03933387411210269,
                -0.03278306601192791,
                -0.054319646106674294,
                0.052729408293207686,
                -0.03183529033745329,
                -0.04286590234397657,
                -0.053216170064846316,
                0.02335356552348682,
                -0.04550154056083988,
                -0.01876649194451791,
                -0.05320523079570805,
                0.08858370753654173,
                -0.02761775062991868,
                -0.04659252634182333,
                -0.05192832461642946,
                0.01086995218086042,
                -0.04259186012893154,
                -0.02630018658297951,
                -0.05406041412756926,
                0.0698001093372791,
                -0.035743968209455884,
                -0.03828332045269599,
                -0.05402521469324073,
                0.0372775119218796,
                -0.04804329192608625,
                -0.010110554092571547,
                -0.05170857036823405,
                0.10917753315608288,
                -0.02192134566432193,
                -0.05013589312836504,
                -0.04969452125370852,
                -0.002837334190542685,
                -0.038466946202050226,
                -0.034247658176926016,
                -0.054296363465605374,
                0.04871827560721659,
                -0.030809545235733152,
                -0.04387546480988069,
                -0.05293776850062676,
                0.020100982356994115,
                -0.04480779192740758,
                -0.020752280415792957,
                -0.053477331423857286,
                0.08372195646275467,
                -0.026515959100072376,
                -0.047397362821724326,
                -0.05153543910626057,
                0.007964141562654747,
                -0.0418093218737402,
                -0.02801670135238832,
                -0.054179385355021134,
                0.06537558078875717,
                -0.03479624116578055,
                -0.039512531665079106,
                -0.05386974427016798,
                0.033656757881345034,
                -0.047443542326970845,
                -0.012383776808828245,
                -0.052145485374917505,
                0.10385392344863599,
                -0.024256040838997423,
                -0.048861071199844855,
                -0.05066794489022723,
                0.0024015796855832543,
                -0.04018007283877717,
                -0.03125707559465416,
                -0.05430834059519525,
                0.05684170046175949,
                -0.03284174738393825,
                -0.04180285831921869,
                -0.053464662387299924,
                0.026696153696479406,
                -0.04617230943709154,
                -0.016710579081885626,
                -0.05289305365856857,
                0.09355858201461122,
                -0.02870067112647867,
                -0.045737863107656915,
                -0.0522933367981013,
                0.013860494109657876,
                -0.043352645094551154,
                -0.02451801167246172,
                -0.0539042117500559,
                0.07433167814851509,
                -0.03667178781453222,
                -0.03699677051545554,
                -0.054148537599864,
                0.040993747026236954,
                -0.048618632938997305,
                -0.007762540373294374,
                -0.051228531132216926,
                0.11462055177079468,
                -0.05862228766307706,
                -0.024331674041386506,
                -0.054902185572644896,
                0.05302496888275915,
                -0.059390600398263604,
                0.0067343531522683605,
                -0.04390838647574097,
                0.1191043192833061,
                -0.05961787175775998,
                -0.01044885270473125,
                -0.0503288779289026,
                0.08327341528955524,
                -0.057862098279123635,
                0.027710755012919377,
                -0.03535511781877439,
                0.16121771043623895,
                -0.059270061799749,
                -0.017774034334544827,
                -0.05283060375395161,
                0.06749311312190233,
                -0.05879592525439031,
                0.016715580250281106,
                -0.03991822249903218,
                0.13932992850246068,
                -0.059660777297885936,
                -0.002299384390491396,
                -0.04736616559715846,
                0.10044852240828671,
                -0.05657122810268228,
                0.03978957333219492,
                -0.030175278804071327,
                0.18486326323776786,
                -0.05898348796467845,
                -0.02114537685663059,
                -0.05391836148370603,
                0.06010006022429328,
                -0.05913466507052412,
                0.0116024527605629,
                -0.041982311449283494,
                0.1290152007122416,
                -0.0596778728208944,
                -0.006480827406639842,
                -0.04890719920852307,
                0.09168132631524108,
                -0.05726253827754546,
                0.033610226258842246,
                -0.03284515368104398,
                0.17281466411808,
                -0.05948169518050797,
                -0.014210856922069836,
                -0.05163536061296227,
                0.07521415491128493,
                -0.05837244807076186,
                0.022082144065801886,
                -0.03771094896324742,
                0.1500601488809824,
                -0.05956546175529409,
                0.0021030753424332786,
                -0.04570141587872949,
                0.10958584035005024,
                -0.05578542542977373,
                0.04625801412301585,
                -0.027339513080457078,
                0.19737596346798175,
                -0.0588122044027006,
                -0.022761239673851404,
                -0.054423051152368854,
                0.056523388162755206,
                -0.059272870395242094,
                0.009138292094268596,
                -0.04296228544137044,
                0.12400999918705922,
                -0.05965744705274781,
                -0.008491050237765526,
                -0.04963269325882362,
                0.08743312956307049,
                -0.05757362355944041,
                0.030626074370836802,
                -0.034119758740344557,
                0.16696050217222846,
                -0.05938527357589643,
                -0.016016857241414977,
                -0.05224664775025524,
                0.0713120007918981,
                -0.058594907543199404,
                0.01936664918479965,
                -0.038832814875432844,
                0.1446423663242526,
                -0.0596229751483707,
                -0.000126264455788803,
                -0.04654953573207475,
                0.10497023094450113,
                -0.056190317628523945,
                0.04298707299005164,
                -0.028778513959549657,
                0.19106081432977418,
                -0.05913611807192065,
                -0.019483255866974514,
                -0.05338769156673634,
                0.063756219512953,
                -0.05897576178560454,
                0.014127867235316031,
                -0.04096783713814511,
                0.1341213606658479,
                -0.05967902760440236,
                -0.004417253307897029,
                -0.048151869597373206,
                0.09601934117235474,
                -0.05692851861422621,
                0.03666434394180812,
                -0.03153057409882966,
                0.17878173426149663,
                -0.05955925574613971,
                -0.01235515306340588,
                -0.05099626675179854,
                0.07920086051599683,
                -0.05812827360821893,
                0.02486314756780608,
                -0.036551946810786856,
                0.15558476356999906,
                -0.05948806507050486,
                0.004389616497985875,
                -0.044821229266141294,
                0.11429673684157556,
                -0.055356177096865564,
                0.04960358058631356,
                -0.025857497034397606,
                0.20381029923044702,
                -0.056110954987107164,
                -0.03240559291674183,
                -0.057692854187404746,
                0.03970691752291189,
                -0.059531339324802174,
                -0.003967794608968935,
                -0.049344297021188394,
                0.10318523545536697,
                -0.058432683507127325,
                -0.019838267568733654,
                -0.05444291259390077,
                0.06865282968914448,
                -0.05932822890426167,
                0.015698955676265256,
                -0.04211109584447614,
                0.14400448262421295,
                -0.05742180860306825,
                -0.026506026701249914,
                -0.056283121775654005,
                0.0535233100295444,
                -0.059599446854450545,
                0.0053582016467077975,
                -0.04601441272403142,
                0.12276320851264776,
                -0.059138599681260146,
                -0.012345530978938165,
                -0.05214134436300544,
                0.08517816330308205,
                -0.058699754325653615,
                0.027124203150515912,
                -0.03759051297282538,
                0.16700469572199073,
                -0.05680369435883309,
                -0.029548411365742294,
                -0.05703999391121771,
                0.04645601433130844,
                -0.05960681455370371,
                0.0005725908006757736,
                -0.04774842083318785,
                0.11277216024708307,
                -0.05882419916244533,
                -0.016198696965646086,
                -0.05335185497792637,
                0.07673572535085109,
                -0.05905989586618083,
                0.02127153277749381,
                -0.039930828721653,
                0.15527861795319536,
                -0.0579649787596814,
                -0.02327164439785512,
                -0.05541868103794331,
                0.0609188369256685,
                -0.0595072983755914,
                0.010397451345856235,
                -0.04413709705962897,
                0.1331700314514297,
                -0.05937475665778083,
                -0.008271165637540524,
                -0.05080701456070763,
                0.09399098529954626,
                -0.05824505698556997,
                0.03326618965772059,
                -0.03508416351824314,
                0.1791951765756269,
                -0.05646664078364114,
                -0.030999735777333427,
                -0.057379211140052955,
                0.043042310180390606,
                -0.059579319094299484,
                -0.0017277371498922074,
                -0.04856330984494475,
                0.10792890271221166,
                -0.058638018106230205,
                -0.018044714346693493,
                -0.053912050428747804,
                0.07265000443854637,
                -0.059205374646700566,
                0.018450801092061753,
                -0.04104060219857357,
                0.149585828369299,
                -0.05770278953207844,
                -0.024913267816996192,
                -0.05586457768323291,
                0.057179409653874635,
                -0.059564099232930205,
                0.00784558789635411,
                -0.04509399971810926,
                0.1279139120431837,
                -0.059266537042411804,
                -0.010336481380510146,
                -0.051489937651798184,
                0.08953759078143513,
                -0.05848440474136859,
                0.030158447553703283,
                -0.03635847443098058,
                0.17304109906814674,
                -0.05712209481404942,
                -0.02805078933767518,
                -0.05667477687943544,
                0.04994926504278906,
                -0.05961360244296631,
                0.0029342219484434634,
                -0.046899002003039036,
                0.11771644548851955,
                -0.05899110459643192,
                -0.014299283900590825,
                -0.05276179943926543,
                0.08091132867389005,
                -0.058891468121946865,
                0.024162284618976983,
                -0.03878104625012836,
                0.16108438998514807,
                -0.05820830479688957,
                -0.021580275509179517,
                -0.05494495562796785,
                0.06474287750240319,
                -0.0594287704320323,
                0.013014875291276371,
                -0.04314302617535813,
                0.13853305475627986,
                -0.059463085857672016,
                -0.006148601634674501,
                -0.05009199769720876,
                0.09853973369559894,
                -0.057981336027148174,
                0.03644861393933739,
                -0.033766800480672945,
                0.18546851744403137,
                -0.048677544456946664,
                0.03929553749190148,
                -0.018096572138142687,
                0.1433969041633711,
                -0.03601286320061618,
                0.0837458859920183,
                0.006315285163219559,
                0.22280803786144532,
                -0.04295628560389669,
                0.05987321557262934,
                -0.006812714370763182,
                0.18031511337920625,
                -0.027769489476357587,
                0.11140577269865863,
                0.021572432323474732,
                0.2715751196476001,
                -0.045966847352678336,
                0.04920124287257008,
                -0.012669371723198696,
                0.16120086087618263,
                -0.032060555603430574,
                0.09706963969849543,
                0.013657878809684122,
                0.2463615703500393,
                -0.03964099241321717,
                0.07136812691169421,
                -0.0004958310223367649,
                0.20082223525317044,
                -0.023121846891455484,
                0.12682390744268018,
                0.030102665893648198,
                0.29854421046541585,
                -0.04735950128642455,
                0.04415602224890336,
                -0.015434857457585245,
                0.15214012991891207,
                -0.03407806707364723,
                0.09028544036079765,
                0.009917693038967845,
                0.2343831458231927,
                -0.04133716108951502,
                0.06551413547892589,
                -0.00371385048808942,
                0.19038927832014108,
                -0.025491480337515905,
                0.11897511197366718,
                0.025757730113813125,
                0.2848341255961365,
                -0.044499277848157576,
                0.05443797973573056,
                -0.009796572344792996,
                0.17058911519065317,
                -0.029958405091095666,
                0.10410688326926097,
                0.01754100395687826,
                0.2587549484887739,
                -0.03786666532179267,
                0.07744277968942366,
                0.0028456960623446264,
                0.21162481177942416,
                -0.020657855993646137,
                0.13496136781550688,
                0.03461321059014938,
                0.312717820747887,
                -0.04802783807135952,
                0.04170310375562841,
                -0.016778472672448547,
                0.14772944712089958,
                -0.03505569222860101,
                0.08698559960455969,
                0.008099581552074263,
                0.2285458966823633,
                -0.04215629213086258,
                0.06266750804388128,
                -0.00527791277981336,
                0.18530801567098953,
                -0.026641775028548698,
                0.1151560779515325,
                0.02364549174816216,
                0.27814900775781115,
                -0.04524245400197949,
                0.0517952400961689,
                -0.011246615556127852,
                0.16585341357430877,
                -0.03102018836345003,
                0.10055609809599285,
                0.015581243463884306,
                0.25250565499775357,
                -0.03876367621496418,
                0.07437738836404019,
                0.00115921416065445,
                0.20617663643733147,
                -0.02190182485029531,
                0.13085597106701097,
                0.03233685603962469,
                0.30557228911948175,
                -0.046672514972580736,
                0.04665512154694737,
                -0.014065302641161818,
                0.15663018585546007,
                -0.03307976624477851,
                0.09364643919736802,
                0.01177024583770631,
                0.24032122094339997,
                -0.04049877216958567,
                0.06841402763369096,
                -0.002120002462492919,
                0.19556023580541904,
                -0.02431828273157544,
                0.12286400688240556,
                0.027909874814941144,
                0.2916320100027515,
                -0.04373724917129773,
                0.05713034095682956,
                -0.00831876764644918,
                0.17540924961362125,
                -0.02887493370503761,
                0.10772307674529032,
                0.019537837092825572,
                0.2651109370729204,
                -0.036949788833080255,
                0.080565281234126,
                0.004564190306186061,
                0.21716814634856224,
                -0.01938956705947049,
                0.1391412803958651,
                0.036932507530089725,
                0.31998239278115925,
                -0.05959385419086555,
                -0.016248842744736956,
                -0.051378041474023764,
                0.06578840094668405,
                -0.05811850012194775,
                0.01713856207404806,
                -0.03811645441190971,
                0.13427218713109534,
                -0.059468191565477474,
                -0.0012096028398495703,
                -0.04567326831083343,
                0.09723295321990343,
                -0.055465483664224255,
