{
    "98": {
        "hyperparams": {
            "stocks": [
                "AXP",
                "HD"
            ],
            "start": "2015-01-01",
            "end": "2025-01-01",
            "risk_aversion": 0.1,
            "n_qubits": 6,
            "budget": 2166,
            "log_encoding": true,
            "layers": 6,
            "prices_now": {
                "AXP": 295.1141052246094,
                "HD": 386.5369873046875
            },
            "assets_to_qubits": {
                "AXP": [
                    0,
                    1,
                    2
                ],
                "HD": [
                    3,
                    4,
                    5
                ]
            },
            "optimizer": "CMAES",
            "lambda_budget": 0.001
        },
        "continuous_variables_solution": {
            "weights": {
                "AXP": 0.5,
                "HD": 0.5
            },
            "allocation": {
                "AXP": 3,
                "HD": 3
            },
            "value": -59.17255008503973,
            "left_overs": 121.04671885227253
        },
        "continuous_variables_solution_unconstrained": {
            "weights": {
                "AXP": 0.4889160059286987,
                "HD": 0.4948733606671192
            },
            "allocation": {
                "AXP": 3,
                "HD": 3
            },
            "value": -59.17255008503973,
            "left_overs": 121.04671499317101
        },
        "exact_solution": {
            "smallest_eigenvalues": [
                -0.5189909309658393
            ],
            "smallest_bitstrings": [
                "010001"
            ],
            "first_excited_energy": -0.5185976216087133,
            "optimized_portfolio": [
                {
                    "AXP": 2,
                    "HD": 4
                }
            ],
            "second_optimized_portfolio": [
                {
                    "AXP": 6,
                    "HD": 1
                }
            ],
            "spectrum": [
                1.1120187344733357e-16,
                -0.4770391369173175,
                -0.30487595889035246,
                -0.51593535996174,
                -0.16900483119495685,
                -0.5131926437190979,
                -0.40757384737962254,
                -0.48514845378312976,
                -0.4121541076554952,
                -0.4829475154890879,
                -0.5143105804753431,
                -0.3171281325004368,
                -0.4798761275532182,
                -0.4169158025316346,
                -0.5153701049556643,
                -0.1834178477737381,
                -0.24474689153994683,
                -0.5189909309658393,
                -0.44838183618262994,
                -0.45582869873185194,
                -0.3631583927956691,
                -0.5041902130726574,
                -0.5003537731144433,
                -0.37376364320148836,
                -0.5017327199845638,
                -0.3681340201377441,
                -0.5020302924127934,
                -0.09891581992455505,
                -0.5185976216087133,
                -0.25052305624990034,
                -0.4519194580507747,
                0.08687825933986941,
                -0.13202557522569736,
                -0.5077312337857093,
                -0.38630177350200945,
                -0.49566413043835744,
                -0.27574129253483215,
                -0.5184377566926217,
                -0.46365552598075555,
                -0.43927956672089263,
                -0.4667177753662737,
                -0.43545068524487673,
                -0.5180012872485115,
                -0.218033537639792,
                -0.5090366585852074,
                -0.3436773466490438,
                -0.4935123434500691,
                -0.058340644155455014,
                -0.33813938021821843,
                -0.5107579169847724,
                -0.4910737068334806,
                -0.3963508819950863,
                -0.4312226275658375,
                -0.47038076569916953,
                -0.5176172129948534,
                -0.2885135646906789,
                -0.5170769132638897,
                -0.28083974917280863,
                -0.4662576963475088,
                0.04040066301435807,
                -0.5084280526901593,
                -0.13728622465222232,
                -0.3904426134500002,
                0.25242344076842016
            ],
            "result_with_budget": [
                {
                    "portfolio": {
                        "AXP": 2,
                        "HD": 4
                    },
                    "budget": 2136.3761596679688,
                    "difference": 29.62384033203125,
                    "objective_value": -64.71412974219994
                }
            ],
            "result_with_budget_excited": [
                {
                    "portfolio": {
                        "AXP": 6,
                        "HD": 1
                    },
                    "budget": 2157.2216186523438,
                    "difference": 8.77838134765625,
                    "objective_value": -153.59363242743166
                }
            ]
        },
        "qaoa_solution": {
            "two_most_probable_states": [
                "000011",
                "110110"
            ],
            "final_expectation_value": -0.5036993691427807,
            "params": [
                -4.572326954438718,
                1.065755318909717,
                -8.532683595626375,
                0.29605320268164304,
                21.25769549046013,
                11.056490096842385,
                9.165493678187202,
                -2.5485994443753084,
                2.2358845818026647,
                0.9881571397766699,
                3.0633055081272906,
                -0.05039239469187942
            ],
            "total_steps": 763,
            "states_probs": [
                0.05627431322977408,
                0.0614851841475084
            ],
            "optimized_portfolios": [
                {
                    "AXP": 0,
                    "HD": 6
                },
                {
                    "AXP": 3,
                    "HD": 3
                }
            ],
            "training_history": {
                "xbest": [
                    -4.572326954438718,
                    1.065755318909717,
                    -8.532683595626375,
                    0.29605320268164304,
                    21.25769549046013,
                    11.056490096842385,
                    9.165493678187202,
                    -2.5485994443753084,
                    2.2358845818026647,
                    0.9881571397766699,
                    3.0633055081272906,
                    -0.05039239469187942
                ],
                "fbest": -0.5036993691427807,
                "evals_best": 8374,
                "evaluations": 8393,
                "iterations": 763,
                "xfavorite": [
                    -4.572325172509009,
                    1.065754635994791,
                    -8.532688485647066,
                    0.2960530118263048,
                    21.25769833871126,
                    11.056493506307138,
                    9.165493316898191,
                    -2.5485990060633155,
                    2.2358841145338655,
                    0.9881575621534151,
                    3.063305472518868,
                    -0.05039241468390406
                ],
                "stds": [
                    4.817653954194372e-06,
                    2.6763540975119054e-06,
                    1.2938324386061602e-05,
                    8.341499770797679e-07,
                    1.8732248767115214e-05,
                    8.87942465483444e-06,
                    9.574988717853844e-07,
                    1.1031127542149441e-06,
                    1.9093721223983687e-06,
                    1.848229777201227e-06,
                    8.19372043886027e-08,
                    7.108821765987321e-08
                ],
                "stop": {
                    "tolfun": 1e-11
                }
            },
            "objective_values": [
                -98.8856048577254,
                -59.17255008503973
            ],
            "result_with_budget": [
                {
                    "portfolio": {
                        "AXP": 0,
                        "HD": 6
                    },
                    "budget": 2319.221923828125,
                    "difference": -153.221923828125
                },
                {
                    "portfolio": {
                        "AXP": 3,
                        "HD": 3
                    },
                    "budget": 2044.9532775878906,
                    "difference": 121.04672241210938
                }
            ]
        }
    }
}