{
    "39": {
        "hyperparams": {
            "stocks": [
                "HON",
                "IBM",
                "JNJ",
                "JPM",
                "WMT"
            ],
            "start": "2015-01-01",
            "end": "2025-01-01",
            "risk_aversion": 0.1,
            "n_qubits": 9,
            "budget": 437,
            "log_encoding": true,
            "layers": 9,
            "prices_now": {
                "HON": 224.6875,
                "IBM": 218.37515258789062,
                "JNJ": 143.4715576171875,
                "JPM": 237.0184326171875,
                "WMT": 90.10256958007812
            },
            "assets_to_qubits": {
                "HON": [
                    0
                ],
                "IBM": [
                    1,
                    2
                ],
                "JNJ": [
                    3,
                    4
                ],
                "JPM": [
                    5
                ],
                "WMT": [
                    6,
                    7,
                    8
                ]
            },
            "optimizer": "CMAES",
            "lambda_budget": 0.001
        },
        "continuous_variables_solution": {
            "weights": {
                "HON": 0.0,
                "IBM": 8.18572967037371e-17,
                "JNJ": 8.004651512425168e-17,
                "JPM": 0.6014341943338086,
                "WMT": 0.3985658056661916
            },
            "allocation": {
                "JPM": 1,
                "WMT": 2,
                "HON": 0,
                "IBM": 0,
                "JNJ": 0
            },
            "value": -1.0417306436800056,
            "left_overs": 19.776428219705394
        },
        "continuous_variables_solution_unconstrained": {
            "weights": {
                "HON": 0.16134806100666513,
                "IBM": 0.11131214704064794,
                "JNJ": 0.08908997221328617,
                "JPM": 0.3569592118045201,
                "WMT": 0.3543359811807263
            },
            "allocation": {
                "JPM": 1,
                "WMT": 2,
                "HON": 0,
                "IBM": 0,
                "JNJ": 0
            },
            "value": -1.0417306436800056,
            "left_overs": 19.77642821055383
        },
        "exact_solution": {
            "smallest_eigenvalues": [
                -0.06655476509226488
            ],
            "smallest_bitstrings": [
                "110000000"
            ],
            "first_excited_energy": -0.06653480960437369,
            "optimized_portfolio": [
                {
                    "HON": 1,
                    "IBM": 1,
                    "JNJ": 0,
                    "JPM": 0,
                    "WMT": 0
                }
            ],
            "second_optimized_portfolio": [
                {
                    "HON": 0,
                    "IBM": 2,
                    "JNJ": 0,
                    "JPM": 0,
                    "WMT": 0
                }
            ],
            "spectrum": [
                -1.6420877177003405e-16,
                -0.06414434825726206,
                -0.04362135479199442,
                -0.06029934831754491,
                -0.024652805570160058,
                -0.06538138448113098,
                -0.05682898768743234,
                -0.048602795703869,
                -0.05265302991531107,
                -0.05724588162720993,
                -0.06651322480327725,
                -0.023549773798840892,
                -0.06242692796874469,
                -0.04356693496954305,
                -0.06483131112708677,
                0.0031049952612828987,
                -0.05869305537377388,
                -0.05064409111025677,
                -0.06627427495904052,
                -0.010406442283409539,
                -0.06533202176237587,
                -0.03372263867880505,
                -0.06142735130247779,
                0.019615745821784172,
                -0.06394467708452492,
                0.0036987617526184203,
                -0.04175460236165541,
                0.0738430713123193,
                -0.05570250740685247,
                0.03556113483520093,
                -0.02200454897389255,
                0.11885976824357916,
                -0.036529673513739,
                -0.06460558315383996,
                -0.062138922112166074,
                -0.04259680982762493,
                -0.05217800334506373,
                -0.05677811372562761,
                -0.06632786799536522,
                -0.02175832555558698,
                -0.06548698263724956,
                -0.03399277519063868,
                -0.06133143836598585,
                0.017893448209937605,
                -0.0662560077952696,
                -0.011237571114288901,
                -0.05062476321596641,
                0.05370757800003688,
                -0.06643611042070885,
                -0.022178594880132983,
                -0.055959757129730066,
                0.03636665260497276,
                -0.06405401514095424,
                0.0038731284274625103,
                -0.04205297088413653,
                0.07562112723986178,
                -0.04796378773036147,
                0.05591829681632095,
                -0.007706770220018108,
                0.14440228416555528,
                -0.030697290754971178,
                0.0969255610144319,
                0.02111208869114861,
                0.1986715651709071,
                -0.06653480960437369,
                -0.020836891642479177,
                -0.0552761259955629,
                0.03811391125995376,
                -0.06375403304339836,
                0.005457190114038215,
                -0.04101675526694458,
                0.07743638907375444,
                -0.04702050318530079,
                0.0582797216469967,
                -0.005982777688276944,
                0.1471296071356059,
                -0.029353758910090448,
                0.09951189283922843,
                0.023180722987813714,
                0.20143993112836783,
                -0.037855011621348945,
                0.08013776951775539,
                0.009477478893973561,
                0.17558330752082696,
                -0.017047835936031347,
                0.12463710712923995,
                0.04182106974580809,
                0.23329529165422327,
                0.029116426528559607,
                0.20674393934839805,
                0.10623281672723736,
                0.33213883617288154,
                0.06480916017317745,
                0.26620366586070854,
                0.15349148238163285,
                0.40487232056037414,
                -0.05939007085477151,
                0.022422615322996997,
                -0.03010466806725265,
                0.09958601185393101,
                -0.04759965001594455,
                0.05780347489904315,
                -0.006812889973163403,
                0.1480812453077568,
                -0.016156776681813492,
                0.12527156029874076,
                0.042908662655098025,
                0.23235774329707717,
                0.010518689875585395,
                0.1756009419248613,
                0.08110932600600809,
                0.29585693284923664,
                -0.001859370998371832,
                0.15240607393451394,
                0.06355419683734173,
                0.26621692229685184,
                0.02797848062382123,
                0.2060624003190922,
                0.10497581636094172,
                0.3331964626711087,
                0.08887765771893275,
                0.3028026521560667,
                0.18408185684474704,
                0.4465923001666089,
                0.1336030137775457,
                0.371432668528615,
                0.24042617495303947,
                0.5286123191871185,
                -0.049897876487265784,
                -0.05915178591932691,
                -0.06609029272312035,
                -0.02778203113421815,
                -0.060838364689508,
                -0.046636269846504305,
                -0.06557316400210589,
                -0.002289789111907336,
                -0.06647794466908205,
                -0.016155302955600297,
                -0.052900435289986024,
                0.04508937178575242,
                -0.06253608289642867,
                0.011287161635262258,
                -0.037486555950006335,
                0.08555455748018267,
                -0.06491930323047806,
                -0.0019311891685879932,
                -0.045055780587234646,
                0.06588122543288344,
                -0.05784018836853104,
                0.028765683070617665,
                -0.026469779617372652,
                0.10973052227198996,
                -0.03407549559481336,
                0.0885268710319167,
                0.015565448763005798,
                0.18626712012935098,
                -0.012113121360663897,
                0.13417431040651584,
                0.04906046435916319,
                0.24512433386795351,
                -0.06459595793530154,
                -0.03775929612836661,
                -0.0627694775737793,
                0.011798126075480602,
                -0.06652964417358068,
                -0.01616839636411951,
                -0.05322705970829029,
                0.046447453702604634,
                -0.05747136891938333,
                0.028957826269959942,
                -0.02587264912948944,
                0.10841519146351902,
                -0.04452296760230932,
                0.06548676674272808,
                -0.0014280657595659057,
                0.1580542322582552,
                -0.050805764340230736,
                0.04842192507955773,
                -0.012873432687429796,
                0.13457027810103067,
                -0.03470103872004809,
                0.08826216909900186,
                0.014781255868449887,
                0.18766923828103504,
                0.0037801137045728856,
                0.16264951181719872,
                0.07149791783093623,
                0.2787564593136677,
                0.03477070475019841,
                0.21745428363529992,
                0.11406990437136363,
                0.34688297436144433,
                -0.04984450171994303,
                0.05087821575757691,
                -0.011106765201483968,
                0.1374721518257243,
                -0.03333061711222162,
                0.09097977247302128,
                0.016915223814118807,
                0.19066230770209908,
                0.005796577566815307,
                0.16614805876427902,
                0.07432282280909047,
                0.28266559061087587,
                0.03720022290928147,
                0.2211990211142823,
                0.1172564963818426,
                0.35085867045422336,
                0.022581676034823514,
                0.1956562250828986,
                0.09741315184225147,
                0.318799035891004,
                0.057129788004561845,
                0.25398796951941627,
                0.14353574103296046,
                0.39041218176729553,
                0.1257239312662056,
                0.35845439223558984,
                0.23034613528810907,
                0.5115684367528969,
                0.17516007506351264,
                0.43175652261953623,
                0.29139003473881486,
                0.598216841519055,
                -0.02083793516585384,
                0.11602581185946151,
                0.03593537529016627,
                0.22085829994339382,
                0.004688952122368762,
                0.16522605661129985,
                0.07299740598099719,
                0.2832373975837665,
                0.0585418565811572,
                0.25504507295431594,
                0.14510335126993135,
                0.38982354154568244,
                0.09895692303234066,
                0.3192044963789523,
                0.19708116225113956,
                0.4672210134962793,
                0.08049270566099237,
                0.2898750712937749,
                0.17341855927716682,
                0.43141359657793354,
                0.12407707483500677,
                0.3573779375850026,
                0.22862903431414974,
                0.5123127076838095,
                0.20742946576824475,
                0.4764899228413677,
                0.3301514600533988,
                0.6480278035092784,
                0.26590315367082673,
                0.5589758165910468,
                0.4002902095563886,
                0.7439804923210562,
                -0.05085891260289833,
                -0.05852910850901568,
                -0.06625197889638511,
                -0.026426718371864652,
                -0.06140014890615397,
                -0.04563851236418387,
                -0.06533849872168729,
                -0.0005990385955895576,
                -0.06639502477872095,
                -0.014466208464844503,
                -0.05200946114422866,
                0.047529910838366864,
                -0.06205019050661602,
                0.01336010924688622,
                -0.03619298352590364,
                0.08834183355981748,
                -0.064597617435385,
                -6.934490805298684e-05,
                -0.043942948175033004,
                0.0684132049002351,
                -0.057119958785833105,
                0.030974750881796957,
                -0.02497487806786111,
                0.1125565087669495,
                -0.032692879068601355,
                0.09147739192677759,
                0.017750558633732726,
                0.18990922785522307,
                -0.010326919239193199,
                0.1374821491080691,
                0.05163521139905121,
                0.24907306910167862,
                -0.06492045272380481,
                -0.0365169235683796,
                -0.062296258406145534,
                0.01374434959129586,
                -0.06645400828058895,
                -0.014563639154606414,
                -0.0523633974069608,
                0.04870963244740532,
                -0.05674503537566422,
                0.031276130650998435,
                -0.024338576109415918,
                0.11145747721739127,
                -0.04339212217303568,
                0.06817688942574615,
                0.0005033578224600707,
                0.16142443311776333,
                -0.04982683632675936,
                0.050904439969827325,
                -0.011114856748676004,
                0.1376842810963082,
                -0.03332761948926103,
                0.091074280764635,
                0.016911061271728714,
                0.19105283442614382,
                0.005833304920727025,
                0.1662366782277362,
                0.07434342490696855,
                0.28299788666059633,
                0.03722408959491685,
                0.2213818016808437,
                0.11729486954736643,
                0.35140727594204346,
                -0.04895765705706221,
                0.05330424911674056,
                -0.00942637594563058,
                0.14055918692579433,
                -0.03204330895869307,
                0.09374918336498489,
                0.018976719049881456,
                0.19403662095148916,
                0.007734420474585512,
                0.16964356440000455,
                0.07706092110147256,
                0.2868389136759346,
                0.03954125314746972,
                0.22504568057097202,
                0.12038095071810126,
                0.35532957418096356,
                0.024754643735353445,
                0.199284032111689,
                0.1003510636567343,
                0.3230049473617155,
                0.059692312507477495,
                0.25792109898276205,
                0.14683027793409936,
                0.3948537420840903,
                0.1289697570832752,
                0.36317881624134885,
                0.23436625842514883,
                0.5168904233033806,
                0.17879950272992745,
                0.43679536655520357,
                0.2957733542336669,
                0.6037861006351741,
                -0.019310523057032722,
                0.11905516933335189,
                0.03824449742884891,
                0.22450967618509646,
                0.006612607215906011,
                0.16858099690706707,
                0.07567662649116191,
                0.28715147016137044,
                0.06112958183435898,
                0.25915586001863755,
                0.14848081855182327,
                0.3945744842734318,
                0.10194427571362341,
                0.3236493031569099,
                0.2008346385720752,
                0.4722456156758864,
                0.08331763947731408,
                0.2940978756959536,
                0.17698673993873565,
                0.4361656597433433,
                0.12728241359498527,
                0.3618833383580159,
                0.2325379011011495,
                0.5172709065290872,
                0.21134303274593272,
                0.4818277616797192,
                0.3348189482895395,
                0.6539156804208549,
                0.27020183124272534,
                0.5646060098991803,
                0.40530561579271174,
                0.750086789235646,
                -0.06655476509226488,
                -0.019291212850700713,
                -0.05449754263150582,
                0.040358500182484734,
                -0.06337308504433331,
                0.007363143500360424,
                -0.03984839739395203,
                0.07999338174006662,
                -0.045993281227949136,
                0.06089304543707985,
                -0.004149309326643012,
                0.15045965350556328,
                -0.027922411245664802,
                0.1024937658923668,
                0.025409714302697742,
                0.20509318213481528,
                -0.036589359414986776,
                0.0829051037895252,
                0.011523268050144643,
                0.17897685320124346,
                -0.015387087642534785,
                0.12773176018574872,
                0.044237251806101115,
                0.2369547110636245,
                0.03144867347855237,
                0.21060362074561617,
                0.10935555059375093,
                0.33664518384224695,
                0.0675410466376114,
                0.2704002619183661,
                0.1569916788037719,
                0.40965666405862167,
                -0.058770879346094956,
                0.02458039635700967,
                -0.028693672981298803,
                0.10240881933404192,
                -0.046581225882023396,
                0.060306285460896364,
                -0.005020578342481423,
                0.15119442436245023,
                -0.01448231411503406,
                0.1285077223582961,
                0.04538395755867785,
                0.23627806545904176,
                0.012596267891321773,
                0.17919106878436353,
                0.08397234650222518,
                0.3000790880820865,
                6.147798510828914e-05,
                0.15578183481787794,
                0.06623858479036476,
                0.2701751481986139,
                0.03028782347992668,
                0.20974530356769455,
                0.1080172079010818,
                0.3373935987798592,
                0.09187965520423882,
                0.30728795633745265,
                0.18785906447349687,
                0.45168184543708134,
                0.13699870916637852,
                0.37623537155453335,
                0.24456811642400417,
                0.5339535573680707,
                0.002012999721728244,
                0.15934944916524252,
                0.06904790115671691,
                0.2742733054064556,
                0.03267266345801437,
                0.21361467488985283,
                0.11122612649351843,
                0.3416315384752975,
                0.09487965394730385,
                0.31188850559526615,
                0.1917185955349965,
                0.4567766402972748,
                0.14043527217943746,
                0.3811219063422673,
                0.24882098700341443,
                0.5391628545342847,
                0.11953053918448367,
                0.3491751707802022,
                0.22264237759004216,
                0.5006110098798713,
                0.16821728472128084,
                0.4216533938828285,
                0.28290903514966803,
                0.5863700202147962,
                0.25997750431381766,
                0.5493216945351412,
                0.39289560647263444,
                0.7307694541362506,
                0.3235584774942343,
                0.6367890750279745,
                0.4680960579216718,
                0.8315887826171865,
                0.053548983837315205,
                0.24700734660749551,
                0.1386124122946884,
                0.38015266316776597,
                0.09321875459536119,
                0.310363342318983,
                0.1898252724525888,
                0.45668940875570074,
                0.17019000556585034,
                0.42333148027827383,
                0.2850571517398134,
                0.586463462083272,
                0.2247541502754338,
                0.5016654250778655,
                0.35119827479003174,
                0.6780436402101007,
                0.20004557479362065,
                0.46596807280073266,
                0.32123932711665626,
                0.6357771177036341,
                0.2577629733879067,
                0.5476067912205053,
                0.39058575518038074,
                0.7308089555351922,
                0.3643383495889734,
                0.6899825898506153,
                0.5153437801747187,
                0.8898316789844561,
                0.43695126375535137,
                0.7866231081990929,
                0.5996309673613395,
                0.9999421548055341
            ],
            "result_with_budget": [
                {
                    "portfolio": {
                        "HON": 1,
                        "IBM": 1,
                        "JNJ": 0,
                        "JPM": 0,
                        "WMT": 0
                    },
                    "budget": 443.0626525878906,
                    "difference": -6.062652587890625,
                    "objective_value": -0.24000987650948447
                }
            ],
            "result_with_budget_excited": [
                {
                    "portfolio": {
                        "HON": 0,
                        "IBM": 2,
                        "JNJ": 0,
                        "JPM": 0,
                        "WMT": 0
                    },
                    "budget": 436.75030517578125,
                    "difference": 0.24969482421875,
                    "objective_value": -0.5639078850388435
                }
            ]
        },
        "qaoa_solution": {
            "two_most_probable_states": [
                "001000000",
                "000100110"
            ],
            "final_expectation_value": -0.062438726176966636,
            "params": [
                2.4265292741806044,
                2.5237842328492706,
                8.543516555272774,
                18.576370426308472,
                26.877553025297484,
                23.388678549649143,
                6.676121436834506,
                -7.143408099281664,
                27.899527920718963,
                0.707097942165668,
                -0.9804469345795439,
                2.8890758022795366,
                -0.12823903298789405,
                -0.0671896428971582,
                1.6814796800308613,
                -0.009975719665714549,
                1.4308421248194843,
                -0.04228928479876865
            ],
            "total_steps": 800,
            "states_probs": [
                0.029158799906559712,
                0.031612896466464334
            ],
            "optimized_portfolios": [
                {
                    "HON": 0,
                    "IBM": 2,
                    "JNJ": 0,
                    "JPM": 0,
                    "WMT": 0
                },
                {
                    "HON": 0,
                    "IBM": 0,
                    "JNJ": 1,
                    "JPM": 0,
                    "WMT": 3
                }
            ],
            "training_history": {
                "xbest": [
                    2.4265292741806044,
                    2.5237842328492706,
                    8.543516555272774,
                    18.576370426308472,
                    26.877553025297484,
                    23.388678549649143,
                    6.676121436834506,
                    -7.143408099281664,
                    27.899527920718963,
                    0.707097942165668,
                    -0.9804469345795439,
                    2.8890758022795366,
                    -0.12823903298789405,
                    -0.0671896428971582,
                    1.6814796800308613,
                    -0.009975719665714549,
                    1.4308421248194843,
                    -0.04228928479876865
                ],
                "fbest": -0.062438726176966636,
                "evals_best": 9589,
                "evaluations": 9600,
                "iterations": 800,
                "xfavorite": [
                    2.4067474032696214,
                    2.50135711842049,
                    8.592349979266519,
                    18.71600302749656,
                    27.05532297801157,
                    23.55056891205152,
                    6.723499172556982,
                    -7.188030758333847,
                    28.111188641458366,
                    0.7006560948105683,
                    -0.9760168784800133,
                    2.8882340696533984,
                    -0.12900513546947315,
                    -0.06597626549218001,
                    1.6781035069820414,
                    -0.010207659588814786,
                    1.433271656619181,
                    -0.041514341399140536
                ],
                "stds": [
                    0.039050872357000645,
                    0.039852448939511585,
                    0.07952544416489708,
                    0.199740468138395,
                    0.24779770799449538,
                    0.2952712888131613,
                    0.1055186759441195,
                    0.07923098145732888,
                    0.3119016145101179,
                    0.0066783255143413565,
                    0.00861148908149491,
                    0.0026886985528274997,
                    0.0019966202392408226,
                    0.001847902291826351,
                    0.005682176070607717,
                    0.0020107872372195413,
                    0.005702575660590903,
                    0.001598128746230471
                ],
                "stop": {
                    "maxiter": 800
                }
            },
            "objective_values": [
                -0.5639078850388435,
                -6.193727349552798
            ],
            "result_with_budget": [
                {
                    "portfolio": {
                        "HON": 0,
                        "IBM": 2,
                        "JNJ": 0,
                        "JPM": 0,
                        "WMT": 0
                    },
                    "budget": 436.75030517578125,
                    "difference": 0.24969482421875
                },
                {
                    "portfolio": {
                        "HON": 0,
                        "IBM": 0,
                        "JNJ": 1,
                        "JPM": 0,
                        "WMT": 3
                    },
                    "budget": 413.7792663574219,
                    "difference": 23.220733642578125
                }
            ]
        }
    }
}