{
    "96": {
        "hyperparams": {
            "stocks": [
                "AAPL",
                "JPM"
            ],
            "start": "2015-01-01",
            "end": "2025-01-01",
            "risk_aversion": 0.1,
            "n_qubits": 6,
            "budget": 1788,
            "log_encoding": true,
            "layers": 6,
            "prices_now": {
                "AAPL": 250.1449737548828,
                "JPM": 237.0184326171875
            },
            "assets_to_qubits": {
                "AAPL": [
                    0,
                    1,
                    2
                ],
                "JPM": [
                    3,
                    4,
                    5
                ]
            },
            "optimizer": "CMAES",
            "lambda_budget": 1
        },
        "continuous_variables_solution": {
            "weights": {
                "AAPL": 1.0,
                "JPM": 0.0
            },
            "allocation": {
                "AAPL": 7,
                "JPM": 0
            },
            "value": -51.35505033834435,
            "left_overs": 36.985183590103816
        },
        "continuous_variables_solution_unconstrained": {
            "weights": {
                "AAPL": 1.0,
                "JPM": 0.06918211590348325
            },
            "allocation": {
                "AAPL": 7,
                "JPM": 0
            },
            "value": -51.35505033834435,
            "left_overs": 36.985182017571105
        },
        "exact_solution": {
            "smallest_eigenvalues": [
                -0.6225241135190759
            ],
            "smallest_bitstrings": [
                "111000"
            ],
            "first_excited_energy": -0.6223015939174695,
            "optimized_portfolio": [
                {
                    "AAPL": 7,
                    "JPM": 0
                }
            ],
            "second_optimized_portfolio": [
                {
                    "AAPL": 6,
                    "JPM": 1
                }
            ],
            "spectrum": [
                -2.7178713091324233e-17,
                -0.48535860567497247,
                -0.2864549654405434,
                -0.5967103298250996,
                -0.15417137837224487,
                -0.5519785111215559,
                -0.39685072797975174,
                -0.6195539202014487,
                -0.5020042988604451,
                -0.6177622137260704,
                -0.6036592062206528,
                -0.5443124107323157,
                -0.5637757000382194,
                -0.5919814873879589,
                -0.6216547442118271,
                -0.4747548022042122,
                -0.2997607819675938,
                -0.6003192410968504,
                -0.493815788936142,
                -0.6192703876884355,
                -0.4077321998113629,
                -0.6207389164424592,
                -0.5580114961313987,
                -0.5959134932652371,
                -0.6067303022380329,
                -0.5376871283428161,
                -0.6159848954639088,
                -0.37183593034727813,
                -0.6223015939174695,
                -0.46570579204341556,
                -0.5877801136960431,
                -0.2560773417140867,
                -0.162070040048016,
                -0.5550286129911641,
                -0.4023250393077519,
                -0.620180090278517,
                -0.2931414428797864,
                -0.598548422541677,
                -0.48962078611407434,
                -0.6199234646248354,
                -0.5665570117235889,
                -0.5899144594446503,
                -0.6220117934192319,
                -0.47026401921391237,
                -0.605228372049664,
                -0.5410334564540161,
                -0.6169071926436832,
                -0.377605956176714,
                -0.41307221020144946,
                -0.6212304560873355,
                -0.5609271895947238,
                -0.5939811789764539,
                -0.49794362902283773,
                -0.6185499543323537,
                -0.6020228287138821,
                -0.5475239584573991,
                -0.6225241135190759,
                -0.46108014518845475,
                -0.5855784462962733,
                -0.24902805972659336,
                -0.614995304170083,
                -0.36599841433718894,
                -0.5342734367236482,
                -0.11016886982365767
            ],
            "result_with_budget": [
                {
                    "portfolio": {
                        "AAPL": 7,
                        "JPM": 0
                    },
                    "budget": 1751.0148162841797,
                    "difference": 36.98518371582031,
                    "objective_value": -51.35505033834435
                }
            ],
            "result_with_budget_excited": [
                {
                    "portfolio": {
                        "AAPL": 6,
                        "JPM": 1
                    },
                    "budget": 1737.8882751464844,
                    "difference": 50.111724853515625,
                    "objective_value": -39.48867658444087
                }
            ]
        },
        "qaoa_solution": {
            "two_most_probable_states": [
                "000111",
                "110110"
            ],
            "final_expectation_value": -0.6062446504613379,
            "params": [
                5.714676618192557,
                -1.7874619321140437,
                15.350153235284091,
                -0.5525743716871523,
                13.31529739154803,
                12.440017149798098,
                3.534392847291575,
                2.3476334222859063,
                2.1895315953422103,
                2.4046311025432905,
                1.5089352191469911,
                1.528822441967867
            ],
            "total_steps": 800,
            "states_probs": [
                0.05296940089734771,
                0.059728403062706326
            ],
            "optimized_portfolios": [
                {
                    "AAPL": 0,
                    "JPM": 7
                },
                {
                    "AAPL": 3,
                    "JPM": 3
                }
            ],
            "training_history": {
                "xbest": [
                    5.714676618192557,
                    -1.7874619321140437,
                    15.350153235284091,
                    -0.5525743716871523,
                    13.31529739154803,
                    12.440017149798098,
                    3.534392847291575,
                    2.3476334222859063,
                    2.1895315953422103,
                    2.4046311025432905,
                    1.5089352191469911,
                    1.528822441967867
                ],
                "fbest": -0.6062446504613379,
                "evals_best": 8794,
                "evaluations": 8800,
                "iterations": 800,
                "xfavorite": [
                    5.710415975246891,
                    -1.7854489439663204,
                    15.3377870376204,
                    -0.552537450794244,
                    13.305565536670077,
                    12.41910069809137,
                    3.5345982139531333,
                    2.347281528734105,
                    2.190468547895419,
                    2.4036560208347386,
                    1.5089081859371762,
                    1.5287644085904
                ],
                "stds": [
                    0.006557348314440086,
                    0.003447067630857021,
                    0.014645154149607351,
                    0.0017602964389788073,
                    0.013467658696561309,
                    0.01846834349424371,
                    0.0004706880125422105,
                    0.0005909127303047488,
                    0.0012354256253874932,
                    0.0012493798870748328,
                    0.000157981352569203,
                    0.00013556301026075525
                ],
                "stop": {
                    "maxiter": 800
                }
            },
            "objective_values": [
                -135.73168027243565,
                -22.78732037749651
            ],
            "result_with_budget": [
                {
                    "portfolio": {
                        "AAPL": 0,
                        "JPM": 7
                    },
                    "budget": 1659.1290283203125,
                    "difference": 128.8709716796875
                },
                {
                    "portfolio": {
                        "AAPL": 3,
                        "JPM": 3
                    },
                    "budget": 1461.490219116211,
                    "difference": 326.50978088378906
                }
            ]
        }
    }
}