{
    "12": {
        "hyperparams": {
            "stocks": [
                "JPM",
                "VZ",
                "WBA"
            ],
            "start": "2015-01-01",
            "end": "2025-01-01",
            "risk_aversion": 0.1,
            "n_qubits": 13,
            "budget": 622,
            "log_encoding": true,
            "layers": 10,
            "prices_now": {
                "JPM": 235.8820343017578,
                "VZ": 38.672569274902344,
                "WBA": 9.329999923706055
            },
            "assets_to_qubits": {
                "JPM": [
                    0,
                    1
                ],
                "VZ": [
                    2,
                    3,
                    4,
                    5
                ],
                "WBA": [
                    6,
                    7,
                    8,
                    9,
                    10,
                    11,
                    12
                ]
            },
            "optimizer": "CMAES",
            "lambda_budget": 0.1
        },
        "continuous_variables_solution": {
            "weights": {
                "JPM": 0.9327412371992733,
                "VZ": 0.06725876280072667,
                "WBA": 8.630249292984615e-17
            },
            "allocation": {
                "JPM": 2,
                "VZ": 2,
                "WBA": 4
            },
            "value": -9.610507357351732,
            "left_overs": 35.57079296336872
        },
        "continuous_variables_solution_unconstrained": {
            "weights": {
                "JPM": 0.9315234415247039,
                "VZ": 0.07459855463081579,
                "WBA": 0.0
            },
            "allocation": {
                "JPM": 2,
                "VZ": 2,
                "WBA": 4
            },
            "value": -9.610507357351732,
            "left_overs": 35.57079293953143
        },
        "exact_solution": {
            "smallest_eigenvalues": [
                -0.02479438419974244
            ],
            "smallest_bitstrings": [
                "0111000010000"
            ],
            "first_excited_energy": -0.024793678412971372,
            "optimized_portfolio": [
                {
                    "JPM": 2,
                    "VZ": 3,
                    "WBA": 4
                }
            ],
            "second_optimized_portfolio": [
                {
                    "JPM": 2,
                    "VZ": 4,
                    "WBA": 0
                }
            ],
            "spectrum": [
                3.7578447298347584e-16,
                0.029039710380665433,
                -0.014673269655774928,
                0.2509301414469778,
                -0.01025184564373218,
                0.1071219147635623,
                -0.005739683119932332,
                0.4878538093498064,
                -0.005578431199060117,
                0.06138290598648474,
                -0.01254013199409666,
                0.35584671408303925,
                -0.013545251672680015,
                0.1692148321235717,
                0.007444620503222694,
                0.6511510745341204,
                -0.0028847802450258937,
                0.043709587970366406,
                -0.014094955285495888,
                0.3002524658615671,
                -0.012112861219036123,
                0.13592712937744003,
                -6.4921653041241e-05,
                0.5653165682168112,
                -0.008050677776509724,
                0.08240032748340516,
                -0.009823330711588264,
                0.41820874315017553,
                -0.01444114492687296,
                0.20740328304854028,
                0.017052009411045965,
                0.7459307823327118,
                -0.0014651468741641216,
                0.03601975277998589,
                -0.01449534205202811,
                0.2748375464602088,
                -0.011229947349856743,
                0.12098959452375399,
                -0.003115966126898668,
                0.5255738034458296,
                -0.006844880010834518,
                0.0714515545758186,
                -0.011339328201732292,
                0.38615000716284853,
                -0.014067760237696679,
                0.18766956502766263,
                0.01196888470117573,
                0.6973861795881923,
                -0.004256934406390407,
                0.05214998015410052,
                -0.013450744401934429,
                0.32723506310139505,
                -0.012888921921051335,
                0.15198498315093883,
                0.003444514879908556,
                0.6071519667371171,
                -0.009189008977879026,
                0.09427483872354998,
                -0.007965924757408113,
                0.452087935307375,
                -0.014648890597977218,
                0.22847129982453385,
                0.022729909023114416,
                0.7968595956540584,
                -0.0007381871298029403,
                0.03244350788264114,
                -0.01461082530105483,
                0.2626991175092778,
                -0.010752113254719324,
                0.1139251293846707,
                -0.004479346383822077,
                0.5064652791441514,
                -0.006218858377267249,
                0.06631001825581878,
                -0.011977538248691322,
                0.37078294622695585,
                -0.013824161604724336,
                0.17828573517696916,
                0.00963909232615672,
                0.673984562043804,
                -0.0035769624449778995,
                0.04783336931397546,
                -0.013804710529429507,
                0.31354399717458054,
                -0.012515024660523373,
                0.1438128150486226,
                0.001630508708459823,
                0.5859682744547049,
                -0.008628750029066079,
                0.08821896757456822,
                -0.008938989576839177,
                0.4349166715171986,
                -0.01456680219751903,
                0.21776699962830653,
                0.01981432034346735,
                0.7710924457544376,
                -0.0021807471872777213,
                0.03977342693051762,
                -0.014324262956883155,
                0.28735283506359227,
                -0.011684003430336024,
                0.12832150449163246,
                -0.001645772944347451,
                0.5451880014716696,
                -0.007455757827455216,
                0.0768131030308034,
                -0.010622338674906482,
                0.401955909881042,
                -0.01427409684628707,
                0.1973731222129746,
                0.014438373259595925,
                0.7213651526106152,
                -0.004924260970207435,
                0.056664705461809836,
                -0.013030196837948456,
                0.3413333735190859,
                -0.0132329053885608,
                0.16045013110846046,
                0.0053811693793702,
                0.6288765673941251,
                -0.009730413237391263,
                0.10057383212792033,
                -0.006900669961731388,
                0.4697308506242813,
                -0.01468515628968695,
                0.2395232872877956,
                0.02580345419455379,
                0.8232417605881545,
                -0.018525871207173285,
                0.03246151356838517,
                -0.021618744231934394,
                0.2624123367431766,
                -0.02290423910127354,
                0.11493063513671314,
                -0.007281518531493668,
                0.502159316458135,
                -0.021155288725919583,
                0.06707880299668464,
                -0.016737331970325727,
                0.36885538072720114,
                -0.02331482077796564,
                0.1789580152940774,
                0.008448149514999883,
                0.6665067011167535,
                -0.019934144042297153,
                0.04828752874513827,
                -0.019655746938911537,
                0.3125255325605923,
                -0.023317569404187558,
                0.14472644435159715,
                -0.00031925670363796925,
                0.5801790433176538,
                -0.022161166435706425,
                0.08917386311415083,
                -0.012680166519446473,
                0.4318956020185246,
                -0.02279025740807517,
                0.218041471747479,
                0.019281629923348195,
                0.7617136076231535,
                -0.019252397750403952,
                0.040024263913731026,
                -0.020745972277574593,
                0.2867219528735783,
                -0.023157063413591247,
                0.12929931948153608,
                -0.004010480337107526,
                0.5401656380978032,
                -0.021687652412065397,
                0.07769144411460521,
                -0.014863309138720322,
                0.39950507940067603,
                -0.023125132207514203,
                0.19786649231232833,
                0.013589564549900164,
                0.7129637831379326,
                -0.02056941140956591,
                0.05729180523199297,
                -0.018326970294608485,
                0.3398829722216534,
                -0.02337435877575079,
                0.16126220654030576,
                0.003822949914276257,
                0.6222691281591503,
                -0.022569282311543516,
                0.10157140697671942,
                -0.010161956379155014,
                0.4660916948101934,
                -0.022293948270324392,
                0.23953800020495292,
                0.025559992992717485,
                0.8128306204258936,
                -0.018894673204570757,
                0.03615780814194171,
                -0.02120826866915423,
                0.2743840955284447,
                -0.02304152601551093,
                0.12198576218161261,
                -0.005696645129046329,
                0.520915894221594,
                -0.021428464857919827,
                0.07227918814533398,
                -0.015837386156092693,
                0.3839666263487873,
                -0.023237156625976026,
                0.18825733405248407,
                0.010952206338521982,
                0.6894532548237348,
                -0.020257741120035505,
                0.0526944620971026,
                -0.019022543511493985,
                0.32600622900683174,
                -0.023359688422375718,
                0.15285256112008738,
                0.0016935015242330242,
                0.6009601036716609,
                -0.02237385578387719,
                0.09525536288977439,
                -0.011464613984207677,
                0.44876385814184583,
                -0.022563344999766973,
                0.22862105457414122,
                0.022345248924761262,
                0.7869715152575466,
                -0.019598946177980976,
                0.044065829362457565,
                -0.020229331484497255,
                0.2994332821632852,
                -0.023249540175819334,
                0.13687746796819064,
                -0.00221928812997599,
                0.5599171339244814,
                -0.02193214649516309,
                0.08332112560970477,
                -0.01381197111900905,
                0.4154787194940801,
                -0.02297683017638365,
                0.20779225723181943,
                0.01636456640133707,
                0.737047478123564,
                -0.020868753130945827,
                0.06208480974176431,
                -0.01756620060230629,
                0.3541634387030187,
                -0.023359966231366925,
                0.1699618446572127,
                0.00607312760544362,
                0.6441150057310879,
                -0.02274643801226134,
                0.10812785319344244,
                -0.008768760791838059,
                0.4838873947480321,
                -0.021979846760300157,
                0.2507993789113737,
                0.02893050749266981,
                0.8393004183056602,
                -0.010799159729984454,
                0.029264479888298084,
                -0.01966657916335528,
                0.25523833536849955,
                -0.018108789073749226,
                0.10956440851543794,
                -0.00801630150687392,
                0.4936073189421092,
                -0.01490093250838631,
                0.06275626809904702,
                -0.016152455564616242,
                0.3609343864288259,
                -0.019956282817770534,
                0.17263845149611157,
                0.006449881493342864,
                0.6574482351421543,
                -0.012944757262827341,
                0.04451805233535126,
                -0.018392645796175052,
                0.30496407007662457,
                -0.019243858741477406,
                0.13887172075779344,
                -0.0016933380598227984,
                0.5713577106616431,
                -0.016638478512698045,
                0.08431872210214063,
                -0.012761607530318882,
                0.42364407333225285,
                -0.02013925735646682,
                0.21128179264534597,
                0.01667535508318065,
                0.7524512782829974,
                -0.011894568630820532,
                0.03653865259678972,
                -0.019139627312292008,
                0.27935079654062295,
                -0.018723237143034536,
                0.12368595403617824,
                -0.0050667347090798,
                0.5314750145423347,
                -0.015799617383447734,
                0.07309998285486997,
                -0.01461314661458436,
                0.3914151264718122,
                -0.0201213843090803,
                0.19132371349155242,
                0.01128520387989095,
                0.7037991599781978,
                -0.013947893436263858,
                0.05324330978982282,
                -0.01740440317721428,
                0.332138185910395,
                -0.01965912205531237,
                0.15517203899014909,
                0.0021348195027120066,
                0.6133251368579432,
                -0.017410833894384005,
                0.09645796633871172,
                -0.010571757062017408,
                0.45768610675605004,
                -0.01999352033415214,
                0.23256786907936794,
                0.02265611597703936,
                0.8034791694264772,
                -0.011352449563592819,
                0.032815904920204794,
                -0.019429327342538844,
                0.2671106689184987,
                -0.018427068040332336,
                0.11649525190861973,
                -0.006592611009491679,
                0.5122936024132627,
                -0.015357382650479303,
                0.06782154258519763,
                -0.015420247139712195,
                0.3759602382208109,
                -0.02005626062875027,
                0.18182538174520974,
                0.008800378027692972,
                0.6803406622257578,
                -0.013452368780171114,
                0.048784862068787904,
                -0.01793005645085752,
                0.31835222347397546,
                -0.01946542828377665,
                0.14687936792931644,
                0.00016191505447594925,
                0.5920764270413533,
                -0.017033434408541583,
                0.09027039120420231,
                -0.011710648658730801,
                0.44043435187816793,
                -0.020087911317078756,
                0.22175533508326514,
                0.019589625652729186,
                0.7776635436778362,
                -0.012425401575419041,
                0.04043768808631415,
                -0.018794938810359842,
                0.29196610830913733,
                -0.018995968572604414,
                0.13114269251937735,
                -0.003434919890380349,
                0.5511601578566024,
                -0.016226915124541573,
                0.07859716030282589,
                -0.013728007500476173,
                0.40730704748259894,
                -0.02014971982300792,
                0.2011402305829048,
                0.0139087179916962,
                0.7278329371532509,
                -0.014430912761606247,
                0.057898663779967774,
                -0.016812842599739898,
                0.34632965057340115,
                -0.019823309133582056,
                0.16375621467480467,
                0.0042294311133939284,
                0.6351127457519327,
                -0.017769652274224557,
                0.10288732201368143,
                -0.009341483138171769,
                0.4754076373799193,
                -0.019853847258683246,
                0.2437264815946692,
                0.02587948811112129,
                0.8299076673959432,
                -0.02316571655401168,
                0.038622899548666795,
                -0.020526511858865,
                0.2724330688238424,
                -0.024629360286204337,
                0.1232071003176734,
                -0.0035376636285979254,
                0.513485142713265,
                -0.024329873192832502,
                0.07433980758841068,
                -0.014294299427304797,
                0.37958782901227084,
                -0.023614821331891352,
                0.18815723798902861,
                0.013434303914660177,
                0.6782990220545672,
                -0.023839918315244405,
                0.05500870971810373,
                -0.01788240132042133,
                0.3229163809569382,
                -0.024326553376429107,
                0.1534764102397726,
                0.00405359737134333,
                0.5917545113908634,
                -0.02460851049607079,
                0.09695365181908476,
                -0.009579941504413885,
                0.4429400656337322,
                -0.022389496469687544,
                0.2276646392171364,
                0.024864317668651523,
                0.7736889243404715,
                -0.023524914160041467,
                0.04646797705386807,
                -0.01931182174991038,
                0.29693124090722695,
                -0.024523288526107568,
                0.1378154987454324,
                4.976974953006569e-05,
                0.5516203171229305,
                -0.02449805624254142,
                0.08521453745935621,
                -0.012090051794901911,
                0.410397300178865,
                -0.023073657516306054,
                0.20728091815686822,
                0.01887614825298836,
                0.7248519008593625,
                -0.02410916386278699,
                0.06428546119430592,
                -0.016217286165514835,
                0.3504482518739578,
                -0.024027890056310914,
                0.17023989807765127,
                0.008504483265749733,
                0.6339571880420732,
                -0.024654820984574874,
                0.10960236413254114,
                -0.00673815433894549,
                0.4772807380898665,
                -0.0215462235991651,
                0.24936331425880387,
                0.03143432600256976,
                0.8248844048349152,
                -0.023350789077523214,
                0.04246095677325107,
                -0.019944745180594668,
                0.28449997168960955,
                -0.024587000642495405,
                0.1303828169915945,
                -0.0017941270796332602,
                0.532307146482185,
                -0.02442082724310201,
                0.07967190294289926,
                -0.013228842416253413,
                0.39477989374265077,
                -0.023361154277368918,
                0.19756495766801035,
                0.01608910770276944,
                0.7012945405320451,
                -0.02398040609872079,
                0.059552513014955344,
                -0.01708066322039591,
                0.3364851925142778,
                -0.024190714147924026,
                0.16171715579951468,
                0.006221194171220247,
                0.612592900649301,
                -0.02464013200794936,
                0.10316143502859253,
                -0.008202168281053671,
                0.45988157783063355,
                -0.021988803535914207,
                0.23834612806078936,
                0.028074324994325824,
                0.7989871655785173,
                -0.023688009824431124,
                0.05064889217966563,
                -0.018625234683670517,
                0.30973423317184595,
                -0.0244369295069024,
                0.14551128982133713,
                0.001997746195036604,
                0.57143322378367,
                -0.02456087198751422,
                0.09097324915343093,
                -0.010874814453607261,
                0.42644801124256904,
                -0.02275043039206309,
                0.2173118699242555,
                0.021799751127962886,
                0.7489802784111829,
                -0.024225806517057143,
                0.0692127891585541,
                -0.015289460159386087,
                0.36481321884438234,
                -0.02383648355820057,
                0.17905108442958478,
                0.01090748710432708,
                0.6558562458305884,
                -0.024651586109060007,
                0.11628228025983049,
                -0.00518448345519573,
                0.4951458124463374,
                -0.0210595528895498,
                0.2607232513930823,
                0.03494894936928011,
                0.8513901205975732,
                -0.005783126401665586,
                0.02877967599848752,
                -0.017550255774195958,
                0.25272442855697547,
                -0.014562843441467117,
                0.10797646001404718,
                -0.007254954695789943,
                0.4903788203340318,
                -0.010622864946441787,
                0.061699879879023534,
                -0.014725087435883792,
                0.3580346266415688,
                -0.01713234275192244,
                0.17056323928871503,
                0.006572413456073679,
                0.6539523843946872,
                -0.008298170264377291,
                0.04374272030723604,
                -0.016623399747169264,
                0.3022503645407791,
                -0.016060447470723244,
                0.13703433629857212,
                -0.0012550665144846018,
                0.5679875956157833,
                -0.01272746942808105,
                0.08299128370242102,
                -0.011670383836165274,
                0.4205725378323153,
                -0.017671191273088614,
                0.20898089496524336,
                0.016490017212256968,
                0.7488461066359057,
                -0.007063340949993102,
                0.03590743402364059,
                -0.01719745914158105,
                0.27673530568693655,
                -0.015358908206980831,
                0.12197186990877856,
                -0.004467809112147617,
                0.5281737560024601,
                -0.011705295059177686,
                0.07190678541435819,
                -0.013354600767966565,
                0.38842766063176026,
                -0.017475864266385154,
                0.18913410738425557,
                0.011252783828061956,
                0.7002465635515583,
                -0.009485715396850433,
                0.05232623229334052,
                -0.015806779394943595,
                0.3293297018106166,
                -0.016655862660702424,
                0.15321425625151947,
                0.0024142709172408636,
                0.6098901354901437,
                -0.013682639293172026,
                0.09499892199928954,
                -0.009646288632450746,
                0.4545342047473617,
                -0.017701875388028167,
                0.23015884891178057,
                0.02231996124071296,
                0.7998256597758847,
                -0.0064288355072696845,
                0.03225761020756746,
                -0.01740023152730744,
                0.26454555308828315,
                -0.014972013962641287,
                0.11484388535484016,
                -0.005912691528414128,
                0.5090282400834465,
                -0.01117123753473547,
                0.0666964328946595,
                -0.014077473495854165,
                0.3730161750304324,
                -0.01732164716006877,
                0.17969258896936569,
                0.00884518388109999,
                0.6768159215037498,
                -0.008898019399046105,
                0.04793835713577495,
                -0.01624678818947968,
                0.3155906949689952,
                -0.016372192847128146,
                0.14498141740145104,
                0.0005205431219222068,
                0.5886733683891311,
                -0.013213899082547274,
                0.08887681628480408,
                -0.010702502630244444,
                0.43732216605757346,
                -0.017708189077474536,
                0.21939997585136647,
                0.019328612557503542,
                0.7740336692044855,
                -0.007686519028808742,
                0.03973412095974617,
                -0.016939390009983565,
                0.2893010847719825,
                -0.01572219002045575,
                0.1293665996419037,
                -0.0029165463869540633,
                0.5478239789631189,
                -0.012224307592239908,
                0.07733651717766069,
                -0.012553314418686007,
                0.40427708809110163,
                -0.0175930516903398,
                0.19889458672592897,
                0.013799580583497553,
                0.7242535276366545,
                -0.01006083144351239,
                0.05691162240622248,
                -0.015300521643277172,
                0.34347508659793846,
                -0.016909817644164982,
                0.16173934192807204,
                0.004430181044758172,
                0.6316468109041261,
                -0.014132657019176048,
                0.10136348369866909,
                -0.008498283895998627,
                0.47221696166047755,
                -0.017650004710966883,
                0.24126460945228084,
                0.025468733661673872,
                0.8262315985619025,
                -0.021232944886654642,
                0.03517176539059676,
                -0.021453772660692403,
                0.26706766211953786,
                -0.024151534636490644,
                0.11870553967916855,
                -0.005785971103731011,
                0.5074766505699285,
                -0.023128670716801518,
                0.07034227390155211,
                -0.015894724801322768,
                0.3738711482468463,
                -0.02384790761696923,
                0.18319829550253636,
                0.010567669336004245,
                0.6720624537430472,
                -0.022273688256269214,
                0.05127934625640404,
                -0.019149137684321183,
                0.31736817141958046,
                -0.02420600883845921,
                0.14874006100641002,
                0.0014921649368426137,
                0.5856237472293114,
                -0.023770287511731845,
                0.0926985410513531,
                -0.011507735270781147,
                0.4370697793110444,
                -0.022972029223302718,
                0.22249583288505884,
                0.021700937826867713,
                0.7673635538130404,
                -0.02177556917094165,
                0.0428765042382878,
                -0.020409510272654852,
                0.2914726747148851,
                -0.02422452633923938,
                0.13319505277089547,
                -0.0023560571780750997,
                0.5455486638660704,
                -0.023478632902876405,
                0.08108685770991171,
                -0.013854984821429108,
                0.4046019250468442,
                -0.023482023459079845,
                0.202215419192527,
                0.01586005055352666,
                0.7185687728190181,
                -0.02272567022757703,
                0.06042072185610457,
                -0.01765162373258144,
                0.3448139818928293,
                -0.02408465059506534,
                0.16539069442089388,
                0.005789426028156441,
                0.6277714299428921,
                -0.02399715281629526,
                0.10522260414904681,
                -0.008827095174257034,
                0.47133939051066376,
                -0.02230174355854043,
                0.2440945164273295,
                0.02812591175517425,
                0.8185211758203693,
                -0.021509765545422173,
                0.03893935145739119,
                -0.020957388155461703,
                0.2790875498957988,
                -0.024198808278558675,
                0.12582144509781226,
                -0.004121429351810228,
                0.5262665716783695,
                -0.023310582510494796,
                0.07560896101659982,
                -0.014911723308220395,
                0.3890233970693273,
                -0.023682015324762353,
                0.1925523349762186,
                0.013147473113789382,
                0.6950341568732811,
                -0.02250559573731231,
                0.05575514309641344,
                -0.01843138518801687,
                0.33089350071998913,
                -0.024158940392227223,
                0.15692399407763746,
                0.0035826975748086774,
                0.6064341207256657,
                -0.02389227129643759,
                0.0988436477552747,
                -0.010210753963144184,
                0.45397527546552996,
                -0.022657981515433755,
                0.23312690732308183,
                0.024838142810258163,
                0.7926423136351443,
                -0.022030265441299386,
                0.046988163867212565,
                -0.01980762378435214,
                0.3042304016167307,
                -0.024227386043615993,
                0.1408325152853472,
                -0.0004861269016026182,
                0.5653315046259685,
                -0.023632125345531413,
                0.0867815103419163,
                -0.012721387886527267,
                0.4206147034458352,
                -0.02324602301850361,
                0.2121943069648926,
                0.018709735562640408,
                0.742675485299687,
                -0.02293351829189913,
                0.06528132578265441,
                -0.016807034976844493,
                0.35913728309128323,
                -0.023981533558806018,
                0.17414661773636353,
                0.008116381091059574,
                0.6496445554871876,
                -0.024083932409639276,
                0.11184125970634777,
                -0.007353334336447544,
                0.4891703988261318,
                -0.021901103237953818,
                0.25540572212448287,
                0.031568881682291064,
                0.8450096272014035,
                -0.015047237644072953,
                0.030492193172253736,
                -0.02102277309173275,
                0.2584685373943441,
                -0.020889518004376575,
                0.11188313358521046,
                -0.008024954626345933,
                0.49753528288214754,
                -0.01841212044635111,
                0.0645497928663705,
                -0.016823118551114544,
                0.3645423200552602,
                -0.022017256236363174,
                0.1754374931608968,
                0.0070754446395276905,
                0.6616342555822955,
                -0.016823853350663005,
                0.04603348072569856,
                -0.01940340115216368,
                0.30839008353073033,
                -0.021663104946267314,
                0.1414364816214093,
                -0.0013811418133878584,
                0.5754227166113276,
                -0.01978336604298863,
                0.08638019045121133,
                -0.01309805841604013,
                0.4274195018092697,
                -0.021845701994317148,
                0.21430282605281276,
                0.017606268597143943,
                0.75674175162859,
                -0.01595805480134819,
                0.037911392396004745,
                -0.02032246705822612,
                0.28268060730847616,
                -0.021322856847401626,
                0.12612913299784317,
                -0.004914061216442155,
                0.5354734695479825,
                -0.01912742077068745,
                0.07502878189158417,
                -0.015115935137991563,
                0.39510864406786994,
                -0.022004591957506623,
                0.19423532053910258,
                0.012064477655574833,
                0.708039510448304,
                -0.01764286786050292,
                0.0548990220889488,
                -0.018244410693982003,
                0.33565692923677026,
                -0.02189879724543527,
                0.1578554430075471,
                0.002604667886404989,
                0.6174526868718676,
                -0.02037334101972814,
                0.09864943228487734,
                -0.010743473893684687,
                0.4615397062671365,
                -0.021524271479243993,
                0.23569512306567475,
                0.023736531579835556,
                0.8078154917348502,
                -0.015508210570681392,
                0.03411641952991677,
                -0.020698689628021617,
                0.27039109689992874,
                -0.021117154564383355,
                0.11887655875069186,
                -0.006520379513008983,
                0.5162573002289124,
                -0.018776823898748636,
                0.06968302593445642,
                -0.01600678496387851,
                0.37961141879575133,
                -0.022028229989700058,
                0.1846810943068441,
                0.00950305117764061,
                0.6845543694028008,
                -0.01723936631143226,
                0.050370737171207866,
                -0.0188552666460059,
                0.3218250401383528,
                -0.021794784498230083,
                0.1495038218857339,
                0.000553175368996447,
                0.5961732100555227,
                -0.020087060632469345,
                0.09239719648861712,
                -0.011964527897081861,
                0.44424933752547013,
                -0.021706371346433415,
                0.2248298836751755,
                0.02059556158967898,
                0.7819774799162954,
                -0.01639666332460285,
                0.04188206859400048,
                -0.01989157346486981,
                0.29534445034947593,
                -0.021505305388958406,
                0.13364702560314903,
                -0.0032022553661658487,
                0.5551923850218555,
                -0.01946319782419549,
                0.08059262378773656,
                -0.01414743092947565,
                0.4110419838276088,
                -0.021944416448808342,
                0.20410694736065793,
                0.014764074670311399,
                0.7320988791277993,
                -0.018033947873153655,
                0.059623595415654485,
                -0.017567998265364804,
                0.34989343566872144,
                -0.02197352061015857,
                0.16649781737658453,
                0.004777383222567879,
                0.6392700443561082,
                -0.020641190853542414,
                0.10514276400322571,
                -0.009431455148619884,
                0.47929889910351064,
                -0.021297173588523215,
                0.24690562284054673,
                0.027033832277845674,
                0.8342652906064966,
                -0.024320817484865385,
                0.04281549354824743,
                -0.018834988711436653,
                0.27850773875237916,
                -0.024335045130717475,
                0.12843519675319845,
                -0.000535320795760513,
                0.5201832769797466,
                -0.024755876331974333,
                0.07907163266057148,
                -0.01193443163559704,
                0.38600425601742205,
                -0.022613239905375487,
                0.1938343735521844,
                0.017048979658960673,
                0.6852145412405829,
                -0.024629639946014064,
                0.0594760221847193,
                -0.01585373918336682,
                0.32916916861778556,
                -0.023676706549570475,
                0.15893519730148736,
                0.007366141459027881,
                0.5985696454427444,
                -0.024672990017855584,
                0.10193924956948715,
                -0.006895335458840243,
                0.4495051195293672,
                -0.021040511581043583,
                0.23354724709117164,
                0.02877252140552228,
                0.7806876799435417,
                -0.02449715121890951,
                0.05079917264053903,
                -0.017451020819910738,
                0.30309674612130616,
                -0.024050766280083947,
                0.14316044988053225,
                0.003208188530456544,
                0.5583789947344074,
                -0.02474298983460746,
                0.09007462474066423,
                -0.009566973072049385,
                0.4168899505650989,
                -0.021897799587421624,
                0.21306243277839748,
                0.02263869683069315,
                0.7318112152226542,
                -0.024716785267572264,
                0.06888633907549392,
                -0.014022246155148658,
                0.35678470238457116,
                -0.023201667916545935,
                0.1758094355347934,
                0.011969135260634695,
                0.6408246248715422,
                -0.024539528671099688,
                0.11471065385375807,
                -0.003893771337301302,
                0.48391430886499254,
                -0.020025328051597586,
                0.25534366282125043,
                0.035485900466141515,
                0.8319181809820401,
                -0.02441441868928733,
                0.0467231579823808,
                -0.018168410242330325,
                0.2906204991933761,
                -0.024203475800416655,
                0.135669713951138,
                0.0012864933850258971,
                0.5390360591118476,
                -0.024756222846495757,
                0.0844681989147512,
                -0.010787162880309504,
                0.40123490574991516,
                -0.022272295079231858,
                0.20329468931369687,
                0.019777992900662674,
                0.7082324973764945,
                -0.024679021543844774,
                0.06408693129441784,
                -0.014968622557578451,
                0.34278026822202246,
                -0.023452556833731975,
                0.1672317079227309,
                0.009610048559838961,
                0.6194347094702183,
                -0.024614636160337287,
                0.10820873524907627,
                -0.005437450789224269,
                0.46648138016714236,
                -0.02055370710781475,
                0.24427802952193095,
                0.03205450382099442,
                0.8060039882129689,
                -0.024568941441374836,
                0.0550484609670914,
                -0.016680321905814723,
                0.315943827886546,
                -0.023875630484359433,
                0.15091354043875338,
                0.005233475631897669,
                0.5782206446508117,
                -0.024715497437451127,
                0.09589643980918193,
                -0.00827075744595203,
                0.4329773450398533,
                -0.021487861118083675,
                0.22314434607016023,
                0.02563540866691962,
                0.755959861808939,
                -0.02474255437158884,
                0.07387947208556786,
                -0.013011808324463617,
                0.3711901225690576,
                -0.02292245059940155,
                0.18467481914829964,
                0.014447415666032198,
                0.6627482555633507,
                -0.024446684578033777,
                0.12145083816765402,
                -0.002260889224956088,
                0.5018121633130478,
                -0.01945317898727984,
                0.26675119222625343,
                0.03907133167208203,
                0.858439728393883,
                -0.0029874204150969925,
                0.028816443374311378,
                -0.01620690336182445,
                0.25173710028243357,
                -0.012502990256169954,
                0.10745732333838237,
                -0.006591660921931776,
                0.48902810301929234,
                -0.008196436232422933,
                0.06144879930415588,
                -0.01372738774119968,
                0.3568514353954656,
                -0.015434227088260546,
                0.16979797462540575,
                0.006914684369225768,
                0.6524646141775005,
                -0.005687307115608466,
                0.043633223242930855,
                -0.015454146026795486,
                0.30116169618404304,
                -0.014182201313583208,
                0.13638926109848767,
                -0.000754090569948143,
                0.5665644091875947,
                -0.01048479971285522,
                0.08260356757946359,
                -0.010841426467955462,
                0.41930190792257516,
                -0.016151462535318694,
                0.20810145693281296,
                0.01667746292486894,
                0.7473019049870827,
                -0.004360090743148928,
                0.0358705007527608,
                -0.015941457468940223,
                0.2756964719117521,
                -0.013390026413040318,
                0.12138906202781116,
                -0.0038861091631357206,
                0.5267858351549953,
                -0.009370846963606683,
                0.07158675188058006,
                -0.012441640388478068,
                0.3871998478360651,
                -0.015867176701174133,
                0.1883109873350663,
                0.011517140472531688,
                0.6987295418843246,
                -0.006967137205394579,
                0.052145341668001347,
                -0.014723637460259885,
                0.3281929031705362,
                -0.014867883006692924,
                0.15250835099761662,
                0.002835426056786109,
                0.608433654812344,
                -0.011531512341075289,
                0.0945448270359991,
                -0.008900564592488685,
                0.4532225955382355,
                -0.016270602827575784,
                0.22922466367786187,
                0.022431532737405117,
                0.7982563829930373,
                -0.0036793639145748583,
                0.03225738723957439,
                -0.01610062774703961,
                0.26353226528472745,
                -0.01295768635614739,
                0.11429273967694564,
                -0.0052903013083309,
                0.5076586808445388,
                -0.00879082232350886,
                0.06641071913031467,
                -0.013122233410562961,
                0.3718104495412836,
                -0.015668302118313954,
                0.17889820652398125,
                0.00914837432900239,
                0.6753132687141791,
                -0.00633331357772372,
                0.047793014925709296,
                -0.015120671968967622,
                0.31447774634711784,
                -0.01453912816945673,
                0.14430574543009966,
                0.0009814936778330138,
                0.5872332863335498,
                -0.011017032287232663,
                0.08845574568687993,
                -0.009915260222731979,
                0.4360308146851132,
                -0.01623275334582346,
                0.21849296578427835,
                0.01947798948646871,
                0.7724766647965103,
                -0.005029473027403062,
                0.039660761599299224,
                -0.015726839748103814,
                0.2882371227549421,
                -0.013798670100429537,
                0.1287524805294105,
                -0.002375319253920808,
                0.5464181809950953,
                -0.009935776052799012,
                0.07698248146688207,
                -0.011682449669021098,
                0.4030276390977461,
                -0.01602890428392009,
                0.19804311342359515,
                0.014025354258740708,
                0.7227226549588738,
                -0.007588347011954236,
                0.05669548426848611,
                -0.014260186607999143,
                0.3423148723589873,
                -0.015166822385621717,
                0.16100357105272023,
                0.004811774912587321,
                0.6301744327816593,
                -0.012027202661214808,
                0.10087669865200179,
                -0.007793877458051127,
                0.4708855624131292,
                -0.01626276131440414,
                0.24030365009174826,
                0.025542767249855717,
                0.8246505839608541,
                -0.019976009729557,
                0.033724040805210534,
                -0.02163144575684942,
                0.26465116365748015,
                -0.023623928148490275,
                0.11672722340084418,
                -0.0066277845930391216,
                0.504731469539414,
                -0.022238337898240722,
                0.06861877041267526,
                -0.016410678624560266,
                0.3712755529170215,
                -0.023677015188294164,
                0.18098826881206548,
                0.00941455350489394,
                0.669199334442175,
                -0.02120040525298349,
                0.04969124497147068,
                -0.019497370260191087,
                0.3148585691442071,
                -0.023857644430479535,
                0.1466428682083959,
                0.0004927470946461811,
                0.5828155076183735,
                -0.023061935875901933,
                0.09084487688704325,
                -0.012188305076133872,
                0.4343955687185348,
                -0.022976571640308998,
                0.22017928196227174,
                0.020398297403724983,
                0.7644540007456347,
                -0.020610531147329157,
                0.041357986180734385,
                -0.020672801198154764,
                0.2890087521908706,
                -0.023786745464282114,
                0.13115655959387892,
                -0.0032771444497674117,
                0.5427709478735875,
                -0.022679428490487097,
                0.07929760200269807,
                -0.01445365148343744,
                0.40196608317215043,
                -0.02339911978450507,
                0.19995132498882345,
                0.014631634062233143,
                0.7156813642048948,
                -0.021743966752346446,
                0.05876428096769226,
                -0.01808408840073503,
                0.3422604775558159,
                -0.02382526012888413,
                0.16323631265869049,
                0.004712654206449516,
                0.6249347114361213,
                -0.02337934494829952,
                0.10330590866799584,
                -0.009588725048414076,
                0.46862872240650966,
                -0.022393156025495107,
                0.24172715295871944,
                0.02675015750762953,
                0.8155916565387541,
                -0.02029879463301739,
                0.03745608094151755,
                -0.02117795260246712,
                0.27664712345013126,
                -0.023716163654143477,
                0.12381285779662454,
                -0.0050029955476009,
                0.5235048738351248,
                -0.022465846262526692,
                0.07385241553459375,
                -0.015469132676577024,
                0.3864074458248795,
                -0.023555183019757692,
                0.1903150752660574,
                0.011956574447740299,
                0.6921586268944838,
                -0.02147812652078276,
                0.05413271447055826,
                -0.018821824590983947,
                0.3283617231163881,
                -0.02385512035698874,
                0.15479801587923192,
                0.00254447858278812,
                0.6036113839902827,
                -0.023229232256810076,
                0.09695829370385524,
                -0.010931961273411188,
                0.4512825951302325,
                -0.022706033048812874,
                0.2307847425195309,
                0.02349880462528885,
                0.789722503094553,
                -0.020911124778189738,
                0.045434700829176125,
                -0.020113472143603203,
                0.30174341909201813,
                -0.023834366631600292,
                0.13876448555192586,
                -0.0014464994462265845,
                0.5625382733201222,
                -0.02287838386131799,
                0.08495988034980471,
                -0.013361109418330708,
                0.41795944039765753,
                -0.0232069123087288,
                0.20990378096618423,
                0.017444070428185913,
                0.7397767342652314,
                -0.02199752834012133,
                0.06359119188243834,
                -0.01728133917588458,
                0.3565625047880667,
                -0.023766453685609003,
                0.17196421841934162,
                0.007001308932192831,
                0.646794374734453,
                -0.023511270116315604,
                0.1098935754255317,
                -0.00815516766108137,
                0.48644222909944246,
                -0.0220357242832975,
                0.2530135793789081,
                0.030156997243810855,
                0.84207095208331,
                -0.013019271486513932,
                0.029785568934471676,
                -0.020439683457263078,
                0.2567640827836812,
                -0.01959484038668369,
                0.11063256367053328,
                -0.00811466231239017,
                0.49548409466247406,
                -0.016752442996676338,
                0.06356100629915672,
                -0.01658234454136971,
                0.36265003662259143,
                -0.02108215331149137,
                0.1739476551439832,
                0.006669225449888496,
                0.6594552228738789,
                -0.014980309140080212,
                0.045183361466908156,
                -0.0189928150547197,
                0.30658823252114303,
                -0.020549026333833684,
                0.1400633297335064,
                -0.001630985041707558,
                0.5733035900935471,
                -0.01830673313524616,
                0.08525783132106561,
                -0.013024138011760415,
                0.42544401696227097,
                -0.02108768440640248,
                0.2127024647840094,
                0.017047700060048073,
                0.7545111118699176,
                -0.01402235232597922,
                0.03713243387320195,
                -0.019825948933878495,
                0.2809266006909273,
                -0.020118664957493777,
                0.12481655180558296,
                -0.005084289931686853,
                0.5333873248553777,
                -0.017559385058907553,
                0.07397255551016105,
                -0.014958974430815352,
                0.39317383936238437,
                -0.02115828468449561,
                0.19268943384704756,
                0.011581563775917738,
                0.7058336201326553,
                -0.01589134311818942,
                0.05397894902231652,
                -0.017919083761110118,
                0.3338089748291049,
                -0.020874426081051372,
                0.1564231943850553,
                0.0022761500402492824,
                0.6153025865557792,
                -0.01898783860305256,
                0.09746228085060903,
                -0.010751787413516218,
                0.4595254157890366,
                -0.020854004230547476,
                0.23404189469763154,
                0.023103381796993634,
                0.8055622440764757,
                -0.013526387345198352,
                0.03337348354218982,
                -0.02015896359782061,
                0.2686616549201611,
                -0.01986776428067717,
                0.1175948052106755,
                -0.006650458941974579,
                0.5141883890279981,
                -0.01716299509855895,
                0.0686603581631471,
                -0.015808012144182235,
                0.3776976466714558,
                -0.021137586050409548,
                0.1831630372762557,
                0.009058356725114671,
                0.6823616464564365,
                -0.01544185127074348,
                0.049485488056283694,
                -0.018487396324834076,
                0.3199999177192872,
                -0.02072561242469399,
                0.14810093529921026,
                0.00026387525865932183,
                0.5940383435490338,
                -0.018656029095576357,
                0.09124227156464075,
                -0.01193182733840053,
                0.44225421346292404,
                -0.020992298432557187,
                0.22320288583586986,
                0.0199995661670538,
                0.7797352664286631,
                -0.014507055244997145,
                0.04106738092338,
                -0.01943810337557088,
                0.293566305997858,
                -0.020346218780271017,
                0.132303976904131,
                -0.003412406738658294,
                0.5530895004994966,
                -0.01794089546736114,
                0.07950316556257188,
                -0.014032089084901106,
                0.4090866068237595,
                -0.021142319350385453,
                0.20253362453173573,
                0.014243201371667921,
                0.7298803484839161,
                -0.01632837038530803,
                0.058669008474129106,
                -0.017285038160431667,
                0.3480230928657262,
                -0.02099384055279248,
                0.16503658355316675,
                0.004409890959181603,
                0.6371052205819131,
                -0.019301141134063206,
                0.10392372951459404,
                -0.009480572807489688,
                0.47726591918223926,
                -0.02067056882375858,
                0.24522657415792187,
                0.026363804832488204,
                0.8320015525079895,
                -0.023840710883176262,
                0.04062645349776366,
                -0.019776430874440757,
                0.27538177254016233,
                -0.0245789117179934,
                0.1257303146030966,
                -0.0021308508151894803,
                0.5167480748489861,
                -0.024639987894793096,
                0.07661389493722036,
                -0.013209421823355607,
                0.38270862269635764,
                -0.023210262113799205,
                0.19090603648470789,
                0.01514805426420409,
                0.681672004862533,
                -0.02433206680263164,
                0.0571500726584908,
                -0.016963447866430104,
                0.3259547400802044,
                -0.024098109389287626,
                0.15611549298757238,
                0.005615887178438682,
                0.5950766133515853,
                -0.0247376705018629,
                0.09935511196054224,
                -0.00833235510302321,
                0.44613580599960656,
                -0.02181096924153209,
                0.23051673371329195,
                0.026725245076498396,
                0.7771042319850202,
                -0.024108400750830233,
                0.04854105438191188,
                -0.0184769526803082,
                0.29992565824322986,
                -0.02438362391449057,
                0.14039739966179912,
                0.0015348064266300252,
                0.5549138536038135,
                -0.02471754202070385,
                0.08755299684601832,
                -0.01092340118361067,
                0.41355651987828146,
                -0.022581829201014657,
                0.21008218381076765,
                0.0206640392567586,
                0.7282471322765082,
                -0.024510177260860366,
                0.06649383860131948,
                -0.01521498540703683,
                0.35352874757295705,
                -0.023711136740639887,
                0.1729346244782594,
                0.010143022090030865,
                0.6373057832381931,
                -0.024693991748538056,
                0.11206542036662347,
                -0.005410502743811234,
                0.48051106039421365,
                -0.020881601021594195,
                0.2522645659021371,
                0.03336715218523009,
                0.8283175829459716,
                -0.02398001041932274,
                0.044499425046452185,
                -0.01915218427717744,
                0.2874717516086284,
                -0.02449189155529084,
                0.13293556060623388,
                -0.00034808307886162915,
                0.535585633562457,
                -0.024685591675429615,
                0.0819783456348226,
                -0.012102975742672452,
                0.39792013651681646,
                -0.022912891323829756,
                0.2003401924461008,
                0.017840064324500682,
                0.7046789171061282,
                -0.024426959578495597,
                0.06172754416806471,
                -0.016119941892978832,
                0.3395448476630466,
                -0.023918054654448833,
                0.16438425473224105,
                0.007821736087204262,
                0.6159285103444702,
                -0.024724253240314832,
                0.10559387088532822,
                -0.0069144383720521245,
                0.46309485359293656,
                -0.021367151101425324,
                0.2412230121786133,
                0.029971346079431877,
                0.8024116862626259,
                -0.024225804072952793,
                0.05275626912090102,
                -0.01774823337308061,
                0.3127508449667285,
                -0.024252818537843408,
                0.148121971839554,
                0.0035215328650408514,
                0.5747412999488307,
                -0.024735154899368443,
                0.09334338241406732,
                -0.0096675892089164,
                0.4296257315300186,
                -0.022215179261103144,
                0.2201387568749731,
                0.023624300451234686,
                0.752385821575945,
                -0.02458133893172948,
                0.07145418668826398,
                -0.014245772584600898,
                0.3679140954459512,
                -0.023475762276860882,
                0.18177304540864048,
                0.01258376346392451,
                0.6592173001217697,
                -0.024645898882034653,
                0.11877559736093822,
                -0.0038171361677961004,
                0.49839268826595357,
                -0.020352119404537353,
                0.2636484442933773,
                0.03691728789740037,
                0.8548313963505764,
                -0.00838706891045771,
                0.028929108400100288,
                -0.018703452294812472,
                0.2538916519663383,
                -0.016431443375961554,
                0.10867893771187817,
                -0.007729777069015249,
                0.4919053997641702,
                -0.012857711904661768,
                0.06213580424520222,
                -0.01553340009286468,
                0.35939576990429456,
                -0.018639680452796247,
                0.17151019542202628,
                0.006417551523465775,
                0.6556137800430385,
                -0.010717342448481184,
                0.044037757503792324,
                -0.017602863654936598,
                0.30351797482111315,
                -0.017747659673190596,
                0.1378619460926183,
                -0.0015680839205552825,
                0.5695855441651331,
                -0.014778703292128837,
                0.08356311057999315,
                -0.012310393637329728,
                0.4220200931559467,
                -0.019000434735709792,
                0.2100411446479622,
                0.01648939422651258,
                0.7505627603301431,
                -0.009574859348647265,
                0.03613024183633341,
                -0.018263483375071877,
                0.277953562578301,
                -0.017136641811214173,
                0.1227376201847793,
                -0.004861289504640818,
                0.5297369935551742,
                -0.013848229764290882,
                0.07241130080806903,
                -0.014078389258111253,
                0.38983291672968134,
                -0.018893915625658276,
                0.19013848358055974,
                0.011175547624267429,
                0.701936628544047,
                -0.011812652641105124,
                0.052692319467429624,
                -0.01670032831750319,
                0.330644952007775,
                -0.018252931769012052,
                0.1541022791243738,
                0.0021808041241696474,
                0.6115208145310779,
                -0.015642417107309077,
                0.09563674743793953,
                -0.010203298601604198,
                0.45602221230810425,
                -0.018942822778059285,
                0.23127339212522363,
                0.022394905583142045,
                0.8015667881503618,
                -0.008986558310238986,
                0.03244387148192776,
                -0.018509767495380452,
                0.2657385011640812,
                -0.016795139702137904,
                0.11557817388807709,
                -0.006346735123179281,
                0.5105733898794202,
                -0.013360104026091479,
                0.06716681063136859,
                -0.014843432970879557,
                0.37439959932574596,
                -0.018784283970718203,
                0.18066844637005136,
                0.00872925929054961,
                0.678491909818275,
                -0.01127105811769323,
                0.04826906883308353,
                -0.017183211850884134,
                0.31688234147795497,
                -0.018014284127871,
                0.14583941662600003,
                0.0002474171552237631,
                0.5902879318335973,
                -0.015219372236550748,
                0.08948180864445797,
                -0.011300913072087663,
                0.4387901804595292,
                -0.01899321843959834,
                0.22048757188010346,
                0.019365906058275064,
                0.775762826577726,
                -0.010151852497044749,
                0.03999318880396731,
                -0.017962055499242856,
                0.29054423045565586,
                -0.017454617721549614,
                0.13016345839563767,
                -0.003269683325752717,
                0.5494048174910878,
                -0.014321363364120656,
                0.07787485034245564,
                -0.013235118293414004,
                0.4057037225892577,
                -0.01896663720947372,
                0.19992709507370793,
                0.013760779638768041,
                0.7259571491465105,
                -0.01234170337682837,
                0.057312781860731285,
                -0.016151365506899225,
                0.3448135037704825,
                -0.018461967501721892,
                0.16265701849464337,
                0.004236136987180176,
                0.6332931020704845,
                -0.016046809036013566,
                0.10203380564084118,
                -0.009014096451483064,
                0.4737244922880779,
                -0.018847006429699217,
                0.242405696516729,
                0.025581059028513046,
                0.8279841610874626,
                -0.022296314331281437,
                0.03680470076938698,
                -0.02108553704744955,
                0.2696616711230195,
                -0.024486783443675702,
                0.12086551019094513,
                -0.004755977393140853,
                0.5103946113177689,
                -0.023825968447209862,
                0.07224928329536642,
                -0.015189326217391993,
                0.3766419620975554,
                -0.023827266555184436,
                0.1855879779719546,
                0.011907554065967137,
                0.6750957671746661,
                -0.023153652511366005,
                0.053051824238385434,
                -0.01861088312168446,
                0.32005415657398356,
                -0.024362409312924018,
                0.151017927158501,
                0.002679075686983573,
                0.5886034921121636,
                -0.024285924415200458,
                0.09473480363273466,
                -0.010638334626563472,
                0.4399180073705349,
                -0.02277642045464631,
                0.2249909853159102,
                0.023189586444016027,
                0.7704419531742731,
                -0.02274716037725498,
                0.044579820628036726,
                -0.019955922508259335,
                0.29411354853609856,
                -0.02447014182006219,
                0.13541471432864607,
                -0.001247128754800093,
                0.5484985269401409,
                -0.02408495781803959,
                0.08305917016509974,
                -0.013067175772672258,
                0.40741238950244163,
                -0.02337362262563027,
                0.2046586466267052,
                0.017274860178218453,
                0.7216257062323931,
                -0.023514192197667722,
                0.062261108632478857,
                -0.017029421103728567,
                0.3475432915167683,
                -0.024152287762289785,
                0.16772524533657862,
                0.007053333340231177,
                0.6307790027379666,
                -0.024422419890733384,
                0.10732143054232916,
                -0.007876955183057066,
                0.4742234617939397,
                -0.02201951207024844,
                0.24663994050765303,
                0.02968728008339321,
                0.8216188537164418,
                -0.02252722904619972,
                0.040607627682806915,
                -0.02054639288372315,
                0.2817052084075197,
                -0.024489190218756663,
                0.1280114448528358,
                -0.0030518513228448892,
                0.5292007340678094,
                -0.023962360319031345,
                0.0775487889718038,
                -0.014165019219400563,
                0.39181427001140967,
                -0.023617427483782472,
                0.19496899033783305,
                0.01452495394270617,
                0.6980795474638216,
                -0.023339813680435174,
                0.057561734161515776,
                -0.017851064664574316,
                0.3336013735533131,
                -0.024270900664487522,
                0.15923039467656225,
                0.004808231912727647,
                0.60942803838789,
                -0.024362681426363393,
                0.10091136761808799,
                -0.00930087502818098,
                0.45684166727062137,
                -0.02241898614881852,
                0.2356474043332636,
                0.026363293279309665,
                0.7957306277766175,
                -0.022956022174922777,
                0.04872621556661312,
                -0.019311614865527498,
                0.30689405237630224,
                -0.024428339645064672,
                0.14308146703291705,
                0.0006619138195273229,
                0.5682965632553053,
                -0.024193068568208943,
                0.08878596906329318,
                -0.011892678595174804,
                0.4234442876646981,
                -0.02309394715169875,
                0.21466370147961295,
                0.02016160250753907,
                0.7457434230274226,
                -0.02367639880028861,
                0.06715518672606242,
                -0.01614313827036578,
                0.3618875744451482,
                -0.024004968890552366,
                0.17650893066634193,
                0.009418406591278584,
                0.652665261596188,
                -0.024464144319034035,
                0.11397083770674753,
                -0.006363154695908876,
                0.49207166114778744,
                -0.02157579027665622,
                0.25797565159336955,
                0.033166179704552615,
                0.8481161136540433,
                -0.016882852504445163,
                0.031384209397519305,
                -0.02141581681971898,
                0.2603513815451945,
                -0.021992703454197366,
                0.11331588782976004,
                -0.007747234427281186,
                0.4997604787202458,
                -0.019879802771987233,
                0.06572244098377227,
                -0.01687478995959815,
                0.36661087545874593,
                -0.02276151673254784,
                0.17710769150434846,
                0.007668439470928345,
                0.663984884773731,
                -0.0184752060027557,
                0.047068245101202055,
                -0.01962439464785794,
                0.3103692836436977,
                -0.022585997912544026,
                0.14299092418539414,
                -0.0009438861597999514,
                0.5777146635277094,
                -0.02106823695689837,
                0.08768559086926393,
                -0.012983402915301622,
                0.42957014479876954,
                -0.02241325706676932,
                0.2160825806028548,
                0.018350939296739557,
                0.7591427272589458,
                -0.0177014812619095,
                0.03887537405787486,
                -0.020629161341487953,
                0.28461248783477827,
                -0.022335705243325548,
                0.12762345628004965,
                -0.004556115445083716,
                0.5377330328360702,
                -0.02050357333656238,
                0.07626846427902371,
                -0.015084052005058881,
                0.39721916841698246,
                -0.022660242171473357,
                0.19596108862201567,
                0.012733835024331926,
                0.7104163715282726,
                -0.01920229467458271,
                0.05600335307600039,
                -0.01838038543837908,
                0.3376816987685032,
                -0.022732149785427726,
                0.15946852171831782,
                0.0031202843530447532,
                0.6197750002157373,
                -0.02156721176858207,
                0.10001920111500424,
                -0.010546861577864322,
                0.46372858421267005,
                -0.022004279929998146,
                0.2375272474314002,
                0.02455543302463845,
                0.8102384311983312,
                -0.017297718993424978,
                0.03504456422766142,
                -0.021048479637695638,
                0.27229867175090866,
                -0.02217512587041903,
                0.12034027664736036,
                -0.006202434152733949,
                0.518499925683522,
                -0.020198712417224263,
                0.07088935363061077,
                -0.016016583416147177,
                0.3817011878740103,
                -0.02272812303838234,
                0.18637927334287402,
                0.010134356342339666,
                0.6869183771195758,
                -0.018844735462017002,
                0.051440438951440556,
                -0.019033663425323238,
                0.32382724581788525,
                -0.0226728532897497,
                0.1510877700011803,
                0.0010297321489521176,
                0.5984805944219426,
                -0.021326394191792948,
                0.09373495190121896,
                -0.011808789958517337,
                0.4464193355397249,
                -0.02223008245686486,
                0.22663602730068508,
                0.021377485071276705,
                0.7843897083890662,
                -0.01809403647081747,
                0.04288159153925322,
                -0.020155334186008695,
                0.2973002073539042,
                -0.022473126280832884,
                0.13517159183192437,
                -0.0028045381062400607,
                0.5574683901879959,
                -0.020793676464418723,
                0.08186533180660525,
                -0.014074061754744108,
                0.41317280087126473,
                -0.022555952613235165,
                0.2058599086723722,
                0.015471221941497065,
                0.734488064236423,
                -0.01954747768812088,
                0.06076224323922534,
                -0.017661729828687616,
                0.3519403231659024,
                -0.022762268994242985,
                0.1681396475541535,
                0.005331813763818971,
                0.6416067740324459,
                -0.021789677508432317,
                0.10654420050146497,
                -0.009194180688503051,
                0.4815061777144556,
                -0.021733624854332532,
                0.2487633154388489,
                0.02788943269466752,
                0.836698395036595,
                -0.024605517362925586,
                0.0451901897939299,
                -0.01770184082487043,
                0.2818109631031342,
                -0.02389732875380907,
                0.13132182963620623,
                0.0012491837490859422,
                0.5237906575226058,
                -0.02467706312101549,
                0.0817131472394849,
                -0.010469027931839308,
                0.3894746810053138,
                -0.02182336654884508,
                0.1969422884468921,
                0.019137293805534982,
                0.6889264959929812,
                -0.024732140555634722,
                0.0619867065842056,
                -0.01455295253264568,
                0.3325596404059262,
                -0.023061934893106487,
                0.16193558424334775,
                0.009304595726112063,
                0.6022334942750055,
                -0.02441401546708464,
                0.10470616932054334,
                -0.00526860344607169,
                0.45304793644646724,
                -0.020077757136843403,
                0.23675619679981336,
                0.031006338555931715,
                0.7844391112139063,
                -0.02469065747132413,
                0.053242491020363894,
                -0.01623369252693398,
                0.30644448928090234,
                -0.0235242947555183,
                0.1461047213666604,
                0.005070162477208561,
                0.5620156380285685,
                -0.024573935204089938,
                0.09277953672111626,
                -0.008020477431226298,
                0.42039753336596963,
                -0.021021191420950044,
                0.21622169341199282,
                0.02480032377819855,
                0.7355440035988626,
                -0.02472850159636397,
                0.07146310000104758,
                -0.012638756574462744,
                0.3602160792418482,
                -0.022499084523055903,
                0.1788643814058848,
                0.013983047387364026,
                0.6445135886495875,
                -0.024190989078493916,
                0.1175381583653707,
                -0.002187691896820436,
                0.4874904028224599,
                -0.01897704924099469,
                0.25860061156198266,
                0.03779075184231449,
                0.835686031037789,
                -0.024653500342862893,
                0.04913232022325001,
                -0.016993083982670174,
                0.2939462046348939,
                -0.023721327058904337,
                0.13858535444293488,
                0.0031098541798272135,
                0.5426583260958121,
                -0.024632250824539015,
                0.087141583812106,
                -0.009281108348573734,
                0.40472414802019474,
                -0.02143898283739881,
                0.2064284820746342,
                0.02190310168626135,
                0.7119551406958103,
                -0.024736100256610768,
                0.0666308172298317,
                -0.013626387927207875,
                0.34619142257585256,
                -0.02279381617320132,
                0.17025957098121364,
                0.011586361650526131,
                0.6231113791856032,
                -0.02431083264265206,
                0.11100612734286126,
                -0.003770931858375806,
                0.470041082325103,
                -0.019548110655302844,
                0.24751119208818212,
                0.03432398466762279,
                0.8097639089758165,
                -0.024716919288341452,
                0.05752562145725165,
                -0.015421172091687923,
                0.3193131612191467,
                -0.023304949930680167,
                0.15388606213236605,
                0.007133815460207006,
                0.5818711499518668,
                -0.024501440573199154,
                0.09863253146499733,
                -0.0066840345873216455,
                0.4365027874471271,
                -0.02056810416002661,
                0.2263286604104536,
                0.027833273126824914,
                0.7597022475596263,
                -0.024708972001675936,
                0.07648877728308436,
                -0.011587260995185594,
                0.3746412576951521,
                -0.022176154916448563,
                0.18775645035559557,
                0.016498662868853518,
                0.6664489824111958,
                -0.02405350597489065,
                0.12430809099980383,
                -0.0005154798556794812,
                0.5054041514562778,
                -0.018362381641195764,
                0.27003149628595025,
                0.04141125623873605,
                0.8622149433705634,
                -0.023348686291840948,
                0.041313954730230765,
                -0.020030449527937286,
                0.2801220982775184,
                -0.02458187029741535,
                0.1279663311676342,
                -0.0022140387600618656,
                0.5251264712859288,
                -0.024414822295545653,
                0.07796730258600512,
                -0.013441884450753486,
                0.3891151406122846,
                -0.023380364097719836,
                0.19426361042518603,
                0.015364105619035916,
                0.6923502121236847,
                -0.023976923186470624,
                0.05814482965923436,
                -0.017221262966383603,
                0.3314913414865883,
                -0.024193652640277247,
                0.1588810293100098,
                0.005662182933724058,
                0.604562533290184,
                -0.02463279921617447,
                0.10112134588222739,
                -0.008507535593758784,
                0.45348866201068794,
                -0.02203482327465305,
                0.23453164387704534,
                0.027154104675359458,
                0.7890622711347054,
                -0.02368550572029631,
                0.04937593293511497,
                -0.01873633937534144,
                0.3050550905066029,
                -0.024434954275457495,
                0.14289053516933745,
                0.0015115001409813005,
                0.5638355901105406,
                -0.02455390783772362,
                0.08910587188157741,
                -0.011131387747259117,
                0.42042648034701524,
                -0.022781581841570125,
                0.2137600897406604,
                0.020980939356476398,
                0.7395541386146104,
                -0.024221059319507156,
                0.06766132276954481,
                -0.015463941682157452,
                0.3594909283324791,
                -0.02384638639699296,
                0.17598819108063113,
                0.010268987861097546,
                0.6473770775638857,
                -0.024644767248029248,
                0.1140592522669225,
                -0.005544199559333714,
                0.48836661253031777,
                -0.02112365959007442,
                0.25663350013733266,
                0.03391942963062862,
                0.8409492362350127,
                -0.023522701152120552,
                0.045259074023007814,
                -0.019409732681448365,
                0.29240439450644024,
                -0.024519534162354497,
                0.1352982481328557,
                -0.00040252351726495473,
                0.5442331163385993,
                -0.024491516124616572,
                0.08342977226414687,
                -0.012324219864769973,
                0.40455596581002573,
                -0.023098490569505466,
                0.2038558700753011,
                0.018105172932064446,
                0.7156687664134956,
                -0.02410506624175505,
                0.06280703693798563,
                -0.01637426020880612,
                0.34529191574516227,
                -0.024034036143273565,
                0.16729183078694537,
                0.007906586628953424,
                0.6257044468826419,
                -0.024647616585801085,
                0.10747210218518834,
                -0.007069983450039734,
                0.47069656086912404,
                -0.0216008662339477,
                0.24541278517381832,
                0.030460460583566416,
                0.8147036880914472,
                -0.023836978742479864,
                0.05366950253245284,
                -0.018007723449722183,
                0.3180815822499125,
                -0.024326796929833017,
                0.1507493757959834,
                0.0035317908275743102,
                0.58394250102666,
                -0.024601269954476965,
                0.09500117873069945,
                -0.00986023571182485,
                0.43673468642166247,
                -0.022427697980521123,
                0.22398305916666925,
                0.02399576973167097,
                0.7640155433784387,
                -0.024324478052587833,
                0.07271296133306339,
                -0.014487458113292473,
                0.37409607833369674,
                -0.023629066581293188,
                0.18497659682322237,
                0.012753448356304835,
                0.669589336872075,
                -0.024623220609218316,
                0.12088867653308273,
                -0.003926728421994249,
                0.5065071223059282,
                -0.020600960296389654,
                0.2682008816262429,
                0.03753567976919585,
                0.8678084333300652,
                -0.023166497298844117,
                0.06325116861769381,
                -0.008322587525031169,
                0.3098985761359215,
                -0.01854316508306132,
                0.15419029845403595,
                0.014838899750058443,
                0.5575844960408595,
                -0.02128950031580297,
                0.10213112847327148,
                0.0009875708939602876,
                0.42034980743141925,
                -0.014475115506955856,
                0.22236415840398852,
                0.03492532701209493,
                0.7257796736834109,
                -0.022320517112713198,
                0.08121509024005348,
                -0.004141408652152663,
                0.362025199571844,
                -0.016714752623813896,
                0.18606730016258266,
                0.023984731052251396,
                0.6375388347205174,
                -0.020045998768480205,
                0.12633711942577402,
                0.00724699323733757,
                0.48536542980746655,
                -0.011719208600655255,
                0.26349630627887666,
                0.04792092674581676,
                0.8228776400145598,
                -0.02276567905652596,
                0.0718844718261658,
                -0.006339815823121308,
                0.3352171963986015,
                -0.017674554398026465,
                0.16960152402736373,
                0.019202976980585793,
                0.5965607592549701,
                -0.02069678342779732,
                0.11380100731970826,
                0.003963803800112105,
                0.45198966964095555,
                -0.013169018881352237,
                0.24229909878533185,
                0.041149228679329575,
                0.7731850939520127,
                -0.02182939912945658,
                0.09128343469340465,
                -0.001706354426126178,
                0.39038239573775035,
                -0.01565244779844959,
                0.2036377373177647,
                0.02921487317507861,
                0.6805882321436217,
                -0.019330684187890017,
                0.13978472543752812,
                0.010863000603648103,
                0.5205417478250646,
                -0.010109522890878088,
                0.2860107411547105,
                0.05527598223359137,
                0.8749316713891883,
                -0.022971577730695344,
                0.06748313413693556,
                -0.007356890245029066,
                0.3223754041721261,
                -0.018119598990513092,
                0.16176717696264792,
                0.016970600849361,
                0.5768266981116742,
                -0.021000043820286855,
                0.10786057016796989,
                0.0024388867565823275,
                0.43595674517350225,
                -0.01383906865161206,
                0.23217723286106973,
                0.03797097849823762,
                0.7492010932019083,
                -0.02208085075858259,
                0.0861544736732226,
                -0.002954823006592027,
                0.3760063630391379,
                -0.016197167451594486,
                0.19471125684760388,
                0.026541786795197902,
                0.6588002264692975,
                -0.019696858964162282,
                0.1329441095416154,
                0.009011730980536037,
                0.5027244304800526,
                -0.010935407646721353,
                0.27458538791568154,
                0.05152326488672025,
                0.8486047752065361,
                -0.02254871340156102,
                0.07646011937217179,
                -0.005268851478527039,
                0.3484313154081383,
                -0.01720673097782357,
                0.17769948978797473,
                0.021539753377517106,
                0.6167952545165479,
                -0.020379025037058088,
                0.1199579838417759,
                0.005565441031832177,
                0.4684565496530748,
                -0.01246305964189739,
                0.25273651254306573,
                0.0444644090156566,
                0.7977408572060282,
                -0.021565771237309406,
                0.09660721410063719,
                -0.0003931870167235012,
                0.40516096337372554,
                -0.015078990223350382,
                0.21285319482610893,
                0.03200801853892839,
                0.7029117299025393,
                -0.01894647722513626,
                0.1468648141400504,
                0.01280422422720691,
                0.538825653775047,
                -0.009239344665595674,
                0.29777942547550496,
                0.059183713359966195,
                0.9018678129480683,
                -0.024793678412971372,
                0.05080204635369154,
                -0.015694213608621915,
                0.29358578987469214,
                -0.023091757068418536,
                0.13962343495638915,
                0.004810976765497078,
                0.5399659659103776,
                -0.024385411435653107,
                0.08858093081020559,
                -0.007737318316290262,
                0.4033248543472554,
                -0.020451794164571,
                0.20687358368927622,
                0.023653144658605175,
                0.707694701336261,
                -0.024683535306414296,
                0.06820541314677364,
                -0.012195410902302374,
                0.34534204024288573,
                -0.02198099628527086,
                0.17102642766339926,
                0.013326797516738364,
                0.6196706575621821,
                -0.02387079052942541,
                0.11226750358404268,
                -0.002136225594926616,
                0.46802833041225256,
                -0.01839803744285814,
                0.24758140426627295,
                0.036051325438953924,
                0.8046097924492678,
                -0.024761079971391306,
                0.0591526346233153,
                -0.014053999382571998,
                0.31871571794766823,
                -0.02258280754819936,
                0.15479468443892486,
                0.008858145262153718,
                0.5788133658889075,
                -0.024157703162053498,
                0.0999883960101929,
                -0.0050918866466329645,
                0.43480487071251983,
                -0.019497874990934434,
                0.22659312179874128,
                0.0295761663578513,
                0.7550043772412315,
                -0.024559298563637016,
                0.07800092627456862,
                -0.010097303065360398,
                0.3735247003588974,
                -0.021274877801205173,
                0.18836890860433952,
                0.018247778255728733,
                0.6626074841527713,
                -0.023518077871353328,
                0.12546364769426868,
                0.0011556597532939696,
                0.5030600268570177,
                -0.017135986229901774,
                0.2698935248784088,
                0.043114316440402964,
                0.856585439994959,
                -0.0247829357156511,
                0.05489205336723514,
                -0.014900129069916552,
                0.305967403746864,
                -0.022848222045191328,
                0.14707959086687752,
                0.0067837559780437925,
                0.5591427347777663,
                -0.024278592976026227,
                0.09417849788717832,
                -0.006451803833509113,
                0.41885093433979503,
                -0.019992103280350674,
                0.2165781556994642,
                0.026547821882706418,
                0.7310671803290786,
                -0.024627409922096246,
                0.07300774650177715,
                -0.011177665833764153,
                0.35923503423693715,
                -0.021641738149727325,
                0.17955563830945825,
                0.015728771668832638,
                0.6408747289299551,
                -0.02370311879416629,
                0.11874806157550592,
                -0.0005339830014801335,
                0.48531405209189993,
                -0.017788354361587936,
                0.2585684940811609,
                0.03950706367953427,
                0.8302966340037988,
                -0.024728006615860235,
                0.06358874449827608,
                -0.013153295076250704,
                0.33183811175945455,
                -0.022294196560108292,
                0.16277488250187905,
                0.01103788654116748,
                0.5989864509791581,
                -0.024022031202901632,
                0.10601618578209517,
                -0.00365443105882275,
                0.4511946489742854,
                -0.018967186052486578,
                0.23692525504295725,
                0.03274252623388223,
                0.7795154900345712,
                -0.024478793553454156,
                0.08319020995474234,
                -0.008951490013502797,
                0.3882187210043654,
                -0.020878795109119035,
                0.1974727084906424,
                0.020887862314018246,
                0.6848778180792349,
                -0.02331465385690297,
                0.13242012565642686,
                0.0029361414794854502,
                0.5212745433297038,
                -0.016438706690712925,
                0.28156357282711486,
                0.046877734984653543,
                0.883485711497853,
                -0.018453044461327617,
                0.07865309026055466,
                0.002087362336059712,
                0.3290410609246155,
                -0.010927578290665355,
                0.1716531079614393,
                0.027867081369392966,
                0.5779570831033255,
                -0.01511578166659039,
                0.11860687309479297,
                0.01273292557449614,
                0.440167812509456,
                -0.0054446032929227305,
                0.24071872965146007,
                0.049175212636549046,
                0.7465773593723622,
                -0.01687516572659907,
                0.09716423406802739,
                0.006942281787926882,
                0.3815200277275095,
                -0.008387801214591513,
                0.20398843749906126,
                0.037631939106670106,
                0.6581406905817847,
                -0.013148512273297218,
                0.14331777531764806,
                0.019640867688168185,
                0.5054763772316478,
                -0.0019940075254562825,
                0.2822583493876296,
                0.06275607294362782,
                0.8438366484284522,
                -0.017685902292250068,
                0.08756251547730216,
                0.004408447111553608,
                0.35453943191812876,
                -0.009702376578942152,
                0.18729654243083826,
                0.032542648667366794,
                0.6170520938299998,
                -0.014160539170231733,
                0.13053198552503245,
                0.01603512818279235,
                0.4719579919723196,
                -0.0037899864855537972,
                0.2608607179778849,
                0.05569398847327384,
                0.7940678211495055,
                -0.016019355942878948,
                0.1074985233503248,
                0.009709744434724887,
                0.4100425249184039,
                -0.006972673752092982,
                0.22177877010772717,
                0.043165530380872924,
                0.701292249548347,
                -0.012073372342279001,
                0.1570093696022465,
                0.023575871972181445,
                0.5407874946650982,
                -4.063815509714147e-05,
                0.3049664506343285,
                0.07039689355319266,
                0.895958067210887,
                -0.018074877611462335,
                0.08302373616808545,
                0.0032225685040979234,
                0.34160865074329605,
                -0.010325497849982544,
                0.17934684381869187,
                0.030155013370116553,
                0.5972596788639352,
                -0.014644910290334096,
                0.12446461772377083,
                0.014347645397661207,
                0.4558508620534889,
                -0.004634010753678943,
                0.2506361477399143,
                0.05236885383336133,
                0.7700423863368681,
                -0.016453034774786546,
                0.10223724267893443,
                0.00829545737423076,
                0.39558476150346955,
                -0.007693552509901265,
                0.2127431281905427,
                0.04034123867211564,
                0.6794542164149183,
                -0.012619274338088337,
                0.15004747909140356,
                0.02156555637880235,
                0.5229037641665578,
                -0.0010380457691006688,
                0.29344511724781286,
                0.06650187965046454,
                0.8695985973951826,
                -0.01728604731847244,
                0.09227434918543514,
                0.005647494249650985,
                0.36784075035234964,
                -0.00905693083932308,
                0.19550833724811295,
                0.03503369580537162,
                0.6373428863577674,
                -0.013661990894563459,
                0.13681450372231024,
                0.0177984762476152,
                0.4884971543956902,
                -0.0029106406238246446,
                0.27139918004210795,
                0.05915493132701563,
                0.8186628283930165,
                -0.01557375493240733,
                0.1129533001926797,
                0.011187942173884177,
                0.4249009669887994,
                -0.006223578189695012,
                0.23110179981410084,
                0.04610882589042058,
                0.7236636514515608,
                -0.011509825760899066,
                0.16420927718715994,
                0.025675219899282023,
                0.5591358239702527,
                0.0010004082945276392,
                0.31682939233716334,
                0.07444573253579205,
                0.9229245255715558,
                -0.024454714473726262,
                0.04568696563561728,
                -0.01824196361040864,
                0.28649620336214104,
                -0.02421898289671572,
                0.13342990811978264,
                0.0009225483964068502,
                0.5321968863765992,
                -0.024783114316177475,
                0.08290596499080051,
                -0.01096752449076033,
                0.3958663142289933,
                -0.022297126542127916,
                0.2002070924461155,
                0.01913500059947466,
                0.6996777691036814,
                -0.024713530728146152,
                0.06280549140042484,
                -0.015087151204781457,
                0.33806094218661276,
                -0.023468969470919355,
                0.16459045201427763,
                0.009119680956648338,
                0.6117695488065048,
                -0.024634414900743057,
                0.10632782471261364,
                -0.005698839146871899,
                0.46040695177955193,
                -0.02059680678106607,
                0.2406968647133645,
                0.03123034863855705,
                0.7964937765505901,
                -0.024606718821294365,
                0.053893942150814986,
                -0.01677440170917913,
                0.3115286503571521,
                -0.02389079719673921,
