{
    "99": {
        "hyperparams": {
            "stocks": [
                "AAPL",
                "AMGN",
                "AXP"
            ],
            "start": "2015-01-01",
            "end": "2025-01-01",
            "risk_aversion": 0.1,
            "n_qubits": 6,
            "budget": 848,
            "log_encoding": true,
            "layers": 6,
            "prices_now": {
                "AAPL": 250.1449737548828,
                "AMGN": 258.5511779785156,
                "AXP": 295.1141052246094
            },
            "assets_to_qubits": {
                "AAPL": [
                    0,
                    1
                ],
                "AMGN": [
                    2,
                    3
                ],
                "AXP": [
                    4,
                    5
                ]
            },
            "optimizer": "CMAES",
            "lambda_budget": 0.001
        },
        "continuous_variables_solution": {
            "weights": {
                "AAPL": 0.9999999999999999,
                "AMGN": 1.0061396160665481e-16,
                "AXP": 3.469446951953614e-17
            },
            "allocation": {
                "AAPL": 3,
                "AMGN": 0,
                "AXP": 0
            },
            "value": -1.038632406596311,
            "left_overs": 97.56507826076665
        },
        "continuous_variables_solution_unconstrained": {
            "weights": {
                "AAPL": 1.0,
                "AMGN": 0.0,
                "AXP": 0.04287355534979134
            },
            "allocation": {
                "AAPL": 3,
                "AMGN": 0,
                "AXP": 0
            },
            "value": -1.038632406596311,
            "left_overs": 97.56507861368448
        },
        "exact_solution": {
            "smallest_eigenvalues": [
                -0.30357789130941243
            ],
            "smallest_bitstrings": [
                "100001"
            ],
            "first_excited_energy": -0.30355301160072173,
            "optimized_portfolio": [
                {
                    "AAPL": 1,
                    "AMGN": 0,
                    "AXP": 2
                }
            ],
            "second_optimized_portfolio": [
                {
                    "AAPL": 0,
                    "AMGN": 1,
                    "AXP": 2
                }
            ],
            "spectrum": [
                4.702345758329611e-17,
                -0.27549835773807885,
                -0.1745041179256592,
                -0.3028891628781157,
                -0.25728945883475046,
                -0.2751730494424468,
                -0.3030097238712046,
                -0.17363824001643433,
                -0.1568536602460445,
                -0.30355301160072173,
                -0.2669671182843179,
                -0.2664939641496623,
                -0.30128110069689984,
                -0.1903256862531025,
                -0.2826023946466337,
                -0.024285960497813508,
                -0.2526116975129735,
                -0.27877699727111005,
                -0.30248281145344347,
                -0.1813525553098477,
                -0.2915570426258608,
                -0.05997108695339494,
                -0.2125976894780003,
                0.16651210357698035,
                -0.30029634954608037,
                -0.1976009755002768,
                -0.2857567848643876,
                -0.03566340231117211,
                -0.2263580405293961,
                0.13415489453338755,
                -0.08296654410089582,
                0.4252194334889284,
                -0.15271666242954943,
                -0.30357789130941243,
                -0.26491454471299974,
                -0.2685890741111528,
                -0.30084467918181235,
                -0.19403267905095103,
                -0.2842402926113791,
                -0.030056571419994446,
                -0.25498986189399103,
                -0.27702614181506735,
                -0.30278952049010965,
                -0.17755827827478046,
                -0.29025009864694434,
                -0.05455999743006158,
                -0.20923260046027317,
                0.17395679701067404,
                -0.29965140823537645,
                -0.2010419496910664,
                -0.28716520667348966,
                -0.04111586608349001,
                -0.2293825900180729,
                0.1270757149162546,
                -0.08802794086364067,
                0.41614178749912795,
                -0.29273429512045274,
                -0.06521865565728091,
                -0.21582006886668867,
                0.1592595351988371,
                -0.10955583612846788,
                0.37588810877024176,
                0.09625487910589041,
                0.7295810825285522
            ],
            "result_with_budget": [
                {
                    "portfolio": {
                        "AAPL": 1,
                        "AMGN": 0,
                        "AXP": 2
                    },
                    "budget": 840.3731842041016,
                    "difference": 7.6268157958984375,
                    "objective_value": -2.056127934812679
                }
            ],
            "result_with_budget_excited": [
                {
                    "portfolio": {
                        "AAPL": 0,
                        "AMGN": 1,
                        "AXP": 2
                    },
                    "budget": 848.7793884277344,
                    "difference": -0.779388427734375,
                    "objective_value": -1.9924822620342173
                }
            ]
        },
        "qaoa_solution": {
            "two_most_probable_states": [
                "100001",
                "101010"
            ],
            "final_expectation_value": -0.2909423342108981,
            "params": [
                -3.2916719600373394,
                1.09931464560323,
                10.94364056527036,
                0.42408875792658096,
                12.897823525999298,
                17.838737031748664,
                1.0258183552531683,
                2.5034618588101902,
                4.47870858351316,
                1.6805385322581066,
                3.064593957741702,
                -0.058646446335574275
            ],
            "total_steps": 800,
            "states_probs": [
                0.061767614811199315,
                0.073720638772388
            ],
            "optimized_portfolios": [
                {
                    "AAPL": 1,
                    "AMGN": 0,
                    "AXP": 2
                },
                {
                    "AAPL": 1,
                    "AMGN": 1,
                    "AXP": 1
                }
            ],
            "training_history": {
                "xbest": [
                    -3.2916719600373394,
                    1.09931464560323,
                    10.94364056527036,
                    0.42408875792658096,
                    12.897823525999298,
                    17.838737031748664,
                    1.0258183552531683,
                    2.5034618588101902,
                    4.47870858351316,
                    1.6805385322581066,
                    3.064593957741702,
                    -0.058646446335574275
                ],
                "fbest": -0.2909423342108981,
                "evals_best": 8789,
                "evaluations": 8800,
                "iterations": 800,
                "xfavorite": [
                    -3.310259734596646,
                    1.0846908141217158,
                    10.996908502413483,
                    0.4421130445250094,
                    12.972811066836234,
                    17.74914619261414,
                    1.028244443670941,
                    2.4971278011042144,
                    4.48339749836964,
                    1.6759824619239336,
                    3.0646443913040446,
                    -0.05911688997246594
                ],
                "stds": [
                    0.03368868321309091,
                    0.018305676327871934,
                    0.0960720374210975,
                    0.03217299905462158,
                    0.11713940351524545,
                    0.13641138240270131,
                    0.0058007156364495395,
                    0.0069544767202304,
                    0.0052256489377162825,
                    0.005933594805259473,
                    0.0010970516992058245,
                    0.0009504218579096833
                ],
                "stop": {
                    "maxiter": 800
                }
            },
            "objective_values": [
                -2.056127934812679,
                -0.3218793767664827
            ],
            "result_with_budget": [
                {
                    "portfolio": {
                        "AAPL": 1,
                        "AMGN": 0,
                        "AXP": 2
                    },
                    "budget": 840.3731842041016,
                    "difference": 7.6268157958984375
                },
                {
                    "portfolio": {
                        "AAPL": 1,
                        "AMGN": 1,
                        "AXP": 1
                    },
                    "budget": 803.8102569580078,
                    "difference": 44.18974304199219
                }
            ]
        }
    }
}